solver_type L2R_L2LOSS_SVC
nr_class 2
label -2 -1
nr_feature 6195
bias 100
w
-0.01270383325744273 
0.04189431753623168 
-0.03661559245975044 
-0.02653175927255179 
0.004243635128838265 
-0.01052052027246304 
-0.003112498013999659 
-0.006208396434444162 
-0.03009400943350023 
0.06577815666064726 
-0.02022364936567214 
0.03489055880174519 
-0.01687578017528484 
-0.03593109825093062 
-0.04348352089883304 
0.02636256109856537 
0.006962083238666104 
-0.0235593632037913 
0.0979235760790723 
0.004961255355649524 
0.0310593272663372 
0.05196120152264925 
0.02785900777881472 
0.00780346449027166 
-0.03440139545288468 
-0.04362940283445362 
-0.00946628675847408 
0.001201165463564782 
-0.0210118648094855 
-0.02588412295926471 
-0.001966080723644823 
0.09839975194995942 
-0.04402384635525088 
0.03999104136887484 
0.04321900947410554 
-0.004761773718132396 
0.02442658954430179 
-0.02984961886151961 
-0.04890975481119388 
0.01380367345104833 
0.02892061347502966 
0.01213848625733603 
0.07274415261204341 
0.0428418011693717 
0.03774741782595396 
0.03370427767426589 
0.0396581897172381 
-0.0162172586628801 
0.05100225888185783 
0.02694554142333729 
-0.01374156516201055 
0.02936076610795088 
0.02354233503871298 
-0.013883149289903 
0.01229056578545799 
0.01111065310732903 
0.02523966290883306 
-0.0103609968238682 
0.02121621712011141 
0.0206719901582938 
0.03990552892948231 
-0.009202425542181557 
-0.02725570887834066 
-0.0235785733209254 
-0.02752566597685885 
-0.05676476638736902 
0.01353216156160067 
-0.04692209164711764 
0.06822977352367746 
-0.03829338773196567 
0.03064405323320329 
-0.01967041083498032 
-0.01797348015990839 
-0.03693762789367162 
0.01680222933480178 
0.02362780808051113 
-0.01783160074804481 
0.07606094465080349 
-0.03752798697594019 
0.01667078913339329 
0.03678795263878002 
0.03761776341760511 
0.0163497860181618 
-0.04471467671691561 
-0.0489554454879373 
-0.01317919212948607 
0.0256142758618872 
0.004534865398259858 
-0.02679981758086981 
-0.01972786293626088 
0.05214781849790895 
-0.1101282195555941 
0.01434688502398591 
0.01083137059129971 
0.003164688076706583 
0.0524529777269626 
0.008899911066312384 
-0.006165805346258459 
-0.02252139564020284 
0.008015552903721995 
-0.0003852227704612178 
0.09573162608972732 
0.01309455698035146 
0.03686526548377919 
0.04582631510351579 
0.03192056059490957 
-0.05456609973875712 
0.06361069311119973 
0.00829044566461652 
-0.02100783987415465 
0.009662613257705191 
0.01738883249384597 
-0.009494237639871898 
0.02110097981793751 
-0.002554777357664775 
0.0162918329744845 
-0.02092610648060013 
0.04507163922611781 
0.04763224556712245 
0.05819077339917176 
-0.00176501058177937 
0.024063640444374 
-0.002145289278581674 
-0.02726013835920737 
-0.04425176874850351 
0.0007580253765957383 
-0.04055312198297878 
0.03666149670119216 
-0.02388516939755164 
0.05815019518195181 
-0.02153763363971627 
0.01062409149599738 
0.01416879229032666 
0.01575973446512165 
-0.005287445350649855 
-0.001761991293476214 
0.08642756693775285 
-0.06928094209139867 
-0.01254561344740721 
0.02297380321846531 
0.05320204136031351 
0.01783557601315876 
-0.05753179427490759 
-0.1049078138564905 
-0.001702406825368801 
-0.002709782183489212 
0.001610015192485487 
0.02470027220096228 
0.01490131910583525 
0.01554615571161629 
-0.1215420395341754 
0.00560461106287553 
0.001123514858505778 
0.006391399569931691 
0.03436979683325735 
-0.0421893341358127 
-0.05604602060674547 
-0.0363909135919995 
0.004204022992892721 
-0.02082495523921836 
0.06737663448985688 
0.06841127089928401 
0.03225149034074718 
0.02778780082973563 
0.01060860840422775 
-0.04666801518543222 
0.04902352646926436 
0.007807647120627562 
-0.02606507693772427 
-0.02067856988936426 
0.001573129296494362 
0.0008195045291941409 
0.03981863178983269 
-0.008325584797451137 
0.02917933640594161 
-0.006815615249669541 
0.008841195459261769 
0.06413401283112705 
0.07998524011611478 
0.002716535503694031 
-0.02695119497725614 
0.02021716528943843 
-0.00176718607460499 
-0.01296912074598526 
0.00515475733210557 
0.003398419637480692 
0.06318353259008099 
0.05100981884073078 
0.07146687633403565 
-0.01396087371319502 
-0.03537341857110003 
0.02192693263715078 
0.01826048115778999 
0.01167802670358658 
0.01335085233651617 
0.0595824554841017 
-0.0769246957054527 
0.009760316370851251 
0.01884380952274926 
0.02657274145244119 
0.01449553533215754 
-0.03907185014559712 
-0.1139343429617 
-0.01928829645421519 
0.002989769928810548 
-0.004635942327664257 
0.0289239031172206 
0.01640744263124489 
0.06875200127625762 
-0.07083656947548223 
0.002891047775913798 
0.007074518863036482 
-0.009817886682906478 
-0.01498341495613115 
-0.06509634372820015 
-0.1115656662082168 
-0.01363863855567215 
0.00565765460545396 
-0.0083693129492692 
0.04131276748284765 
0.07846592638394656 
0.005072381352478441 
0.01962569737787794 
0.0163465237566025 
0.05777749605119101 
0.036777439208622 
0.01837766311345907 
-0.01562760810160851 
0.01732746528186489 
-0.01170714985039551 
-0.01152265206017524 
0.01134102859866749 
-0.02236284582199093 
0.03753970923424068 
0.004565692565144998 
-0.0102853448804842 
0.07341819401849399 
0.06070188098238622 
0.004555127782200733 
-0.05919794609297061 
-0.0006004601900797779 
-0.05782509882391083 
-0.0014538903817095 
0.001633406870155093 
-0.005451391859096175 
0.03460186042790467 
0.001960221046536289 
0.05434420027425296 
-0.000718516476311295 
-0.07575059697716817 
-0.04127643294700093 
0.01214706010385376 
0.02975416473051599 
0.01647874361367333 
0.04637863530054955 
-0.1257952799053693 
0.008384552498016167 
0.01783541169692184 
0.03968186579867208 
0.03627392525901119 
-0.02007711681797235 
-0.05294229301977043 
-0.04290629449229858 
-0.003819788250978518 
0.006689881288209069 
-0.003827550714494932 
-0.02202203102735958 
0.06184006241069206 
-0.08742660795576833 
-0.009001019829759156 
0.03579947931142659 
0.01835760876919465 
0.002903042283957807 
-0.0841889886078495 
-0.1351623469185914 
-0.003743926859370121 
0.001223109021771925 
0.01322248849351216 
0.02071426145135438 
-0.03895814978749174 
-0.02434827457089412 
0.03969610343756956 
0.01094375682589545 
0.06389196506166002 
0.04734512443454118 
0.0295981548469816 
-0.0009564121167526711 
0.039234027847414 
0.002715711306765212 
-5.924999185540187e-005 
0.01765979933934148 
-0.03242807418350713 
0.02636343120647834 
-0.006910988347203094 
0.02805213099924568 
0.03497734918692182 
0.0455415399003425 
0.002386286767734669 
-0.03697606571040199 
0.006667786786281585 
-0.0516610341859062 
-0.006150662516181394 
0.02122989742575779 
-0.006727261258509169 
0.03704595732756987 
-0.068004613573526 
0.05420116273409911 
-0.003876933708319618 
-0.07237167114624876 
-0.05610021788814838 
0.02231963744145399 
0.01308757786295031 
-0.02260670844359384 
0.05512113104922353 
-0.08405997147149059 
0.0002948439288081106 
-0.0005824381310223711 
0.01842424664094263 
0.03466007362430319 
0.01247871172487265 
-0.04299603807554266 
-0.007464763841686217 
-0.005722807677506432 
0.001420921385310244 
0.02527296494410947 
-0.006271807700061493 
0.07008385343924005 
-0.06644825500681047 
0.008968629669954698 
0.0305814622915728 
0.0222771414880097 
0.0108804632763577 
-0.05235232844372929 
-0.08475998590567349 
-0.00408435401485597 
0.006854420478563149 
0.0007536326547155827 
0.05050538448989742 
-0.04579157224892289 
-0.01666684955834579 
0.01153595614515906 
0.01576544129943996 
-0.01734390240832437 
0.04464225433567223 
0.02918488628183168 
0.01099949270743182 
0.01969433449064912 
0.008605407402834482 
-0.008113894927060423 
0.03717806657450638 
-0.01496828908973408 
0.03133775671117859 
-0.009050408366286806 
0.04889176648119462 
-0.03524081398899345 
0.04766232821920147 
0.007075147449579496 
0.003233216796664903 
0.04164498515960768 
0.00755202071867783 
-0.02141165663673122 
-0.008730035159982552 
0.0109489969385737 
0.0404049419682065 
-0.07919965791980174 
0.06080256983014477 
0.00911807393759663 
-0.006067818952285238 
-0.04889366714455799 
0.01425240959210878 
0.02874523006782023 
0.004252072286711699 
0.07600017168575354 
-0.03870258406318743 
0.004384344235964156 
0.02027793178741962 
0.01708569467810758 
0.03021816028034137 
-0.010972922998993 
-0.06469204598985327 
0.04432070187521222 
0.01724466562939989 
-0.002216930855762825 
0.0170525015065767 
0.02026403361334515 
0.1321691387033931 
-0.002899902121868277 
0.02332346960254278 
0.05247530993269566 
0.008436728825639037 
-0.01692762956409344 
-0.01716749826075138 
-0.09105897680449188 
0.01233720509778301 
-0.001088387873013778 
-0.02664357513003748 
0.05242294130229993 
-0.005919530115415789 
0.02581013458883898 
0.01280141170775794 
0.02364503228000328 
-0.01822294643776656 
0.03094526430987968 
0.01966705556375735 
0.01722178970952205 
0.02515251142738008 
0.01285913602723322 
-0.01710855032933133 
0.0183799133507017 
-0.02128338350867409 
0.02656660315418262 
-0.005767255519559651 
0.02678875207943314 
-0.0143003437861042 
0.03969529295435533 
-0.03983322472021464 
-0.0109654596676922 
0.01776533282464587 
0.002153988865823745 
-0.004018720091502511 
-0.02071566872038506 
-0.005067417974837934 
0.08516110946395018 
-0.02152417029315036 
0.04621987022705392 
-0.01676338815827532 
-0.03171966475866533 
-0.04241421265330301 
0.0303875758897442 
0.02423505442691632 
-0.01787415163469311 
0.04731398498714799 
-0.02565692304378128 
0.02976396084285164 
0.02513882765274664 
0.0428690913718705 
-0.005751350786350405 
-0.0007386049167875661 
0.0137803990194618 
0.01241703858613131 
0.02809859966215861 
-0.01811052866498056 
-0.02175930188718173 
0.02247988787198099 
0.08098935685186903 
0.02399431579290502 
0.03581248055278115 
0.04178243891912341 
0.009112854951516487 
0.03460854163677962 
-0.01032741449764475 
0.001641944621633272 
0.01582405990233426 
0.04316235829329131 
0.02194792482109442 
0.03197707291458309 
-0.01727199233872911 
0.03448188493220692 
0.01048753695792035 
0.01169802591934692 
-0.01203027462192827 
0.0706184860236663 
0.02876479688035698 
0.03702592357949439 
0.001583757435977156 
0.01576133798323757 
0.001125245449946625 
-0.002734827000170639 
-0.00894299416480682 
-0.001086890959871522 
-0.01961097650826574 
0.0375257235515238 
0.1372811305264275 
0.02703009323793811 
0.01286434958900256 
-0.02967055670973123 
-0.00322021532820436 
0.002191236049758058 
-0.006654383294208031 
0.002906814329198931 
-0.02427495314713252 
0.01231330174571167 
-0.05887647914264361 
0.01562049495453456 
-0.01306197949958893 
-0.02096787190474511 
-0.103574203428528 
0.01329607961319374 
0.01411532283087613 
-0.007277966853628435 
0.09119286646156399 
-0.01924472671136536 
-0.006421993945967213 
0.04064204485906064 
0.01673740749171368 
0.01113923513381796 
-0.04200224084566641 
-0.02471498089301196 
0.002617206896590235 
0.03404633346880858 
0.0001181262693689135 
-0.0435016638176768 
-0.0372298898134665 
0.0307045152752981 
-0.02565615472519821 
0.01384649855963522 
7.05665603605391e-005 
-0.003925740141397359 
-0.01327806944033054 
-0.01304177922643494 
-0.02582993860368332 
-0.005240585908123614 
0.02753411080933552 
0.009795818368915061 
0.0270471333897694 
-0.09986321973637943 
0.01049438700943969 
-0.0011188090427638 
0.01209784059863226 
-0.0419160611789233 
0.01484301428709122 
-0.03615787995996492 
0.001411278691070403 
-0.03059441713263822 
0.01612232573229784 
0.01616185179597372 
0.01831558635113067 
-0.02341612327579372 
-0.0009288165528961744 
-0.01714476441155789 
-0.0009785570637848053 
0.08705328095003438 
0.003882434066718239 
0.007957748741692267 
0.01320669848929053 
-0.01577928817860114 
0.00799148822824162 
-0.003928525292318404 
0.03795186648886941 
0.006808868769898055 
-0.01955630747654988 
-0.0694211481824157 
0.001399960057091148 
0.02598214165112295 
0.09114033036919798 
0.001604587412434598 
0.003141062073655087 
0.0293981367818778 
0.03619804537348115 
0.109277265152965 
0.05901809716571464 
-0.01235699433402532 
0.04327953166340649 
-0.007021304966881026 
0.03730363178748616 
-0.04644670439459321 
-0.04541625976536978 
-0.004929781247422757 
0.01320963504310879 
-0.01677027606128671 
0.00480253695517315 
0.02754829357798801 
0.03198338647314736 
0.01781311209112192 
0.01244060067229341 
0.03342245609622919 
0.04219863165830559 
0.01019462379062519 
0.04839091168480338 
0.1477895155477797 
0.02787017402883483 
0.0157589839396501 
0.01481271598073621 
0.0476874144518025 
0.1149353394481406 
0.08444288614211123 
0.01364412171606289 
0.01483559339757635 
-0.005698233925045808 
0.02919663154655564 
-0.02001270668260759 
-0.03435719066531031 
-0.0182511187017913 
-0.009543567133530618 
0.005039562925354405 
0.02799096469255558 
-0.008759692690804915 
0.01729073825261941 
-0.0145551214968498 
-0.06192413000539371 
-0.002915474747514339 
-0.01054157881421842 
0.03557094975133563 
0.03014542440860239 
0.01360298326762696 
0.05418369053607906 
0.1210721708721027 
0.04212791772211934 
0.06654363842883052 
0.04527062737236673 
0.01015151518494774 
-0.008640317286696227 
0.02289596259530945 
0.1094161033425824 
0.01323697902785842 
0.04413927957158113 
0.03595473177175378 
0.05044405319811119 
0.03127094720555572 
0.06843309538571304 
0.03741448018533372 
0.05767372133917125 
-0.01887365696299648 
0.02896987939530859 
0.04321641700542489 
0.1237592341551665 
0.01978785220542941 
0.03348437217179026 
0.004325370473970121 
0.04100139856306286 
0.07694216081318506 
0.0810336745695098 
0.09485892733178863 
0.04625919253924948 
0.05523932644215566 
0.04943110506134229 
0.003410035291807039 
0.05365785463517366 
0.1388627770155609 
0.05928328340036179 
0.03165264768011636 
0.009532396398774144 
0.08899036330775531 
0.189144843400825 
0.08295797573911813 
0.03479162688630767 
-0.02180573502834053 
0.1716043227823004 
0.07802117237975993 
0.000685146609427838 
-0.01411606471504751 
0.09259364318616362 
-0.03521305925656883 
-0.03056209536820979 
0.02734476858999473 
-0.01844899916850517 
-0.007512541660428682 
0.01735278859256826 
-0.07678137531864417 
0.09206069313988213 
-0.01138761721059089 
0.02889097912844062 
0.01185522817972287 
-0.02434200133589829 
-0.002540709317675714 
0.07768817884669432 
0.03846281572021218 
0.006964733855123375 
0.01951415470977052 
0.008792170730365681 
-0.0001295507017806025 
-0.006198285912306778 
-0.01506578809842237 
-0.06423106325861351 
0.005442456753508452 
0.01009352287780647 
0.02569753090738217 
0.02689848395083894 
0.01651054931485583 
0.01058022308765051 
0.04068449241475891 
0.02212104567138569 
-0.0009097477406144722 
0.03736613833079123 
0.1231475786990232 
0.009686791429463772 
0.01718221948816092 
0.01971612566764625 
0.02990684032748256 
0.01443901150334381 
0.07802230917194235 
0.04188448612044039 
0.004810026885828453 
0.04230106938060323 
0.008853478313710838 
0.006535340487586519 
-0.05694311030276191 
-0.04886438221236403 
0.01951833051495797 
0.01378205957498269 
-0.01864443856795125 
0.02732212441609544 
-0.004988289117063849 
-0.04778354726062949 
0.01278306172378331 
-0.01844068548800341 
0.13874223623259 
0.05152021004882102 
0.01589451492024633 
-0.008898574988360605 
0.07020176914494704 
-0.02294547934622689 
-0.005524173798588221 
0.006088410894296264 
-0.02429288524743033 
-0.007893134855103066 
0.0007656257601497434 
-0.04407579049050181 
0.1095947768969525 
0.001671152453341861 
-0.01907936823640215 
-0.03316814044909574 
-0.004344949442015135 
-0.02480346665271544 
-0.02729399835899902 
0.03172707561730186 
0.02121952611630735 
-0.002519302499596675 
-0.07984079952430047 
0.0273347995260022 
-0.01689068640973729 
-0.008050193385346439 
-0.04013571856085435 
0.02337630127449421 
-0.01330769308206756 
-0.02180870338309544 
0.02907500844709631 
-0.007985412311577279 
-0.007874590442973502 
0.01142494692927198 
0.02905127888632239 
-0.0005254834186386215 
-0.000887556290746824 
-0.03109842323341974 
0.00592320544718639 
0.01436930767982465 
-0.001402402396792204 
0.004011912974228676 
0.01082606619279102 
0.08342448130430469 
-0.02494420962964826 
-0.008906252331900098 
0.03693189582908753 
0.001757864897865942 
-0.006487089994519545 
-0.04633406517295492 
-0.03788229914917573 
0.005928115631041501 
0.02599311816936776 
-0.02133150857422424 
0.006868913041478783 
-0.01068514317809189 
-0.02223483457205461 
-0.02027120307764933 
-0.01907109153721435 
-0.07694811586196748 
-0.003088510252716847 
0.03172869433725832 
-0.02381827792005664 
0.001019388959111115 
-0.007348730758593534 
0.0321016216918791 
0.007227991255496483 
0.009475947607530883 
-0.01490780715901994 
-0.02557721666345642 
0.0149734746288256 
-0.009890315426244333 
0.009606423776383795 
-0.02448104262058426 
-0.02198926127558016 
0.0422536578543191 
0.01868047960092626 
-0.003835385996993638 
-0.002734974678068293 
0.04118617321860423 
0.05455577480898888 
-0.04606989825064962 
0.03863957349421773 
0.001686045479124007 
0.02576831534579804 
0.02410071165863864 
0.02012760712285322 
0.008509144504025339 
0.02278612170981117 
0.05401943808151169 
0.01258067957398276 
0.05685676229106053 
0.03632820902160944 
0.03812246531833365 
0.04244473238382069 
0.0113353361416879 
0.0103186058260333 
0.03169078227494771 
0.03242291233296387 
0.003965075836345066 
0.02274825688306407 
0.0137616362695347 
0.07702426577695434 
0.01797725292266537 
0.04660789576230438 
0.0419409160450634 
0.02843235245181015 
-0.03593947677620103 
0.005304791486520349 
-0.02056265922015246 
0.02285223203195219 
0.02712066685027574 
-0.01712751671582067 
0.01677885947512453 
0.02816902258645331 
0.02400081321129098 
-0.003204345356962464 
-0.002802614654060001 
-0.03582930669272554 
0.03618896849738577 
0.02591727009857892 
0.01356796331159479 
0.03584697632902877 
0.0167434123656677 
0.02000223149674792 
0.02424914154195702 
0.01043667843563533 
-0.01295081693725164 
-0.03761201260597769 
0.04162342334229335 
0.001075330261557877 
0.004715577393953081 
-0.04524378157263575 
-0.01587865570280408 
0.03318408104721037 
0.002624262142006057 
0.00257086510441379 
-0.02256605188080455 
-0.02756831947986313 
0.03846961990143177 
-0.01384046024298716 
-0.00336732883251889 
-0.04773440417726311 
-0.06048327963172288 
-0.01554754395003652 
0.01484055942267201 
0.02452014279302436 
0.01580129123576837 
0.01254066656637113 
-0.0304547427891689 
-0.0003798186581396703 
-0.01038389215611407 
0.02604652685516443 
0.004161624808973697 
0.0549167914700743 
0.06222915499981523 
0.01739569906328315 
0.023763516406955 
-0.004382051701833627 
-0.008850300911859569 
0.02001970992108894 
0.0906203038815484 
0.02329643667581571 
0.01558510369459985 
0.03962267359843517 
0.03465291299079618 
0.03667267632734327 
0.02450504382902878 
-0.01713192381305715 
-0.007234011811952552 
0.01501853031490487 
-0.0001408071718629766 
0.02944538157385726 
-0.03073525846732975 
0.03495859950083818 
0.003823021756817797 
-0.01169977451244329 
0.003035411145779612 
0.0486005177236412 
0.02014007503615651 
0.03502644035608713 
0.01277928165771804 
0.0301618512839113 
0.01509541478457534 
0.00207698436784094 
-0.002388102885871905 
-0.01696565137770406 
-0.01415923723464513 
0.009203941099447027 
0.1743410049052562 
0.003185371844034511 
0.02786891275406744 
-0.01039706213140402 
0.008701508809454183 
0.01106839894388405 
0.01107679812420784 
0.03145495291741454 
-0.02719306053579442 
-0.001497093061740541 
-0.03298580653642735 
0.001165582830283299 
-0.03080481990831788 
0.001687894624388223 
0.01141413338639661 
0.008875473104195158 
0.01063544751866657 
0.01151016122395247 
0.03130119684007964 
-0.03349602367326639 
0.02168614809354242 
0.005416798001788739 
-0.03074860492745852 
-0.008570994015195635 
-0.01252327885888835 
0.02059035950982834 
0.01191119954264759 
0.02676058948505906 
0.009285797157389241 
-0.0113045457787838 
-0.02453566617016905 
0.008176325284974277 
0.01029793833525576 
0.009738415921779837 
0.03941049068228868 
-0.001767299882533309 
0.003144910724085932 
-0.00337624478968228 
-0.05244175276299417 
-0.002308441484113044 
0.02475949004210594 
0.006473223953912606 
-0.02675089602300986 
-0.02512748170988553 
0.02803703302176049 
-0.00786618679140833 
-0.009796410080080257 
-0.04825225692336247 
-0.004920846751036925 
-0.02352399164222022 
0.005769003599965638 
-0.004080681209339705 
0.03763222622150105 
-0.0135861723844235 
0.03079715917941068 
-0.006299480269534107 
0.01495854214818784 
-0.03438366214009875 
-0.05688544938653695 
0.03540156270380332 
-0.01231639259815336 
0.02236122638657612 
-0.001554032092978299 
-0.06125077898923934 
0.03885961193423429 
0.06033779240778309 
0.01274572649190926 
0.01380295432815488 
-0.0293556931129721 
-0.01301112902143321 
-0.02684545295185089 
0.0171723354544064 
0.1080283052266497 
0.1605452240726679 
0.02694976901612213 
0.0582370766525365 
0.03557133264879578 
0.01449104174854148 
0.0652633817904569 
0.07645765289511228 
0.03355074165257468 
-0.02353464812125787 
0.04744550439373797 
0.04381422925640409 
0.05090208025412162 
0.01619991755862829 
0.04262267619783065 
0.004026929821336747 
0.01253194918727832 
0.03249784895572466 
0.01895527512539019 
0.1365927080318261 
0.08269074880765054 
0.07501426980361407 
0.03961576434474839 
0.024068712196063 
0.1660724294403234 
0.1350951388034219 
0.05453466651063149 
0.05493918232155046 
0.02438928737767024 
0.004521355586678865 
0.1415129387087857 
0.08332974707482141 
-0.007394863129940198 
0.01864536842503837 
-0.01661701901590782 
0.02978763007690575 
0.008726368810178187 
0.01329649964158659 
0.009136606616047562 
0.0587760589517903 
-0.03302659358556124 
0.04034020422385058 
0.04158999411137813 
0.02384209295681459 
-0.04743401870246343 
-0.05558982936124961 
-0.1905400168565059 
-0.01133060982907498 
-0.001401323854053235 
0.01045012164913684 
-0.07110590650689033 
0.01912434106420766 
0.1511267801545695 
0.00335788931371358 
0.02036597969854097 
-0.01636668441312643 
0.1259158867807658 
-0.02563547657987531 
0.02555473633419544 
0.1534846349453088 
0.1170844630218342 
0.08630498618612963 
0.07562931120105168 
0.05410801003859313 
-0.03395864180715548 
0.18844497125288 
0.1268645124527973 
0.06272575432917689 
-0.01169684568782421 
0.05950673482932206 
0.1943003921419207 
0.1688413518704478 
0.05822515498045593 
0.06563718591134676 
0.01169579866202811 
0.06212982965450117 
0.07079633372749059 
-0.007849974124556979 
0.2123779651108883 
0.1543160951892182 
0.07736538211893394 
0.03987739309272435 
0.05257809443816566 
0.1992815838358255 
0.175742867137716 
0.08951467584964264 
0.05752212804178952 
0.01362635360134139 
0.0497045552020438 
0.1578419603140721 
0.08936346523667535 
0.03350601548121808 
0.003912364454639617 
0.1418142531988279 
0.06783268162394804 
0.06461362184853788 
0.0427020124482677 
0.0857670365762728 
0.03219836719329455 
-0.05988198891600206 
0.03040334727124031 
0.03272887399063382 
0.01567772278892005 
-0.01752074529891561 
-0.07099926760520911 
-0.008785283565171947 
-0.02334435916086279 
0.01779726013498139 
0.01039601805087386 
-0.05983633597038323 
0.005173062541825458 
0.1149282368766195 
0.03840873216704312 
0.01908101480815268 
-0.008963431906614723 
0.1544620882748764 
0.008906804009679784 
-0.001614990487754793 
0.07430575030941848 
-0.008120762227615666 
0.06076216977988153 
0.01391298599156627 
0.006948120965818152 
-0.000670819675329599 
0.1498893445047287 
0.08102161727075331 
0.04685968438399974 
-0.003141320191424683 
0.01415211275780535 
0.1639421249330569 
0.1304332330301405 
0.05635972496255774 
0.0546866769976468 
0.01789639101673945 
0.0467227167710521 
0.02370758092694276 
-0.02704833096114944 
0.06518406828689982 
0.09239328055853946 
0.04163209051662507 
0.01082694854905373 
0.03735297240529902 
0.03108479192194288 
0.03776314480179251 
0.03654380499274591 
0.063318647258582 
-0.0009076381383304583 
0.02056593304036522 
0.005298778762461593 
-0.0006204970472486212 
0.0347517023219302 
0.006971365588834073 
0.1674752873505861 
0.03297830233662705 
0.07088535200449983 
0.03755006431366777 
0.07082166289066752 
-0.02769618154218581 
-0.03056486670232806 
-0.01056858212428147 
0.006652881841534513 
0.005525248608059735 
-0.03423632727415257 
-0.07595873261195613 
0.1352797871256445 
-0.01465419624646113 
0.01595596061170954 
-0.02940422421591289 
-0.004525608155170597 
-0.001919646196752689 
-0.001781316348362943 
0.01895656499592389 
0.01699655824933342 
-0.01053096923577666 
0.0004225941163789224 
0.03706035352345004 
-0.04071648611015064 
0.02911909158395518 
-0.002035885869747388 
0.01094186325936501 
-0.01125282466540814 
-0.01842348994320304 
-0.006446329679415015 
0.02076057929477689 
0.02209974225209526 
0.02715967187551423 
0.0001000302136615305 
0.02313727729044903 
0.005493066435208888 
-0.04129767773118288 
0.03012923167148206 
0.02415282499965859 
0.009848017093288282 
-0.009122400330324531 
0.02436670292416747 
0.0415582511107954 
-0.03210009352044975 
0.01131261643261911 
0.001880208397403523 
-6.027957782433182e-006 
-0.01136630049175831 
-0.008949700669684719 
-0.00434701266184574 
0.0164036116022927 
0.04638946745258588 
-0.007986328756333887 
0.000597916678582451 
-0.04397728395863145 
-0.002339792409282126 
-0.01055664657061744 
0.01623592525600464 
-0.01310447374483527 
-0.008498957146424528 
0.05396194908330649 
-0.01413308097139512 
0.02011392762715197 
0.01010936798180472 
0.007549046624715357 
-0.009250956151060001 
0.01863337282211212 
-0.005276694745455184 
-0.03632103945603014 
-0.05446696646029536 
-0.01242689126036709 
-0.007586611096649217 
-0.02914333440341208 
-0.05225626111721893 
0.03218976552285288 
-0.002866728815205317 
-0.008579656846038045 
-0.02476994439072182 
0.02395953221114643 
0.0471657165886288 
-0.01325235319092722 
0.03006832023372651 
-0.02183865276805765 
0.03306219387845401 
0.02752226707990551 
0.006955485117584025 
-0.01117441299890925 
0.02931039757141876 
0.07773707954346014 
0.03665981745275983 
0.04422897171576037 
0.02858272380528761 
0.02917980094585024 
0.05261573085391943 
0.03383167341532368 
0.01954970096717563 
0.02241963536524331 
0.03250830300050362 
0.01417312643117673 
0.002570124673783 
0.01335350822162695 
0.02247691574328129 
-0.001453439858145199 
0.01593974199401609 
0.01519808920182875 
0.02988565869193063 
0.02387179595799738 
0.05438233116823858 
0.02792430403713292 
0.01983308525661787 
0.03905014879033302 
-0.01289325291754804 
0.03036452938851873 
0.0341050915602089 
0.01088666201828865 
-0.002439146760681357 
-0.007857543500688936 
-0.03977637143016625 
0.0412183986950784 
0.02919777188969867 
0.006621373210100644 
0.04087613380190637 
0.05482996429244533 
0.03115980653784578 
0.0174636550641965 
0.02684156701476579 
-0.01035973563074549 
-0.009993892822282345 
0.0245892177702818 
0.03256659233431916 
0.01067059715560184 
-0.0117486041415775 
-0.01971687813950816 
-0.002698921925643694 
-0.0085577454805885 
0.01957016031047611 
-0.009623049623818729 
-0.01222180377653545 
0.05302500323782362 
0.05266230092495489 
-0.02432641476339923 
-0.03613268775452082 
-0.07772488531424483 
-0.02149352221052477 
0.03057530990514542 
-0.0004893444631020262 
0.01196766838440069 
-0.005181564465078266 
-0.005761841439858507 
-0.009301102164245904 
0.0219366710877935 
0.06224939477999752 
0.01372143496075401 
0.05662531834758044 
0.04329495428462517 
-0.01429784308579923 
0.02679158464975922 
-0.0007240363679572932 
0.01588477368163752 
-0.002471704538973606 
0.03507581025840992 
0.004146721761650035 
0.01013712105716278 
0.01576717222212222 
0.03560248066638773 
0.001688903168087997 
-0.009962576284320309 
0.0258175090025522 
-0.004590324769930714 
0.007711901253781139 
0.008219960739791825 
0.05227521820417922 
-0.03702240155236852 
0.02930058625583284 
0.02601264780257931 
0.003388428944872079 
0.01307041249948033 
0.02081379466081592 
0.01561394183171666 
0.001493096430649024 
0.006065346286031725 
0.05421614521314043 
0.01841915194449608 
0.005405498843406462 
0.0170190992625292 
-0.01898966515322794 
-0.007776017870777585 
-0.01122955115843136 
0.1091996561847424 
-0.009734950511528661 
-0.01018636467513927 
-0.02650667885275021 
-0.009981886784620057 
-0.003564014334552542 
-0.02474648198604122 
0.02739499653842849 
-0.01732221611016904 
0.01872867782275136 
-0.02654004550984423 
-0.03360694615197606 
-0.02553314437283151 
0.02732656147131804 
0.06144033377384673 
0.01008632580605904 
0.01648016725100731 
-0.002652684631696453 
-0.02778704892061919 
0.08377453845608932 
0.01630630597036101 
0.03104574734827343 
0.01594608178311193 
0.02475009818217763 
0.04367852164438351 
0.01206744739171336 
-0.01262521189423506 
0.03880145943229525 
0.01323219252604095 
0.08893822640247891 
-0.01798139369584258 
-0.04173160002471701 
-0.002638184819305478 
-0.02862081096078939 
0.0296115612367522 
0.0006174099539412055 
0.02807401956864082 
0.08588395272674095 
0.1125541195843983 
0.001372390373042011 
0.01271919545093891 
0.004457160542023705 
-0.0007793446156721197 
0.03644775566002665 
0.05251854129067123 
0.01538057893837427 
-0.01973853908089744 
-0.006185362909239305 
-0.002031659969270543 
0.03843204396568038 
0.02249359274576088 
-0.003595705078256903 
0.05503941488466896 
0.0373515721145152 
0.03459519121367796 
0.02084585089707242 
-0.006017126919929088 
-0.02966778354712991 
-0.015386820482937 
0.1325246259747722 
-0.03430445840091974 
-0.01891093680919592 
-0.04117061707302296 
-0.07368564997071359 
-0.009634344549906873 
0.003158720502633995 
0.02082810509103829 
-0.0129357061997028 
0.02527286784688321 
0.03644728192361258 
-0.03702387444320086 
-0.01617592848143615 
0.07230734319993981 
0.1771076076360145 
0.02039634183421463 
0.1172694223612993 
0.01705719547642375 
-0.0501433558199821 
0.1052827151551918 
0.04034815368262221 
0.01315277492779987 
0.03053562333454483 
0.07456883333104999 
0.09865949140959575 
0.02496321957787274 
-0.02256532928538968 
0.03706915151766882 
0.01485631756937442 
0.1708728295036455 
0.04134416821588328 
-0.09413494169616471 
0.06285157563416795 
0.04850107674603195 
0.06581818573244479 
-0.01358487982966618 
0.08553953531536238 
0.2093955345194798 
0.1325576390059479 
-0.01052074808372047 
0.04782536956855471 
0.007717564521752983 
0.01521946232703357 
0.123753002423544 
0.03680845083689553 
0.01079614841075897 
-0.03802930695295193 
-0.0202231568251024 
0.004727663051733942 
0.07233714525808015 
0.06086622894016063 
-0.02107593183256301 
0.08552506818263031 
0.03827624087224518 
0.04662335112452098 
0.0570862629221025 
0.02232245972397686 
-0.03407760369256305 
-0.04574433359398164 
0.1161909700083725 
-0.006675794887911923 
0.02159678686079598 
-0.05048265240175072 
-0.10224969538514 
-0.003725334315835554 
0.08454785175532195 
0.00927459220194978 
-0.01881462788941542 
0.007277419928504005 
0.1641340372842989 
-0.02442522898395947 
-0.0353938195520952 
0.06927326814521798 
0.1532473384022605 
0.06180958918574664 
0.1616119160242528 
0.04652619472327237 
-0.1566113156350613 
0.07429128476166429 
0.08058719113097469 
0.04862054944408694 
-0.004100723715050208 
0.09197846637203244 
0.1780565809445662 
0.03113212950165765 
-0.02539296446424306 
0.03322732893651668 
0.008300884873139671 
0.1574418300292351 
0.02720720172709624 
-0.1651634050041219 
0.07420001415888937 
0.0818615856696867 
0.04003113677705292 
-0.02227466066570485 
0.1157619754253633 
0.1819281508972223 
0.0428216010428602 
-0.02090899453149895 
0.04460706246793472 
-0.0001431570970015434 
0.03385977587269955 
0.08308686631591192 
-0.01632294395016934 
0.007684464697977148 
0.0009659950880193595 
0.07165170108960174 
-0.0108259935561325 
0.1012957015565716 
0.06419671623740381 
-0.04251153224663157 
0.08493635863691848 
0.008687057119615487 
0.01417538328897319 
0.06148521937987578 
0.01651092296515505 
-0.04023532882967592 
-0.09742762679338388 
0.1104214320401712 
-0.03077974382793813 
0.03840881691730387 
-0.03711798575094715 
-0.07044006641911708 
-0.01528998259195933 
0.09735236246062712 
-0.003561026850012219 
-0.02378759879664833 
0.01310933142792724 
0.1540635931368797 
-0.01194254320536617 
-0.04970820560669693 
0.03281921687658766 
0.04156571750279706 
0.05372752157181627 
0.1614599841428688 
0.04037842717093727 
-0.0968385763305209 
0.05070611499895848 
0.03882272549230348 
0.04792564791783589 
0.02055689068433717 
0.0572462989029438 
0.1987982172589695 
0.1405134822292785 
0.01069462523458174 
0.04804358189559775 
0.01127190770729525 
0.09885396849362815 
0.00436960356331083 
-0.0928705369795329 
0.1177557834730545 
0.04388351892811391 
-0.0001403273993141686 
0.001917266688589348 
0.08550236078452787 
0.07224090929403744 
0.04501065003283802 
-0.01034526946698857 
0.02323228601616135 
0.01613126710152518 
-0.003836056116777707 
-0.004931878199328393 
-0.01034359658651469 
0.02644754164678376 
-0.003236931839992091 
0.1361658421872838 
-0.01393150293680557 
0.09991516202987913 
0.05144447590523247 
0.005513291830790188 
0.0406273909910314 
0.056150438999799 
0.02355489640629337 
0.05476671425160316 
-0.01787631472433466 
-0.06327355336703512 
-0.05510314121065774 
0.1231836002388232 
-0.02364876401783544 
0.03005098140472149 
-0.01155742474211064 
-0.02264930774879563 
-0.01161991066546567 
0.03882963398459557 
-0.01595180415087098 
-0.01059396695505051 
0.03215351070704303 
0.001149352779070241 
0.01657183925809977 
-0.03080432532405307 
0.01045709349982402 
-0.004320765502329089 
0.0001798570708737679 
0.08562573599762841 
-0.005081455603681134 
-0.0172719696228963 
0.001077546873058192 
-0.02871375866046566 
0.001506454488894501 
0.004311676861982116 
0.01373033455922035 
0.08373218905001623 
0.1179336010196817 
0.0353338442087581 
0.02248038607723616 
0.01980851229701848 
0.01265135998634887 
0.002385774682636902 
-0.007395991923491674 
0.09947186737817915 
0.01997458174610326 
0.02040729044065088 
0.0183489607045375 
0.01052908005147506 
0.006442329444984265 
0.006360612147522433 
-0.01399001711149162 
0.03587602214139529 
0.0184311551142143 
-0.02821505655613224 
-0.04448479995364776 
-0.01073159811585659 
0.02389040741148606 
-0.02761806396239297 
0.03288090713690305 
-0.01036828486449105 
0.04544636628182711 
0.01381942572519861 
0.03305343659559738 
0.02210765466446439 
0.04357200642192083 
0.005413470746331826 
0.02616787204549156 
-0.01076394722019482 
-0.02845644201082592 
-0.03109979037898416 
0.03601344020292115 
-0.02244954314277655 
-0.00893760059100694 
-0.03250844802604558 
-0.005699810074581106 
0.005098962760699459 
-0.06588264413211695 
-0.02714576756750997 
-0.0123328183713835 
0.08042886304424605 
-0.0464254927219892 
0.03313514754170956 
-0.01881135104212926 
0.006833672415889823 
0.03170806949344581 
0.02471556975870379 
0.02823520817250838 
0.008511553437843499 
0.03864726678284436 
0.03605923138608874 
0.03099748684238039 
0.02213749404091158 
0.02590296690946006 
0.002610592627030205 
-0.01243542645731941 
0.03883081119272473 
0.02302081509905685 
0.03486820961485383 
0.02628015569641229 
-0.01457583680262746 
-0.02027096001423744 
-0.01630960662033916 
-0.002796624782357923 
-0.01633939156780473 
0.03519965318569773 
0.0337087713658176 
0.04544702678430791 
0.04903830062896688 
0.03961552222162658 
-0.03282532107373974 
0.03529275688530271 
-0.00823635604489905 
0.03851738128569084 
0.006049938035228413 
-0.0233030662544174 
-0.01245851094005378 
0.01514145892629804 
-0.06242646820556452 
0.007378782475905066 
0.03320530329129142 
0.01293601858475783 
0.03337046506671657 
0.03085707739952156 
0.01957854076063773 
0.01331333001305703 
0.003611861173628962 
0.008478400653619059 
-0.003030266287621416 
-0.02407149479042712 
0.0338767498341158 
-0.0269088352879242 
-0.003794012597354655 
-0.03043547279890888 
-0.01990360061838061 
-0.01043627439373518 
0.00150794001918052 
0.01364867889179724 
0.03280837197750224 
0.1321482280461071 
0.07069008134002425 
0.00761857690022231 
-0.01345664037658887 
-0.07085313012861179 
0.01213740524931407 
0.01854111957471947 
0.01264211874508923 
-0.001286431957007004 
0.006724663202992316 
0.02090586807119975 
0.00448316579624821 
0.01710397050904612 
0.03092500871532148 
-0.004696107486474626 
0.04883661778509228 
0.01816398071541905 
-0.01742650378666719 
0.02473195955883936 
0.003736862840568842 
0.01691719580776623 
-0.01195774726515319 
0.006209274217522891 
0.008377615120435184 
-0.02421308448751492 
-0.004268953880301529 
0.03381749209948749 
-0.03022239608862964 
0.00803218866372309 
0.04950907629442409 
0.00641457428942674 
0.01608945310035525 
-0.02660873231772551 
0.07028738975899142 
-0.06546483732635655 
-0.0151007144671291 
0.01121767735274385 
0.001407099438520761 
0.005400567811284301 
-0.004346874888297151 
0.04228875499227101 
0.001689113019544622 
-0.03396762753097574 
0.05096045262134966 
-0.0118087158611678 
-9.782958221925411e-005 
0.01440800278598649 
0.01060015629881828 
-0.02759848896074337 
0.003326102657024255 
0.03857996499991214 
-0.03109501964990983 
-0.003783746824377301 
-0.04532901637811224 
-0.0185683855322543 
-0.003777383177153704 
-0.02921319023906017 
0.02817246047101212 
0.008508213186859282 
0.08461726141299747 
-0.01619200805154028 
-0.009894576145187274 
-0.01007369103734069 
-0.04078824249089211 
0.03093458710837464 
-0.00225410246306694 
0.03560829965373002 
0.01383954909116793 
0.02425253083277441 
0.1466606339828413 
-0.006096589639049179 
0.02321177766115025 
0.06877229041186594 
0.02704603956477587 
0.04019117662909431 
0.02623420873331371 
-0.03252114614057494 
0.03767857452334844 
0.02846453870138085 
0.1031746586896726 
0.002303782601106767 
0.02100960773650154 
0.008500997394048858 
-0.06151659727296948 
0.009749132035760569 
0.0008405244830619819 
-0.02552662158197188 
0.09979898252483611 
0.1964703255894762 
0.02928203525880943 
0.01490990455903805 
-0.003501311428299246 
0.045262782945114 
-0.01062105013022851 
0.004507665606686701 
-0.001803899876739762 
-0.009944945014718992 
0.01665488171184924 
0.01230608497081401 
0.07260550640264377 
0.04846384459469845 
0.01540840212091134 
0.0427663650659702 
0.07066497591572861 
0.0159248805740161 
0.01186689090158742 
-0.01491733894602899 
-0.01273191618060567 
0.01161447980182024 
0.0904700380276986 
-0.08200776646440151 
-0.03273812904807832 
-0.06364621684008232 
-0.0570551602852865 
-0.04961373696303287 
0.02033392213206703 
0.01353999229061024 
-0.04738182348543191 
-0.003206583002988446 
0.02629268762776131 
-0.04028672266470038 
-0.02380399828637732 
-0.0005807043819726331 
0.02648966823785206 
0.02546469516165003 
0.1058668119081246 
0.04489067382329413 
0.05463721041356065 
0.1638823053562135 
-0.04218466904105111 
0.02670063306112129 
0.0883315495586626 
0.08742999086765274 
0.0639169727358419 
0.03994844850556577 
-0.05587554941383808 
-0.004731188558383126 
0.0184983412467447 
0.1511310270854339 
0.03067857680260308 
-0.02156897559927699 
-0.02061883155079887 
-0.07463070743538995 
0.01859376058843904 
-0.0320189028197896 
0.03471165442743998 
0.1135273587760076 
0.1939640427645275 
-0.006324756920632299 
-0.004303832063687891 
0.002994393463353217 
0.0005912545919320732 
0.02749479330392449 
0.0003324952580647348 
-0.006368861763285222 
-0.04920655708880704 
0.009097565255836637 
0.01089129982439845 
0.07012284376172115 
0.05882323225377933 
-0.003533819435654582 
0.06358647727258 
0.1242892140220725 
-0.001465358816951408 
0.03466036574107455 
-0.01206497377319858 
-0.01059750292788836 
-0.06199423341913812 
0.1324145607357221 
-0.08463649250338839 
-0.01526354140818767 
-0.04946909496416947 
-0.06340816786953968 
-0.05938132775504686 
0.01868818860393696 
-0.002308113906189015 
-0.07044017125179417 
-0.1099595787528995 
-0.01126890529007212 
-0.06893735081677464 
-0.05469105616892042 
0.002303514758349476 
-0.002661294738461344 
0.04400367308020075 
0.1150339163246819 
0.04638999410344705 
-0.05674732124450835 
-0.0199688944295956 
-0.07129681965654164 
0.02785195671784634 
0.0272713247652552 
0.0656224668495196 
0.07156686752014992 
0.02241155757218053 
-0.08232625907691674 
-0.01394328320247538 
-0.0003382985225507905 
0.1393681718672083 
0.01073926818648775 
-0.06249386089060775 
-0.02332455318677694 
-0.07441802383170228 
0.01563785996981509 
-0.02969478166986967 
0.07563601867813552 
0.07970279569822074 
0.02454396875302097 
-0.04945000690996926 
0.006216500791365984 
-0.0009510918021556933 
0.01654015124048809 
0.02500959057495852 
-0.05603066106263366 
-0.02599067970908351 
-0.05169972488869302 
0.0288880934176577 
-0.01807340747822877 
0.0701003938538692 
0.03477935712914804 
-0.08368900499148113 
0.0684487821435333 
0.08405478466363137 
-0.02626195576813473 
0.0382218835065674 
-0.0432122801936213 
-0.01813440751982826 
-0.1358942630466845 
0.0667462981589636 
-0.03872203204543333 
-0.004013245186884779 
-0.03964897011603 
-0.06159659989657987 
-0.0360140779729057 
0.02523951849410808 
-0.01002378864904034 
-0.06877310815443782 
-0.05760099803438587 
-0.008358923594972702 
-0.04971833389598369 
-0.06643057839361498 
0.001627826530358613 
0.01443396550025381 
0.02122805740433983 
0.1501710212222195 
0.06963292122071167 
-0.02401188081375728 
-0.02879355338636008 
-0.06009118730651484 
0.02800123746716741 
0.05992093592937534 
0.02028072852520048 
0.1409604061553692 
0.2191413129095243 
-0.01990468703962263 
-0.01131666559359837 
0.008379071429027881 
0.1124297793962891 
0.03143605585250645 
0.01702151273033917 
0.163353619283781 
-0.0232802057407502 
0.04806706051599027 
-0.0006889768292742803 
0.09173288208981982 
0.07666653296259238 
0.03634783859727356 
-0.05333895097291082 
-0.0001274686298596616 
0.02063246797443065 
-0.01465922136109585 
-0.009714724276716994 
0.005285064739690659 
-0.008831162311357582 
-0.022940605330478 
0.03599621086046601 
-0.01893611932695249 
0.06389365024880489 
0.01663648602746082 
-0.01559615424015294 
0.07542054556604591 
0.1204225002879279 
0.01689279409697602 
0.05034998361431827 
-0.03764392693787638 
-0.03294084474436008 
-0.02286856448321822 
0.05172442046660803 
-0.0152550021198973 
0.01847872007304882 
-0.0009849592887595079 
-0.03216530950302092 
0.01503243446769031 
-0.009072941481979638 
-0.02608655756337142 
-0.01000694704120833 
0.08005474215794012 
-0.02555248149594798 
-0.01639274131356177 
-0.0277721084139386 
-0.01796497926521955 
-0.001312961956835814 
0.005551865471842631 
0.1047808280275572 
0.02354440372952309 
0.03077655494513077 
0.01137640403343067 
-0.03273774742544752 
-0.002779466559796604 
0.03688819201011969 
-0.03428652750194881 
0.07504990133590787 
0.2226377275627912 
0.03279229067937391 
0.009377130468194167 
0.01495446932985881 
0.036830856695093 
0.004003110541572383 
0.05783538491862063 
0.1634775169547008 
0.02843926457596116 
0.02297462642543171 
0.01090792754009834 
0.01299919533451212 
0.0319240734759797 
0.003232775635418052 
-0.04503952113507547 
0.03550985096970273 
0.009074606190629142 
-0.01355192309773675 
0.0004980061140243878 
0.00841680742328367 
0.01970525541989936 
-0.03541979753634068 
-0.0215563057948244 
-0.01725148456013972 
0.04302018597633414 
-0.006616550229932727 
0.0016946497032358 
0.03287470523305845 
0.07018195266328382 
0.01595468236809714 
0.02603041105472621 
-0.007394696243646592 
-0.03960630914598115 
-0.006059024201289552 
0.04937133492606327 
-0.02413084299322734 
0.004038485557007554 
-0.02498800885126904 
-0.02811818948086357 
0.04110724348597465 
-0.09276705156269992 
-0.03288906923118017 
0.01284899017476523 
0.1327071479009011 
-0.04238466064280734 
-0.003122311077787066 
-0.02121162763608506 
-0.007108108493880674 
0.058940924157903 
0.0222859567190504 
0.05607115773853423 
-0.01856883140456954 
-0.0002219732898480443 
0.01763521955923503 
0.004625956469335454 
-0.002711034141520303 
-0.001075021255763675 
-0.006396288455077943 
-0.02708835661389323 
0.0445141632230819 
0.02145838886964236 
0.01198495993520854 
-0.008987875180750603 
0.01524779758169146 
-0.01710740377262599 
0.03679101271422199 
-0.008896448769708553 
-0.01942955395805981 
0.01729271849452905 
0.02774076980493727 
0.005437716554161982 
0.03732065351373835 
0.0217151497477765 
-0.03761241929556713 
0.03316354343630577 
-0.01735621051455332 
0.05235160077203894 
-0.006882429506144043 
-0.0589372776283492 
-0.01673077895586925 
0.01328053120154281 
-0.04150051234695967 
-0.02472100918913916 
0.05667351497505767 
0.003133604667520381 
-0.0004778296620762753 
0.01437150762188791 
0.01101182468196705 
0.007335888349730407 
-0.0007278358851294156 
0.004693303564561113 
-0.04515065178199107 
-0.03951980303141067 
0.02842757077343816 
0.005987298455814089 
-0.01230009871095227 
-0.04557669855843342 
-0.03514255880411475 
-0.01935307421041749 
-0.01895004537388858 
0.01615422306904226 
-0.02132124287829596 
0.1316287667014728 
-0.003200040757550032 
0.02754713920469205 
0.01213223736641996 
-0.02714046350398465 
0.051486306594391 
0.02213339410221973 
0.02391863313501596 
0.01775075473802266 
0.04399975386021609 
0.01790099479129775 
-0.02296707640503479 
0.01053990334695696 
-0.01113130702215772 
0.0008187329957126226 
0.01624032952581598 
0.02001788011459443 
-0.001241789569595561 
0.01263054870898045 
-0.003007260045037436 
-0.00630816972849101 
-0.01602202313957815 
0.01295358418825642 
0.01653992206086522 
-0.0257962394186229 
0.002708672215833045 
-0.02206737689101722 
-0.02631502333278429 
-0.03535403882267161 
0.03881252947925177 
0.002479646572290301 
0.02445861814099886 
-0.01908192773383586 
0.07809845413035668 
-0.02653301539275018 
-0.02761074731816021 
-0.03654881486324138 
0.05167075558933639 
-0.0279712567137543 
0.01092029373681656 
0.03201786957460764 
0.01923680669358504 
-0.05743034098554384 
0.03454023770477353 
-0.008033331855208582 
-0.002934902851374067 
0.01387919290978304 
0.07315401081718961 
-0.02381568998120888 
0.01293151984335494 
0.02604070617955604 
0.01963012097250358 
0.01429905095916995 
-0.04963521775639984 
-0.04214045253307851 
-0.01581913498649946 
0.02370988326989987 
0.02126449562475417 
-0.03107717214957783 
0.03348059292479177 
-0.01731193025690135 
0.03776439011774522 
-0.004697993188531579 
-0.0216242628834821 
0.04938754951483872 
0.001339278875665897 
0.05138263358307328 
0.01722968406037155 
0.05889045191005417 
0.1287434956124779 
-0.00116083740860275 
0.03104189774194993 
0.05173940144590027 
0.01051056495830075 
0.01034754110339658 
0.0444425767361391 
-0.002591082685762762 
0.01073967365001795 
0.02424509458820188 
0.02722761246116954 
0.02456717264118145 
0.05233211082434456 
0.0289012527463678 
-0.02794919482418908 
0.02825288220266676 
0.0109799091310847 
-0.01252338847427512 
0.04602954802491293 
0.1537188342519613 
0.04378905297015209 
0.03104376225920007 
0.0004875451182116723 
0.02772048956482562 
-0.004704953753213123 
-0.04066482088175455 
-0.02769156216856532 
0.02893542659861064 
-0.009312276753071953 
0.03965954315469963 
0.04796293324343787 
0.04369284728236087 
0.007504326781204291 
0.02948868137970569 
0.06978597870572956 
0.01253153175205293 
0.003932549363597769 
0.0126099690254486 
0.009754667836002918 
0.03371563022197604 
0.03292184795109244 
-0.005081000954562953 
-0.01958128627985038 
-0.01466479730696773 
-0.04385712351672613 
-0.05390246739799954 
0.06566413289050581 
0.05692596746810928 
-0.04741103667133483 
-0.0527017006722347 
0.0270733451938857 
0.04277097943255124 
0.023878547336109 
0.004042398667652248 
-0.0062803818768723 
-0.004338038195902772 
0.04973225496620923 
0.0586500166460642 
0.1010639398291056 
0.1603681522637766 
-0.03202682711008419 
0.03133528241104467 
0.04761589202180403 
-0.006045665249402425 
0.07328120927902847 
0.09660541669893527 
0.00484834081287732 
0.01868465239092951 
0.04430799627473337 
0.001243655650105821 
0.04940161100584158 
0.04873814955982106 
0.04876675008402457 
-0.06053956907014277 
0.0237983557019209 
0.02403460129833782 
-0.0590596930631817 
0.05890128831170208 
0.1179735166445982 
0.02368847539656439 
0.03068240322356399 
0.01958203896454377 
-0.04756948365105787 
-0.02642749854811633 
-0.06771516542427727 
-0.004582506226958557 
0.02731621321147473 
0.02507782129667343 
0.0239956984244641 
0.04366358851893521 
0.03652647745435415 
0.002049057447787188 
0.04188582519699734 
0.09840752463353319 
0.0385939342279722 
0.03834046580364676 
-0.004757786901940507 
0.009149678609412749 
0.02579291101089513 
0.06402262746294965 
-0.0204403184240268 
0.006867556880089189 
-0.02867969121573984 
-0.06142242155518048 
-0.07212950725778546 
0.01070116412596164 
0.01431576516962482 
-0.07767441456895001 
-0.05591110005345241 
-0.005263921528296623 
0.009120881108146892 
-0.01944082702927628 
-0.03139655958860091 
0.004870143364686969 
-0.00537855634706953 
-0.01396381213974472 
0.03648139498833801 
-0.02033217516643291 
-0.0005943598034042258 
-0.06505700140746877 
-0.01265398332950493 
-0.009422382195443507 
-0.04160049377805601 
0.06451547519533644 
0.01672229248192253 
-0.04286961442755765 
0.03706519432662632 
0.02667055869501493 
-0.002343401594699058 
0.04217624297394201 
-0.009665706277923706 
0.01002628369089827 
-0.05580518334826164 
-0.01815146383110795 
-0.030564462994851 
-0.05169249591066876 
0.06268475022407255 
0.008690555788761871 
-0.01260089407831542 
0.04534542210259266 
0.03222958878064661 
-0.06538030741925721 
0.00947686178345619 
-0.07378593253287111 
0.01181918477559274 
0.008640326047415194 
-0.008061508228845587 
-0.01044173069437404 
0.02735348658466637 
0.02194248950914387 
-0.06990998529846368 
0.004711581405828519 
0.02412515764674035 
0.02592462527797557 
0.04249671380967035 
0.003323268269757557 
-0.01113874388546345 
-0.01954492841975434 
0.04284351529469496 
0.01121613315216247 
0.04372264139584406 
0.001946277619158824 
-0.05837863454887711 
-0.01584448559317341 
0.005596355143870653 
-0.01956888111929573 
-0.06907578806466024 
-0.0580625752606282 
-8.172730541190421e-005 
-0.01545722534263176 
-0.005497911391694166 
0.02636607524903908 
-0.00647850584582168 
-0.01828903202915692 
-0.001979528668229495 
0.03735541280435491 
0.02381819241091719 
0.0499756909635499 
-0.04244860179909787 
0.02319711325527278 
0.01517719544893239 
-0.0373344909734467 
0.05971809958330372 
0.119757761864587 
-0.008161181222307924 
0.01379199929135343 
0.01973215663847118 
0.06334768378322211 
0.04876892701908799 
0.05894818108729764 
0.1503819120523282 
-0.008878049655568784 
0.02489984043972373 
0.02449600702339015 
0.01172726259004942 
0.1145949052111198 
0.04426000772171859 
-0.007325970813545435 
0.04324183176759804 
0.02486737777016281 
-0.0189999963579394 
0.02653835420518498 
0.0003100197214980666 
0.02043170930774733 
0.0007151206073957946 
-0.04073214385928858 
-0.002408236629287744 
0.04464448152396537 
0.02787574438033321 
-0.04621954395032042 
0.04549041118179675 
0.06032631226397325 
-0.00350437393318248 
0.04208853390526691 
0.03088095335657166 
0.007344995918943384 
0.03895331603476988 
0.02924516462064414 
0.02433825916170165 
0.02664226943070217 
-0.02743066935410502 
-0.03479869545146535 
0.005586554380157343 
-0.02735874994821369 
-0.008066405380288138 
0.005023541195765604 
0.05408325080828789 
0.03166412792071231 
0.01645049291670437 
-0.01446195627390635 
0.02880057258032574 
-0.01856714720691831 
-0.0009547815562204058 
0.02766611986352425 
0.009268616498150908 
0.02616167828698832 
0.03269949659695413 
0.009378999012394118 
0.03401972939879294 
0.01343282074424801 
0.01786351846120686 
0.01721941582302186 
0.1412779548032488 
0.02720236811945229 
0.02121547654448448 
0.02176974307766486 
0.07061508088863251 
0.01100356918117836 
0.06280694053299625 
0.1166271466448356 
0.006146173732540327 
0.01596448753114001 
0.007866515089324701 
0.01379809743835806 
0.03764475650094955 
0.0268953563293985 
-0.01321016974975198 
0.03562708510104359 
-0.002612688185524705 
0.03748767476132672 
-0.001824553852849709 
-0.003437336170617524 
0.01128272832137817 
0.0184159399928778 
-0.04053127886324755 
0.007177283523504277 
0.02403070425183098 
-0.004031082615853504 
-0.01906067900140164 
0.02925619632072972 
0.038436753413956 
-0.003473846712643049 
0.03134415337359819 
0.03404855734769614 
-0.01254284705742833 
0.01679158289053965 
0.02719157397830797 
-0.00308531433327451 
0.02619135864473839 
-0.03806644946691525 
-0.02283901772245762 
0.007378447530231933 
-0.04257512133217357 
-0.03578569277564873 
0.007883225296621098 
0.1654150459699285 
0.0372691503985423 
0.02189353105562486 
-0.02334608182809813 
-0.009158192066801603 
0.02458540164681188 
0.04930197782054406 
-0.0101794254189192 
-0.0470675533229992 
-0.02389497878458003 
0.01651509801091663 
-0.005049193092674304 
0.0091882139574831 
-0.0299833265138 
-0.01929987042250694 
-0.0376019793462639 
0.00871405211598519 
0.01326453124441922 
0.02019902311424809 
0.0044675521347959 
0.01330262467765334 
0.02696404326800069 
0.05804019420968522 
-0.001024758954415196 
-0.02735886139068508 
0.02066054800192932 
-0.003805924796956257 
-0.005418682581923785 
0.01018332690982541 
0.05057231466428717 
-0.006949444644082739 
0.02410924837916813 
-0.01984517397359745 
0.06022086236148767 
-0.03377127666546499 
-0.0629319623124435 
-0.01064138378806389 
0.06357663393408143 
-0.03125110944165223 
-0.01940659658079868 
0.04095306651211741 
0.005284149876798731 
-0.03679429837684486 
0.01891025493462221 
0.01216968498049795 
-0.01008268754174745 
0.02517477245075262 
0.0458861292931752 
-0.04090866542273658 
-0.0114272470338999 
0.05274915873120968 
0.07139775906492164 
-0.001906999568479918 
-0.04708150406846438 
-0.04515339523977939 
-0.02332015819646448 
-0.02803802222168347 
0.0002348164029339042 
-0.03634225042466849 
0.05600155563499904 
-0.04612053467658146 
0.05234676086714997 
0.004426857588772215 
-0.03439176282442558 
0.0380509024892441 
0.03515222871740788 
0.03427841977803754 
0.004856740530395373 
-0.0003576884448860898 
-0.05436132379957112 
-0.05277354633011312 
0.005020443913408523 
0.01195978174321037 
0.006767939193591355 
0.00671503578689879 
0.03391069486216021 
0.002863542550186979 
0.03131465544259367 
-0.02162013060690779 
-0.0001670417189856053 
-0.02285722015358418 
0.0419763050008156 
0.01312052248829625 
-0.03704355987923775 
0.01805079043282297 
-0.03090205388297526 
0.007147746121898552 
-0.0155621222657308 
0.01259224321852954 
0.02512810104452019 
0.04174680769388954 
-0.002993294038459204 
0.04442714317610967 
0.02974569562363846 
-0.08179392416063951 
0.01468520169615325 
0.06970469443324141 
-0.04761816162923629 
0.01035392232414535 
0.01347052129570976 
0.03010022084505925 
-0.04679941496778811 
0.02630068800867798 
0.01525423886335809 
0.0137679013416222 
0.002133831987051076 
0.05769187087370608 
0.01357630770488643 
0.006489765414545888 
0.01494289392024958 
0.01819529020435707 
-0.009204757645622931 
-0.04620394759030921 
-0.0610619258496266 
-0.009000653170224198 
-0.003585682744263062 
-0.009486906827040948 
-0.04035794614415495 
-0.02237070194799644 
-0.03699052296987443 
0.02041560510683119 
0.007757254226033361 
0.02408646768650153 
0.01911762523041313 
0.0108174145275238 
0.02455935242551254 
0.009751090771505313 
0.06218363261681242 
0.0905548569963671 
-0.01369528382365333 
0.03914928289534547 
0.03456426888690047 
0.01217135914456043 
0.02038731773915446 
0.0211573909439472 
0.01850643935349236 
0.01473426308322376 
0.003487962343998769 
0.01629202909698312 
0.0266458873077244 
0.03782658743674964 
0.02966806393858183 
-0.008110172628356218 
0.04578585010556241 
0.0163325168113302 
0.03996855210270626 
0.06403919259812287 
0.128776087579403 
0.05336818232359966 
0.05434185249661849 
-0.006659322917562025 
0.02208855849693327 
0.005317869713011483 
-0.04377385869418304 
0.02668763113431897 
0.03893675552745097 
0.01875619618303135 
0.03210854718880941 
0.01865771168235416 
0.0304016849454259 
0.007675677331109436 
0.01401929868964407 
0.04737587207419002 
0.006519396059996105 
-0.006591097159436994 
-0.005076139905611505 
0.03967468435346069 
0.02361877097289952 
0.05035957313325137 
-0.00392842086858859 
-0.00871784039604092 
0.0004056589615932329 
-0.0348487004861204 
-0.03194271525352165 
0.01222704894280513 
0.04551067672840183 
-0.03381764139469973 
-0.01362696960758572 
0.04758833893894859 
0.03708265671678784 
0.03580856386866691 
0.07514060796194046 
0.0272872022403495 
-0.01218051519501923 
0.04131859047817468 
0.03939530665028816 
0.07951993823556364 
0.1743905975329899 
-0.002205702675054713 
0.03374487523285173 
-0.002091849868541263 
-0.005358763188499809 
0.06884868361544659 
0.02154205300321922 
0.008169125678095916 
0.05098826754636569 
0.05441368362532661 
-0.0203485051059489 
0.02695982994701806 
-0.02642554563450731 
0.04068772246418753 
-0.0132097207605517 
0.03545895847560956 
-0.003312402857189896 
-0.04047236310418362 
0.06485779305768875 
0.1349660222993243 
0.01922525023715581 
0.05249160062132933 
0.01814278301074316 
-0.01064384929194025 
-0.005287106184947744 
-0.04247661006778305 
0.04758999092015975 
0.03660687028026528 
0.03215288949364583 
0.02104874030301066 
0.0205889017004045 
0.03759299447897087 
-0.009758661942654859 
0.03366293524284107 
0.0006251954607120442 
0.05599416420323528 
0.02585189114875216 
0.02387033582485118 
-0.001856492409006154 
-0.008607354753877892 
0.1245988715254911 
0.03059294159152952 
0.01847395239088762 
-0.01512906344492761 
-0.09181958413348963 
-0.04536691952075728 
0.01056564220989519 
0.00303396288615572 
-0.0399411075534197 
0.05001718047988747 
0.06581734545320792 
0.05960809832033967 
-0.006021905943309019 
0.0242635873674186 
0.08330279481379638 
-0.01578418339932331 
-0.001481152523283444 
-0.008919362332871857 
-0.1097242568667243 
-0.01750243429388933 
-0.06862651334496563 
0.006391772529404994 
-0.0894455403813274 
-0.05258503687748079 
0.04056464753392165 
-0.0226745622771416 
-0.03384869882448742 
0.05507050212931086 
0.04365758313009496 
-0.01655454227862699 
0.03235268081365898 
-0.1220350896959219 
-0.00784685081934833 
-0.05631349405993254 
0.0003268751492607364 
-0.0523257695791048 
-0.04457572589530122 
0.05821058606733844 
0.0007495931451904913 
-0.01924166245694927 
0.04845392769614448 
0.05100265910298973 
0.002927425465198162 
0.05625853319936595 
-0.08483511780987826 
0.02095954731443872 
0.06701945028839504 
0.0293471353734817 
0.01682040656929007 
-0.00702010531620576 
0.03645449365442988 
-0.1008569347008259 
-0.006498570698559686 
-0.04351910958453186 
0.0484410187548464 
0.04717209401864414 
0.06172916723881423 
-0.03645091388459686 
-0.08549721211353693 
0.08931500321865421 
0.01126273806946794 
0.040395306166453 
0.01931068940727949 
-0.02674708882556611 
-0.03375237675084755 
0.0558621754707995 
0.00151496636104464 
-0.01327312311173569 
-0.007133364306204763 
0.02946856345601805 
0.02729960299571287 
0.00727597188591313 
0.03560889456282054 
0.05528753749921069 
-0.01999309971746048 
0.001932327730413762 
-0.00413851238006386 
-0.01837530456885087 
0.0370786260209964 
-0.03712973274924966 
0.01568024069099725 
-0.002956621422679737 
-0.03791242681570479 
0.06199614493981352 
0.1384507229417797 
0.007298267955283154 
0.03610605520300229 
0.02600227619730275 
0.02764105366919882 
0.04755310737417293 
0.0496337131270056 
0.1673432857880576 
-0.03786378344458245 
0.003916511866588275 
0.004692125064636323 
-0.01103414135202102 
0.08830921730924489 
0.001093501046150889 
0.0103467467926657 
0.03231657398997188 
0.03765406141243113 
0.04693649667535333 
0.05286176980878908 
-0.03444918510943391 
0.01399512195819448 
0.02764663127602666 
-0.005089679003122352 
0.01196101812407743 
0.02249179299486013 
0.02642150205931623 
-0.05312973527312434 
0.01900228098898216 
-0.02058715843131864 
0.02928305289274801 
0.0513420055505878 
0.02971508767749966 
-0.01742535275773326 
-0.009347086574828287 
0.05251259752823679 
0.00330757877727907 
0.01119315706784859 
-0.005238279991213063 
-0.03101430544390636 
-0.02162996726785398 
0.006588591815318838 
0.01048513973422606 
0.007061564516162355 
-0.0009702380506471202 
0.002118994818016798 
0.03998744254068715 
-0.0323408428659029 
0.01195007623996663 
-0.04268561395159566 
-0.01945577358896813 
0.02606983108579321 
0.01955779168665384 
0.01821492905480893 
0.04792193033059759 
-0.01597442779698098 
0.04108198528052524 
0.02699561913012383 
0.04252417526310526 
0.03700329969104165 
0.1487996286051339 
0.05015815644249652 
0.03799194651826436 
0.0151526504813913 
0.04089778483849584 
0.02825701235912441 
0.0536524163942893 
0.1206723304343755 
-0.03517164663220865 
0.02762579315361951 
-0.002980826937035373 
-0.002566932430728876 
0.03505436412452097 
0.03677533170480719 
0.01853158355329533 
0.006348256016400218 
0.003077448098391771 
0.03315439075611495 
0.02834561297917886 
-0.02123099744817849 
-0.005459786279068021 
0.005352111318977157 
0.0008736642143717475 
0.005169880286108147 
0.0145569542372307 
0.01370885033447014 
-0.02653110545681648 
0.003977725667017286 
0.01064051093266723 
-0.001156457813061688 
0.02668995474234029 
0.04118706775599435 
0.01444044650250194 
0.02057208012307494 
0.04209017590591034 
0.01178473346843484 
0.03811531945252834 
-0.0238348849463434 
-0.002178996978096659 
0.01113000886554725 
-0.02651167261149066 
-0.01554796956031183 
-0.04517420842107001 
0.1026869100949065 
0.007739861575261469 
0.04465026304507999 
-0.0510248475141572 
-0.04296946258221845 
-0.04175759524790555 
0.03675106938893574 
-0.01895965374627748 
-0.03193045562864037 
-0.02185841683220127 
0.0103443712466586 
-0.04050942393297759 
0.03292226361548439 
0.005237082423704614 
0.02830330932860381 
0.004865288557765412 
0.01094167154572445 
0.03786193514954352 
0.04009757617514794 
0.01724497453373495 
0.01510587564893693 
0.02324875476625445 
0.02500022739293291 
-0.0196099187720439 
-0.04497025155426546 
0.02688007341952423 
-0.008802723892212426 
-0.002697829522653637 
0.008283073044142896 
0.07789814276926119 
0.01423219371911037 
0.01784938286087493 
-0.004801829369353853 
0.04617022878374381 
-0.04083226186727097 
-0.03336184428290424 
-0.0009819273488257496 
0.05644796945642719 
0.00992772499505149 
-0.01608774235586451 
0.0285804608665189 
0.01407844059411871 
-0.0781799034843978 
0.0120979561000225 
0.01644023932892109 
-0.002417243631407534 
0.02958556159020729 
0.06202608339867922 
0.0195962218874777 
-0.005776434537234748 
0.05857082021042245 
0.02966687331469734 
0.008995550265772614 
-0.02883988721727746 
0.01939850673972945 
0.02290269055450053 
-0.005608916137855221 
0.01007931502059501 
-0.0146145512943496 
0.03248738635057326 
0.01369966169992456 
0.03442011230663972 
-0.0005104146672801195 
-0.04014114443183384 
0.01228106179009827 
0.003159152399616009 
0.02829042699263051 
0.0008748518192500378 
0.01934429220619962 
-0.05606767725789011 
-0.01554923571350032 
0.01498187102539252 
0.007138275871799822 
0.01520704395485349 
0.008138038869926163 
0.01681750942153394 
-0.003480644169086608 
0.02525709944361964 
0.004644970944867075 
-0.01965055437376957 
-0.02275347023969399 
0.03798010620084482 
0.05861442430074145 
0.0005694400916808946 
-0.00112737608533664 
-0.00694055808656844 
0.01976147009404339 
0.01778866690655067 
-0.01850046655826379 
0.0340403430133631 
0.0386785922873607 
-0.005182631681527283 
-0.02790225281438053 
-0.005060248479900498 
-0.04920485542100131 
0.06559719899896641 
0.07328316205537072 
-0.0767106976755539 
-0.02222950115295179 
-0.00359193499411685 
0.01098931027430332 
-0.04968605299011353 
0.03142879156544538 
-0.0128718477091117 
0.00204542144309994 
-0.01405366740377644 
0.03862597153677787 
0.02053745850795772 
-0.005700953926934455 
0.03393065195209661 
0.003494927653440746 
0.02147155221465941 
-0.0503650729951739 
0.002239409597676009 
0.03136654520609289 
-0.009675763263575948 
0.02963243563147181 
0.03208533187196239 
0.0442310837934039 
0.02860693866014651 
0.003937741735252003 
0.02458274551550125 
0.008831686142926756 
0.00584708972789442 
-0.01221238860161678 
0.02164197660055638 
0.02495299505871869 
0.09179575047229184 
0.03185230841713557 
0.005571950692288342 
0.03818849538322353 
0.04015718999113202 
0.03041890990335179 
0.009025810617359251 
0.04426250100329948 
0.02244798377398632 
0.02836737099537026 
0.03181290551020025 
0.03175323938550468 
-0.009133274534272279 
0.09895817393574512 
0.1041373370387696 
0.01852814612323362 
0.01244409467227719 
-0.004211815561929676 
0.03921128291724222 
0.01691682324971855 
0.1066697035345313 
0.06225232288462555 
0.05218110618620512 
-0.007802028013880727 
-0.03698808744688647 
-0.02019831193529271 
-0.042445224993062 
0.05535888040342901 
0.05876238066580589 
-0.02880998958885562 
-0.01177871278204243 
0.004758719530245668 
0.01579095288867389 
-0.02436699655466491 
0.02904749678770471 
0.002019881259067635 
-0.005435520673515736 
0.01175494576093429 
0.03596278262066079 
0.03051033691324325 
-0.02679414496385707 
0.07091481567405812 
-0.007809632592446617 
0.02592248697309827 
0.009162438805850225 
-0.01120897498321188 
-0.01762450299592852 
0.05843263813514982 
0.01489756898948082 
-0.002544590617867973 
0.02222676026418296 
0.0881308680693952 
0.03041346928442539 
0.01155190416194358 
0.03003320762118255 
0.02867482437155042 
-0.03485601370366417 
0.04377878413111223 
0.01171158470356958 
0.05128066748084469 
0.1071820283411145 
0.01622710121316907 
0.04211764839126337 
-0.01341010131011594 
0.01325623236445583 
0.06380628867747047 
0.04623198819540873 
-0.02751305305928598 
0.04903414872926321 
0.05326780602107079 
0.02892424070758072 
0.02519452042780221 
0.06533683188625307 
0.1310669741828039 
-0.003922658252556246 
0.006271551108320382 
-0.01094429847594146 
0.01064423920067488 
0.03013253185770361 
0.1176158779742716 
0.04718769092727324 
0.05644783516905248 
-0.004593818992168635 
0.008521429265510985 
-0.003879521654362004 
-0.02650755201556132 
0.07022647533156365 
0.06046032223272568 
0.05215754796677805 
0.0004761098476067272 
0.04067740590704178 
0.03480644940246556 
-0.01190724251171994 
0.0244538411614618 
-0.01965471047970028 
0.04173748865354469 
0.02388590085995459 
0.04608702152762135 
-0.02256396275064398 
-0.07310017923072931 
0.1043986004388983 
0.00803041926417899 
0.03012014865892879 
0.006402978646144491 
-0.1072895892547025 
-0.05501092123887758 
0.05602287789118244 
0.01390959220609377 
-0.0576308684072534 
-0.002443443501527852 
0.06345718767659316 
0.02068435060753514 
0.01242054392273787 
0.05502498177793214 
0.06052400811730649 
-0.04340442727450024 
0.04610485123775789 
-0.005365158279218096 
-0.104680837751761 
0.01925572030999815 
-0.07300736973535062 
0.00294060678012084 
-0.1079558589803538 
0.008662607397234193 
0.06152637837934671 
-0.01475979976673707 
-0.01852101365035462 
0.04216997733490743 
0.04094839782326072 
0.008203764682320326 
-0.003890996416775043 
-0.1053654991235494 
0.02451876781134827 
-0.08793546397849845 
-0.008897644424229223 
-0.03507545119758101 
0.01500009139689694 
0.03199951581123597 
0.005800727785602935 
-0.01073305547060474 
0.04893275085494186 
0.02736574550137013 
0.04499665538109181 
0.04599202675620517 
-0.04417077276597789 
0.05169308927338132 
0.05301227600850236 
0.05282865292337673 
0.004111317355867124 
0.02368469860649338 
0.03304360482436949 
-0.05249585318495156 
0.01931648700990086 
-0.02177164187444099 
0.05546036773378129 
0.02618499898721177 
0.04364983379609946 
-0.04251091548993813 
-0.1530787889396956 
0.08837037405283363 
-0.002121975349590102 
0.01986549652611093 
0.01757771468056177 
-0.02213977686687011 
-0.04664775344846925 
0.01301314785405107 
0.0536879102300243 
0.001727504294797783 
0.03358676835855982 
0.03021721347718645 
0.01826921407814748 
0.023046559661225 
0.0653746688544356 
0.08316994037255257 
-0.01618398095770843 
0.05959137485757095 
0.04612123098970596 
0.06437350690831493 
0.1097807109853553 
-0.004541704715187262 
0.02018747682695817 
-0.001270527068047572 
0.02281639755748762 
0.02366641461145393 
0.1381998801432745 
0.05368152177254666 
0.03993548567097671 
0.02320832078507749 
0.01174979814629115 
0.01787123296191841 
0.0245232059627041 
0.1103541440840296 
-0.01877694021141062 
0.02062601901163801 
0.009683849396399656 
0.02638244602108802 
0.04147176643462173 
0.02861823767105185 
-0.01412765725061264 
0.04046021450691845 
0.05284488934119207 
0.05221099121324963 
0.05842503315258892 
-0.01654803184210423 
0.03906004603893343 
0.01655578709571128 
0.00575088110393784 
-0.00194954110059348 
0.01721198037141406 
0.02246936267842028 
-0.0455117747890817 
0.01564541777768546 
-0.00502340903258753 
0.05482128488990862 
0.02346183816473544 
0.0305832126277984 
-0.02611969803562314 
-0.08830479414489562 
0.05792766838184401 
-0.003859210229293481 
0.03717250432741354 
0.02215962109756114 
0.002567814982917162 
-0.004882328363436559 
-0.0005686879598800674 
0.03363870125605294 
0.005845012086041179 
0.04128983767729441 
0.001363383831555932 
0.0175319790647421 
-0.0398354609045293 
-0.004486458056494202 
0.01047469850820748 
-0.005135448003376207 
0.0423878482506569 
0.01271512066590383 
0.0820582972159887 
0.1214783397263723 
0.01383892914538377 
0.02010670090324522 
0.06125669561080556 
0.04304453366087639 
0.01874901966587205 
0.14379468226403 
0.08007153379117789 
0.02249327177498072 
0.008337705689815895 
0.03015148346434836 
0.04807765926765174 
0.09851800948008731 
0.05713811077315331 
-0.0008686719910639219 
0.01401645667871702 
-0.01052856781186745 
0.02124882894475995 
0.02028104102450377 
0.03399655153745031 
0.02212562311129589 
0.02241256396771265 
0.02558593364831542 
-4.343932579493122e-005 
-0.01889430320168211 
-0.04073694943386799 
0.008806810130232766 
0.003863400198343371 
-0.003132818449299698 
-0.02088241888110888 
0.0341168069773469 
0.01911320227453623 
-0.0501324241600095 
-0.01894294777935436 
0.0143298145094567 
0.02216929239737073 
0.006172929674101817 
0.02701535929544219 
0.02316990780173832 
-0.0207684075559733 
0.05700839578850877 
0.01584998141602164 
0.02783480552992933 
-0.02703575130104868 
-0.002695273875113315 
-6.220272738642889e-005 
-0.04181585009999783 
0.01309740024360485 
-0.02137707704695374 
0.06336831753257693 
-0.03171999213879978 
0.01482616137776328 
-0.006089211649896177 
-0.03428531442331278 
-0.0008898452937379028 
0.003967041704972356 
-0.002366526391563627 
0.008979254611609866 
-0.007534949763063913 
0.05919187653526502 
-0.02200688039375988 
0.01775475717091235 
0.01404779864857905 
0.02021739980883044 
0.01486357849412291 
-0.02871254481481207 
0.04816434467921089 
0.02494813722636696 
0.003111624390972201 
0.04436433384803854 
0.02199753349547072 
0.0630196333766844 
-0.04957012368117936 
-0.02209579116697808 
0.00601068203896176 
-0.001859807884592207 
0.00240093967967497 
0.02861501645629067 
0.04894833303902001 
0.02035783903620043 
0.00941331062721939 
0.0106958305152211 
0.02003641287663415 
-0.05670019107610184 
-0.0391318806940423 
0.000557215711087453 
0.003687770693737877 
0.02448683383996202 
-0.01777800730748852 
0.03579658521230217 
-0.003792134838951486 
-0.01655854597178642 
-0.003165094958981213 
-0.01372847933171662 
0.0551100771194864 
0.004902353170140724 
0.05851992696462718 
0.02320647500548369 
-0.03136509172960499 
0.04901750329960129 
0.03085003456335793 
0.01509468492879865 
-0.00302390357603375 
0.007947213865137524 
0.02371845943278825 
0.0285895918643115 
0.04742457868983445 
-0.007754074476272964 
0.03265025021450776 
0.02317293307768041 
0.03171414499052121 
-0.004332605606526808 
-0.02941734076385989 
0.01798795964457188 
-0.008005289878439339 
0.005501761242294624 
-0.02131877182350558 
0.009400109390329139 
0.01026240214991509 
-0.02816150910356675 
0.01684057967358384 
0.004284241354462835 
0.01574818971870901 
-0.004026390361001872 
0.004653181379234987 
-0.01909779774110258 
0.01583055889335469 
0.02292392013613792 
-0.02254250020185564 
-0.03166032308899685 
0.0213970284894938 
0.05455026612954055 
0.02489952514873521 
-0.01335220824722533 
-0.005260578970260756 
0.002212008505318842 
0.01775854606383794 
-0.02723956819968567 
-0.01640035114953227 
0.04598263443706548 
0.02103932902703674 
-0.01045564132066786 
0.0101256424363142 
0.0009626572765409736 
0.03925866779659014 
0.04969937879926305 
-0.04324251884677952 
-0.03577356403668169 
0.0125000434501821 
-0.001626337399614099 
-0.01625725869616825 
0.008088221804216035 
-0.0400541757823078 
-0.01257200135629906 
-0.01144267296339389 
0.05659934795291038 
0.03421192187115657 
-0.01309842462798861 
0.0830145569468223 
-0.003815978740725393 
0.01542970746939503 
-0.07447628971599485 
0.01942126885998614 
0.008560176250701065 
-0.01406330593184627 
0.06263676736362218 
0.0390925493750143 
0.04177940609097511 
0.05346180401594464 
0.03559108289500728 
0.0168657452522401 
-0.003544581188319239 
0.0352168731156227 
-0.01023728772808265 
0.04438593700472753 
0.0131004459881598 
0.06186681103428302 
0.03094365759404593 
0.006726019957846014 
0.04005604365965994 
0.03951884287877513 
0.037780902562988 
0.01454578479418036 
0.077928555276019 
-0.00777282126908363 
0.03278624177511983 
0.03080983750039918 
-0.001472367608572014 
-0.05543341281319635 
0.05951801846816723 
0.125173982208942 
0.003351444337721178 
-0.006483194025386036 
0.008593255045680268 
0.006882449315202188 
-0.02040259600945089 
0.06463569668506698 
0.006449222961735088 
0.06417081939276882 
0.0188581424230276 
0.003747995157540289 
0.01761832839454519 
-0.06717178834111534 
0.03984798453701247 
0.05291277025955368 
-0.02887986974115865 
-0.03988311349052108 
0.004102809096793386 
-0.0001142600921297098 
0.009585936578931751 
0.0083821870758208 
-0.03285664144102758 
0.0064581675607701 
0.0003819001171951517 
0.05060277958522576 
0.01974870862550233 
-0.02569976171395661 
0.1065201142885087 
-0.01247192686580823 
0.04151728555055732 
-0.02018387389663306 
0.03523582808211436 
0.006887230815481218 
0.0213974887254142 
0.03005816392911564 
0.009191708540551577 
0.01414468607955109 
0.06168921583063607 
-0.01331530063060398 
0.03332973930695295 
0.0174676684254035 
0.03575406780170649 
-0.006212800512556136 
-0.02015625641034489 
-0.01785904654292607 
0.03284033020562938 
0.07951512601828768 
0.02156785379966897 
0.0419693432972822 
-0.0258470826725834 
-0.04717584582141818 
0.01272630160843958 
0.08445968285950317 
-0.04852319558599774 
0.0276244695638844 
0.02814693739041505 
0.04188043068916162 
0.02511753676386984 
0.1736240315023956 
0.1608669187410884 
-0.02453860942236121 
-0.0009460130607954447 
-0.0006651153008669213 
-0.004792422955117318 
-0.004752248030365512 
0.0757779066700629 
0.001744708118309868 
0.06824439949825319 
-0.003866356107822269 
0.05849415386054759 
0.001225900116725658 
-0.03992153040706783 
0.03939697167893955 
0.05490797710225824 
0.003037679240148402 
-0.03800068947266209 
0.01163041132618646 
0.01049374762730411 
-0.0002621728230981557 
-0.003384988435545378 
-0.02284023894236629 
0.003015897166030199 
0.00168861070545103 
0.02841158293208876 
-0.01919038719840499 
-0.04921446941173901 
0.08799761418586381 
-0.05822684604840062 
0.08676867826119708 
0.04446733719163547 
-0.03860601919648191 
-0.03602804192579066 
0.05759604988976318 
0.0757899813932288 
-0.0270748086537911 
-0.09089264491912086 
0.01147050772278063 
-0.06882075971790161 
0.04735123869821828 
0.06737893988499699 
0.002310773343505759 
-0.007051986177776198 
-0.04112116002900255 
0.0008115921069635744 
0.02250420002357162 
0.1184118317409688 
-0.04117814178551028 
0.01337897981682629 
-0.1145305157861394 
-0.03755316508743634 
-0.00286409332974424 
-0.04285612426806985 
-0.03230700237316129 
0.03247861825198803 
0.01746723430850785 
-0.01188126336626723 
-0.001740329996571798 
0.0343088397433849 
0.1055840502589623 
-0.04903273410367145 
-0.0001091436438306475 
-0.006199358473848141 
-0.04701780545544833 
-0.003770021613505458 
-0.01472962996563646 
-0.03758492616931021 
0.05104625491679901 
0.005187280603310232 
0.02492207658320385 
0.004468236961696421 
-0.02073462100805714 
0.04372360625997442 
-0.003039900742418593 
0.004486003323428118 
-0.0541211407265523 
0.002502856778128073 
0.01520100650710535 
-0.03888582884847133 
0.003789557003513944 
-0.02363286943418519 
0.02627773446014691 
-0.003571559981688032 
-0.01018444744422264 
-0.05725318641482774 
-0.1367352309426007 
0.1020738408475505 
-0.02185412620725449 
0.04715917231279379 
0.03345914427403664 
-0.001370969434666401 
-0.01610339764488046 
-0.001735998722212842 
0.07925049535747357 
0.03156705155432071 
0.03711447729248923 
0.03382407128210007 
-0.02488126378719017 
0.01712726787158616 
0.01503969201287214 
0.0757636940117952 
0.003452232609888043 
0.04295956580140214 
0.04416214186923179 
0.1498401827411707 
0.1305382229942755 
-0.002991901581620299 
0.01639574808928809 
-0.02060939671235928 
0.02856537326993701 
0.02316487883797707 
0.0506438214445472 
-0.002083778852098643 
0.03843587284488624 
0.007081017755586933 
-0.01410091380156351 
-0.01357453350872435 
0.006272791198397533 
0.07736123076906259 
0.01367862774781308 
0.02292220854597124 
0.02220402549677803 
-0.00421761290202185 
0.01554749428287852 
0.02865218405268215 
-0.05662326110101918 
0.02966180303244302 
0.02513178716288859 
0.09656448825986037 
0.009671672012896636 
0.009195591063107463 
0.02666518715851124 
0.006160134405410321 
0.01211464848331943 
-0.03373863621839009 
-0.005019400429324488 
0.01519204608810036 
-0.02934336368622351 
-0.003672042158592571 
-0.002308116552491722 
0.01094419239353828 
-0.007570051348599721 
0.0340912185242466 
-0.0001383461429533489 
-0.07971830656532074 
0.06936657499784305 
0.01843306128297115 
0.05050495567939656 
-0.0004378833298539874 
0.006968578633286093 
0.02903547115849096 
-0.01729649075774897 
0.007034635147672126 
0.02308040224170287 
0.03240806044226988 
0.03199471576704435 
-0.01323987129881538 
-0.04368111877290984 
-0.03341509330981613 
0.05831834597799447 
0.001992545694176343 
0.006551697855305553 
-0.03478008481033591 
0.05438361617400146 
0.1030094998124484 
0.01519142180379794 
-0.003360247171650186 
0.053805844302683 
0.01873465698765393 
0.01371463622767338 
0.05942451075926839 
0.008516287432685928 
0.04135611223879768 
0.02975322275556893 
0.02692326892619965 
0.03841039796242027 
0.03530133107810439 
0.0386375877988779 
0.007961949842090506 
0.0198890949763216 
0.006815975089301988 
0.07316185793594214 
0.04897878367247041 
0.04070677259934703 
0.002552549711483039 
0.03510131252573893 
0.01618661331008551 
0.04697741464323771 
-0.01805758689949855 
-0.005421704430221018 
0.03841858725074123 
0.02095424835955825 
0.0001775845041344311 
-0.007889773959312877 
0.00586604359186135 
-0.006220225100840146 
-0.04732169933944182 
-0.01068780913504255 
-0.01348982302391976 
0.0249766921413411 
-0.004696958444249283 
0.04707678358727323 
0.02868659105865033 
-0.0224067028976859 
0.03842795912757227 
0.01232220141401194 
0.02279784368558912 
-0.03540141410408217 
0.0009402640171783959 
7.818354372385734e-005 
-0.01962708149749631 
0.009769391622432478 
-0.001531325893088827 
0.04424870266232928 
0.02600846837298702 
0.03745506582555421 
-0.0002628932771218294 
0.01339805326664904 
0.007264667353491138 
0.00269446178464868 
-0.01575547714987969 
-0.02124769910012184 
0.03745828162804656 
0.06451366948147085 
-0.009333219437142116 
-2.690587410061144e-006 
0.03778746859570173 
-0.02076460248380065 
0.02189717849791814 
-0.03908285468767165 
-0.002116474956735978 
0.03455392676446303 
0.02847616688821723 
0.009100155090734065 
0.00175518306513825 
0.005295591870069048 
-0.006291338272371229 
-0.01067759307994502 
0.00517720941895532 
-0.01702414135216386 
0.0258712838387551 
0.02247748947339463 
0.01249988127462805 
0.005619575520807473 
0.01768463783034145 
0.01613117647254642 
-0.0101958904346955 
-0.03567150496337754 
-0.03791486677063526 
0.006497809645719847 
0.03361203198706792 
-0.02565063826710635 
-0.01645166392753004 
0.02552732799160071 
-0.01770569964357539 
0.004993679563009888 
0.002806212227529062 
-0.0502439731969101 
0.05840965289897323 
0.004492094319994948 
0.05614754380238341 
0.03903491292533248 
-0.02690291118072188 
0.04235727565330761 
0.01734620507031592 
0.02853202161919387 
-0.0176533797668903 
-0.02399074801857619 
0.01140789906241075 
0.00905125884038103 
0.05856727251452505 
-0.01777824496092462 
0.006882111300942522 
0.01047902331300263 
0.04927672801671052 
-0.003389438273632988 
-0.05067005463525025 
0.002970773095953263 
-0.01609683966684604 
0.004797817730682593 
-0.03686321600817933 
-0.02483545341870781 
0.01834411399542577 
-0.07165110765444009 
0.02611293892561754 
0.05159458128856742 
-0.01089362211329323 
-0.01232347358272901 
0.01180201851098987 
-0.01773004735824298 
0.0196640779339864 
0.002347506459115797 
0.02045117429336686 
-0.04244462230601379 
0.0277592001636938 
0.06091732085653451 
-0.0005582081241216798 
0.003325215908509365 
0.001949773828215141 
0.001751486618405339 
-0.04152772965068653 
-0.01739677278316983 
-0.0001624250798466272 
0.04511186238052252 
0.03161658100707405 
0.03509753964287794 
0.004916432560292283 
-0.02325656792229627 
0.0105886303056493 
0.02617501206881907 
-0.04175648784852063 
-0.01071274431195619 
0.03655749208904262 
0.009052679484734568 
-0.0369077565506246 
0.0009380274194868404 
-0.05881021413245075 
0.03778481605445534 
-0.003491863453025536 
0.05485963126464478 
0.03393140324951262 
0.01063414517839812 
0.06715724453248888 
0.01541014450147367 
0.002011013326825476 
-0.06221067519354552 
0.001311718001263336 
-4.560368085783884e-005 
-0.01363057541225725 
0.0426301653755545 
0.02273907463877434 
0.01524239075234123 
0.01351783114095181 
0.08151837658651912 
0.007659669745576885 
-0.0395298334290725 
-0.0271769421432717 
-0.03258516033463923 
0.0361525534052745 
0.01619482765525649 
-0.006520881204035392 
0.02142794244177056 
-0.03152329125125215 
0.03117544169464272 
0.0353624724287306 
0.01856353020976869 
0.002786355269434942 
0.04160952387163016 
-0.011839361700758 
0.03742673504453022 
0.003497917344109678 
-0.01641653255931561 
-0.04313044999923289 
-0.04979586906261779 
0.05507172461902701 
-0.0204891544796916 
0.008452223470376398 
-0.007180727740754654 
0.01491006725621498 
-0.01968107334031564 
0.07988307200378642 
-0.004792470635272036 
0.05344333631143681 
0.035174674836217 
0.04937936413025828 
0.04865292344397986 
-0.06166303430946766 
0.02969808449032547 
0.04029706965667735 
-0.01762638261854441 
-0.004502727139029859 
0.02605504544060831 
0.01180728431444502 
-0.001732274649893641 
-0.01220902484282554 
-0.06096426944048462 
0.02670998436935924 
0.01387746220993673 
0.02950932041840781 
0.04122732380235284 
0.01919591937946113 
0.06881153522926449 
0.01074172170367172 
0.06180573641537221 
-0.007147692936337701 
0.03450365526678893 
0.01559170161218744 
-0.01965822482863263 
0.01996403856636052 
0.008273085420768165 
0.01703894391738905 
-0.01435872100868893 
0.04185994051117586 
0.03036678548007543 
0.006878423937957155 
-0.009580755675443359 
-0.00483422395443414 
-0.03893096187795249 
0.01776076845334908 
0.04445300901125741 
0.1839290127378865 
0.001839641570222634 
0.03674337525560115 
-0.004760886554923144 
-0.04454013132138605 
-0.0003689798810098048 
0.0482504070517026 
0.0009336471575979084 
0.04219368827343918 
-0.00703663283491246 
-0.00926217526327707 
-0.005905300332081387 
0.08460026659059035 
0.1376003950824695 
-0.04308258016172572 
0.009063231295711662 
-0.002780463316088586 
-0.006500295403451202 
0.002554327412954341 
0.1423173607716182 
0.005484923325324127 
0.08620219760146861 
0.04529487121146021 
0.03628074732823244 
0.003061645333633349 
-0.07028153307516979 
0.008781912381592805 
0.05747784352518375 
-0.01790523110374685 
-0.05484636232929585 
0.008372488906154213 
0.006765629992433441 
-0.0170104660272777 
-0.009731689696190605 
-0.01908324708462714 
-0.01252612121853441 
0.004795286520154154 
0.04203013247535662 
0.02145495006159219 
-0.001207228117898428 
0.009834554891573833 
-0.03596692353434582 
0.07781525627192644 
0.03135929669629797 
0.02043861394171551 
-0.03254038206235532 
0.008084020208341732 
0.08581902874970901 
-0.003831391094285279 
-0.09853167779741624 
-0.05609345844888155 
-0.008920045384931834 
0.05265036244964551 
0.03025247926045641 
-0.02912900901222969 
0.01210569190177043 
-0.08846671615584417 
0.01803404518375255 
0.01355858718918181 
0.2142188089203281 
-0.01516613842477133 
0.01841386512363937 
-0.04522904634940682 
-0.09081948487996663 
0.0168971989621621 
0.01196904442751255 
0.017664670534514 
0.08086465498266268 
0.02890162868773398 
-0.05908044216630708 
0.02838628546189745 
0.05842718038782198 
0.1800912119054741 
-0.01490553011126796 
0.02486362496463663 
0.0249871239746436 
-0.07538048324994086 
0.006823504420483678 
0.03256195207640634 
0.02644929460761388 
0.08421681468371256 
0.04637375027274501 
-0.08124417905410411 
-0.03404790742200443 
-0.05894236568465219 
-0.02278202421015567 
0.01542209756649569 
-0.03238175616217218 
-0.1008787363350505 
0.0101731071927191 
0.01150448782033091 
-0.07711437036629493 
0.004115022292896209 
0.003680854900166266 
-0.02467034523530068 
-0.008418915239744931 
0.001785796859846756 
-0.01764226787787265 
-0.06019948074873245 
0.05931575439734175 
0.03597556401792842 
0.01570014576996933 
0.01558274281923834 
0.03135396364083656 
-0.01776754829963404 
-0.00947958204280938 
0.06485691455520645 
0.04243801398954909 
0.04517030192756628 
-0.01897723638689378 
0.02125707759593459 
0.04140992947648573 
-0.03418315813617652 
0.03634413861722705 
-0.006242695090209431 
-0.009627114513146289 
0.01031879028305067 
0.06475890560850196 
0.1126828654765991 
-0.02132335142795995 
-0.01099693863136438 
-0.01821817996927122 
-0.01597489518101562 
0.03323801378812209 
0.1175844326891874 
0.0050010192607889 
0.0752551678084705 
0.04953289359282143 
-0.01491558685487393 
0.04757479928860426 
0.04888592457399255 
0.1645995305378216 
0.002322632424335784 
0.03109625028268013 
-0.008004764179327304 
-0.01007891106824652 
0.01678605591010689 
0.02326126382598851 
-0.004157933504116446 
0.02734720236456005 
0.003863067208465587 
0.05909228514467924 
-0.03530096180230342 
-0.007233564236212268 
0.008733747205830754 
0.04839691758824873 
0.0226327113384263 
-0.02008234212330365 
0.01360092289195422 
0.02462448014587255 
-0.0630684726713088 
0.003675297259097655 
0.009095277608815993 
-0.004986853060503653 
-0.004857710087783756 
0.0362673734125972 
0.03633177537591197 
-0.0311829013950847 
0.04575144753602518 
0.06710032524365547 
0.02640809078256459 
-0.03212000044493896 
0.008885598768870226 
0.02744535083235385 
-0.0439632947082135 
-0.01769213542076253 
0.02577165426798574 
0.01480161720830447 
-0.0285304286627648 
0.03117617486638535 
-0.04165149463646439 
-0.04090663611038401 
0.03609665938217248 
-0.01996835149844828 
-0.01155668984120775 
-0.05510957860699674 
-0.01471424259942643 
0.03010624441575297 
-0.005158647885937407 
0.005849430377895319 
0.04435056093157257 
0.02043135752922896 
0.02237578123580785 
0.08857518588871984 
-0.02636569712614373 
0.03524465511205159 
0.04250096269411948 
0.0402849609498112 
0.0422676333620147 
-0.02491797414239059 
0.04225487017837402 
-0.03773178546427847 
0.03897437606691966 
-0.01451011566222344 
0.03523438542807512 
0.01324804465544139 
0.008533282323596812 
-0.02401763158925593 
0.0245942449047184 
-0.002214564394094511 
0.0599800880664613 
-0.001099258346524121 
-0.02446058320993431 
0.03824990641421372 
0.03743382296482884 
0.04818559356094836 
0.02562239344389438 
0.001104912963858237 
0.005474573559061946 
-0.04808307179516223 
0.009953745104102567 
-0.05254577221859331 
0.02046675500699935 
0.02298891767275805 
0.0539090553170502 
0.05755365780108761 
0.01641686211654366 
0.02324768526575722 
0.03283363555001689 
0.03134794723504631 
-0.02229179728062824 
-0.001428914448213215 
-0.0006541879755668078 
-0.03770121423573695 
0.01445348964825179 
0.01246069165400638 
0.03243004805243179 
-0.004014261460109208 
0.03234030866783572 
-0.01598873452693003 
0.01086241213399928 
-0.007892817225307013 
-0.004604125667626197 
0.009337468701758432 
-0.0423033195817407 
0.07393254752184622 
0.04747735459332793 
-0.03647934484484384 
0.01247173057186475 
0.06298256413580983 
-0.006232930440116816 
-0.01841678226442521 
-0.006229651326277353 
-0.01165133655643936 
0.02716159878737158 
0.03211174363272589 
-0.01310096839283068 
-0.04411147191355389 
-0.04674466296605865 
0.04713281761400207 
-0.05298946975150094 
0.02712927052736203 
-0.008175720116913929 
0.007013322758270064 
-0.01679983464104363 
-0.009203377847969221 
-0.001811667866086367 
0.02363318338826102 
-0.00106052729903687 
0.02066204025760833 
-0.01002537039582245 
-0.06254758493048905 
0.01628573021319916 
0.04005111823675146 
-0.03386645339844719 
0.01696961781682521 
0.01846135738312021 
-0.01968229476543758 
-0.03601494627632416 
0.02639266862781896 
-0.07637552895812742 
0.02065441191190625 
0.01655026595393129 
0.03831993546576396 
0.05211415412181579 
0.0235810026277497 
0.03793516181960751 
0.02602991379690664 
0.0342829692197215 
-0.03435508328743311 
-0.002891522145908126 
0.006131746883866379 
-0.02086288697364957 
0.04364236544250672 
-0.007790399363370358 
0.04630146009291788 
0.04080256126690047 
0.02005051783045395 
-0.002994486670899482 
-0.05530229686114435 
0.0153036158772055 
-0.01004393715790613 
-0.0007098408178809389 
-0.03176346472077948 
-0.01834915709604738 
-0.02748557192942612 
-0.05108646167251395 
0.02777620981556896 
0.04137148197763798 
-0.02886120548408614 
-0.02591876685898801 
0.02463937052458734 
-0.02490435120660344 
-0.003175230473847043 
0.004626034624938076 
-0.001432598917257419 
-0.06569103477856497 
0.01572218589506612 
0.07156584832495536 
-0.01362499651212859 
-0.009394271132680827 
-0.002720814261815024 
-0.02598350848813687 
-0.001204516544378708 
-0.002490990227864725 
0.0148637608086924 
0.04028734053661685 
0.01586541794088244 
0.01482676187196391 
0.0112667217551418 
-0.03017214762370043 
-0.004858605867232993 
0.03675122840813519 
-0.01207369924316828 
0.004142699321064662 
0.02645209358529118 
-0.002238630818082498 
-0.02340762083239897 
0.01394308112096545 
-0.05767532879074893 
0.006015783250367818 
0.005958271383693392 
0.04856414782714622 
0.01653504298722943 
0.03735724416539864 
0.03195079826872844 
0.04657546970587451 
0.00782771793286254 
-0.04574799000357698 
-0.03428968946951311 
0.03849820771872949 
-0.02481594052780443 
0.02995076074072351 
0.02329772974798209 
0.106912625890621 
0.01574403530694805 
0.08057948809563119 
-0.005090206216030329 
-0.02081671589027666 
0.0165897797499594 
-0.02127183156089787 
0.01157839005077714 
0.001237374770854839 
-0.03966911352696349 
-0.00256426855223011 
-0.01035880505210576 
0.004878789421969072 
0.01334821739930539 
0.0234079106263809 
-0.01788322434763021 
-0.01698772216205347 
-0.01080037259124612 
0.01237231468437657 
-0.004076957331013798 
-0.004504813750961764 
-0.05466304806231114 
0.01343161489344831 
0.05203053639696445 
-0.02409911680665395 
-0.004590609987953689 
-0.04272015578179742 
0.03778561584460553 
0.006472632668111476 
0.10888680535208 
0.02964921070609 
0.06703378860039545 
0.01708032506904341 
0.06864608277229753 
0.05781352840011734 
-0.03842185140989495 
0.008084781074248888 
0.04960616798619456 
0.006836514723788427 
0.0007478886512852462 
0.01796224906046262 
0.01905736092463046 
-0.02532039569068005 
-0.0002209062333162359 
-0.06966164017945162 
0.04738768150348385 
0.01871593991793305 
0.08524488593224336 
0.009449543730323202 
-0.001898556742574296 
0.07658985140402047 
0.04386862395480957 
0.02913662469593281 
-0.01692410412043811 
-0.01097367311224726 
0.01974300787211041 
-0.01190516565609405 
0.02100458689065298 
-0.02349776380366436 
0.0934829294176646 
-0.005470474433956435 
0.07847689988872796 
-0.02472641586074789 
0.0275818016409016 
0.01389991386553783 
-0.03036896328287832 
0.03873084773588986 
0.01418943825074646 
0.04571343095408408 
0.183462742508046 
-0.01377366840717952 
0.005700258912933299 
0.03334967812184407 
-0.0009041439575852092 
-0.01316004639152625 
-0.004902669394644924 
0.01703923821176223 
0.05124420231501783 
0.0002655631736400186 
0.03223959188205526 
-0.005164160027522783 
0.05105439046896953 
0.1015724228255441 
-0.05061851502664367 
0.005794232286689376 
-0.04066498449783022 
0.01733905612507901 
0.04263096391296688 
0.1719377578117035 
0.02824942440207007 
0.08995400038462879 
0.05335539448088569 
0.0352185289424947 
0.02216648324535332 
-0.06705377032784908 
-0.004585558163150475 
0.06725891962435621 
-0.009407783901186689 
-0.03867271999001181 
0.01772787500666359 
0.01236832262466562 
-0.05669573795048979 
-0.008118247126675813 
-0.04825253400296067 
0.0114606839273117 
0.007261758685549488 
0.08138363025625683 
-0.01574274665584965 
-0.03429247678647154 
0.03574431524150993 
-0.005537898329358845 
0.03868521767726456 
-0.01336480798729022 
0.04077082326221316 
-0.02831377702828299 
-0.01249772208769573 
0.05160951325656137 
-0.03146626300425584 
-0.05513209130466741 
-0.03794261901861844 
-0.0005656841085988655 
0.003353249314219811 
0.003346281026475665 
-0.004769034886266326 
-0.02278358898593266 
0.009781783368476276 
0.01194296629449787 
0.02391048256395853 
0.2274911510350357 
-0.01534707985616308 
-0.004987936992289294 
0.01297867552076782 
-0.05274724568237102 
0.01593220789247657 
0.05015204515139224 
-0.007017891335310078 
0.08217740289516901 
0.05189413270956798 
-0.01665285628136432 
0.006227525817096254 
0.06769857054229655 
0.1994819544895471 
-0.02024133682555046 
0.02158268062804553 
0.008107831120009132 
-0.007901312829127146 
0.009102531571869599 
0.06003307790014466 
0.002038258640052703 
0.08155757309328475 
0.06570553888292996 
-0.07484606333545739 
-0.01303062710946733 
-0.06127581668174393 
-0.03042090877366218 
0.04274957641564172 
-0.01797106263704625 
-0.07607473958765712 
0.04621291055356589 
0.01148576228685802 
-0.09454396045770616 
0.03398392349390628 
0.004138248259839992 
-0.03987617307925557 
0.009928921981485385 
0.03293234184821928 
-0.03969022130316097 
-0.0570293034060118 
0.04463898349263637 
0.05129878575493739 
0.02389152876725024 
-0.02357662748189017 
0.01450708175570461 
-0.0165538245000842 
0.02266699065219277 
0.05317498295632885 
0.007420116166721539 
0.08606903412994596 
0.02040788132276018 
0.04774183223164349 
0.001764416272892819 
-0.01160792255025177 
0.01205686299455854 
-0.002171408015200121 
0.01376405813648024 
-0.003572499817081093 
0.03862186242451307 
0.123590196821234 
-0.02371050206521442 
-0.01947014513864914 
0.03698662304322078 
-0.02394175282862425 
0.02653370249087973 
0.1705865199553578 
0.03599227268754393 
0.08442934254066772 
0.05791294085735278 
0.02212096226285824 
0.02082021071328672 
0.05690532047451786 
0.1826659256920271 
0.00430607644171158 
0.00925978665991441 
-0.04663904525423412 
0.0154397445122937 
-0.02999554244375802 
-0.04147279219487248 
0.007768355427891217 
0.04755572963104432 
0.01444814683569838 
0.03620474631709709 
-0.0135130419178798 
-0.04040050695757707 
0.02971849360011948 
0.06235980869499292 
0.05480263151682289 
-0.02719269012538417 
0.01857458707732435 
0.01984401582486634 
-0.06430726983302205 
-0.006240799082944596 
-0.01329061215653441 
0.002057693692192587 
0.01001302421422823 
0.05919835053515543 
-0.01386176995237504 
-0.024279593814805 
0.02517728404948197 
0.04973321858258716 
0.03920871580377498 
-0.01094798735157514 
-0.02098284113528956 
0.01608649160513741 
-0.01082205145548333 
0.01105343252841029 
0.03956849753895618 
0.07243954023802011 
0.01156977098292696 
0.0596799201239409 
-0.03967195588820529 
-0.03897158058709475 
0.02043067143872903 
0.008288436691237659 
-0.01706412521823724 
-0.06008343612814296 
0.02903487082227009 
0.04204194409376404 
-0.02264921649233031 
