solver_type L2R_L2LOSS_SVC
nr_class 2
label -2 -1
nr_feature 3780
bias 100
w
0.07293249002658082 
-0.07308865244036521 
-0.07061298232800446 
0.04985150996014109 
0.09728269714603868 
-0.01376664930979799 
-0.01961948849634093 
-0.05349380388324636 
0.05935356694499239 
0.07936931639484091 
-0.001833397526556284 
0.00728071330698509 
0.009479532403034055 
0.1012021786488755 
0.09495404639965976 
0.02857577238444178 
0.00479929079488307 
0.1181093809345077 
0.05285757787667793 
-0.03805507380378671 
-0.02046212597194369 
0.08311330059209748 
0.1017543978444339 
-0.04626145226150927 
-0.05508423465277505 
-0.03866090632083565 
0.01210141605882112 
0.05483785708741011 
0.02369551963018793 
0.07126661867429406 
0.0325537863308728 
0.04956076659979227 
0.04102827200984055 
0.02481868011507286 
0.009545413124218105 
0.05752504366578472 
0.0
0.0
0.0
0.0
0.0
0.0
0.0
0.0
0.0
0.0
0.0
0.0
0.0
0.0
0.0
0.0
0.0
0.0
0.0
0.0
0.0
0.0
0.0
0.0
0.0
0.0
0.0
0.0
0.05720097392320458 
-0.03891663247172591 
-0.02714529482912548 
0.02781032167242701 
0.1082897173714771 
-0.01357119942201062 
-0.03608819745421547 
-0.03773907283931902 
0.01158296941915968 
0.1226362755862649 
-0.0006370669160915728 
0.08739203864260689 
0.01740234827495083 
0.08567547923960965 
0.07223796370708686 
0.05272214194955845 
0.02324520971641139 
0.07007076788846306 
0.03136051760059277 
-0.06708949123926052 
-0.04782160961288091 
0.01051903034101496 
0.0186064458773829 
0.004087525657945911 
-0.004657932114557121 
-0.04826758030533825 
0.03135180560499505 
0.08117457885049158 
-0.01842551350031218 
0.07931053454282924 
0.01284346197765631 
-0.02375133446632888 
0.05408135502235014 
0.02914015609619669 
0.003339381827166253 
0.09825954284629745 
0.0
0.0
0.0
0.0
0.0
0.0
0.0
0.0
0.0
0.0
0.0
0.0
0.0
0.0
0.0
0.0
0.0
0.0
0.0
0.0
0.0
0.0
0.0
0.0
0.0
0.0
0.0
0.0
-0.02610140641590322 
-0.0191814317366523 
-0.006776805296197857 
0.03328053897870958 
0.08419573886678304 
0.01728756542808469 
0.001122795592282548 
-0.05581131208448931 
0.02033469551048095 
0.04768159974128385 
-0.02593155808903001 
0.04538462451194705 
0.01511449730046198 
-0.01853745052926578 
-0.02042901359476072 
-0.0196843184773158 
-0.02959282756769855 
0.08134603245162604 
0.0322711052615797 
-0.05860463032755964 
-0.01612238104516836 
0.03269473997206389 
-0.02265821338167411 
-0.03481246846815395 
-0.02806877931854044 
-0.06980441148222497 
0.05588408673049319 
0.04167805878288767 
-0.09432051276031243 
0.02599839530414834 
0.09662410363464082 
-0.0218789619788242 
-0.006797775848141525 
-0.02595451152365964 
-0.1020003435095773 
0.06455122274532599 
0.0
0.0
0.0
0.0
0.0
0.0
0.0
0.0
0.0
0.0
0.0
0.0
0.0
0.0
0.0
0.0
0.0
0.0
0.0
0.0
0.0
0.0
0.0
0.0
0.0
0.0
0.0
0.0
0.08488676277285244 
-0.06975916210402704 
-0.03140032859482898 
-0.01419457332774372 
0.03839169107763246 
-0.009581936088695999 
-0.06329803096486623 
-0.08250762983439268 
0.06967643748382507 
0.07455326881437911 
-0.1006789530693299 
-0.05539242705551323 
0.04115103205486605 
0.09355275647481907 
0.02906814622281715 
-0.03327749703114505 
-0.06421079753737415 
0.09966857310176469 
0.1101068439427722 
-0.07355792278255448 
-0.07283952536135513 
-0.02459213235533599 
0.007614862029714423 
-0.01063441358483482 
-0.04290190506519636 
-0.09048196054741431 
0.06196051494639245 
0.1419512723751768 
-0.04011941738040071 
-0.01056840126759171 
0.02192244943845844 
0.05919267015074575 
0.04890003755357671 
-0.02220264829143993 
-0.05792289005514229 
0.1029555471187637 
0.0
0.0
0.0
0.0
0.0
0.0
0.0
0.0
0.0
0.0
0.0
0.0
0.0
0.0
0.0
0.0
0.0
0.0
0.0
0.0
0.0
0.0
0.0
0.0
0.0
0.0
0.0
0.0
0.07554814270956679 
-0.06433095619452921 
-0.05863132206846134 
-0.02626292669347938 
-0.00750366219439186 
0.02278176424822017 
0.005668950799443224 
-0.05650675016922322 
0.008356577700401845 
0.08656462327816551 
-0.03745874937635601 
-0.03564745047184479 
-0.003821752444564413 
-0.02499025285237598 
0.02933114842596652 
0.01957117794069088 
-0.05514387021365479 
0.04096280572541584 
-0.0003588772939773288 
-0.05615427441079694 
-0.02938992144744355 
0.03158222167713353 
0.1227684093105449 
0.04165649719322682 
-0.01001174737222763 
-0.05197138898496567 
-0.03278031612410961 
0.07169445637153478 
0.0009030363324577422 
-0.02083540387889039 
0.0001595200199988203 
-0.00712295444786414 
-0.001756401523027274 
0.04438580899670038 
-0.04499969347729388 
0.03628177553711797 
0.0
0.0
0.0
0.0
0.0
0.0
0.0
0.0
0.0
0.0
0.0
0.0
0.0
0.0
0.0
0.0
0.0
0.0
0.0
0.0
0.0
0.0
0.0
0.0
0.0
0.0
0.0
0.0
0.02148565965014507 
-0.02617233896111968 
-0.01713752189877254 
0.02695635203329327 
-0.005600077099314464 
-0.0102745543264509 
-0.05300376428990864 
-0.05951191423410199 
0.04530873696265857 
0.0544314574841336 
0.003461919981721036 
0.00900164028861257 
0.06637353367986731 
-0.0332854472716556 
-0.0443212061034273 
0.03095438322768001 
-0.01524805980858745 
0.08534394761103123 
0.01109680704161589 
-0.05104794059625714 
-0.05711084717616456 
0.003613326468269462 
0.06100329913823687 
0.05390819984179435 
-0.003385016138620459 
-0.01108889548743858 
0.07454799412709368 
0.02976559165019661 
0.005108834080765335 
0.007539026594817338 
0.08373934823160074 
0.09067987901689026 
0.02204688029088069 
0.09549194155353327 
0.03177125444466004 
0.1124881604040895 
0.0
0.0
0.0
0.0
0.0
0.0
0.0
0.0
0.0
0.0
0.0
0.0
0.0
0.0
0.0
0.0
0.0
0.0
0.0
0.0
0.0
0.0
0.0
0.0
0.0
0.0
0.0
0.0
0.01750876133528329 
-0.05918107792824814 
-0.05100870920732626 
-0.03922758278024245 
0.09552586750464023 
0.07028261865409366 
0.006639724816636039 
-0.01461816435655167 
0.05508340428442579 
0.04363274267073267 
0.001840482267264789 
0.01192765478814759 
0.02150513504758055 
0.06090000287022454 
0.03005800010718598 
0.06268680914695853 
0.006636113551881272 
0.03396557693079597 
0.07274055899927789 
-0.08231133837912391 
-0.002688575890927203 
0.01243175387483235 
0.1166013326309856 
0.05389964657175275 
-0.04905322267057193 
-0.07130065788333949 
0.09533631956766467 
0.09011894589326597 
0.009549372990409854 
0.04170632037814878 
0.09197806389309475 
0.08078414755810381 
0.02850059447309289 
0.0009825451467921707 
-0.03161161675897649 
0.07298732975913007 
0.0
0.0
0.0
0.0
0.0
0.0
0.0
0.0
0.0
0.0
0.0
0.0
0.0
0.0
0.0
0.0
0.0
0.0
0.0
0.0
0.0
0.0
0.0
0.0
0.0
0.0
0.0
0.0
0.0135399490613858 
-0.01893671884362714 
0.005973800615989137 
0.01883157008180671 
0.09372758335815078 
0.02946611688043661 
0.003058329937376837 
0.01561478007344927 
0.05900880174864037 
0.0563930718959621 
-0.01251892956571631 
0.05422150674308925 
0.08050458211183008 
0.05302739805649537 
0.01388404983393269 
0.04095318466829064 
0.04522480444993719 
0.07331250061556148 
0.001645407571012184 
-0.00882487117993081 
0.007606609048439028 
0.01153205328643672 
0.02380934362534528 
0.004130307715102451 
0.01444585309589663 
0.02410645140618626 
0.01981451898055451 
0.07049778488439305 
0.02242929519471114 
0.002765524151450323 
0.06101329124225467 
0.06370224988269593 
0.06024987263840505 
0.009878461778053174 
0.008826812823643145 
0.02675544967643741 
0.0
0.0
0.0
0.0
0.0
0.0
0.0
0.0
0.0
0.0
0.0
0.0
0.0
0.0
0.0
0.0
0.0
0.0
0.0
0.0
0.0
0.0
0.0
0.0
0.0
0.0
0.0
0.0
0.01527980446959432 
-0.05352315559875656 
0.002869839674646811 
-0.02441937305987523 
-0.001198399212939996 
0.003221490087032897 
0.01448221075510691 
-0.02086752634392233 
0.02000386800368243 
0.03614828934003696 
-0.01697086430000418 
-0.0339441585487181 
-0.006034809650476386 
0.01487969628024873 
-0.008132435233991878 
-0.00496398938464959 
0.0132159896875227 
0.07299767160306066 
-0.0104381722025128 
-0.06566591831554994 
0.01784552181500579 
-0.01758929982893448 
0.02629065508141096 
0.0238208736387644 
-0.03285869251447215 
-0.09459913675659956 
0.005115161807047869 
0.04650802014818289 
0.06049350972965798 
0.03180134890623333 
0.01355335621855696 
0.03453580659904987 
0.01498432508619687 
0.012680104175342 
-0.0526596846822351 
0.05239750485004703 
0.0
0.0
0.0
0.0
0.0
0.0
0.0
0.0
0.0
0.0
0.0
0.0
0.0
0.0
0.0
0.0
0.0
0.0
0.0
0.0
0.0
0.0
0.0
0.0
0.0
0.0
0.0
0.0
-0.003896552430736099 
-0.07206650848762866 
0.02056102993149627 
0.001940841848872295 
-0.0134515619357592 
-0.06537698837600094 
-0.07216807398848019 
-0.1182769962172085 
-0.0260335473494867 
0.06160431541898429 
0.06938113684526757 
0.09308276670814374 
0.05449761082661853 
0.05420491176781212 
-0.04553065598492246 
-0.01750959463167862 
-0.05035827406217676 
-0.006433341360308315 
-0.02976863866703287 
-0.01659109346158734 
0.1673355861453488 
0.1724953429821233 
0.07279457239049525 
-0.03913368993477621 
-0.05736535318800825 
-0.1522244588307983 
-0.04850284996396791 
0.1845409937209419 
0.2165460988252034 
0.1607113235923356 
0.170084694467657 
0.05062032063708979 
-0.0008737209818823796 
0.06801629346603455 
-0.01357886816150354 
-0.01780846984299643 
0.0
0.0
0.0
0.0
0.0
0.0
0.0
0.0
0.0
0.0
0.0
0.0
0.0
0.0
0.0
0.0
0.0
0.0
0.0
0.0
0.0
0.0
0.0
0.0
0.0
0.0
0.0
0.0
-0.07365913362133261 
-0.06882517857657315 
0.07591071752698377 
0.08162781861696133 
0.07195979186445908 
0.06212119531699394 
0.04586059546965886 
-0.06008029942179936 
-0.03363833326779659 
-0.06497271823886684 
0.163189831256097 
0.1431408228932049 
0.1484544528710857 
0.0720354681733595 
0.1130689535234518 
0.1841809676567076 
0.07151778578117533 
-0.1278388097514166 
-0.0472218005236411 
-0.07330143451489016 
0.04658034280146138 
0.04518255819567918 
0.08133666329111257 
0.1133369554768684 
0.1135581455321538 
-0.05286183444643942 
-0.08540879562563983 
-0.1179071913889122 
0.05176145351662524 
0.1214577003741036 
0.09082103752530048 
0.06136117639378506 
0.2148615938300587 
0.2081548079369359 
0.1922930338252532 
-0.04708414687209987 
0.0
0.0
0.0
0.0
0.0
0.0
0.0
0.0
0.0
0.0
0.0
0.0
0.0
0.0
0.0
0.0
0.0
0.0
0.0
0.0
0.0
0.0
0.0
0.0
0.0
0.0
0.0
0.0
-0.02613372892523905 
-0.0823511072638069 
-0.04519362837318222 
-0.01769485678861122 
0.06365615066041974 
0.1108018362337399 
0.1611066720890625 
0.01061645579944914 
-0.04913366749401259 
-0.01154739734427058 
-0.03693868108896418 
0.03166963439620762 
0.02688277067463197 
0.05234244959103883 
0.1641841779721024 
0.2122071447639839 
0.2260795967178569 
0.1190014121286646 
-0.04099203577243862 
-0.1155035783997127 
-0.06953715086095097 
-0.04491322381247453 
-0.01146087361624663 
-0.02646017269490537 
0.04166858925299865 
-0.04531380305944558 
-0.03431547276610186 
-0.001288131138890135 
-0.06255211892804216 
-0.005328606024000585 
-0.01836921260111852 
0.04674291396049633 
0.06146131334865082 
0.1369093036216733 
0.1066456732407119 
0.05161878319061916 
0.0
0.0
0.0
0.0
0.0
0.0
0.0
0.0
0.0
0.0
0.0
0.0
0.0
0.0
0.0
0.0
0.0
0.0
0.0
0.0
0.0
0.0
0.0
0.0
0.0
0.0
0.0
0.0
-0.009769483015665494 
-0.08734498610557763 
-0.03342367880690387 
0.0460648543803657 
0.04002609453387896 
-0.04014740693508521 
0.01550512023774768 
0.008842363715153546 
0.01387765751224415 
0.04346361848554513 
-0.03623814004576173 
0.01847054318758952 
-0.01158130639716623 
-0.02265053005297375 
-0.00999176242379516 
-0.003919549463769242 
0.0716372304182029 
0.05878938148243246 
0.0208287246892251 
-0.03077866400895598 
-0.02428062863533189 
0.05958932178129889 
0.04097661387391421 
-0.0283813113870937 
0.009257408189327543 
-0.01477777609372001 
0.01195720715607094 
0.0659262514469572 
0.00574483131220814 
0.003193125914067086 
0.001098487137165343 
-0.04942196068081547 
-0.02199369301142162 
-0.05107574102231884 
-0.03304015872476528 
0.0005508487080539205 
0.0
0.0
0.0
0.0
0.0
0.0
0.0
0.0
0.0
0.0
0.0
0.0
0.0
0.0
0.0
0.0
0.0
0.0
0.0
0.0
0.0
0.0
0.0
0.0
0.0
0.0
0.0
0.0
0.01299826827790438 
0.005899151183950913 
-0.005423298713634167 
0.01062821386010852 
0.03759785052265844 
0.01557581319521113 
0.004965432743474965 
-0.01037472702779987 
-0.005446987690461187 
0.0260212216983608 
-0.01418245032258042 
-0.003919721698995551 
0.04491707264386606 
0.03729662133310658 
0.02876524261696809 
0.003914815089754936 
0.005296758896987933 
0.04860974987503638 
0.06177549727161209 
0.004826004374677553 
-0.03038021603872005 
0.002358014739932573 
0.0771634652164805 
0.01208548017403283 
-0.006500639610655693 
-0.03060946641703549 
0.01632303862682445 
0.08394039074197711 
0.035187839170977 
0.04630145922340991 
0.007955631533127302 
0.0505236073083529 
0.05618506615604566 
0.07308011452670653 
-0.0006216466846382166 
0.04511639639030812 
0.0
0.0
0.0
0.0
0.0
0.0
0.0
0.0
0.0
0.0
0.0
0.0
0.0
0.0
0.0
0.0
0.0
0.0
0.0
0.0
0.0
0.0
0.0
0.0
0.0
0.0
0.0
0.0
0.05015498890234525 
-0.04987898623608823 
0.01022920676378959 
0.01934671292308251 
0.03123057519606243 
0.01905484049765608 
0.0111509306290836 
0.01841068855421867 
0.04313943710355876 
0.07825207941583605 
0.02453544789968264 
0.005123597776225473 
0.00796589777725301 
0.06703288447414375 
0.06174325621385665 
0.05161980732955566 
0.04013863982945846 
0.08947755069855183 
0.01517165464744166 
-0.01132853196385905 
-0.0174352791792007 
0.02027855328220757 
0.0005820485840258089 
0.01223859914724232 
-0.0004552917383530382 
-0.01367604701305961 
0.02629902600688172 
0.007459342564400014 
-0.006346509904988075 
0.01794227390861936 
0.01203833060163491 
-0.01276655149533034 
-0.02630035509498637 
0.001875850017359489 
0.04596673349776267 
-0.02765365039847817 
0.0
0.0
0.0
0.0
0.0
0.0
0.0
0.0
0.0
0.0
0.0
0.0
0.0
0.0
0.0
0.0
0.0
0.0
0.0
0.0
0.0
0.0
0.0
0.0
0.0
0.0
0.0
0.0
-0.00904202263462602 
-0.01039092266926551 
-0.03443205045458941 
-0.02904164694127308 
0.07232500185942066 
-0.01964117080454296 
-0.02019428615249076 
-0.05137275600677871 
0.01357080522159464 
0.04117908678955772 
-0.00292826771268832 
0.0242083778513242 
-0.03217968080336594 
0.03958237276962642 
-0.006581593872171887 
0.01350306096606421 
0.06749286991675885 
0.05158221971407979 
-0.0014732368413221 
-0.009824583483988833 
-0.03856883502587055 
-0.006638268628878482 
0.08604556660325717 
-0.02308955322819415 
-0.04157811530613931 
-0.01753360764027257 
0.03808555747196629 
-0.03367054316097137 
-0.04630567132324125 
-0.04441802804209961 
-0.01590771116594076 
0.03060818159455072 
0.02681860192369843 
0.03224561219123535 
0.05408191422246117 
0.05086783616188099 
0.0
0.0
0.0
0.0
0.0
0.0
0.0
0.0
0.0
0.0
0.0
0.0
0.0
0.0
0.0
0.0
0.0
0.0
0.0
0.0
0.0
0.0
0.0
0.0
0.0
0.0
0.0
0.0
0.02243783527393567 
0.01097764021378284 
-0.04581263182304171 
-0.04088402138225972 
0.02517344936544032 
-0.06433023417692811 
-0.03952977934474772 
0.05641877341734242 
0.05387797652156601 
-0.04459418386579819 
-0.04630059575590351 
0.02548365004314674 
0.05743137637881012 
0.02658124204300623 
-0.04107200078007661 
0.01809214084013073 
0.1434934850372277 
0.05723086074153604 
0.1907592114150663 
0.06203705916744591 
-0.07757299616090821 
-0.01479958617959272 
0.03528347991456445 
-0.03058713243929835 
0.009584524645734116 
0.1071443679147296 
0.16868842328596 
0.03515132781201602 
-0.01196492571805163 
0.1422894553076952 
0.1554579150635727 
0.01661376619307719 
0.01560430974713968 
0.1112721885889659 
0.2479955229534885 
0.1776212845115972 
0.0
0.0
0.0
0.0
0.0
0.0
0.0
0.0
0.0
0.0
0.0
0.0
0.0
0.0
0.0
0.0
0.0
0.0
0.0
0.0
0.0
0.0
0.0
0.0
0.0
0.0
0.0
0.0
0.1318940641771837 
0.113144983925513 
-0.01614801896832866 
0.03029745253179902 
0.01300793832425736 
0.01122587542221767 
0.01706052546377115 
0.06468522386378764 
0.1067001702750968 
0.03463518232365019 
0.04187643275055678 
0.07229643279094886 
0.1043344171125709 
-0.02124629547477081 
0.02329913208736991 
0.07248299745907437 
0.1177229469193678 
0.0890833108770594 
0.1220926328039146 
0.1112798630050627 
0.02138594724316692 
0.01937543703894611 
0.02137350667585344 
0.02501649771841565 
-0.01644643912913669 
0.082976734795795 
0.159823839243271 
0.1227124633509193 
0.1610419491547364 
0.08350389918605664 
0.02903785004709322 
-0.04812346080390772 
0.07972543021036928 
0.06945831599683604 
0.02529707095169177 
0.03685814483097744 
0.0
0.0
0.0
0.0
0.0
0.0
0.0
0.0
0.0
0.0
0.0
0.0
0.0
0.0
0.0
0.0
0.0
0.0
0.0
0.0
0.0
0.0
0.0
0.0
0.0
0.0
0.0
0.0
0.1491753302901129 
0.08663983005997378 
-0.01922637166367912 
-0.02480760968142035 
0.01407485851099794 
-0.00737915651409919 
-0.05085064954450058 
0.03187308650452055 
0.1363101955257118 
0.1799030296506151 
0.2185075189340801 
0.06097560350545316 
0.006378783655703497 
-0.0188087425369867 
0.07506272814353243 
0.1312093164307317 
-0.05218942391371014 
-0.02146533792961075 
0.09582699007024502 
0.05264096966587691 
-0.01882549431649967 
-0.02720452819234543 
0.06350319149581986 
-0.0305159064013365 
-0.0454445234228814 
0.004797801894345971 
0.03292361552035454 
0.05802034390759254 
0.1466513825860656 
0.03515068683933396 
-0.00793125028919631 
0.05153129730109336 
0.04886171987879333 
0.01320745408296897 
-0.06989170028137773 
-0.04912967962215791 
0.0
0.0
0.0
0.0
0.0
0.0
0.0
0.0
0.0
0.0
0.0
0.0
0.0
0.0
0.0
0.0
0.0
0.0
0.0
0.0
0.0
0.0
0.0
0.0
0.0
0.0
0.0
0.0
0.01409580628168296 
-0.02770033643089404 
-0.01234073639683944 
-0.01676766411152449 
0.07689923771997033 
-0.0173796274947534 
-0.06742754200301872 
-0.01328673531398539 
0.008688023880552882 
0.0004536028152381207 
0.02334913780345545 
0.02403155635342088 
0.03385969956717821 
0.01385186995451207 
0.009100679137993095 
-0.03932235829588227 
-0.06185741084481596 
-0.03993911397162173 
-0.03040272409760284 
-0.06571135665216908 
-0.01512648630134927 
-0.03174222984365537 
0.06306130080794328 
-0.005772605733783011 
-0.0622365550398491 
-0.03405680783646523 
-0.02212875466845749 
0.04018439891510062 
0.03789299443919472 
0.04263390582050877 
0.002987446586591562 
-0.01798839026859495 
-0.008578031549013312 
0.005299485681117112 
-0.002899960506633908 
0.04689599229592971 
0.0
0.0
0.0
0.0
0.0
0.0
0.0
0.0
0.0
0.0
0.0
0.0
0.0
0.0
0.0
0.0
0.0
0.0
0.0
0.0
0.0
0.0
0.0
0.0
0.0
0.0
0.0
0.0
0.002428973359796334 
-0.007026350542461399 
0.02677407661131421 
0.01607061706113565 
0.005742655852768249 
0.003661231528457049 
-0.0017648068606004 
0.002688279077913905 
0.01644817664356457 
0.03106734549801159 
0.03740430555896752 
0.0596903008432051 
0.00824214318358678 
-0.004481802476515146 
-0.009003275411722061 
0.01552467123463249 
0.03267623661818791 
0.002928699110552617 
0.02300273694645246 
0.02859571703606705 
0.02815604915462279 
0.04816043192386316 
0.06864891644209357 
0.01613532851095787 
0.05319240799166575 
0.0009308402746644645 
0.03755979387131327 
0.06287545804513392 
-0.009946639889893718 
0.03885901364869899 
0.07869917174036097 
0.07135601139109089 
-0.007071609809588098 
0.03374058253406707 
0.04580342894897307 
0.0787044278985982 
0.0
0.0
0.0
0.0
0.0
0.0
0.0
0.0
0.0
0.0
0.0
0.0
0.0
0.0
0.0
0.0
0.0
0.0
0.0
0.0
0.0
0.0
0.0
0.0
0.0
0.0
0.0
0.0
0.05364917006919293 
0.05356565859682278 
9.199202955943359e-005 
-0.01623593092106284 
0.03964530189902076 
0.02633288926005905 
0.01485919511995353 
-0.003177803418157257 
0.06715183724802631 
-0.02329568067397553 
0.02690052311232638 
-0.0469634767817745 
-0.07033685643203612 
-0.002689312043032094 
-0.01756151556657913 
0.01130236808471066 
0.01656609660319801 
-0.03385750116695653 
-0.01671181930872856 
0.003657029876804549 
0.03492913065082098 
0.01502234806919403 
-0.02765312366027339 
-0.03138211267679289 
-0.007374475018765338 
0.02833727444297515 
-0.03831210536592255 
-0.01065232877741279 
-0.0005329794669112893 
0.01088699454560941 
-0.03877997519519807 
-0.00719461159081695 
-0.002424046287337458 
-0.02387115923831144 
0.0256287185525214 
-0.03286486528463434 
0.0
0.0
0.0
0.0
0.0
0.0
0.0
0.0
0.0
0.0
0.0
0.0
0.0
0.0
0.0
0.0
0.0
0.0
0.0
0.0
0.0
0.0
0.0
0.0
0.0
0.0
0.0
0.0
-0.02678271585766593 
-0.02341698242896773 
-0.009132832373199866 
-0.07061935907121993 
-0.02784566838894389 
-0.050067151156644 
0.002245016434291799 
-0.000435860399735578 
-0.0201524756462124 
-0.01663245574505107 
0.05780386211686316 
-0.03352065601174358 
-0.03792609357498123 
0.05212038707381497 
-0.009209435477770296 
-0.0670392974332174 
-0.04134109894411318 
-0.03371102788223153 
0.006251979321910207 
0.01112449253387932 
0.02372821148005507 
-0.044431634929468 
-0.009765892084025844 
-0.03288110635540356 
0.02661550616163344 
0.03819867100925616 
0.002003052361447773 
0.04563567346266797 
0.07458690720731467 
0.01254013487618597 
-0.01430978958507407 
0.01114530998616205 
-0.009159323148709505 
-0.02347468099416749 
-0.03290617289383491 
-0.01551511344111972 
0.0
0.0
0.0
0.0
0.0
0.0
0.0
0.0
0.0
0.0
0.0
0.0
0.0
0.0
0.0
0.0
0.0
0.0
0.0
0.0
0.0
0.0
0.0
0.0
0.0
0.0
0.0
0.0
-0.02031398038248235 
0.1507549765660968 
0.2509798982809471 
0.1772957358803028 
0.006330219110888784 
-0.06260733841833849 
-0.0009373877713940786 
0.0578731074479376 
-0.0436171864269626 
-0.01183881961882296 
0.1545895739317519 
0.07817890339913146 
0.03395317804465291 
-0.08260786511191426 
-0.1347060093482979 
-0.09469819569324127 
-0.03312042430298144 
-0.1098708183325998 
-0.06980011656979522 
0.1043899705071992 
0.2547729056683097 
0.1980740901892409 
-0.03003843818094957 
-0.02855670462915008 
0.06873729101146098 
0.08869283329890901 
-0.04750830496115309 
-0.0682091081012063 
0.08559389752626566 
-0.006634279097878137 
-0.01487501422482402 
-0.1140210062591893 
-0.08994968745374549 
-0.02923244791471006 
-0.02873585693717093 
-0.0835470589568828 
0.0
0.0
0.0
0.0
0.0
0.0
0.0
0.0
0.0
0.0
0.0
0.0
0.0
0.0
0.0
0.0
0.0
0.0
0.0
0.0
0.0
0.0
0.0
0.0
0.0
0.0
0.0
0.0
-0.07551619050734452 
0.06441419413804421 
0.1201424354820098 
0.16838770798488 
0.08251892868203573 
0.07922717896571872 
0.1161634503997989 
0.09931501426836839 
-0.04408375350423235 
-0.103430774599372 
0.01332849168974609 
-0.06149210011517214 
0.0001938298200277118 
-0.007240549402660703 
0.006681096655514872 
0.01890049922379597 
0.01427786742663838 
-0.06428947631072485 
-0.009503026546146877 
0.08333829550011696 
0.1197999827169621 
0.1016758954753896 
0.0580129028842242 
0.1778520750356416 
0.1672981572285823 
0.08515800425250358 
-0.07623827434549986 
-0.08402312110302462 
-0.01687637524894119 
0.02899635288921177 
0.04170881681501244 
-0.009347387062965156 
0.004947300320450473 
-0.02725568370652452 
0.0008191579181722738 
-0.1032840060676968 
0.0
0.0
0.0
0.0
0.0
0.0
0.0
0.0
0.0
0.0
0.0
0.0
0.0
0.0
0.0
0.0
0.0
0.0
0.0
0.0
0.0
0.0
0.0
0.0
0.0
0.0
0.0
0.0
-0.004725263871289506 
0.04235937628477509 
0.03171989786480527 
-0.01886751268111975 
-0.02684799083861581 
0.1588673436996277 
0.1930076248313281 
0.1034539369763939 
-0.07183967730039741 
-0.05337085374561099 
-0.0312995819398815 
-0.04660339102657086 
-0.06397386553677524 
-0.09628557636118253 
0.01000454034248909 
0.02306957028583941 
0.1163014076571754 
-0.02413082897815802 
-0.04759879389474926 
0.082411854378707 
0.01049673269146876 
-0.04218823766176905 
0.01630611169443593 
0.1898049943840708 
0.2409326807517627 
0.1343741318558739 
-0.02126518824090877 
-0.1014181178157541 
-0.03540817562315572 
-0.08902918054864702 
-0.1151894518996644 
-0.09275943071616817 
0.03542846746348848 
0.102054902827546 
0.1723438938050501 
-0.01099349476474144 
0.0
0.0
0.0
0.0
0.0
0.0
0.0
0.0
0.0
0.0
0.0
0.0
0.0
0.0
0.0
0.0
0.0
0.0
0.0
0.0
0.0
0.0
0.0
0.0
0.0
0.0
0.0
0.0
-0.01589982976863083 
0.04009620639032898 
0.0474431571183047 
-0.01695525579779582 
-0.0161990345731875 
-0.02290389771201832 
0.0156958894133623 
0.005500742497705624 
0.006927220277760313 
-0.01849206111280848 
-0.01861727344297571 
8.840030046394797e-005 
0.002621272950974043 
0.0009099788209526011 
-0.01286255764290941 
0.02457713284713982 
0.05340417258182734 
0.001998495849113868 
-0.00722744606703669 
-0.02245283435606822 
0.02041557362795341 
-0.03716052599486935 
-0.009897486044294713 
-0.06472732944636271 
0.004093484309201154 
-0.02310602173920614 
-0.0220202350240674 
-0.04386845345674657 
-0.06397515516126852 
-0.05629566197008502 
-0.01662867639208158 
0.03590436116764634 
-0.04618023511240442 
-0.02261091049685969 
0.01157013958950981 
0.01575808045450197 
0.0
0.0
0.0
0.0
0.0
0.0
0.0
0.0
0.0
0.0
0.0
0.0
0.0
0.0
0.0
0.0
0.0
0.0
0.0
0.0
0.0
0.0
0.0
0.0
0.0
0.0
0.0
0.0
-0.01751085618982988 
-0.009824188041561927 
-0.01989449516731067 
-0.04120148273661116 
-0.009314534734686261 
-0.01151513234602898 
-0.001126768793183371 
-0.003750431930604085 
-0.05244922695874369 
0.01203685634841457 
0.04031885302832119 
0.01610681683547941 
0.0009186452351352914 
0.004069058905552448 
-0.03868695126424318 
0.02092368404414753 
0.0465924578998421 
-0.007466243656283375 
0.04758867620582313 
-0.05461991057759345 
-0.02913953563550492 
-0.001245075283174324 
0.02234576299197191 
-0.04133334087484154 
-0.03616246912794779 
0.03067379634927452 
0.02514308373171312 
0.0006132242986461202 
0.0491267733743614 
-0.004466448982841195 
0.00426544771697582 
-0.005618286116882519 
-0.05780242862386845 
-0.02535156058578124 
0.04415699154012567 
-0.01638952042060545 
0.0
0.0
0.0
0.0
0.0
0.0
0.0
0.0
0.0
0.0
0.0
0.0
0.0
0.0
0.0
0.0
0.0
0.0
0.0
0.0
0.0
0.0
0.0
0.0
0.0
0.0
0.0
0.0
-0.02265303200801324 
0.07527784063068757 
-0.01315324540528569 
-0.01757749618197135 
0.08314017645626709 
-0.03880318528206495 
-0.01154117074174593 
0.02226022146574215 
0.02899866418611218 
-0.03175767903239982 
0.002478644542479669 
-0.08288385534968192 
-0.061675445067857 
0.04700516804871389 
-0.03083401356171879 
-0.09014554278262485 
-0.006965641300168738 
0.0158391163239767 
-0.003618232319513247 
0.03954232032003104 
0.01724441401604016 
-0.003743089289809267 
0.02709909657496944 
0.03140907373337414 
0.03040429403632451 
0.06327621225958004 
-0.000927027259879308 
-0.01955020198518796 
0.0210221270767758 
-0.0574222914538827 
-0.06837777681169958 
-0.01409110986507708 
0.01055233985746949 
0.006455452738105934 
0.04758512452164502 
-0.01857430261812522 
0.0
0.0
0.0
0.0
0.0
0.0
0.0
0.0
0.0
0.0
0.0
0.0
0.0
0.0
0.0
0.0
0.0
0.0
0.0
0.0
0.0
0.0
0.0
0.0
0.0
0.0
0.0
0.0
0.07432347858626906 
0.1277548036113621 
-0.0321678660088349 
-0.08312858318072021 
0.02591539413132487 
-0.004328297147902014 
-0.06690665763213589 
0.007728633581173111 
0.004340112947901597 
0.06441618463146397 
0.1272125142158022 
-0.04705948479426225 
-0.08050188188477488 
-0.02073615542520388 
-0.03680373535992904 
-0.02401200596598296 
-0.01206456536731992 
-0.02815495987741957 
0.08078002656771051 
0.1091726757312377 
-0.0537855274374822 
-0.03508334012177859 
0.02379259816665827 
0.04139122057231402 
0.04131238349551919 
0.02131115074284323 
-0.01172573934078575 
0.001772170832828761 
0.04898104802833322 
-0.05072613864506512 
-0.01894934848088578 
-0.0330616064678485 
-0.03760098495322634 
-0.007978101812536059 
0.004662560552489461 
-0.07611338992134696 
0.0
0.0
0.0
0.0
0.0
0.0
0.0
0.0
0.0
0.0
0.0
0.0
0.0
0.0
0.0
0.0
0.0
0.0
0.0
0.0
0.0
0.0
0.0
0.0
0.0
0.0
0.0
0.0
0.09216333628038116 
0.1453248622888669 
-0.0003616450851644753 
0.02382863857313128 
-0.0217923302639794 
-0.002310689635492583 
0.05787769085428642 
0.03946317623199623 
-0.01756497152098573 
0.005988307026077959 
0.05953537356602812 
-0.003084139095939395 
-0.007235418158321252 
-0.06101787351428895 
-0.01510809296263175 
0.02216690375092488 
0.03887631479409658 
0.003271690013808897 
-0.03801637330117079 
0.02446093126935392 
-0.08807989577278154 
-0.05834586326581986 
-0.09442740132755725 
-0.0215544393225973 
0.02645001035786519 
0.01675851183864016 
-0.004028061241522731 
-0.04541661739563612 
-0.01266900100998735 
-0.05437259245123568 
-0.03271428668829716 
-0.1032938019258675 
-0.04085755784201497 
-0.03680391740020024 
0.006936180491954561 
0.008353410778681857 
0.0
0.0
0.0
0.0
0.0
0.0
0.0
0.0
0.0
0.0
0.0
0.0
0.0
0.0
0.0
0.0
0.0
0.0
0.0
0.0
0.0
0.0
0.0
0.0
0.0
0.0
0.0
0.0
-0.09245195744646098 
0.03678013037250832 
-0.0786371425185914 
-0.02476808443557493 
-0.06773809748463927 
0.0124538678227769 
0.01075485235035407 
-0.006537988410884979 
-0.06722325683108948 
-0.02513114349693998 
0.01813734024849851 
-0.05344238457130672 
-0.03882541280097652 
-0.1050142805264452 
-0.06829431722293544 
-0.05642752339077477 
-0.01360891807192502 
-0.01288715660698936 
-0.07090337848993496 
0.01680511229478173 
0.01892900124310893 
0.02314375916538802 
-0.04896009866307537 
-0.006733367051371882 
-0.007512531705516259 
0.02848851201390878 
-0.1013683393487113 
-0.03243633876611321 
-0.005783215319745092 
-0.06770987025906514 
-0.07212385020893246 
-0.114968419567085 
-0.07510006705280822 
-0.06107605724667624 
-0.03397200138301201 
-0.09454839799652626 
0.0
0.0
0.0
0.0
0.0
0.0
0.0
0.0
0.0
0.0
0.0
0.0
0.0
0.0
0.0
0.0
0.0
0.0
0.0
0.0
0.0
0.0
0.0
0.0
0.0
0.0
0.0
0.0
0.008508063960330849 
0.0215077643358353 
0.03056687087480368 
-0.01591180483236802 
-0.08172817779573258 
-0.03808620019168045 
-0.05271824087312699 
0.03132905550350107 
0.006061211539501109 
0.02775691279190627 
0.02283442306489756 
-0.02622833022149043 
-0.04435133381729443 
-0.08945862178744463 
-0.05366224396588085 
-0.07735808483492414 
-0.0222290121805015 
-0.0267878430119383 
-0.0255408313669188 
0.02917727762105844 
0.03448900025907636 
-0.01060445586452256 
-0.06057988041735119 
0.0090217175647968 
-0.007705261945882392 
0.1587492830499912 
0.1108523337858197 
-0.004323605876858788 
0.01569663339530143 
0.006034836953051534 
-4.953786727788502e-005 
-0.02673475255700189 
-0.0122807236174387 
-0.07370803560148094 
0.09653622916388016 
0.04048106001673304 
0.0
0.0
0.0
0.0
0.0
0.0
0.0
0.0
0.0
0.0
0.0
0.0
0.0
0.0
0.0
0.0
0.0
0.0
0.0
0.0
0.0
0.0
0.0
0.0
0.0
0.0
0.0
0.0
-0.004724442572891292 
0.002059950376813341 
0.01812949866685164 
0.029544786803125 
0.005461366998205246 
-0.06406490138469886 
-0.08328754722775839 
0.08855529731910279 
0.09145634214493482 
-0.08925068434424659 
-0.006885727235451934 
-0.00592230138067296 
0.001894894641667149 
-0.005701275798028363 
-0.02478020204635083 
-0.06888835885009557 
0.03116748622759027 
0.03086135712856801 
-0.02527589968999494 
-0.03223857649279454 
-0.03902174927194749 
0.02072104942703934 
0.02595163013715694 
-0.1080156009501461 
-0.04395174018068232 
0.08175305924318105 
0.1053289925228625 
-0.05963005192184017 
-0.0367340034877248 
-0.007866598164380062 
-0.001890860343844652 
-0.01494285061590113 
-0.07274696983284261 
-0.05152445953413771 
0.1006826500541417 
0.07462511162496112 
0.0
0.0
0.0
0.0
0.0
0.0
0.0
0.0
0.0
0.0
0.0
0.0
0.0
0.0
0.0
0.0
0.0
0.0
0.0
0.0
0.0
0.0
0.0
0.0
0.0
0.0
0.0
0.0
0.0001311518724539144 
0.01991205352659626 
0.03853971656340721 
0.04098720421463308 
0.03809453162910684 
-0.02085844656972601 
-0.02385229012130406 
-0.009648999953873314 
-0.0128107458361661 
-0.04209809606747674 
-0.01799085331383938 
-0.02925508234736978 
0.00158474994367329 
0.01285636202035024 
0.01101440824633094 
-0.02954475943589242 
-0.04203688949898112 
-0.04314973637943018 
0.01446863117367616 
0.03094411484335531 
-0.004833328873175113 
0.0005600593519850136 
0.07643978226244513 
-0.04490505039554176 
-0.03735887013622303 
0.06790442678440622 
-0.04596015144447196 
0.0008478297101198472 
0.005994578499596883 
-0.06664190673777219 
-0.04189730937505681 
0.01742104480697579 
-0.02670819216879999 
-0.09681039484511213 
-0.02138782544763639 
-0.02394298240090377 
0.0
0.0
0.0
0.0
0.0
0.0
0.0
0.0
0.0
0.0
0.0
0.0
0.0
0.0
0.0
0.0
0.0
0.0
0.0
0.0
0.0
0.0
0.0
0.0
0.0
0.0
0.0
0.0
-0.0756630400275051 
-0.03373493512544955 
-0.06512819409856563 
-0.01024261756958883 
0.0920060402381242 
0.02824769544282491 
-0.01143216582759319 
-0.01813471893451949 
-0.003368039886288625 
0.001891085216509418 
-0.05920349196754064 
-0.09508447690168674 
0.008130730408763649 
-0.01193546678109622 
-0.04579275571172785 
-0.0261627805491935 
-0.000645715293077026 
0.004516954120009476 
0.001041755843073757 
-0.0192543854189001 
-0.03859335070654017 
0.03256318343377962 
0.08523189673056246 
0.03141705749421427 
0.006630218390126121 
0.01046882561061904 
0.008907582132254592 
0.01777772804957256 
0.01620493223122815 
-0.0252376663653383 
0.07861548259827898 
-0.001431540110334409 
-0.0444881644856061 
-0.05173888727500479 
0.05347971055561032 
-0.04038916155363201 
0.0
0.0
0.0
0.0
0.0
0.0
0.0
0.0
0.0
0.0
0.0
0.0
0.0
0.0
0.0
0.0
0.0
0.0
0.0
0.0
0.0
0.0
0.0
0.0
0.0
0.0
0.0
0.0
0.05820997995334694 
0.07164433919182782 
-0.0284381354599184 
-0.03296659002572123 
0.06231424257110941 
0.01454513336044144 
-0.018808505240397 
-0.009711001747557803 
0.02632362680738953 
-0.0149642993849819 
0.01684561676022219 
-0.04094123706051425 
0.01057642027853136 
0.02327970807022484 
-0.04048877481503939 
-0.02322644270591396 
0.05595906578447404 
-0.01948044241773318 
-0.03378633625543941 
0.02832514882559474 
-0.00780297989616383 
-0.01453186969638912 
0.01084362988632362 
0.04179960275129017 
0.03005286467697863 
0.04286818851734095 
-0.0238735498496376 
-0.02445085975169243 
0.02434376667267165 
-0.00687162487913057 
0.03143816060835048 
-0.002064839543646065 
0.01726805555812134 
-0.02853839664666338 
-0.008458919676589929 
-0.06933389080208559 
0.0
0.0
0.0
0.0
0.0
0.0
0.0
0.0
0.0
0.0
0.0
0.0
0.0
0.0
0.0
0.0
0.0
0.0
0.0
0.0
0.0
0.0
0.0
0.0
0.0
0.0
0.0
0.0
0.03254132729189379 
0.05920667702280553 
-0.001112606335297433 
-0.03819005406297588 
-0.05630958250590254 
-0.01762455223014196 
-0.02026425034888694 
0.02937887144062533 
0.0181295363707379 
0.1081940546121527 
0.1329407165267939 
0.02222880691147441 
0.0004772780316760628 
-0.07141176405288029 
0.02246641376207254 
0.0193295487718209 
0.08439218965269486 
0.006265022056306302 
0.02005598781881597 
0.004433531140422078 
-0.04907350569555442 
-0.006596889803354536 
-0.02968115292973012 
-0.02253051953284022 
-0.05207738980183444 
0.03694599530721494 
-0.00330740860147496 
-0.004716894741487835 
0.008586020504475636 
-0.06714862756100026 
-0.06239768366141713 
-0.1038979334635832 
-0.04051693085629761 
-0.04077174852221851 
0.02942985618544169 
-0.1165911296015708 
0.0
0.0
0.0
0.0
0.0
0.0
0.0
0.0
0.0
0.0
0.0
0.0
0.0
0.0
0.0
0.0
0.0
0.0
0.0
0.0
0.0
0.0
0.0
0.0
0.0
0.0
0.0
0.0
0.01961985078248975 
-0.04445555344119458 
-0.007084178455877961 
0.02715781409553936 
0.005111152018210923 
-0.02749120924579623 
-0.02767031403889187 
-0.01675980572814698 
0.02852310988904525 
-0.05425566549345131 
-0.01264576543897671 
-0.007786865071131631 
-0.0551687924858784 
-0.0943844225097431 
-0.03549899706200155 
-0.02140085968948148 
0.00580274409447426 
-0.08493805878649841 
-0.01493254780166187 
-0.01629057063821259 
-0.04778882403750056 
-0.03530120494174116 
-0.0120301889446712 
0.01910883893808633 
-0.01116942600401894 
-0.04407387108083236 
-0.02372828898848423 
-0.08301509584352482 
0.005090031104305259 
-0.02605593407294332 
-0.06884651485478838 
-0.1112542147356812 
-0.06628939281800847 
-0.04043948445147007 
-0.03440700772032506 
-0.08639319796243326 
0.0
0.0
0.0
0.0
0.0
0.0
0.0
0.0
0.0
0.0
0.0
0.0
0.0
0.0
0.0
0.0
0.0
0.0
0.0
0.0
0.0
0.0
0.0
0.0
0.0
0.0
0.0
0.0
-0.03436321298655943 
0.02564976017109657 
-0.06482877909912159 
-0.04378432319466373 
-0.05267463135235311 
-0.03299482021452731 
-0.06765068882262182 
-0.003140253116289707 
0.01822214900293796 
-0.09745433135928663 
0.01835053588526291 
-0.02988792457364481 
-0.04053396050305962 
-0.105888546753798 
-0.05093319040487166 
-0.0795726966124079 
-0.003750325525500327 
0.01547494805355604 
-0.01299982006101988 
0.009913442440626703 
-0.0180272606502634 
-0.01214673144146916 
-0.03539359625764536 
-0.01253370173539688 
-0.03269333411897111 
0.06422161963726251 
0.06768896705567522 
0.005706013534479993 
0.0715151167266662 
-0.0004045775134899597 
0.01738461539381146 
-0.0602771618931401 
0.01566332751900305 
0.0144019206901709 
0.1399474596258012 
0.1191079827143154 
0.0
0.0
0.0
0.0
0.0
0.0
0.0
0.0
0.0
0.0
0.0
0.0
0.0
0.0
0.0
0.0
0.0
0.0
0.0
0.0
0.0
0.0
0.0
0.0
0.0
0.0
0.0
0.0
-0.0420532854193593 
0.004098790700324926 
0.02624234791801236 
0.06165365255727098 
0.02723788448542326 
0.02475393232844721 
-0.03503764756145387 
0.007730060075332447 
-0.03366889443021641 
-0.0428729239400004 
0.01567080958263835 
-0.005721222701464248 
0.02737894736958626 
-0.01268886119011883 
0.03547226182307378 
-0.02836136651344366 
0.03469797545377722 
-0.03468059093972552 
0.02215212998229156 
-0.02269180055924334 
-0.0248143207103058 
0.04658271781557964 
0.02021263285083852 
-0.03327675745895304 
-0.03657747075944107 
0.0574754263980704 
0.08382193019614033 
0.02591572780173503 
0.0726814557483339 
-0.05385041079337573 
-0.03015885431066047 
-0.02454350010787483 
-0.001196993147332633 
-0.06133852001377012 
0.03758998960450142 
0.001436720484329862 
0.0
0.0
0.0
0.0
0.0
0.0
0.0
0.0
0.0
0.0
0.0
0.0
0.0
0.0
0.0
0.0
0.0
0.0
0.0
0.0
0.0
0.0
0.0
0.0
0.0
0.0
0.0
0.0
6.900949627553536e-005 
0.001073085504205843 
0.01806988343285677 
0.04401297030450689 
0.09777439188855921 
0.07004140219197202 
-0.01010765763412235 
-0.01938572336782295 
0.01194894146670991 
-0.00245777085509096 
0.07601919435110806 
-0.03812210862465684 
-0.03257295052838589 
-0.01371501217903942 
0.05300304800553785 
-0.03651070943748971 
0.04655468865757613 
0.03755581098818562 
0.01832342153753877 
0.008155523086356255 
-0.00396093360488316 
0.01869170354339021 
0.09337824771808562 
0.04128007820955568 
-0.08373851184682105 
-0.03528826964111164 
-0.02285147752389527 
0.002637836082895109 
0.02741631842698709 
-0.02870697756009241 
-0.06685571323647042 
-0.06453522797741315 
0.03395146409119141 
-0.08661003143698481 
-0.0160326592522132 
0.01009789169788895 
0.0
0.0
0.0
0.0
0.0
0.0
0.0
0.0
0.0
0.0
0.0
0.0
0.0
0.0
0.0
0.0
0.0
0.0
0.0
0.0
0.0
0.0
0.0
0.0
0.0
0.0
0.0
0.0
0.03185438708285672 
-0.008784286054494975 
-0.06047830554556329 
0.04044966715774305 
0.06379018702613057 
-0.03185568059343865 
-0.02588190253604563 
0.0170728641619224 
0.009852821997935943 
-0.04023688591570412 
-0.03948144217913464 
-0.04666633594390734 
-0.0033167246965915 
-0.005241577872003293 
-0.03998991026523307 
-0.04510219627750034 
0.03121908056750615 
0.02402177406583109 
-0.00441801467896862 
0.01984289296672297 
0.01635540596977482 
0.08366081580432068 
0.07085786433765541 
0.02449056728078169 
0.02299981946567893 
0.06763657943971299 
-0.0311429138104465 
-0.1085630080215735 
-0.03270954736535584 
0.01965359380745161 
-0.00271023043893224 
-0.02965337033953356 
0.008775294263321156 
-0.04347560871478117 
0.003453354801832466 
-0.005809441105389828 
0.0
0.0
0.0
0.0
0.0
0.0
0.0
0.0
0.0
0.0
0.0
0.0
0.0
0.0
0.0
0.0
0.0
0.0
0.0
0.0
0.0
0.0
0.0
0.0
0.0
0.0
0.0
0.0
0.053083427832399 
0.009564119677947142 
-0.0281274821218436 
-9.783375905633188e-005 
0.03993205547503718 
-0.01400874389663238 
-0.008128659519609342 
0.05796323520940847 
0.03924872938649011 
0.002819209990104076 
0.008612612119807414 
-0.01033334416797573 
-0.04441797573053484 
-0.03424205519244909 
-0.06201390189266878 
-0.04607921363387638 
0.04720186613645108 
0.0641405000359926 
0.04394833786439264 
0.08420593518621916 
-0.02845911650834672 
0.008969355399227663 
0.03467344935881046 
0.04746180416513931 
-0.0004685610947491446 
0.03753551345715896 
-0.02272887393659733 
0.01275996356075359 
0.116806207248085 
-0.04594675739998599 
-0.01821514048782175 
0.004106521624244224 
-0.04571925136389641 
-0.01782696249129256 
0.02082090638862475 
-0.06642618120480776 
0.0
0.0
0.0
0.0
0.0
0.0
0.0
0.0
0.0
0.0
0.0
0.0
0.0
0.0
0.0
0.0
0.0
0.0
0.0
0.0
0.0
0.0
0.0
0.0
0.0
0.0
0.0
0.0
0.05781910790902401 
0.1192638318255529 
0.005839770381117164 
0.004009316202933215 
-0.06461544549182542 
0.02386027028001794 
0.01335638158290851 
0.06699589327644313 
-0.03086178681245854 
0.07159729558237345 
0.1199627147656766 
-0.04867639003015397 
-0.01453332660583238 
-0.02678649194406533 
-0.02353297769634383 
-0.001813625266714365 
0.05112452192984288 
0.01844490688712507 
0.02660730677817963 
0.04167364890498361 
-0.02062205855071633 
-0.02706730729464674 
-0.0515988720372095 
0.0775822658712426 
0.0299758911937578 
0.043079875975823 
-0.06590019686310117 
0.0290150682490693 
0.00934988737032095 
-0.04850307761691682 
-0.04561009305773778 
-0.07885478230574143 
0.0328200949339526 
-0.04116929374929407 
-0.01909599971220984 
-0.08786293827549817 
0.0
0.0
0.0
0.0
0.0
0.0
0.0
0.0
0.0
0.0
0.0
0.0
0.0
0.0
0.0
0.0
0.0
0.0
0.0
0.0
0.0
0.0
0.0
0.0
0.0
0.0
0.0
0.0
-0.0585303255603834 
0.001946075917227009 
-0.009695190836430299 
-0.0125393257488178 
-0.003958953404591104 
0.03544609612206441 
0.003975605978986927 
-0.02612523734417762 
-0.1486308833078294 
-0.04970816638596 
-0.02988977481724726 
-0.02465288870898182 
-0.005284660197938036 
0.05561749829437624 
0.03511511745844487 
2.747164537328884e-005 
-0.004555560284961297 
-0.1025755026011627 
-0.1224431291654655 
-0.02878345173797015 
0.003646089578130032 
0.01077759964215936 
-0.009939146662178565 
-0.001136185651122203 
-0.002107340465572231 
-0.004143889401649785 
-0.07295073321226363 
-0.09023842537748948 
-0.02343547606003385 
-0.03716311614305286 
0.04631574736410632 
0.0539854745829582 
-0.01619087313910276 
-0.01870299152080352 
-0.02661901738881601 
-0.09183024792724226 
0.0
0.0
0.0
0.0
0.0
0.0
0.0
0.0
0.0
0.0
0.0
0.0
0.0
0.0
0.0
0.0
0.0
0.0
0.0
0.0
0.0
0.0
0.0
0.0
0.0
0.0
0.0
0.0
-0.03914358922110847 
0.01751543121570671 
0.02209745211086746 
0.05727762187498697 
-0.04846917847385007 
-0.02638929763278532 
-0.03791820238017815 
0.02396668689631519 
0.04968684482862062 
-0.07465175930953463 
-0.04075310410272113 
-0.05519747225580279 
0.03138923401954086 
-0.07017495439221713 
-0.06923391459829838 
-0.04991539103863921 
0.04461762569276063 
0.02915029839512668 
-0.04844940099073713 
0.03593605249391955 
-0.0151786126302618 
0.01887833497786812 
-0.0500074232614243 
0.02042461399736415 
0.01014380879999487 
0.1361977394237386 
0.06399932490929533 
-0.004412001058396123 
0.04959338967023083 
0.004284168537507883 
-0.005860588695159328 
0.008882526288951236 
-0.02937497837627842 
-0.02996732447703248 
0.1266120693866867 
0.06355337044724745 
0.0
0.0
0.0
0.0
0.0
0.0
0.0
0.0
0.0
0.0
0.0
0.0
0.0
0.0
0.0
0.0
0.0
0.0
0.0
0.0
0.0
0.0
0.0
0.0
0.0
0.0
0.0
0.0
-0.01443620519471549 
0.04034536639572145 
0.00961261605615828 
0.04026806855484121 
0.04426198648941345 
0.04935769760324792 
-0.02416949138028833 
0.04871921108489775 
0.01549939681669581 
-0.07939374180961532 
0.02199144947725381 
-0.01853579707543021 
-0.01806039299523091 
0.04183988371940807 
0.0007784870342239037 
-0.01988259718164059 
0.06954270152626088 
-0.0384491655350788 
0.0480776804424973 
0.06771537159914383 
-0.02776249401352658 
-0.02614988476197701 
0.06837717453449743 
0.03559972754056066 
-0.03088584730386642 
0.003003158722861347 
0.03877384258131432 
0.03307295594153763 
0.01174064985603075 
-0.07037201899776256 
-0.07466625392024621 
-0.02128244328093102 
-0.02682496913358066 
-0.01068764391550548 
0.00493871978185069 
-0.03455289334439387 
0.0
0.0
0.0
0.0
0.0
0.0
0.0
0.0
0.0
0.0
0.0
0.0
0.0
0.0
0.0
0.0
0.0
0.0
0.0
0.0
0.0
0.0
0.0
0.0
0.0
0.0
0.0
0.0
0.01113048405136686 
0.05429592480295679 
0.00981002814314667 
0.01265662797231549 
0.08480992183643672 
0.06510771805433391 
0.007496651598142163 
0.01482570400935237 
0.009503887633260844 
-0.004569623439278577 
0.02606367326777606 
-0.02485656410480979 
0.01199681339502267 
0.009205979349472804 
-0.002843565981732963 
0.0101121764431568 
-0.06051352870121499 
-0.0853837201009069 
0.002593165061247764 
0.04159641558663967 
-0.009702451444862413 
-0.02019981625103116 
0.06660965255470068 
0.04440679028128907 
-0.05211352876470508 
0.01362509936791902 
0.01449745537551032 
0.01405448359168557 
0.04660856873683075 
-0.04210630263327206 
-0.02114143307334794 
0.003090679532782732 
-0.04480775414629688 
-0.03040530504401813 
-0.01645108301555076 
-0.05253144710154289 
0.0
0.0
0.0
0.0
0.0
0.0
0.0
0.0
0.0
0.0
0.0
0.0
0.0
0.0
0.0
0.0
0.0
0.0
0.0
0.0
0.0
0.0
0.0
0.0
0.0
0.0
0.0
0.0
-0.03555547669251288 
0.02526462816022686 
-0.04603049598672329 
0.01861049629935785 
0.02597060554687011 
0.01843674058249639 
-0.02978011927596527 
0.02209443897142806 
-0.0407622190506929 
-0.00982084645728906 
-0.0381380974021538 
-0.05052065736740134 
-0.01583766904118683 
-0.001538485985803417 
-0.003470555971942238 
-0.04130965439040941 
0.05623438784589885 
-0.05015488868378022 
0.03008418014881435 
0.04597472312271486 
0.03491375406298692 
0.07240756717945515 
0.0377075830448158 
0.0354957403420924 
-0.0254586305882823 
0.03967627113850789 
0.02245382448356114 
0.01843555889402121 
0.02743612192276894 
-0.02861214916174412 
-0.0002969101362298915 
-0.02927063642587202 
-0.02796554863472232 
-0.01198204285765242 
0.0702753786500826 
-0.03009390878274175 
0.0
0.0
0.0
0.0
0.0
0.0
0.0
0.0
0.0
0.0
0.0
0.0
0.0
0.0
0.0
0.0
0.0
0.0
0.0
0.0
0.0
0.0
0.0
0.0
0.0
0.0
0.0
0.0
0.009002238674422913 
-0.0147749265963908 
0.02406952629021444 
0.01360261390728201 
0.00709555221918284 
-0.01861097042151785 
-0.02658826572062027 
0.0135770527268994 
0.05638761239479773 
-0.01759331781579647 
-0.002290211165533701 
-0.0335390899593007 
0.01320316858987874 
0.02147883434329921 
-0.0005165450300131875 
0.02383696289071974 
0.05938536434090033 
0.02630674942127433 
0.06692356129389218 
0.09125809693310556 
0.02870192293016571 
0.04907337238338334 
0.03595014574688833 
0.0249890825332439 
0.04166037841927841 
0.04039033192264583 
0.04896517806913791 
0.03038173898813124 
0.07445524082737517 
-0.02299825159387796 
0.03474133506011723 
0.07240252125555086 
0.09989584960711169 
0.02325443454498739 
0.01725885814179637 
0.01601635620654643 
0.0
0.0
0.0
0.0
0.0
0.0
0.0
0.0
0.0
0.0
0.0
0.0
0.0
0.0
0.0
0.0
0.0
0.0
0.0
0.0
0.0
0.0
0.0
0.0
0.0
0.0
0.0
0.0
0.0983993818966168 
0.09367090456143482 
0.007090823527387338 
0.007437564868258142 
-0.05817943750768773 
0.03370913537550505 
-0.0144916152675105 
0.02306922124716357 
0.05975706064275184 
0.09499197302548487 
0.07514126725929775 
-0.02922449226283 
-0.03579700248848416 
-0.0293905046374231 
0.117943928580753 
0.004097619010615901 
0.09060013292354159 
0.1048195289587108 
0.03942885913748497 
0.0340265010023599 
0.01186685598730315 
-0.000903083384586772 
-0.07781768107546673 
0.09051989868725087 
-0.02540046442656757 
0.03354176358145076 
-0.04362074859222496 
-0.07006650496303395 
-0.01826878492416513 
-0.05198787145633095 
-0.02648118607397906 
-0.0231181203978678 
0.08493978739233341 
-0.06858239961717723 
0.01620056525484433 
-0.06397657260094934 
0.0
0.0
0.0
0.0
0.0
0.0
0.0
0.0
0.0
0.0
0.0
0.0
0.0
0.0
0.0
0.0
0.0
0.0
0.0
0.0
0.0
0.0
0.0
0.0
0.0
0.0
0.0
0.0
0.009923298291972684 
0.002712274450183919 
0.02591065359254956 
0.05732250619173748 
0.02163266434852182 
0.09276768235107893 
0.03975151108791174 
0.01923779199379061 
-0.05745947027983143 
-0.0627024899144072 
-0.006842803634904721 
-0.03545125617953528 
0.03779949447250323 
0.05175368414431392 
0.04185022998060229 
-0.04282027593853583 
-0.0149718933131947 
-0.0939961577997997 
-0.06679749225562058 
-0.01804903496100234 
0.008258921630239825 
0.0988923715690298 
0.006658080948893579 
0.04514052139357647 
0.00628894388917881 
-0.01192861634134484 
-0.04750902617737761 
-0.1048478005278713 
-0.01949989704076595 
-0.05725511084465027 
0.03786075653901114 
0.05779584078900504 
0.03949344843425677 
-0.06237227026525561 
-0.05204548219513107 
-0.1132917230080326 
0.0
0.0
0.0
0.0
0.0
0.0
0.0
0.0
0.0
0.0
0.0
0.0
0.0
0.0
0.0
0.0
0.0
0.0
0.0
0.0
0.0
0.0
0.0
0.0
0.0
0.0
0.0
0.0
0.009094824161327559 
3.671170602204073e-005 
-0.05984384222808378 
0.04813019334272832 
-0.08383090312169118 
-0.03609462977175025 
-0.03397017688525961 
0.05697861194973233 
0.04693574445429131 
-0.02746882457067487 
0.0231279891984512 
-0.0916157708642813 
0.04811167914506005 
-0.06710739255970308 
-0.04247953728725881 
-0.08835687775089361 
-0.003010072420788153 
-0.08190401143167844 
0.07956581606361012 
0.01441255080809846 
-0.01417813706157702 
0.008520769352149595 
-0.04065176227532812 
0.003351895904260055 
-0.01725671047580138 
0.1152387841695449 
0.1028683190649494 
0.09136931201205424 
0.0853813229703361 
-0.01129584253005297 
0.07962969074188034 
-0.01401947903955601 
-0.003304286815471377 
-0.05187427624486951 
0.03994275185648477 
0.08015458769241117 
0.0
0.0
0.0
0.0
0.0
0.0
0.0
0.0
0.0
0.0
0.0
0.0
0.0
0.0
0.0
0.0
0.0
0.0
0.0
0.0
0.0
0.0
0.0
0.0
0.0
0.0
0.0
0.0
0.05124152728700385 
0.05924737420112318 
0.03463832730984991 
0.0085270477001796 
0.0594063895558295 
0.05470300398905805 
0.01488288562842871 
0.08381543912650061 
0.07869284400443051 
-0.03264253167972095 
-0.01941299941194186 
0.02163121534802131 
0.07138796098914617 
0.05735213421000679 
0.05856098169908824 
-0.002439959185115743 
0.05877376022135541 
0.03165159237085208 
0.03344773890960808 
0.02989101604157165 
-0.01190079994165541 
-0.03260833041145531 
-0.01463514723918596 
0.01370587124918064 
0.01201385374364224 
-0.002647229626471884 
0.03760543825678351 
-0.01655303675125092 
0.03527125196947417 
0.03032647071133497 
-0.02005911136722716 
-0.02989309391159204 
0.03893914023525136 
-0.03145302249618323 
-0.0001362610027262424 
0.00935529057778582 
0.0
0.0
0.0
0.0
0.0
0.0
0.0
0.0
0.0
0.0
0.0
0.0
0.0
0.0
0.0
0.0
0.0
0.0
0.0
0.0
0.0
0.0
0.0
0.0
0.0
0.0
0.0
0.0
0.008125299332847051 
0.06635795490630475 
0.007120604510257058 
0.04668569494643628 
0.02909300663333041 
0.02502085534035612 
0.01476347957688705 
0.0004968734776396172 
0.07018553937863338 
-0.03679211720698336 
0.05160180724789068 
-0.0005250068845714893 
-0.003276021293461562 
-0.06992812960625577 
0.0142815787022504 
-0.01859131492850252 
-0.02117120236131203 
0.02076394312652545 
-0.03452025757887117 
0.03374162940716034 
-0.02822532565026423 
0.03265846095883142 
0.02817781966098019 
-0.0397923004807314 
-0.02117748595113346 
0.01152711031989524 
-0.01341284614878864 
-0.02105084547405164 
0.06963750822766449 
-0.04495741782363364 
0.003275146121133159 
-0.03752814016255563 
-0.01939074589381802 
-0.05992824137272447 
-0.02126106032615475 
0.03320591710625936 
0.0
0.0
0.0
0.0
0.0
0.0
0.0
0.0
0.0
0.0
0.0
0.0
0.0
0.0
0.0
0.0
0.0
0.0
0.0
0.0
0.0
0.0
0.0
0.0
0.0
0.0
0.0
0.0
-0.0004808606298877114 
-0.03461314706366687 
0.003279077161925598 
0.02029482763428548 
0.03442013434649276 
0.01866591951305078 
-0.01720880067665448 
0.02796104739222776 
-0.04385159148941237 
-0.04098630749209805 
-0.01826431036533158 
-0.02646984536677372 
-0.01698051275558687 
-0.009174946923899079 
0.01856582605171946 
-0.04079270335029237 
-0.01921301058061224 
-0.03126146945057889 
0.0009850900868078362 
-0.002637733578044154 
-0.01727416985728832 
-0.02688708148446022 
0.01438762211842523 
0.0006998525307542847 
-0.02993750025861084 
0.0693134236062285 
0.04157092065170224 
-0.02723631038651711 
-0.01563599302008787 
0.03065102713173285 
-0.0378341631987159 
-0.05185817455360166 
-0.01285816144482713 
-0.01538269379161511 
0.02700501135777386 
0.003715723211351603 
0.0
0.0
0.0
0.0
0.0
0.0
0.0
0.0
0.0
0.0
0.0
0.0
0.0
0.0
0.0
0.0
0.0
0.0
0.0
0.0
0.0
0.0
0.0
0.0
0.0
0.0
0.0
0.0
-0.00648607786031757 
-0.01194419411741095 
-0.06419103533332693 
0.01288838313664418 
0.07073673084803256 
-0.009728127354666846 
-0.04797511112825365 
0.008585124749781511 
0.0503467403216182 
-0.005182365294158109 
-0.02262708508175833 
-0.05652667956903899 
-0.03466578876319723 
0.008359673188679698 
-0.02676986006521842 
-0.03088101744394948 
-0.03086864327645597 
-0.02238015972698838 
-0.01099780435225476 
0.03735740642123648 
-0.04301133071979889 
0.05900648402028007 
0.1218754156768626 
0.06609721568234342 
-0.006377710520805147 
0.03858370426048957 
0.06216043390252974 
-0.06021911236412066 
0.0411723770493462 
-0.0310392453071675 
0.07932694542209326 
0.1024777272648686 
0.02843379524164636 
-0.004284626703559675 
-0.05710101351699073 
-0.011662747805475 
0.0
0.0
0.0
0.0
0.0
0.0
0.0
0.0
0.0
0.0
0.0
0.0
0.0
0.0
0.0
0.0
0.0
0.0
0.0
0.0
0.0
0.0
0.0
0.0
0.0
0.0
0.0
0.0
0.05098567997753054 
0.05611185793180738 
-0.05020442645455629 
-0.06488189963812473 
-0.01785308523114594 
0.07165560241180422 
-0.02897740576340054 
0.05081544276262415 
0.1452880052020128 
-0.01652313206708844 
0.007755889548389798 
-0.08371404417683627 
-0.04989465980222396 
-0.004875913737849937 
0.04247265161623274 
-0.0007915260750486242 
0.05684411468005703 
0.1439315882855322 
-0.04299736020541831 
0.05626775859778884 
-0.07873779610879939 
-0.07910860702317507 
-0.09361872251330512 
0.05170049799499861 
-0.05348434739517284 
0.06362602707158305 
0.0548611114519441 
-0.0543133314180857 
0.03039618554686147 
-0.1349814160104981 
-0.05963121216559354 
-0.001353316631033188 
0.0177644844360406 
-0.1068407411407442 
0.05815822137036917 
0.05348189676849034 
0.0
0.0
0.0
0.0
0.0
0.0
0.0
0.0
0.0
0.0
0.0
0.0
0.0
0.0
0.0
0.0
0.0
0.0
0.0
0.0
0.0
0.0
0.0
0.0
0.0
0.0
0.0
0.0
-0.0509814201960749 
0.05066963874623656 
-0.03212357880167609 
-0.02830890404052111 
-0.05954027033196632 
-0.03972807549042837 
-0.05357453057704169 
0.02244705782479635 
-0.0573520724813858 
-0.01504235118919274 
0.1571381152833745 
-0.05297032131860505 
-0.03211255909608807 
0.05071210766614652 
-0.03529284375684715 
-0.1073260297368973 
0.0631242249993447 
-0.01398317086013643 
-0.03648384769063055 
0.01507249160849902 
-0.07407141125758816 
-0.03549693084491047 
-0.04113856401772346 
-0.04269635858074197 
-0.02553592044052445 
0.06032264208551305 
-0.07608213172172763 
0.03058868470241978 
0.09383073343257856 
-0.07916385568005555 
-0.03770105486691538 
0.02449064000728772 
-0.04853289530700474 
-0.0783723795011454 
0.100406607969214 
-0.02055196549532077 
0.0
0.0
0.0
0.0
0.0
0.0
0.0
0.0
0.0
0.0
0.0
0.0
0.0
0.0
0.0
0.0
0.0
0.0
0.0
0.0
0.0
0.0
0.0
0.0
0.0
0.0
0.0
0.0
0.1089119079307081 
0.04897668612784364 
-0.07338823830710139 
0.03606617619331172 
-0.09793099070341739 
-0.0744587819264374 
-0.08368328112054106 
0.04161352505011082 
-0.05678174162643061 
0.08581500769759616 
0.0006801704294034937 
-0.08309572407293962 
0.0104926424296474 
-0.05203411083190505 
-0.07142904119743353 
-0.1333980088226758 
-0.0001273761943191072 
-0.06061068774808476 
0.1257999670834999 
0.06318502693459742 
-0.02620013167366271 
0.06796207281429025 
0.01290776988078961 
-0.02221019473948057 
-0.05785248383897806 
0.03711120366562485 
0.02254679112255462 
0.1236344404916041 
0.03188961554373503 
-2.459867650671727e-005 
0.01899744487711281 
0.0006894296013095664 
-0.03234708855347898 
-0.08232652439946971 
-0.004132049469583061 
0.002247440183832791 
0.0
0.0
0.0
0.0
0.0
0.0
0.0
0.0
0.0
0.0
0.0
0.0
0.0
0.0
0.0
0.0
0.0
0.0
0.0
0.0
0.0
0.0
0.0
0.0
0.0
0.0
0.0
0.0
0.02684637237551873 
0.01152159984847564 
-0.006020167494729254 
0.07137440799715711 
0.1021431151997775 
0.09162098342528342 
-0.005734120930303815 
0.04930719084911054 
0.007323343768595958 
-0.02768399698791855 
-0.0392571390355147 
-0.0007267998184887844 
0.02868256675726468 
0.09645908722117215 
0.0854481112377788 
0.01984540776864114 
0.08111625228456772 
-0.05320496001385421 
0.01331798384822247 
-0.01934100228442843 
-0.04877118871474611 
-0.01156629504693378 
0.04547083568526059 
0.02436206744421094 
-0.04905851697619767 
0.0007699465824713691 
-0.01075354002794266 
0.01981255705959588 
-0.0255384468748467 
-0.04494922993512216 
-0.01835764420714471 
0.02718175772142567 
-0.01836465023774182 
-0.06337771599951668 
-0.01246009595356144 
-0.006233839494062133 
0.0
0.0
0.0
0.0
0.0
0.0
0.0
0.0
0.0
0.0
0.0
0.0
0.0
0.0
0.0
0.0
0.0
0.0
0.0
0.0
0.0
0.0
0.0
0.0
0.0
0.0
0.0
0.0
0.02642871881472846 
0.03730613776911877 
-0.01158670142422353 
-0.003103246181678199 
-0.00946917929768001 
-0.01879354644406434 
0.01526088088597647 
-0.001065593583062927 
-0.01238996075311579 
0.02945523685211455 
0.03186047126731544 
0.02310587315925146 
-0.02632765755925583 
-0.06160863307727515 
-0.0342174960573319 
0.02110890350827593 
0.02998780545748207 
-0.01097660313219537 
0.01285246869886424 
0.04890042580426204 
-0.01606246754423084 
0.02063970222256961 
0.026664381390611 
0.04622415545906609 
0.01175025686126655 
-0.0178149885738469 
-0.007974690882641898 
-0.01388436657203803 
0.009574921495206555 
-0.02234215317719583 
-0.00409482881442447 
-0.02321066597388341 
0.05942375945542103 
-0.01981579964690967 
0.003078219071108813 
-0.05255884432984795 
0.0
0.0
0.0
0.0
0.0
0.0
0.0
0.0
0.0
0.0
0.0
0.0
0.0
0.0
0.0
0.0
0.0
0.0
0.0
0.0
0.0
0.0
0.0
0.0
0.0
0.0
0.0
0.0
0.006019201824310949 
-0.02044388245775684 
-0.04307138686973291 
0.02455646992547441 
0.00553233984420186 
-0.003854493462051266 
-0.0719939569423854 
-0.03502869535353784 
0.0215960396928031 
0.01771503113325564 
-0.04737870579513358 
-0.1189460470841276 
-0.006225449208190061 
-0.04831253598001614 
-0.006508560788986922 
-0.06993704820768035 
-0.03105243529988334 
0.006995793270820419 
-0.005215460842982962 
-0.008127006018315822 
0.0251433952198417 
0.03411643808452864 
-0.05019072097162385 
0.0195900171873602 
0.04074920130786854 
0.0308020682831513 
0.01822267275756651 
-0.07457275959988576 
0.0263146530747471 
-0.03879216966134017 
0.03915729845537633 
-0.041850545676227 
0.02508545599142597 
-0.00501533761862219 
0.04336861583913117 
-0.0336321107768655 
0.0
0.0
0.0
0.0
0.0
0.0
0.0
0.0
0.0
0.0
0.0
0.0
0.0
0.0
0.0
0.0
0.0
0.0
0.0
0.0
0.0
0.0
0.0
0.0
0.0
0.0
0.0
0.0
0.0006187758651160156 
-0.03395155640162111 
-0.04679432787106064 
-0.02978157194796204 
-0.06766145383886256 
-0.0326641707568147 
-0.02747411896384595 
-0.01423787015178644 
-0.04088444422308434 
-0.02518440119673261 
0.0120779812658365 
-0.05788933225707156 
-0.06658856027418465 
-0.03412472388433051 
-0.02915268500819554 
-0.05738185486398441 
0.0273936426226471 
-0.009104503879181087 
-0.001133389009938748 
0.01403778711350962 
-0.05391313199714502 
0.06016723625310465 
0.03000533171151335 
0.04795745520409811 
-0.03499619188674082 
-0.04516750190404286 
-0.04346869209929823 
0.022712798012031 
0.07980992996531228 
-0.008369502450298411 
0.01232136713883286 
0.039255436321312 
0.04414041517907879 
-0.1179866609147131 
-0.07750608100404412 
-0.07474880677927698 
0.0
0.0
0.0
0.0
0.0
0.0
0.0
0.0
0.0
0.0
0.0
0.0
0.0
0.0
0.0
0.0
0.0
0.0
0.0
0.0
0.0
0.0
0.0
0.0
0.0
0.0
0.0
0.0
-0.04253517379910515 
0.01273065156549706 
-0.04830985536113317 
-0.03591634851708932 
-0.0750336397422568 
-0.01322776823024924 
-0.0571488815840365 
0.01787450213671189 
-0.002576680434045946 
0.03295228513987304 
0.07125893524383786 
-0.002149844409466002 
-0.05386987198651302 
-0.0708200845106623 
-0.02914505147632939 
-0.1096566110777181 
0.00743525672111358 
0.01137214389941088 
0.005082826052265034 
0.0589960647744355 
-0.03159091324260675 
-0.03882347239774549 
-0.03657587821544158 
-0.01134535420868449 
-0.09497716487221547 
0.03687856394862285 
0.06083435031258906 
0.01602173984915294 
0.06757903309440654 
-0.03170080209671174 
-0.06752249483379197 
-0.09363175516763581 
-0.005081569425421604 
-0.115628335818379 
0.03692448548683091 
0.03962336091035711 
0.0
0.0
0.0
0.0
0.0
0.0
0.0
0.0
0.0
0.0
0.0
0.0
0.0
0.0
0.0
0.0
0.0
0.0
0.0
0.0
0.0
0.0
0.0
0.0
0.0
0.0
0.0
0.0
0.004084253584050464 
0.1247233117206661 
-0.0006529998760025503 
-0.001526347158086097 
0.03199120067387736 
0.01257785607203884 
-0.05027810940509635 
0.0709992903792382 
-0.01155945233954916 
0.04464658129389321 
0.1271811016605515 
0.02615745062795306 
-0.05194879841868416 
-0.0602708274569639 
-0.01063874281782431 
-0.02058704913076592 
0.06543114430910037 
0.01742323779160337 
-0.003272271930096249 
0.03534742083680687 
-0.06321777372374876 
-0.02823342314358407 
-0.005424631189267291 
-0.01634467855844599 
-0.02685158624956988 
0.1265329050888076 
-0.002331555652979554 
0.02337253013263028 
0.0440353292307524 
-0.03850549073612689 
-0.04969497655378426 
-0.09985851768462294 
-0.1019648363070284 
0.01266596306694627 
0.1806506102453304 
0.06666874351771848 
0.0
0.0
0.0
0.0
0.0
0.0
0.0
0.0
0.0
0.0
0.0
0.0
0.0
0.0
0.0
0.0
0.0
0.0
0.0
0.0
0.0
0.0
0.0
0.0
0.0
0.0
0.0
0.0
0.07024331671822189 
-0.00770484773799471 
-0.0607541501997594 
-0.01434140478985774 
-0.04649815394943885 
-0.03176576329902457 
-0.05889633721458907 
0.03310637972102943 
-0.01054801936427319 
0.02653905516923787 
-0.02828641598318585 
-0.08118651524315163 
-0.02010010923574229 
-0.08412454304752726 
-0.06662552777013335 
-0.04156503059442832 
0.06835733730021003 
-0.005626818994521018 
0.01536838269738565 
0.01409592696224827 
-0.01133413788321297 
0.0212181003858315 
-0.03078907751730638 
-0.02192163325127912 
-0.0602742841794397 
-0.002898318800298871 
-0.03765646316675905 
-0.00918179995513782 
-0.05823690083107424 
-0.08526814212545641 
-0.02524683032217804 
-0.03784169776162791 
-0.05634393970324492 
-0.03314331732437365 
0.06255374973273864 
0.05070077195699511 
0.0
0.0
0.0
0.0
0.0
0.0
0.0
0.0
0.0
0.0
0.0
0.0
0.0
0.0
0.0
0.0
0.0
0.0
0.0
0.0
0.0
0.0
0.0
0.0
0.0
0.0
0.0
0.0
-0.0591570520585894 
-0.05262371877914854 
0.002719821205657453 
0.04264624750762693 
0.04976475625428641 
0.04983886870206109 
-0.03228116523339279 
-0.006061173435209868 
-0.01058383287563642 
-0.06434654100566194 
-0.06321578875632244 
-0.05559669614760349 
0.02098585019027824 
0.03201911765343763 
0.01234390579490738 
0.0006819297921419654 
0.09753306987724603 
-0.008973301602656131 
-0.02006557534114698 
-0.03135690836152905 
-0.04241196902213341 
-0.02550855571019241 
-0.04573010236727301 
0.009555364143240607 
-0.04927158306757794 
-0.02273868108786818 
0.01988066535545677 
-0.05263807084642288 
0.01998260573637205 
-0.05326458033411107 
-0.005737574037634819 
-0.04828137096035166 
-0.0475717925882307 
-0.0715569157579552 
0.007928573230677964 
-0.04650999429275739 
0.0
0.0
0.0
0.0
0.0
0.0
0.0
0.0
0.0
0.0
0.0
0.0
0.0
0.0
0.0
0.0
0.0
0.0
0.0
0.0
0.0
0.0
0.0
0.0
0.0
0.0
0.0
0.0
0.01619318727544572 
0.01281760036172499 
0.01863200509504847 
0.01084237632465498 
-0.04973576340691077 
0.0384061639642817 
-0.005014090876671999 
0.01775591048054869 
0.01155629453170142 
-0.02413857442290279 
0.04688263027110143 
-0.02291285453321595 
0.04797199887495995 
-0.001787598964052852 
0.07191256304902337 
-0.01599826018878384 
0.0520263713023465 
-0.04693802871769456 
0.007802695040294717 
0.01381484967085974 
-0.03312313574869343 
-0.0008539995495768302 
-0.03803328980455826 
0.0305224161320192 
-0.08410125976134486 
-0.0332342053071747 
-0.01754884060437808 
-0.01231725741587676 
0.02379272182729745 
-0.06951964977176936 
-0.006855919223913758 
-0.04491347882719361 
-0.01539248981227918 
-0.113081907445427 
-0.04900054930745284 
-0.04073837302451831 
0.0
0.0
0.0
0.0
0.0
0.0
0.0
0.0
0.0
0.0
0.0
0.0
0.0
0.0
0.0
0.0
0.0
0.0
0.0
0.0
0.0
0.0
0.0
0.0
0.0
0.0
0.0
0.0
0.01157336690617454 
-0.01890588044610245 
-0.05506740707334896 
0.02051312357564906 
-0.01862902839938637 
0.01182678405617597 
-0.05345483920966546 
-0.01496231170913832 
-0.01669588190555324 
-0.0493665155950077 
-0.03874545997957483 
-0.01733157578312437 
0.01077888141736211 
-0.05843241265678245 
-0.02317943325963717 
-0.07013351394301386 
-0.004067389783079354 
-0.02459344440334615 
-0.0227367967113539 
0.05714190139498222 
0.003604972127135195 
0.05017617077265631 
0.0122639401799442 
0.06770230601811893 
0.01322609587465974 
0.02714423406849788 
-0.004167188769755639 
-0.06179272875956347 
0.02297918025698939 
0.02178399393789926 
0.07308840271305164 
0.02311310995760925 
0.06324253731360208 
-0.03164351318404283 
-0.01951002571027938 
-0.03674489583033357 
0.0
0.0
0.0
0.0
0.0
0.0
0.0
0.0
0.0
0.0
0.0
0.0
0.0
0.0
0.0
0.0
0.0
0.0
0.0
0.0
0.0
0.0
0.0
0.0
0.0
0.0
0.0
0.0
-0.05952685606222254 
0.007000099244542831 
-0.05059613839769172 
-0.0486104993994609 
-0.04915220617552575 
0.01299739169294456 
-0.01846112100681486 
-0.0001336519907467141 
-0.02349523938449889 
-0.07376465736200191 
-0.03787575239090903 
-0.07445804860392627 
-0.008408421098966001 
-0.08957869070596454 
-0.01586119842609 
-0.06852862637864073 
-0.05280838096785262 
-0.03203638647510778 
0.004545708591012181 
0.05094990428263122 
-0.01979702363116016 
0.01547676823707494 
0.08416533490623042 
0.09285729817425369 
0.00720128337842024 
0.006143411932240097 
0.04121982324202821 
-0.002553870403023085 
0.02551608702325933 
-0.03740636990501333 
0.07297808005014335 
0.05659510737305198 
0.05885028126512648 
-0.04268311349963044 
-0.04508133466183942 
-0.05878949814193351 
0.0
0.0
0.0
0.0
0.0
0.0
0.0
0.0
0.0
0.0
0.0
0.0
0.0
0.0
0.0
0.0
0.0
0.0
0.0
0.0
0.0
0.0
0.0
0.0
0.0
0.0
0.0
0.0
-0.04391068147666397 
0.02634602618117045 
-0.03677455762094137 
-0.03372103786388896 
-0.01580502033966308 
-0.003863771603334352 
-0.0547972535627398 
0.005451909956008229 
-0.03399481937091198 
0.0352023617814259 
0.01440048286542512 
-0.07834629320844413 
-0.005861188653362398 
-0.07037450638439105 
-0.01657055708756443 
-0.04644664283354728 
-0.03262372117061205 
-0.002362063077974764 
0.007844711392679156 
0.1261328827449073 
-0.0166590156355168 
-0.04462930870134894 
-0.03176551816929564 
0.02558740188164783 
-0.05688089650024492 
0.0641242103730313 
-0.01878959049257713 
0.05536457215984401 
0.0638937237368475 
-0.06293775838869659 
-0.03585977983280737 
-0.02474608928297197 
-0.001348633679285809 
-0.04848256026864501 
0.01490599097352021 
-0.01412166267285068 
0.0
0.0
0.0
0.0
0.0
0.0
0.0
0.0
0.0
0.0
0.0
0.0
0.0
0.0
0.0
0.0
0.0
0.0
0.0
0.0
0.0
0.0
0.0
0.0
0.0
0.0
0.0
0.0
0.04555820743638549 
0.09944635314234886 
-0.003618603248106635 
-0.04101969655310823 
-0.03013835888655006 
-0.02820693834470641 
-0.04331729487887524 
0.03679667457143025 
-0.0476064773003565 
0.139558871517366 
0.03435022658199852 
-0.05105915081279841 
-0.05775507244001456 
-0.04110539945664848 
-0.02839229174040397 
-0.04499178367859523 
-0.01402384919072718 
0.003653041155992352 
-0.04050485942437562 
0.04713433209675322 
-0.01645392184853173 
-0.01659125273302553 
-0.03954849977762277 
-0.08482513598956337 
-0.001930592189017811 
0.1221391284365416 
0.03304960165353423 
0.02217257762062492 
-0.02244924335222968 
-0.04607438587052035 
-0.007723060952847955 
-0.03736300671243953 
-0.09087834289700913 
-0.06779526326123073 
0.06066208930374457 
0.09914746601053355 
0.0
0.0
0.0
0.0
0.0
0.0
0.0
0.0
0.0
0.0
0.0
0.0
0.0
0.0
0.0
0.0
0.0
0.0
0.0
0.0
0.0
0.0
0.0
0.0
0.0
0.0
0.0
0.0
-0.006422603161740637 
-0.007608017862202137 
-0.0382889255297174 
0.01562512731052761 
-0.02767963442994357 
-0.05957753165569209 
-0.01513355497314823 
0.07193031422063137 
0.001129972080519592 
0.03276877409586575 
-0.01954443837108962 
-0.03255338110564119 
0.02357614093435639 
-0.04157407340933765 
-0.04495349433981614 
-0.05218547122814061 
0.05698571326553809 
0.01101102107150851 
-0.04437647534355432 
-0.03092037642949065 
-0.05124428321179536 
-0.003617353531186236 
-0.008189962743681384 
-0.02759461819541911 
-0.03132642931904058 
0.01513631493295623 
0.01570752980905963 
0.0004269355784942833 
-0.04101914701561727 
-0.06082479269216975 
-0.01689042297490015 
-0.06482827785139383 
0.007993111649500197 
-0.06545551596281951 
0.01872241937883054 
0.05252450905610391 
0.0
0.0
0.0
0.0
0.0
0.0
0.0
0.0
0.0
0.0
0.0
0.0
0.0
0.0
0.0
0.0
0.0
0.0
0.0
0.0
0.0
0.0
0.0
0.0
0.0
0.0
0.0
0.0
0.01684278320112634 
0.01058832252470532 
0.01980288161199989 
0.08342055683640255 
0.09731594597094034 
0.02974888097951665 
-0.01438245715472554 
0.08086652238271129 
0.02006969150943103 
-0.06283108698215258 
0.005190128824558391 
-0.03799694216881185 
0.06782718116662406 
0.05694747589394197 
0.05554269828963888 
-0.02686287603064899 
0.03427550290548019 
-0.007301532938341403 
-0.0379024234087572 
0.02433548657198164 
-0.0132073889101091 
0.02445940541762754 
-0.036451961316102 
-0.03949572502589242 
-0.05269511527983951 
0.03212143645865481 
-0.03459474710947058 
-0.05786501813794277 
-0.01684692893822215 
-0.04458428310521095 
-0.03104491117742421 
-0.09625151528903818 
-0.03443271307463378 
-0.09628679809868727 
-0.03784520371183411 
-0.1101579082092744 
0.0
0.0
0.0
0.0
0.0
0.0
0.0
0.0
0.0
0.0
0.0
0.0
0.0
0.0
0.0
0.0
0.0
0.0
0.0
0.0
0.0
0.0
0.0
0.0
0.0
0.0
0.0
0.0
-0.03503119995533186 
0.02564648218507162 
0.01966137050364015 
0.04680865326453868 
-0.01958695033540606 
0.0594321232910083 
0.0176357255583324 
0.06520471867573351 
-0.02729371882955598 
-0.04032465184545829 
-0.007672804957089943 
-0.0136361671808647 
0.007379289763592758 
-0.01329143513453039 
0.04830571057046283 
0.02622450344696341 
0.04936367954340148 
-0.04540507102428039 
-0.03522405593775589 
-0.01853667456678021 
-0.06293123221839989 
-0.01647400343497167 
-0.03279524650960054 
0.02719287790538052 
-0.02515392999214139 
-0.00410822035185544 
0.004767254082116559 
-0.02403780688278441 
-0.02130641264617223 
-0.07376409092484118 
0.01385054841392005 
-0.02224675619061881 
0.01767050235799394 
-0.01426518854230846 
-0.05973965038068504 
-0.02910748142169018 
0.0
0.0
0.0
0.0
0.0
0.0
0.0
0.0
0.0
0.0
0.0
0.0
0.0
0.0
0.0
0.0
0.0
0.0
0.0
0.0
0.0
0.0
0.0
0.0
0.0
0.0
0.0
0.0
-0.06405273166155576 
-0.03113679299747113 
-0.02378970618402387 
0.02138061818328169 
0.002739319185428922 
0.02345276704127294 
-0.03779432273358015 
-0.0004078104856591589 
-0.01123162088533669 
-0.05561447792892266 
-0.0330305919985039 
-0.06469834319578373 
-0.01831607304414533 
-0.005232822763873813 
-0.01762630581592016 
-0.04971583008522817 
3.217247307690618e-005 
-0.0555944445905423 
-0.04820463284076999 
-0.03971140359170884 
-0.02472925267132305 
0.055479086154893 
0.03631506007794794 
0.04722349144871133 
0.01395047793710661 
0.006633820614505485 
0.02940267645936274 
-0.005970784526699698 
-0.02681053442054517 
-0.055164012355988 
0.001434012709052874 
0.02309339996593631 
0.03335768799003105 
-0.007761815858279758 
0.005100071827024209 
-0.05102356167644966 
0.0
0.0
0.0
0.0
0.0
0.0
0.0
0.0
0.0
0.0
0.0
0.0
0.0
0.0
0.0
0.0
0.0
0.0
0.0
0.0
0.0
0.0
0.0
0.0
0.0
0.0
0.0
0.0
0.01638297395931515 
-0.02507806223867053 
-0.06326763325895154 
-0.01478370253200914 
-0.07232089286561549 
-0.02680219813349065 
-0.06612253537941458 
-0.03950989349091406 
0.04304708334470043 
0.007026129583682341 
-0.01006611503548864 
-0.04065244911538225 
-0.03782772008429252 
-0.1023088120385858 
-0.06868939829081988 
-0.053835618811714 
-0.02438828348630427 
-0.03655346381801469 
0.05094862552217319 
0.0434422864350547 
0.003461618198339449 
0.0578928878572117 
0.05653660660017607 
0.06331887974853756 
-0.03016715307839259 
-0.01458284033804982 
-0.03066965884015177 
0.01278149583381735 
0.0855207836894268 
0.0266632295012733 
0.0783380954665675 
0.02994712115259175 
0.03141175345270329 
-0.01330534366205648 
0.01177397059680205 
-0.04630268995506046 
0.0
0.0
0.0
0.0
0.0
0.0
0.0
0.0
0.0
0.0
0.0
0.0
0.0
0.0
0.0
0.0
0.0
0.0
0.0
0.0
0.0
0.0
0.0
0.0
0.0
0.0
0.0
0.0
-0.02498396392701664 
-0.03631589429945228 
-0.05652859197762297 
0.00504322475611705 
-0.04525404856858387 
-0.02136144127527195 
-0.06453728348444947 
-0.03839299072498398 
-0.0542746723316121 
-0.01596884785133935 
0.03564222491864809 
-0.0550154553560939 
-0.01823656111890255 
-0.0428840137226396 
-0.0487907546985895 
-0.05452104492781564 
0.01237667966890266 
-0.03164396951259048 
-0.04011381314431731 
-0.003714566529103053 
-0.0547507521064776 
-0.01697356255836561 
-0.04269991409450193 
-0.03105956086317782 
-0.08630309075787378 
0.04893625425539741 
0.06436603491815321 
0.01043468050975931 
0.06889272493945443 
0.009577584596890305 
-0.001370990262370741 
-0.04315735760794479 
-0.05053611752183324 
-0.0530457435495206 
0.1018337510106056 
0.116546738596357 
0.0
0.0
0.0
0.0
0.0
0.0
0.0
0.0
0.0
0.0
0.0
0.0
0.0
0.0
0.0
0.0
0.0
0.0
0.0
0.0
0.0
0.0
0.0
0.0
0.0
0.0
0.0
0.0
0.0328055480736453 
0.004851808461511938 
-0.03190060079751854 
-0.03584090262101795 
0.004015742965346957 
-0.01920360687806321 
-0.08945523105114563 
-0.03504447815558641 
-0.04124366685083972 
0.01649884933411109 
-0.01210910978644601 
-0.01476601658837185 
-0.03691527057356014 
-0.06477615754501966 
-0.02989542943299114 
-0.04617646519854689 
-0.0007436717527312831 
0.08953611146541034 
-0.006679829365821811 
-0.05883216700912797 
-0.08339676389590685 
0.00808398509414816 
0.008573994918132231 
-0.05770148757194811 
-0.07269359327641396 
0.02461003296556141 
-0.007449106073308321 
0.09594931347022401 
0.007489440353985443 
-0.02720252646957187 
-0.02464841093834931 
-0.07335931006054541 
-0.06274380460061149 
0.007219952352303403 
0.01303636947809034 
0.01805264984684393 
0.0
0.0
0.0
0.0
0.0
0.0
0.0
0.0
0.0
0.0
0.0
0.0
0.0
0.0
0.0
0.0
0.0
0.0
0.0
0.0
0.0
0.0
0.0
0.0
0.0
0.0
0.0
0.0
0.116067809844232 
0.02105549352830596 
-0.0666578635346472 
0.007097425456453872 
-0.04175945134027943 
0.005228036029387724 
-0.02205457809129533 
0.007846857413669497 
-0.01890624876342125 
0.1250086610368064 
0.06988608015234182 
-0.02844994963049838 
-0.0532906572888182 
-0.02770749463348324 
0.00593270908897151 
0.03847375942839794 
0.06050696805914009 
0.002974415772150538 
-0.04810282856072528 
-0.05341379185696637 
-0.08968852143121102 
-0.006260414955513714 
-0.02853659535689132 
0.0237431607514516 
-0.01556453007513834 
-0.0247502281462997 
-0.04329671223298211 
-0.06168423549664015 
-0.03164011197981309 
-0.06383264091441215 
-0.0379637516620596 
-0.02706232420120005 
-0.02754263394909557 
-0.04468128935766565 
0.02315675343671956 
-0.03749389044803929 
0.0
0.0
0.0
0.0
0.0
0.0
0.0
0.0
0.0
0.0
0.0
0.0
0.0
0.0
0.0
0.0
0.0
0.0
0.0
0.0
0.0
0.0
0.0
0.0
0.0
0.0
0.0
0.0
-0.02876772254415907 
0.002835509721629332 
-0.03508657100897172 
0.07305762919451934 
0.05872094027809361 
0.04311891304991315 
-0.01866354474551545 
0.03451323276360224 
0.04727270085155023 
-0.03333561503385921 
0.003356281566019121 
0.001111317204194803 
0.0296397951037558 
0.02576295939262798 
0.01045745648900631 
0.0447943421503191 
0.0559915485475033 
0.01008160182698693 
0.0262264709820908 
-0.0112718248706258 
-0.03450381263533837 
-0.01345112048775909 
-0.06167612808869544 
0.02171888676561091 
-0.08897556987979416 
-0.006133767080628855 
0.008765492377378373 
-0.09774695884462981 
-0.02633619909357602 
-0.06361643886990712 
-0.06906382869028854 
-0.06880785034152055 
-0.0115609531798853 
-0.03890440041116518 
0.01635453879336166 
-0.04211587599062408 
0.0
0.0
0.0
0.0
0.0
0.0
0.0
0.0
0.0
0.0
0.0
0.0
0.0
0.0
0.0
0.0
0.0
0.0
0.0
0.0
0.0
0.0
0.0
0.0
0.0
0.0
0.0
0.0
0.004057484746072385 
0.001089176693772296 
0.02150881322138279 
0.02550569301990658 
0.007657485215807799 
0.05949140326621675 
-0.03715998092636959 
-0.0210781197025268 
-0.04167943354670185 
-0.1038035904579813 
-0.01828741018593299 
-0.02712382477220274 
0.005688274874573991 
-0.0255296280887957 
0.02825254045009727 
-0.05431727047440545 
0.007276814126723496 
-0.03684346996731446 
0.01600520007049408 
0.01863863341131084 
-0.05057949513255271 
0.02793878685913078 
-0.004921565749373733 
0.04183562113287098 
-0.003139013868289219 
-0.03079464887227973 
-0.02448112648937806 
-0.006443874112026765 
-0.02451348345749659 
-0.06763178604036178 
-0.02672849601429849 
-0.04657988061602931 
-0.01661940031031767 
-0.05860650403133209 
-0.03283700073612195 
-0.04557803439448584 
0.0
0.0
0.0
0.0
0.0
0.0
0.0
0.0
0.0
0.0
0.0
0.0
0.0
0.0
0.0
0.0
0.0
0.0
0.0
0.0
0.0
0.0
0.0
0.0
0.0
0.0
0.0
0.0
0.009004779726259038 
0.009936543643360503 
-0.013904324003819 
0.01750714972489524 
-0.01122281562626129 
-0.04543783601182931 
-0.02572794675318474 
-0.001681260422296827 
-0.02653733481520735 
-0.06785081372946972 
-0.02843513747822065 
-0.03468995769235384 
-0.01934518629459511 
-0.07169426578290947 
-0.05311584116384628 
-0.05308011916741975 
0.02456762357000401 
-0.03582994617845382 
0.02497373735960402 
0.01078918945851347 
0.02312640619933502 
0.0656008733954709 
0.04454901900503366 
0.005584142873810144 
0.06232709566211344 
0.06895454612126623 
0.004372399092337426 
-0.05562497510034504 
-0.02631037099988835 
-0.02024053124663056 
0.02177338775002717 
0.01486200600229725 
0.001025054806820327 
-0.000726402775148467 
0.01541630300703898 
-0.01274957703067312 
0.0
0.0
0.0
0.0
0.0
0.0
0.0
0.0
0.0
0.0
0.0
0.0
0.0
0.0
0.0
0.0
0.0
0.0
0.0
0.0
0.0
0.0
0.0
0.0
0.0
0.0
0.0
0.0
0.0004740045808052446 
-0.01052567369036129 
0.0008153312766795831 
-0.02547739799466326 
-0.03746142143281641 
-0.04548913316000468 
-0.03624918460416131 
0.005976593925325768 
-0.02241714047473068 
-0.07908276980995475 
-0.07509654164896901 
-0.08435998863375296 
-0.08536251109492514 
-0.07032371440855584 
-0.06058274203375751 
-0.07048023951222271 
-0.02655319755709285 
-0.02480340775840603 
0.0322435807561919 
0.06041040054871653 
0.03569327696941895 
0.0809771064978775 
0.1357875467092437 
0.1253023672599164 
0.04440520382330877 
0.08973652162141238 
0.02542671399979506 
-0.01790935158725471 
0.007666746667338527 
0.003406388183401124 
0.01858718911119369 
0.0563308327610718 
0.04212916866317281 
0.0122497317822893 
0.03712966335760928 
-0.01650950588211892 
0.0
0.0
0.0
0.0
0.0
0.0
0.0
0.0
0.0
0.0
0.0
0.0
0.0
0.0
0.0
0.0
0.0
0.0
0.0
0.0
0.0
0.0
0.0
0.0
0.0
0.0
0.0
0.0
-0.0007348836039978133 
0.07577959118210614 
0.02189553379835317 
-0.02523841274617593 
-0.03736972733305271 
0.02288539589785228 
0.0290893851470557 
0.02479773789154564 
-0.01652463567889011 
-0.05485787788802947 
-0.02022384591823657 
-0.03157130908190648 
-0.06227173533380274 
-0.1208722329837618 
-0.1013691930118955 
-0.01382627411776378 
-0.0169381661990634 
-0.0656054296787293 
0.07361594510651137 
0.1360613224272862 
0.1186524725321576 
0.07710405028482489 
0.0616121806964079 
0.06381074368805613 
0.04288419280229868 
0.06420028791458236 
0.04885101816996555 
0.06064190400768494 
0.1155080809511428 
0.06999993303777892 
0.03563055231629435 
-0.04059256374506367 
-0.02236853492858779 
0.02057994856125728 
0.03921941043951676 
0.03745830071144112 
0.0
0.0
0.0
0.0
0.0
0.0
0.0
0.0
0.0
0.0
0.0
0.0
0.0
0.0
0.0
0.0
0.0
0.0
0.0
0.0
0.0
0.0
0.0
0.0
0.0
0.0
0.0
0.0
0.04575732726808339 
0.02853592903285667 
0.01648318936521518 
0.05902195214174068 
0.08745001719553956 
0.04590403157520608 
0.003565981793107218 
-0.009232491458592394 
0.05199042035272201 
0.04126415417551924 
0.0379647137501808 
0.0227655720617513 
0.03456146644781397 
-0.01346223546971696 
0.005636291454121348 
0.0160211100477077 
0.04633473220514933 
0.0424507791104524 
0.05468872962158192 
0.01988070125914596 
0.02590555074954468 
0.04613273848086642 
0.07808174768018671 
0.06232050968794361 
0.03738547180098519 
0.03958191416569422 
0.03698488748911696 
0.05484805346599048 
0.05782049914109591 
0.0192221159085804 
0.02089130392088691 
-0.01586948630883407 
0.01783477969707294 
0.04294728964532503 
0.08420185092068871 
0.01689329906267975 
0.0
0.0
0.0
0.0
0.0
0.0
0.0
0.0
0.0
0.0
0.0
0.0
0.0
0.0
0.0
0.0
0.0
0.0
0.0
0.0
0.0
0.0
0.0
0.0
0.0
0.0
0.0
0.0
0.1048444051493812 
0.1014087548183039 
0.07881826985939391 
0.0562248723677131 
0.09125499185368005 
0.103168452468537 
0.1346847989904183 
0.1434361252416189 
0.08548922335772494 
0.03444961183017432 
0.06367798497740207 
0.03953423634549511 
-0.01442439528301977 
-0.02404022637547335 
0.07779132315856016 
0.08990588226574864 
0.1018998657465006 
0.05186428182562629 
-0.02649852450409128 
0.04592631910257927 
0.04729810468552084 
0.029048956438484 
-0.007899427614057538 
-0.02279707936240602 
0.0359633451619949 
0.1168405123909492 
0.03191638965178831 
-0.0607899942590034 
-0.002875709297124928 
-0.04222968451244506 
-0.113177610564959 
-0.08454979958691104 
-0.0553397407930431 
0.0005509989140905863 
0.01779926293021248 
-0.04429687559285478 
0.0
0.0
0.0
0.0
0.0
0.0
0.0
0.0
0.0
0.0
0.0
0.0
0.0
0.0
0.0
0.0
0.0
0.0
0.0
0.0
0.0
0.0
0.0
0.0
0.0
0.0
0.0
0.0
0.03543030697762838 
0.08058706535073135 
0.07486943815183059 
0.09018540101548905 
0.09074134748300944 
0.04871250310112138 
0.06463841183480126 
0.05886609202353085 
0.03474498514096799 
0.03182386879211083 
0.03254746461002731 
0.03266772496843718 
0.03462972395020179 
0.04269223599671822 
-0.01788006677148049 
0.02855821809561001 
0.02920177832362753 
0.01713708444098088 
-0.04246319847947853 
-0.01071902035357204 
-0.03042585125236263 
-0.05747816835197736 
-0.06177589173023333 
0.004362212690707191 
0.01116869525515651 
-0.01008022558204531 
-0.01342452656569947 
-0.01982005710252308 
-0.05100500000508299 
-0.05701333805320409 
-0.07593052013503261 
-0.07697565711088722 
-0.0594836345829827 
-0.06109969574406171 
-0.0782912023523815 
-0.07220179277474587 
0.0
0.0
0.0
0.0
0.0
0.0
0.0
0.0
0.0
0.0
0.0
0.0
0.0
0.0
0.0
0.0
0.0
0.0
0.0
0.0
0.0
0.0
0.0
0.0
0.0
0.0
0.0
0.0
0.01429531748398144 
0.0353702130197028 
0.0530908375988332 
0.02831567645157688 
0.04653441568386296 
0.09005242682476181 
0.03559150656990562 
0.05388946783517853 
0.05652823285975152 
-0.00542084791322732 
0.02183667949583878 
0.01700463175022146 
-0.01497464636105486 
-0.03040129162123207 
0.02350493846816756 
0.007706951224746936 
-0.01856402192673692 
-0.06924406078993713 
0.03671332788395484 
-0.003097648387197785 
-0.0111477593588275 
-0.00216206874426196 
0.06663670408531194 
0.03596498012547404 
0.004133637709030107 
0.01001765178485097 
0.01395550047573047 
-0.02112141496194178 
0.02694052637867659 
-0.06467657989409924 
-0.06559117493784064 
-0.04407964643345648 
-0.03803579777838843 
-0.05184698276396451 
-0.05738431471885271 
-0.1052354329024524 
0.0
0.0
0.0
0.0
0.0
0.0
0.0
0.0
0.0
0.0
0.0
0.0
0.0
0.0
0.0
0.0
0.0
0.0
0.0
0.0
0.0
0.0
0.0
0.0
0.0
0.0
0.0
0.0
-0.04698070522078129 
0.0564985863010356 
0.03905079945450272 
0.05925428161225866 
-0.0218453207388814 
-0.02733714043531717 
-0.03087690980867335 
0.01525572775497583 
-0.01861399873041085 
-0.06368874811479207 
-0.007543687524769073 
0.004123964650354216 
0.03916448268517992 
0.02520734183030367 
-0.01872049958705119 
-0.0399775711842374 
-0.05854303091345183 
0.00616447279771323 
-0.03041312820911612 
0.04749746098126711 
0.003203882856904425 
-0.006185869873117024 
-0.01189462282697589 
0.008413353192428025 
-0.002474644547700447 
0.03064275609720436 
0.03435644028053749 
-0.0335184034815891 
-0.002068118718380518 
0.053962250007398 
-0.01870809515511338 
0.01446020511688975 
0.01319446933411257 
-0.02827113542907086 
-0.04797082531729511 
0.04423165102669766 
0.0
0.0
0.0
0.0
0.0
0.0
0.0
0.0
0.0
0.0
0.0
0.0
0.0
0.0
0.0
0.0
0.0
0.0
0.0
0.0
0.0
0.0
0.0
0.0
0.0
0.0
0.0
0.0
-0.01952642320481232 
0.01576333882999179 
-0.003843166445770832 
-0.03731675578100212 
-0.06209403844573484 
0.003151103406796944 
-0.01900991723496415 
0.001532522928974562 
-0.01536260452946503 
-0.03025791739574252 
-0.007207460879786539 
0.04237120560800164 
-0.0630277708044813 
-0.07505750551466206 
-0.07336200082387787 
-0.05809421879428208 
-0.0364032837064799 
0.03514726524148309 
0.0003430549610159082 
0.01270863930737215 
0.02265368842450389 
0.04012304426090118 
0.06879554802056001 
0.1161437318106045 
0.103981138247623 
0.07827170426899552 
0.03771750184753103 
-0.06846881567037198 
-0.07551975033573102 
0.03150001049445009 
-0.03825520497594162 
0.01759944549143859 
-0.006276367567839885 
-0.05066382294879639 
0.0100686396711606 
0.03080166869958636 
0.0
0.0
0.0
0.0
0.0
0.0
0.0
0.0
0.0
0.0
0.0
0.0
0.0
0.0
0.0
0.0
0.0
0.0
0.0
0.0
0.0
0.0
0.0
0.0
0.0
0.0
0.0
0.0
-0.03819805762063901 
0.01673346192211224 
0.01572017036417785 
0.01652874568683123 
0.0466689828134035 
0.03228442663753293 
0.07135438443596918 
0.05216689459813612 
-0.02323399858077054 
-0.0832530804950298 
-0.07178321478804299 
-0.05299195198908545 
-0.08277002905293139 
-0.08105513991236656 
-0.04191717757981296 
-0.07403346566844556 
-0.04787575570799173 
-0.04991252161765118 
0.1492530330062221 
0.1690478647545 
0.05970368356350383 
0.08312697709822121 
0.1837671577649198 
0.1160816942690631 
0.08315422279851145 
0.09746550253922368 
0.1012337477915562 
-0.01283025932157279 
-0.04532742712008012 
-0.04910375295584971 
-0.06472603890728175 
-0.002658330474505865 
-0.01895417381266996 
-0.0671946264576314 
-0.07385112155635389 
-0.04201188972838595 
0.0
0.0
0.0
0.0
0.0
0.0
0.0
0.0
0.0
0.0
0.0
0.0
0.0
0.0
0.0
0.0
0.0
0.0
0.0
0.0
0.0
0.0
0.0
0.0
0.0
0.0
0.0
0.0
0.02920430485265517 
0.03734423302013928 
0.000922759199855574 
0.07425195276676243 
0.2242426507397263 
0.08447052762943703 
0.03687851379295845 
0.04373310876292125 
0.04694604253176567 
-0.06948725843421122 
-0.07384204453677817 
-0.04778393368593679 
-0.02570771227726293 
0.03500366009041803 
-0.0209734122660835 
-0.05967319712572389 
-0.0830688108362574 
-0.06839218472090995 
0.04543163163733584 
0.07434348273095431 
0.04468710960879624 
0.1217740312166547 
0.2386524838291518 
0.05725479646002469 
0.008640493101033053 
0.08077918134561447 
0.03743796555191407 
-0.07455336714709142 
-0.07851110910856073 
-0.05731994602900534 
-0.00538455258417829 
0.00547536055541147 
-0.0456464492125891 
-0.08196940370369237 
-0.07650487042857353 
-0.05344642229810245 
0.0
0.0
0.0
0.0
0.0
0.0
0.0
0.0
0.0
0.0
0.0
0.0
0.0
0.0
0.0
0.0
0.0
0.0
0.0
0.0
0.0
0.0
0.0
0.0
0.0
0.0
0.0
0.0
0.08203710998774243 
0.09718565011448771 
0.06360591495539322 
0.1447092251862402 
0.1843158455702846 
0.02338496981046601 
0.03744775680493124 
0.1075141829500114 
0.09707199034999946 
-0.04136890661129217 
-0.07936060928682308 
-0.04234539550028697 
0.0219629548811635 
0.04576542079541542 
-0.056372498826893 
-0.05538358211748624 
-0.04484743791583173 
-0.007399002782946852 
-0.01476351791559252 
0.03158156454777079 
0.07127175398945762 
0.09184780944221783 
0.09176132548867264 
0.004167979095954569 
0.0293513568563063 
-0.002221314500074629 
-0.04099379757321126 
-0.05120521614950286 
-0.05896747792482018 
-0.04137872136795318 
-0.007791501376778283 
-0.03187641441117625 
-0.1082668995912867 
-0.09278526964507174 
-0.09367069645842838 
-0.0872340396135529 
0.0
0.0
0.0
0.0
0.0
0.0
0.0
0.0
0.0
0.0
0.0
0.0
0.0
0.0
0.0
0.0
0.0
0.0
0.0
0.0
0.0
0.0
0.0
0.0
0.0
0.0
0.0
0.0
0.02677413650837002 
0.03715337893559802 
0.1118148891752894 
0.1656997802168188 
0.0723095329015918 
0.02250984868066546 
0.03294498826546572 
0.02413365952081623 
-0.003857078813883749 
0.01999075446022658 
-0.02460172338644935 
-0.02124024927910035 
0.008826972139617174 
0.01991336879827385 
-0.05071945473053879 
-0.02869268872412598 
-0.09065552789305351 
-0.09111790245503233 
-0.004851783337780861 
-0.002781683199020845 
-0.004324210118888944 
0.04371526525473288 
-0.0408377912046721 
-0.01728126588301288 
0.019452207171832 
0.02854543990119575 
-0.03021597359144144 
0.04227844470302156 
-0.03040084936704042 
-0.06914955338536523 
-0.05888315225207456 
-0.01179553986949112 
-0.04817370135760469 
0.03211236503415617 
-0.006720100751889275 
-0.05402974065454236 
0.0
0.0
0.0
0.0
0.0
0.0
0.0
0.0
0.0
0.0
0.0
0.0
0.0
0.0
0.0
0.0
0.0
0.0
0.0
0.0
0.0
0.0
0.0
0.0
0.0
0.0
0.0
0.0
0.06527518929324669 
0.04179597479144685 
-0.005124551904438265 
-0.002010742465027333 
-0.01431117334905622 
-0.01183408736638084 
0.05539316663228745 
0.04397349371703384 
-0.03959478398807129 
0.0300363827918743 
-0.04176740517892032 
-0.04146703736979134 
0.000422327953142139 
0.04445129565008849 
-0.01189737381052403 
0.03032179428166381 
0.003403390805401378 
-0.01645351408604133 
0.02165432951831708 
0.06052712755034498 
-0.001599119394880252 
-0.03319951592601587 
-0.01726347616389325 
0.02565695224284328 
0.06686624272409096 
0.03294754258868336 
-0.04955910047325546 
0.006716909441620736 
-0.07509290827606092 
-0.05030780433553169 
-0.003647224659531243 
0.04076255224011999 
0.02044970363710417 
0.005203330987405682 
-0.001765777407131994 
-0.03153973799968846 
0.0
0.0
0.0
0.0
0.0
0.0
0.0
0.0
0.0
0.0
0.0
0.0
0.0
0.0
0.0
0.0
0.0
0.0
0.0
0.0
0.0
0.0
0.0
0.0
0.0
0.0
0.0
0.0
-0.03473860024861571 
-0.04352772946621911 
-0.03860940848308817 
0.01115054624844942 
0.0150456491188641 
0.05640015725960675 
0.00453065043118082 
-0.02635574823140425 
0.07110860112689077 
0.0465910643355169 
-0.04869435326313387 
-0.03148095177558928 
-0.01584650032079459 
-0.05766215090664186 
-0.02553260293555995 
-0.01321618058874704 
-0.01360467888340562 
0.09561946891433586 
-0.05308615456834772 
-0.0753522789151691 
0.0524625100403109 
0.02479956086150357 
-0.02825844179512401 
0.06916564600690352 
-0.005915160161931539 
-0.04503773841185466 
0.0300887105526467 
0.007938654026156846 
-0.06661050621694444 
0.0001490894606251238 
0.004234900480316604 
-0.03729747813282446 
-0.006732294783867272 
-0.0294521990860627 
-0.06584675930241839 
0.02120244356193139 
0.0
0.0
0.0
0.0
0.0
0.0
0.0
0.0
0.0
0.0
0.0
0.0
0.0
0.0
0.0
0.0
0.0
0.0
0.0
0.0
0.0
0.0
0.0
0.0
0.0
0.0
0.0
0.0
-0.02665886077975239 
-0.0353330189759421 
0.0305608000063647 
0.001731079565803318 
-0.02882379684968267 
0.003263949334123592 
0.0002956756739174792 
-0.007521666554873804 
0.06785657444723441 
-0.0256361616429078 
-0.08023567820721472 
-0.02408571143060743 
0.07031590134643913 
-0.05179629400122906 
-0.01237696107626242 
-0.02333807450241701 
-0.0581467414228417 
-0.01232518172052177 
0.02465844359249418 
-0.004997612691751539 
0.02852389056541177 
-0.004840310835779512 
0.04632199669427833 
0.02848698783189109 
-0.0218701132911831 
0.02392125902485238 
0.1110957173792467 
-0.006203840104337254 
-0.0978420790198966 
-0.05982395761334337 
0.04283644177701807 
-0.0285579583724652 
0.03526541601182867 
-0.01662134946742289 
-0.0795453166713959 
0.02184672297418751 
0.0
0.0
0.0
0.0
0.0
0.0
0.0
0.0
0.0
0.0
0.0
0.0
0.0
0.0
0.0
0.0
0.0
0.0
0.0
0.0
0.0
0.0
0.0
0.0
0.0
0.0
0.0
0.0
-0.01087733647358151 
0.01200906149232678 
0.02059807087116945 
0.01227655694543201 
0.01063949459926373 
0.06640155463565349 
0.01048192836094119 
-0.004345695383133707 
0.05127705262122396 
-0.03545483760514198 
-0.07340923091619088 
-0.04163114963981234 
0.01518201111340764 
-0.001217806900980601 
0.05855199080518427 
0.02688810586602063 
-0.112200706096432 
-0.02910897442956878 
-0.01480550314939914 
-0.008066791886045841 
-0.0124577750851196 
0.0465818545872029 
-0.0113635819680717 
0.06321260554681327 
0.01425152665994904 
0.02306390739935325 
0.02753961237092475 
-0.03337979520254954 
-0.0623900473278266 
-0.007719022831378205 
0.03248734869385728 
-0.05862420827756508 
0.06099224379314675 
-0.01503746679550492 
-0.05158066075263608 
-0.04391230378134612 
0.0
0.0
0.0
0.0
0.0
0.0
0.0
0.0
0.0
0.0
0.0
0.0
0.0
0.0
0.0
0.0
0.0
0.0
0.0
0.0
0.0
0.0
0.0
0.0
0.0
0.0
0.0
0.0
-0.00837800450093106 
-0.03178689622396252 
-0.002607389947197587 
0.06580153942297429 
0.01441140022719011 
0.06547545689352319 
0.01792971213184718 
0.00471897297833065 
0.005911803379800196 
0.054868773486275 
-0.03262755380302309 
-0.01015099766624964 
0.01753537737405042 
-0.04503394654070851 
0.01969760041098451 
-0.06497881813839115 
-0.04764465525617365 
0.01304960654517714 
0.02234074172429703 
0.02229863171013367 
0.02151270830380378 
0.09955596267006554 
0.005612150924055481 
0.03823957423484949 
-0.00970210185550336 
-0.03037691196576135 
0.01317208150668717 
0.04756881604991561 
-0.01604311442267725 
-0.04187709549306563 
0.01501939807544313 
0.01870572155181523 
0.04117743324602761 
-0.05222554866816295 
-0.09624895523152434 
0.02391579479050681 
0.0
0.0
0.0
0.0
0.0
0.0
0.0
0.0
0.0
0.0
0.0
0.0
0.0
0.0
0.0
0.0
0.0
0.0
0.0
0.0
0.0
0.0
0.0
0.0
0.0
0.0
0.0
0.0
0.03074789871528877 
0.01485875491543156 
-0.002568592963682154 
0.03730845214192686 
-0.02233163447631959 
0.04411718321688753 
0.01260564167488663 
0.008703945100298809 
0.02483645607200386 
-0.02708644377251412 
-0.02996387564955179 
0.01136727939849874 
0.0408130938117196 
-0.007059584985656072 
0.05417725854614221 
-0.02882135697926281 
-0.09501664524217589 
-0.0460921611691959 
0.05685996419181929 
0.02509260856099197 
-0.01175719003190813 
0.06823917573533632 
-0.007797835000497808 
0.02851665851717496 
0.0466015870509254 
0.04546558575939451 
0.02032046197347611 
-0.00650679474811052 
-0.09508312037882856 
0.01457176117686141 
0.06859925675290148 
-0.003169040490707559 
0.04779023209990575 
-0.04828340171237271 
-0.06741471193507384 
-0.0328590247326088 
0.0
0.0
0.0
0.0
0.0
0.0
0.0
0.0
0.0
0.0
0.0
0.0
0.0
0.0
0.0
0.0
0.0
0.0
0.0
0.0
0.0
0.0
0.0
0.0
0.0
0.0
0.0
0.0
0.06447115208546871 
0.007905257760303727 
-0.03170462005625938 
0.01038387526557002 
0.03303416418375067 
0.02899881991336177 
0.03187619001039106 
-0.00999348281731738 
-0.02404143953967337 
0.01969351814513812 
-0.1080805044511707 
-0.05479069815493275 
0.01619897246204947 
-0.04524769726018613 
0.02589474628928182 
-0.03709041577100169 
-0.08168970417379722 
-0.01311137691492028 
0.07041987495781613 
0.03282920595298852 
0.0135173383421603 
0.05197567734318456 
-0.006477969216817428 
0.03455750135167399 
0.03072664222137638 
-0.01168034387777508 
-0.05381771283990144 
0.04313425787923807 
-0.04334118893157045 
0.01434184207844208 
0.03236820959139605 
-0.0220691472119265 
0.06065315395509086 
0.005714613845415552 
-0.08764875809767886 
0.01155668348094262 
0.0
0.0
0.0
0.0
0.0
0.0
0.0
0.0
0.0
0.0
0.0
0.0
0.0
0.0
0.0
0.0
0.0
0.0
0.0
0.0
0.0
0.0
0.0
0.0
0.0
0.0
0.0
0.0
0.03374130528180255 
-0.005058730398397438 
-0.01628884339533499 
0.03862994947907998 
-0.06059415494937681 
-0.01308680272795957 
0.01609589062332455 
-0.04195852396962694 
-0.03775787156349505 
0.01308926615193451 
-0.0487211837762088 
-0.01790996316563495 
0.006603154543857887 
-0.04403193643110457 
-0.03042209906884991 
0.00385691549157625 
-0.0528020990858183 
0.0009486153687253666 
0.1033868746509983 
-0.02735689468380519 
-0.05231048381534342 
0.008949238449098979 
-0.009610406462745665 
-0.01944356934477372 
-0.05592008831741226 
0.007298537893651048 
0.02078073274113114 
0.07144353107653555 
-0.03602054907382558 
-0.05486233065126763 
-0.03351202727466914 
-0.01820572075164563 
-0.02185304828585452 
-0.009831113531280321 
-0.01634930163564093 
0.06142960762099579 
0.0
0.0
0.0
0.0
0.0
0.0
0.0
0.0
0.0
0.0
0.0
0.0
0.0
0.0
0.0
0.0
0.0
0.0
0.0
0.0
0.0
0.0
0.0
0.0
0.0
0.0
0.0
0.0
-0.03390762905752758
