solver_type L2R_L2LOSS_SVC
nr_class 2
label 1 -1
nr_feature 6720
bias 100
w
0.06882957400008215 
-0.07242149733667655 
-0.0587608320234479 
0.04346689234086575 
0.1127525228831545 
-0.0007955195751418587 
-0.01587746362613566 
-0.03923445253420266 
0.04982514028089005 
0.09191672117470927 
0.01134299258600285 
-0.008598047816271968 
0.007994633220288046 
0.09845689421631192 
0.08559176765106626 
0.06475598298873417 
-0.01652884675841013 
0.1085488896794132 
0.04673133269072247 
-0.03571953013075157 
-0.02813951555998791 
0.09584920598726765 
0.0616592895511229 
-0.03859697541432745 
-0.06226287485535675 
-0.02876719021486648 
0.01359664039384222 
0.04071735672219978 
0.01125578430660021 
0.05460002833601409 
0.07298381616460128 
0.03534654382880167 
0.04461027026378543 
0.05159648110879156 
0.009727018285430059 
0.06384845409071166 
0.0
0.0
0.0
0.0
0.0
0.0
0.0
0.0
0.0
0.0
0.0
0.0
0.0
0.0
0.0
0.0
0.0
0.0
0.0
0.0
0.0
0.0
0.0
0.0
0.0
0.0
0.0
0.0
0.03999686603680318 
-0.01871806366167404 
0.006186299879720225 
-0.01716470195771913 
0.07462082567398747 
0.03578159085019515 
0.02712924826887873 
0.01059802965723693 
0.05980847744205443 
0.06160152106596965 
-0.01019328308334086 
0.08031077760913745 
0.09418000389719533 
0.06283065438655398 
0.01744892953630917 
0.04132678641547831 
0.04723456964416414 
0.05029641426012929 
0.03835559057966611 
-0.02253400285664299 
0.004171587376045775 
-0.00313184171152663 
0.04020527438078282 
0.00159061191766863 
0.006851709512503003 
0.03404450692418883 
0.02012830470702974 
0.06362570998649331 
0.03688941989446436 
-0.01621083258271708 
0.02348848566351948 
0.0844672677662389 
0.06107340145864344 
-0.01857215322392533 
0.008559493125912086 
0.02498814542000771 
0.0
0.0
0.0
0.0
0.0
0.0
0.0
0.0
0.0
0.0
0.0
0.0
0.0
0.0
0.0
0.0
0.0
0.0
0.0
0.0
0.0
0.0
0.0
0.0
0.0
0.0
0.0
0.0
0.05057723881768911 
-0.03411354358254147 
0.01910645765770739 
0.02697194499364328 
0.03499081217893768 
0.02162614935438685 
0.01613775878681172 
0.02280428596588926 
0.05334166175896103 
0.07461341301236456 
0.01602573052144037 
-0.012756008219994 
-0.02037086894458509 
0.04967178807002073 
0.07175117598232736 
0.03375098161561638 
0.04866710558131999 
0.07413121269829634 
-0.001972145865396118 
0.003834452739276247 
-0.04958649155102667 
0.01777335321805474 
0.008197160164978236 
0.004625750132302263 
-0.007430659889178789 
-0.0007247135665723532 
-0.003556717563570486 
-0.01986356740201146 
0.01424879755068737 
-0.02174918577040075 
0.01333025530399213 
-0.03685868391026099 
-0.008084479829070677 
-0.0009475264979031618 
0.06212869026411124 
-0.03872551507623256 
0.0
0.0
0.0
0.0
0.0
0.0
0.0
0.0
0.0
0.0
0.0
0.0
0.0
0.0
0.0
0.0
0.0
0.0
0.0
0.0
0.0
0.0
0.0
0.0
0.0
0.0
0.0
0.0
0.03540271239088686 
0.0365787798411202 
0.01491975502791763 
-0.04065436117154913 
0.02053704902811629 
0.02201675212733148 
-0.0009148769873390241 
-0.004662310348307035 
0.04027668179696011 
-0.04071250189776984 
0.03305129074889612 
-0.03864605466058729 
-0.0650356175217728 
-0.02982542533014374 
-0.01802008933250344 
-0.03521721795060535 
-0.003009501333941355 
-0.07267472908420093 
-0.02237835078499931 
-0.002437951164313767 
0.04133040078856292 
0.008973953917147974 
-0.030857917359633 
-0.01700650353922218 
0.01882972447665435 
0.02144959138107365 
-0.02971116909166834 
-0.02304176290556742 
-0.02165757416130388 
0.004505549999035238 
-0.03645278981612721 
-0.04794335932272365 
-0.005499558081556741 
-0.008887044526508731 
0.005285563543260515 
-0.04656418192842811 
0.0
0.0
0.0
0.0
0.0
0.0
0.0
0.0
0.0
0.0
0.0
0.0
0.0
0.0
0.0
0.0
0.0
0.0
0.0
0.0
0.0
0.0
0.0
0.0
0.0
0.0
0.0
0.0
-0.02001001831423044 
0.08237996005912325 
-0.03059006734848668 
-0.02439840430693476 
0.0578623994864703 
-0.01920667097581185 
0.001810672207294361 
0.02226184712125111 
0.01576007847626684 
-0.04914323579254187 
-0.01123498635188143 
-0.07850252021016144 
-0.05111709039903815 
0.04467103373556295 
-0.03467938059439261 
-0.05289320262679769 
0.01450216462642344 
0.01880066723413338 
0.002034782663239767 
0.03368033544554159 
-0.001235211985792801 
-0.01124763537156217 
0.02448173163419632 
0.03095468197745796 
0.06122859796177288 
0.05152484218434241 
-0.00857417664853526 
-0.04100232845292593 
0.01131258071707958 
-0.07839190537873955 
-0.08913800886793109 
0.01184249534691404 
0.003722168475153515 
-0.02356646848529801 
0.03045233276737875 
-0.01443602891845505 
0.0
0.0
0.0
0.0
0.0
0.0
0.0
0.0
0.0
0.0
0.0
0.0
0.0
0.0
0.0
0.0
0.0
0.0
0.0
0.0
0.0
0.0
0.0
0.0
0.0
0.0
0.0
0.0
-0.08042127275656151 
-0.04613228732007193 
-0.04354496395521357 
0.01559877441441777 
0.1020028204715675 
0.02828071863708333 
-0.006785726965066946 
-0.005693285414723465 
0.006122418627474441 
-0.05649770906647926 
-0.07339241681395604 
-0.1012246645371571 
0.0137385562655126 
-0.02527964192694136 
-0.04202395908321487 
-0.007856722930053191 
0.003354653055737979 
-0.01411827093687455 
0.01923142443329005 
-0.009377789258997623 
-0.04478531236878369 
0.02181678747996844 
0.1020075161798408 
0.07005724895032919 
-0.03089889442570013 
0.03070811134650367 
-0.02459779976540989 
0.01021648335868022 
0.01389706996872348 
-0.05341770163426123 
0.0697210717315231 
0.02267767546182467 
-0.01752287694500413 
-0.06005646194764795 
0.04512860325339375 
-0.04010144292716885 
0.0
0.0
0.0
0.0
0.0
0.0
0.0
0.0
0.0
0.0
0.0
0.0
0.0
0.0
0.0
0.0
0.0
0.0
0.0
0.0
0.0
0.0
0.0
0.0
0.0
0.0
0.0
0.0
0.01389665754021653 
0.0008440562355904538 
-0.04972302413883332 
0.04841983424190906 
0.03691638296162444 
-0.04614584184678629 
-0.03391570577945841 
0.01751810909665049 
0.009614310853168568 
-0.05408393625309477 
-0.02628462430525181 
-0.03651190094621396 
0.003532731218530348 
-0.024010646926105 
-0.03886423244630457 
-0.08917954052123578 
0.0230730861316259 
0.02096527477303655 
0.008090470160274475 
0.04199490028461899 
-0.00570481167851386 
0.05523306338228701 
0.06963857602090161 
0.02777993535040856 
0.007675028922105615 
0.07827931761242241 
-0.0238550026990219 
-0.04517125199498717 
-0.02456198119311718 
0.009064943208957061 
-0.004332034305543208 
-0.04862754219202564 
0.009319354539915002 
-0.0512861471837567 
0.02432884786132129 
-0.01179845580267273 
0.0
0.0
0.0
0.0
0.0
0.0
0.0
0.0
0.0
0.0
0.0
0.0
0.0
0.0
0.0
0.0
0.0
0.0
0.0
0.0
0.0
0.0
0.0
0.0
0.0
0.0
0.0
0.0
-0.02881574366852727 
0.02297785709351071 
-0.05718879224294381 
0.0237056807442438 
0.01760886206750804 
0.03246721890711631 
-0.04306972509511443 
0.006299699333333414 
-0.02227713359656521 
-0.01875577507496024 
-0.0360161628153971 
-0.09039281680822353 
-0.006071950519762638 
-0.03280254655902292 
-0.0021074604965078 
-0.05027222675094556 
0.02463674338521233 
-0.01788560809268028 
0.04897261420901116 
0.01003704500119064 
0.03044703040521822 
0.08833927067066065 
0.01542435438841184 
0.02808775190465607 
-0.03703275274402017 
0.05793977128273139 
0.04333821991360096 
0.009012199601004963 
0.01296848305496545 
-0.04437609074703026 
0.006635976005067655 
-0.01342187267950249 
-0.007644273315681304 
-0.003383947283108544 
0.05861723195924789 
-0.0207619968783531 
0.0
0.0
0.0
0.0
0.0
0.0
0.0
0.0
0.0
0.0
0.0
0.0
0.0
0.0
0.0
0.0
0.0
0.0
0.0
0.0
0.0
0.0
0.0
0.0
0.0
0.0
0.0
0.0
-0.006973199421756875 
-0.04008492092990589 
0.007760199204863347 
0.05326064185014458 
0.01567688684760494 
0.009721833703241173 
-0.01515417925598366 
0.006166348163216935 
-0.01485094716784056 
-0.05291173891627748 
-0.0508759091208532 
-0.02193205983198678 
-0.001177942391056208 
-0.03888154038312441 
0.02186483190861648 
-0.01664667310283943 
-0.009578688436737502 
-0.02854492561890416 
-0.0001589626127775715 
0.01745992946696323 
-0.01441814775240093 
-0.02037360649868933 
0.0103624837395866 
0.02384803323863466 
-0.01668772397220183 
0.04512188420984951 
0.04216933420003695 
-0.0602721679827754 
0.01144279474936594 
-0.00447469805144173 
-0.01423555618498133 
-0.08431528603457449 
0.0159705575427188 
-0.03622993511612878 
0.02046340865993987 
-0.009064373396986311 
0.0
0.0
0.0
0.0
0.0
0.0
0.0
0.0
0.0
0.0
0.0
0.0
0.0
0.0
0.0
0.0
0.0
0.0
0.0
0.0
0.0
0.0
0.0
0.0
0.0
0.0
0.0
0.0
-0.01015208352995555 
-0.02115136427974557 
-0.05254128999733328 
0.009011225943455228 
-0.01157472940381591 
0.01871263421008606 
-0.05602662339314533 
-0.0003590304045030583 
0.01702225879393479 
-0.003336492213664374 
-0.03968821993007559 
-0.106340543444622 
-0.02489326426679497 
-0.04220703536279071 
-0.003168917498209934 
-0.07946640494196072 
-0.02523359776772865 
-0.000976213678469162 
-0.02635861481649894 
0.02925186412555615 
0.00428479549291284 
0.05407043546123 
-0.06888522769422595 
0.03061989001519793 
0.04210026802407968 
0.04207778391630471 
0.009100875136345984 
-0.07626539063562803 
0.03409292858566053 
-0.04313611932284862 
0.04839534666663151 
-0.03447839773264882 
0.0137960774357807 
0.006976559612218623 
0.02913470506728407 
-0.02383399592969665 
0.0
0.0
0.0
0.0
0.0
0.0
0.0
0.0
0.0
0.0
0.0
0.0
0.0
0.0
0.0
0.0
0.0
0.0
0.0
0.0
0.0
0.0
0.0
0.0
0.0
0.0
0.0
0.0
0.002575976826840242 
-0.001665157726064874 
-0.05075589601353429 
0.02844537917244567 
-0.01936250746881569 
0.001641151565963564 
-0.07108970593268398 
-0.01782241167959877 
0.0003131349455088528 
-0.05664121963450616 
-0.03723924812114672 
-0.04958706704076601 
0.006795757518555071 
-0.02218366851564788 
-0.02796124210598396 
-0.07149685617202373 
-0.0464162203522371 
-0.02287501587283076 
-0.04607105611770213 
0.03807963873425481 
-0.007013917485012914 
0.0617737310094576 
-0.001679146468662112 
0.04650827476459925 
0.01130496686541153 
0.05110004283550197 
0.004614595184320835 
-0.07729865097287403 
0.01704355186999747 
-0.01177594092694998 
0.08008154243056126 
0.01181511943226591 
0.000327632340533813 
-0.03732290314493696 
-0.01806028589496154 
-0.03605667152968306 
0.0
0.0
0.0
0.0
0.0
0.0
0.0
0.0
0.0
0.0
0.0
0.0
0.0
0.0
0.0
0.0
0.0
0.0
0.0
0.0
0.0
0.0
0.0
0.0
0.0
0.0
0.0
0.0
-0.04024468244602671 
-0.02230928811178662 
-0.03515677557962955 
0.02209587144195016 
-0.001801013688706146 
0.006283177003401046 
-0.04991259474356009 
-0.02371809742002775 
-0.008769865794283346 
-0.0597919785673383 
-0.04414811347530826 
-0.07241403729819189 
-0.01509202982330844 
-0.04864012864161849 
-0.03029197171502302 
-0.06068706949008516 
0.00177605758294989 
-0.03714813345563665 
-0.02452448283822432 
-0.01880789142791069 
-0.01250676510580487 
0.08151662047699664 
0.02810057966226999 
0.04483008460178799 
0.01328163832381002 
0.0170463297017597 
0.01094780592982289 
-0.02503867541206678 
-0.02769099516904863 
-0.04294728288708149 
-0.003945127083567123 
0.02854187613436157 
0.0362987552215374 
-0.01583439581635104 
0.002335944641567435 
-0.05786849025660554 
0.0
0.0
0.0
0.0
0.0
0.0
0.0
0.0
0.0
0.0
0.0
0.0
0.0
0.0
0.0
0.0
0.0
0.0
0.0
0.0
0.0
0.0
0.0
0.0
0.0
0.0
0.0
0.0
-0.04033025289190856 
-0.02003723922923696 
-0.02014411862688991 
-0.006775807900998892 
-0.0134695838365917 
-0.05172274032902086 
-0.0165067313623322 
0.005055355111360756 
-0.03103653869968112 
-0.07914113918221662 
-0.03419195018459396 
-0.02432216397276719 
-0.02191614543787558 
-0.05727717041589584 
-0.05795464375553227 
-0.01904686129502142 
0.02386146520508876 
-0.0364460131330662 
0.03376131652226234 
-0.01883083910898298 
0.02272561013995318 
0.05809244681694864 
0.0739516000296974 
-0.006723908018150224 
0.0465600665726185 
0.02784891663063778 
0.019307498226406 
-0.01761564892531018 
-0.02528305815167254 
0.0123503873875559 
0.01418991629702287 
0.01103608993762125 
-0.01641821109126562 
0.03045931382301516 
0.01396798128603922 
-0.004003625078439506 
0.0
0.0
0.0
0.0
0.0
0.0
0.0
0.0
0.0
0.0
0.0
0.0
0.0
0.0
0.0
0.0
0.0
0.0
0.0
0.0
0.0
0.0
0.0
0.0
0.0
0.0
0.0
0.0
-0.04453836135514605 
0.05118606521969373 
0.04673771001124841 
0.03273372116917445 
-0.01745807015384412 
-0.02738901255750288 
-0.03003930621203742 
0.03002702177653181 
-0.007278732619393391 
-0.04641000367876757 
0.004111972391237794 
0.01002597342214946 
0.02104554503105781 
0.0363331310324024 
-0.01922753293923583 
-0.04236765780995135 
-0.02198688752398872 
-0.01119386985461468 
-0.01979347849017667 
0.02373876376829918 
-0.007640026134819809 
-0.01839552162757167 
0.01036287611199571 
0.05407351156194824 
0.02421146841401446 
0.02659576635977197 
0.04242310768608054 
-0.007952668709446905 
-0.007097368590365492 
0.03534702228594178 
0.008748547187251855 
0.0190855342826057 
0.005400407537303806 
-0.02577697543980461 
-0.02584799575730384 
0.05342914938585196 
0.0
0.0
0.0
0.0
0.0
0.0
0.0
0.0
0.0
0.0
0.0
0.0
0.0
0.0
0.0
0.0
0.0
0.0
0.0
0.0
0.0
0.0
0.0
0.0
0.0
0.0
0.0
0.0
-0.004953700538022926 
-0.02249928929885905 
-0.03058069435550461 
-0.001715619936795155 
0.00800283068818199 
0.0569865287677678 
-0.01873004640203686 
0.007437901626505654 
0.07249574003501948 
0.03199158617896206 
-0.06235431400091375 
-0.01148160595999246 
0.01769983497423418 
-0.03703636004495979 
0.0270950753728463 
-0.04461875167106209 
0.005317094719145959 
0.1034275117847095 
-0.03433231596926837 
-0.04422328260980753 
0.03101207925253323 
0.03279859682567844 
-0.04276231526096995 
0.04143293172705397 
-0.0223423203578879 
-0.02164131854248157 
-0.002292430190539071 
-0.001252409032303472 
-0.07667137054865351 
-0.01670894435471603 
0.02202806036810008 
-0.06388545489106492 
0.02722848948541256 
-0.04809139869235711 
-0.06628380434579594 
0.02942214197170321 
0.0
0.0
0.0
0.0
0.0
0.0
0.0
0.0
0.0
0.0
0.0
0.0
0.0
0.0
0.0
0.0
0.0
0.0
0.0
0.0
0.0
0.0
0.0
0.0
0.0
0.0
0.0
0.0
0.05053658229712432 
-0.01869422239832617 
1.995426006556923e-005 
0.06236488341778144 
0.1049979786289178 
0.008719934001508905 
-0.0424916482779687 
-0.04639039774500193 
0.03147304015400086 
0.10099189624076 
-0.0007782603852949151 
0.08463651802001034 
0.07088082705626399 
0.06332770430954633 
0.05625999886156345 
0.05569197832840048 
0.00299125099779854 
0.07630608044918918 
0.0621044603237714 
-0.07736657970364373 
-0.04565206359838674 
0.04338603579286083 
0.003062687531929575 
0.005107841208773706 
-0.02258382171904655 
-0.04485807589326478 
0.04965642545007213 
0.06325050972249796 
0.001744648589370671 
0.02450723155333365 
0.04999790119410669 
-0.05449551453411086 
0.02178559301193567 
0.03416093876340994 
-0.01151156026733262 
0.0588610952027207 
0.0
0.0
0.0
0.0
0.0
0.0
0.0
0.0
0.0
0.0
0.0
0.0
0.0
0.0
0.0
0.0
0.0
0.0
0.0
0.0
0.0
0.0
0.0
0.0
0.0
0.0
0.0
0.0
0.03934468795398138 
-0.06195093564309004 
0.02750689451672108 
-0.007299196790670301 
0.01427352965530688 
0.009954039626436879 
0.02881284896801694 
0.004464735401600889 
0.01649259051299325 
0.0557940849230684 
0.001359471378611561 
-0.02066390970953463 
-0.03906204627565791 
0.02110602812046904 
0.01514290020682607 
0.01285101230710582 
0.02134204947378348 
0.06657937297384091 
0.003417322448509927 
-0.04557489116441105 
0.04386462204255946 
-0.008132824770916845 
-0.01211718656226563 
-0.001744096041754711 
-0.03692060723989801 
-0.06184228638404279 
0.001803543673917616 
0.04211432600425087 
0.04337709012647877 
0.02250141929480003 
0.003548863902354756 
0.03514276944318336 
-0.006549108160646788 
0.004939436584573715 
-0.05287081226682522 
0.05304705119051323 
0.0
0.0
0.0
0.0
0.0
0.0
0.0
0.0
0.0
0.0
0.0
0.0
0.0
0.0
0.0
0.0
0.0
0.0
0.0
0.0
0.0
0.0
0.0
0.0
0.0
0.0
0.0
0.0
-0.01351022086277232 
0.01935884356530101 
-0.03588406922028661 
-0.02576149737352592 
0.06062527944716153 
-0.01344078458903586 
0.001358068362058984 
-0.02720720962020312 
-0.002876786701629503 
0.00940114640015558 
0.03587912401175063 
0.01328281357616836 
-0.02323580717101124 
0.02940931362797378 
0.004074315940441315 
0.009682305729862891 
0.05898957744566197 
0.03074183052566132 
0.01159643923480826 
-0.02389292201109411 
-0.04649839724389748 
0.008425827902276639 
0.1192199784737073 
-0.01434391378866574 
-0.05687582653247554 
-0.007067739321187208 
0.05933804217810018 
-0.03066918690729716 
-0.0571458415507761 
-0.02755404656562106 
0.0211996371303019 
0.04676899214871653 
0.009003920405420383 
0.00393280250781288 
0.07127621515897223 
0.02937555044285451 
0.0
0.0
0.0
0.0
0.0
0.0
0.0
0.0
0.0
0.0
0.0
0.0
0.0
0.0
0.0
0.0
0.0
0.0
0.0
0.0
0.0
0.0
0.0
0.0
0.0
0.0
0.0
0.0
-0.01725509380403909 
0.008921331050718807 
-0.00680312900084044 
-0.0747882828006709 
-0.03403467552556077 
-0.02221168897338409 
0.01736059352734465 
0.006169946094001446 
-0.006379098240121798 
0.001040108695701476 
0.06221180595002047 
-0.03995336700637856 
-0.07358110494466567 
0.02351289490798473 
-0.005736344266993803 
-0.06013513268524262 
-0.04289082948168651 
-0.0310432406975006 
-0.004698177021038833 
0.02670793758837452 
0.03400085559066625 
-0.04501336526098865 
-0.005139598492490368 
-0.03420706613969876 
0.01278670330851373 
0.0325339100555287 
0.003538456697233752 
0.03052441273531483 
0.08091369564478959 
-0.004344761267504313 
-0.05284241783005166 
0.01908388083956378 
-0.01217086996477455 
-0.03738524013901286 
-0.04853094917500103 
-0.02395055649352872 
0.0
0.0
0.0
0.0
0.0
0.0
0.0
0.0
0.0
0.0
0.0
0.0
0.0
0.0
0.0
0.0
0.0
0.0
0.0
0.0
0.0
0.0
0.0
0.0
0.0
0.0
0.0
0.0
0.07887136624084036 
0.1434212484403604 
-0.04419974110947637 
-0.09098802011829904 
0.02038441572453625 
-0.01046975945431166 
-0.04574267148600773 
-0.008315074905904258 
0.01269888733817978 
0.06315842815927017 
0.1298775982552551 
-0.04880725954412322 
-0.08794263091004823 
-0.02418530603011874 
-0.04117916535637761 
-0.06191401588112085 
-0.01069127660046084 
-0.0007184816577115054 
0.06310784999518022 
0.1312662827365813 
-0.08013012476719246 
-0.007871375859247095 
0.05455653979119157 
0.03961135025867948 
0.04734031141416225 
0.01289831503208788 
-0.00931189788612596 
-0.01118413764660791 
0.05531147051499753 
-0.05737844883423558 
0.01964302008513742 
-0.008659653443746324 
-0.02652218176349907 
-0.05100140361729609 
0.005193905607195052 
-0.06112615210218159 
0.0
0.0
0.0
0.0
0.0
0.0
0.0
0.0
0.0
0.0
0.0
0.0
0.0
0.0
0.0
0.0
0.0
0.0
0.0
0.0
0.0
0.0
0.0
0.0
0.0
0.0
0.0
0.0
0.09473570340338923 
0.06770936786461089 
-0.03971324249369256 
-0.04675098330637847 
0.02462907283355342 
0.04208020644668226 
-0.01724503821148508 
0.0276209057571182 
0.01442717788920753 
0.0172441942362386 
0.02798066364671826 
-0.04552024980647745 
0.01213644833721678 
0.03517293588770416 
-0.01800003776294116 
-0.03753396585248384 
0.04458764224129543 
0.005560053662108452 
0.002914005144999891 
0.02935201583442358 
-0.00551150734380044 
0.01663754823148147 
0.01853905769803551 
0.08281533809958763 
0.0449883963234079 
0.05934131539462587 
-0.02007730223154562 
-0.01639412185896158 
0.03039617286491268 
-0.01315123829710918 
0.03384843823912041 
0.03248168899333646 
0.01470567005477114 
-0.00287923415050412 
-0.005795429815471809 
-0.04397027252681289 
0.0
0.0
0.0
0.0
0.0
0.0
0.0
0.0
0.0
0.0
0.0
0.0
0.0
0.0
0.0
0.0
0.0
0.0
0.0
0.0
0.0
0.0
0.0
0.0
0.0
0.0
0.0
0.0
0.02832245877992248 
0.01564266021815785 
-0.01811076109871366 
-0.001029703373568536 
0.04285619431789338 
0.00771455705623487 
-0.02486230301292532 
0.05256744842874531 
0.05332257873609535 
0.009618797594338688 
0.008551117542454958 
0.0214810370321406 
-0.02391202162211827 
-0.03753655575107331 
-0.04498469536620031 
-0.04940580438257625 
0.02393179558597136 
0.03425856607526198 
0.04041788924446617 
0.09266785838338451 
0.01427373088956755 
0.02970703387850827 
0.05395956482287485 
0.01773612520703757 
-0.006264543572867631 
0.03783427421383616 
0.01110732417709578 
0.01698491712554375 
0.09578499023617933 
0.002254096778263063 
-0.01565827684397631 
0.005733766654742924 
-0.03538824361269797 
0.01654727868492481 
0.01266043803036296 
-0.06429576830306497 
0.0
0.0
0.0
0.0
0.0
0.0
0.0
0.0
0.0
0.0
0.0
0.0
0.0
0.0
0.0
0.0
0.0
0.0
0.0
0.0
0.0
0.0
0.0
0.0
0.0
0.0
0.0
0.0
0.02298153014761102 
-0.01241897793639531 
0.01812522121971416 
0.03868058497889081 
-0.0002877002984346833 
-0.02213990671873082 
-0.04543327087800363 
0.01049241352497794 
0.05021317907434955 
-0.01497713807099591 
-0.002782296794574295 
-0.05364748134263272 
0.02671237562345391 
-0.01001882202841493 
0.004949718496682591 
0.007191401758439036 
0.04923425038290966 
0.005391812871339103 
0.06622471174127241 
0.09206723107642763 
0.04541215813463367 
0.03260718854528757 
0.03775542299868897 
0.03161155955043764 
0.03487929782837843 
0.0480752056329692 
0.04857536006473399 
0.03323821095567785 
0.06173981290207227 
0.001287887297512221 
0.05558420582962321 
0.05911637501115365 
0.1063454448184337 
0.03344294822036802 
0.02336763142947194 
0.04306237406156725 
0.0
0.0
0.0
0.0
0.0
0.0
0.0
0.0
0.0
0.0
0.0
0.0
0.0
0.0
0.0
0.0
0.0
0.0
0.0
0.0
0.0
0.0
0.0
0.0
0.0
0.0
0.0
0.0
-0.01630271459425875 
0.002202567021774997 
-0.0654098339374347 
-0.005661707720158962 
0.04374377783661602 
0.01395915162002185 
-0.05947687601972568 
0.006224169678031038 
0.01606152646846934 
-0.02006306100574294 
-0.00431711895400663 
-0.06732553431135137 
-0.0534323930618215 
-0.01573647701341159 
-0.004917319234704799 
-0.06152683487793413 
-0.02774800498856194 
-0.0245163458462564 
0.005641677289113752 
0.03321529389220052 
-0.02666566329943052 
0.05734688958576961 
0.1132093677113319 
0.07956294045572009 
0.01032590528612691 
0.0613911197604159 
0.04807331629920804 
-0.02777759177883194 
0.02049159239424116 
-0.04161609602740555 
0.06895997102034511 
0.07031771032352586 
0.01653969021521931 
-0.01617068920524 
-0.01539347726411652 
-0.03944509410350708 
0.0
0.0
0.0
0.0
0.0
0.0
0.0
0.0
0.0
0.0
0.0
0.0
0.0
0.0
0.0
0.0
0.0
0.0
0.0
0.0
0.0
0.0
0.0
0.0
0.0
0.0
0.0
0.0
0.0185395352751451 
0.01048325386371948 
-0.05366360379603827 
-0.03345453551774936 
-0.06580095477161939 
-0.04355173313800882 
-0.02409950718321288 
-0.01248755866251464 
-0.01746557893301043 
-0.006133962020019905 
0.00529319639965496 
-0.05768955050116326 
-0.04715498431365207 
-0.03113021931251301 
-0.03898727310211792 
-0.04033468963931551 
-0.00862017174934801 
-0.04898864371927513 
0.02485981021439623 
0.03451183780334016 
-0.04466834018035987 
0.06233422575480389 
0.04409280542384529 
0.01951190077553163 
-0.01181617727291048 
-0.0302922639567005 
-0.0347215785008055 
0.01113419469044582 
0.08593145384807045 
-0.02670691756442905 
0.02409481035840979 
0.02500081590378363 
0.02394286932794739 
-0.07902589494090249 
-0.08197106356608713 
-0.0845808193524047 
0.0
0.0
0.0
0.0
0.0
0.0
0.0
0.0
0.0
0.0
0.0
0.0
0.0
0.0
0.0
0.0
0.0
0.0
0.0
0.0
0.0
0.0
0.0
0.0
0.0
0.0
0.0
0.0
-0.05405927259840886 
0.002207254513335031 
-0.03488434218893702 
-0.05081013141565955 
-0.02488037169327184 
0.01753884130432285 
-0.0225350667400488 
-0.005934652340232547 
-0.04855399088172523 
-0.05849262219006613 
-0.03468389791228397 
-0.08239130814925737 
-0.01390992555928438 
-0.0482377116346675 
-0.05095149449430493 
-0.07901659743433181 
-0.04625594942359453 
-0.0185397075628697 
-0.001351343740948157 
0.06541897340471758 
-0.01369438079070016 
0.01562156286798098 
0.08203456923926969 
0.1111496363047722 
0.03150857798844299 
0.01145048565776685 
0.03026235686213465 
-0.01465399303507853 
0.01744077237672054 
-0.04418010682346164 
0.07570354103990082 
0.05106401466476388 
0.03994444525640752 
-0.03221838490275413 
-0.06245217095008431 
-0.02115202520749087 
0.0
0.0
0.0
0.0
0.0
0.0
0.0
0.0
0.0
0.0
0.0
0.0
0.0
0.0
0.0
0.0
0.0
0.0
0.0
0.0
0.0
0.0
0.0
0.0
0.0
0.0
0.0
0.0
0.008091358117487858 
-0.0191263464217146 
-0.06496901647991764 
-0.01244116447085511 
-0.05077674418497351 
-0.02419786299809404 
-0.05455302149106069 
-0.01331900906480811 
0.02740748361953354 
-0.02624241359766967 
-0.002344745982103915 
-0.0211632599328456 
-0.04275973750180265 
-0.07351134090672071 
-0.05684055148794247 
-0.07229955762761443 
-0.008484182564335262 
-0.04567611157649576 
0.02637868902806547 
0.01974071049251977 
-0.02602876365780071 
0.07051564529734565 
0.04627265678467203 
0.04960883943361559 
0.008563914537431459 
-0.0273056810311058 
-0.03947605465291324 
0.03332645248598735 
0.07869897869781227 
0.02130537920274345 
0.05561898062123572 
0.02086564365505993 
0.06986475166132827 
-0.003220059891273533 
0.02810066411232943 
-0.05503341258011636 
0.0
0.0
0.0
0.0
0.0
0.0
0.0
0.0
0.0
0.0
0.0
0.0
0.0
0.0
0.0
0.0
0.0
0.0
0.0
0.0
0.0
0.0
0.0
0.0
0.0
0.0
0.0
0.0
0.003185794891810219 
-0.03698630095981887 
-0.009815432168676218 
-0.01364537538326765 
-0.02489135017675442 
-0.03585312038489669 
-0.02690660576399579 
-0.009610205337574746 
-0.02956651077338634 
-0.07365630256653009 
-0.09384113950090113 
-0.07465061751545213 
-0.07362307678191805 
-0.06461685076070034 
-0.05370665736323081 
-0.03963885675075973 
-0.02240250176663882 
-0.03625300620071763 
0.04558812313345383 
0.03442887308133096 
0.0229605300431363 
0.07618449321637157 
0.09919368987775315 
0.144850495672352 
0.05874945988659586 
0.09378058936941344 
0.003834979461912437 
-0.005468105563581312 
0.01986690781850711 
0.01667080219599363 
0.001049278523913802 
0.01928776043386393 
0.02483663118634528 
0.02409902288839654 
0.04435158749286872 
0.002371077303472587 
0.0
0.0
0.0
0.0
0.0
0.0
0.0
0.0
0.0
0.0
0.0
0.0
0.0
0.0
0.0
0.0
0.0
0.0
0.0
0.0
0.0
0.0
0.0
0.0
0.0
0.0
0.0
0.0
-0.01583162114165478 
-0.009041637188210681 
0.01006858872192281 
-0.02590927700010537 
-0.04718365629714866 
0.0214562202586158 
-0.01288175820981921 
0.01116055401072634 
-0.001762458490097784 
-0.03866710504223214 
-0.004094169191175961 
0.02521951111697993 
-0.0337190909627737 
-0.09060468069697052 
-0.0664219319112785 
-0.05848909662081747 
-0.02534118285941499 
0.04024087027539001 
0.016016540639038 
0.00273382858745256 
0.03340853024572296 
0.03082159294385848 
0.05736158054744561 
0.0993718458285761 
0.07040539755018306 
0.05173605506008042 
0.05927994886090039 
-0.05549343769211956 
-0.08975190327052322 
0.03366601086362069 
-0.001140989816083133 
-0.002228580848135371 
-0.009225543296423349 
-0.01752201201066555 
-0.009689980916032332 
0.0059541864774485 
0.0
0.0
0.0
0.0
0.0
0.0
0.0
0.0
0.0
0.0
0.0
0.0
0.0
0.0
0.0
0.0
0.0
0.0
0.0
0.0
0.0
0.0
0.0
0.0
0.0
0.0
0.0
0.0
-0.03803486292728788 
-0.03431476717300289 
0.01428298666679724 
0.03286904233422285 
-0.03498570448237329 
-0.002286499704573392 
-0.02333972590816271 
-0.01263903399720678 
0.03706820139232468 
-0.0102382849767675 
-0.09307519041208348 
-0.0179587997986633 
0.05938455767753579 
-0.02956356897582542 
0.01542540230548044 
-0.03556368325473021 
-0.09193014642156798 
-0.009849356003949828 
0.03821914822611026 
-0.008219900094926918 
0.05679614974665982 
0.01755974733785803 
0.01136068755584803 
0.01068349157265095 
-0.02661765768866064 
0.01724356684852989 
0.07391580290134847 
0.0003582672154521277 
-0.09154922154343344 
-0.04366132925995077 
0.06623894467580015 
-0.0007507065119515634 
0.04283764241083946 
-0.009907421284831948 
-0.0837045785805268 
0.02350664432392289 
0.0
0.0
0.0
0.0
0.0
0.0
0.0
0.0
0.0
0.0
0.0
0.0
0.0
0.0
0.0
0.0
0.0
0.0
0.0
0.0
0.0
0.0
0.0
0.0
0.0
0.0
0.0
0.0
-0.03098946235012495 
-0.067499239996716 
-0.02775954119707995 
0.04952730937846425 
0.09214650105648675 
0.01673152824321584 
0.01573654402904146 
-0.05272737614370913 
0.009899894849428857 
0.001823451026212139 
-0.01094361929688151 
0.01870817105985468 
0.03788067839027037 
0.0100171192311444 
-0.02271108143277351 
-0.01670208805652598 
-0.03474980480773608 
0.07553044636189743 
0.03614400965069551 
-0.0443227781981792 
0.002364355359915855 
0.01445373103966315 
-0.004078061978181865 
-0.04298364824970296 
-0.02891360134913446 
-0.05991521102232312 
0.04512396163024262 
0.04235300482345838 
-0.09354103772823261 
0.003365522865368181 
0.07180765895375445 
-0.007050502531632506 
-0.01845524599432852 
-0.01896561454619687 
-0.07251369988647614 
0.1022660862306478 
0.0
0.0
0.0
0.0
0.0
0.0
0.0
0.0
0.0
0.0
0.0
0.0
0.0
0.0
0.0
0.0
0.0
0.0
0.0
0.0
0.0
0.0
0.0
0.0
0.0
0.0
0.0
0.0
-0.04165866578597999 
-0.04190901274069134 
0.01671836836487919 
-0.01655448954055105 
-0.01610207070284482 
-0.08003450626707297 
-0.08989998291648273 
-0.1112009109564844 
-0.02460211294376835 
0.04978591624495309 
0.07901786075751427 
0.07110890175482974 
0.04642834161159516 
0.05227969642209984 
-0.01521062267076172 
-0.01332233974322175 
-0.04995741106913768 
0.005743602458905304 
-0.02474612058018816 
-0.0115605172396986 
0.1453836736166134 
0.1425757413212252 
0.06691201782056579 
-0.03503990683803621 
-0.04543544211836664 
-0.1417595729171787 
-0.0498086534570133 
0.1656634609876933 
0.191852074824191 
0.1876248767090477 
0.205455017586489 
0.03909255227658862 
0.04229288594290365 
0.07138240970313418 
-0.02491600856153017 
0.004924385000573365 
0.0
0.0
0.0
0.0
0.0
0.0
0.0
0.0
0.0
0.0
0.0
0.0
0.0
0.0
0.0
0.0
0.0
0.0
0.0
0.0
0.0
0.0
0.0
0.0
0.0
0.0
0.0
0.0
0.05082148772170993 
0.006636742969636383 
-0.0705502262367311 
-0.0390870527610458 
0.03534168526031445 
-0.0568256451748768 
-0.05685924120221281 
0.06460710496742238 
0.09058312356764027 
-0.03414839973478203 
-0.04535497618839097 
0.02487418244291786 
0.06439579290813922 
0.02513271182827722 
-0.06522511847396247 
0.0172942290012435 
0.1614538151660306 
0.06818965019221797 
0.2052151694457835 
0.0758293175631648 
-0.05704056010994044 
0.009375245924711777 
0.00486250252215164 
-0.04340029199567795 
-0.009465499471656485 
0.1092210862953664 
0.2031685767736904 
0.02666740608702503 
0.003192815136228871 
0.130954311904216 
0.1500006680759483 
0.03223829175569731 
-0.003207440712967867 
0.09646681851054396 
0.2163512100317146 
0.1878747829909379 
0.0
0.0
0.0
0.0
0.0
0.0
0.0
0.0
0.0
0.0
0.0
0.0
0.0
0.0
0.0
0.0
0.0
0.0
0.0
0.0
0.0
0.0
0.0
0.0
0.0
0.0
0.0
0.0
-0.03388694389673454 
0.1687539560520922 
0.2551712437345756 
0.1636873935571566 
0.004367887720015287 
-0.07794057072754619 
-0.004382664146685855 
0.04807265348178998 
-0.04867089800444129 
0.009252463100273936 
0.1692627412999243 
0.06769081172627323 
0.008424206098397445 
-0.07706265739747613 
-0.1163753379192968 
-0.07637911968232322 
-0.05697000510773469 
-0.1158857843478424 
-0.1020981070875341 
0.1183907806695009 
0.2861487995099287 
0.1827392139530546 
-0.03295399837876845 
0.00340897620984493 
0.09393813258034121 
0.07044970279863147 
-0.04006921037856866 
-0.09011231969201514 
0.05097293107065308 
-0.0004873234057187359 
-0.02840494576821999 
-0.1073476135261499 
-0.0789663591534894 
-0.02663609468508698 
-0.0374789036514998 
-0.1298689253250734 
0.0
0.0
0.0
0.0
0.0
0.0
0.0
0.0
0.0
0.0
0.0
0.0
0.0
0.0
0.0
0.0
0.0
0.0
0.0
0.0
0.0
0.0
0.0
0.0
0.0
0.0
0.0
0.0
0.08166071920943109 
0.1409933648184562 
-0.03417812713939005 
0.01256724951075274 
-0.02297082954745863 
-0.0100538365737498 
0.06469294983907037 
0.05447808429681695 
-0.008621770097830345 
-0.0007410500794078055 
0.05030425665778725 
-0.05322534934712057 
0.005432067364734651 
-0.06696207324704839 
-0.01413915322563986 
-0.004359156028187102 
0.05654478208895482 
-0.003922138317715347 
-0.025922678949 
0.01264289891016906 
-0.08871838747526686 
-0.05880589682629738 
-0.0641495169382897 
-0.02140867475886218 
0.02310730786150297 
0.03136281618696243 
-0.03909720830490901 
-0.07749655002192085 
-0.03439896100810315 
-0.07375808301613276 
-0.03526409649129299 
-0.1279478584002983 
-0.04006014708481308 
-0.06029620743231777 
0.004160127423862517 
-0.008061792277398967 
0.0
0.0
0.0
0.0
0.0
0.0
0.0
0.0
0.0
0.0
0.0
0.0
0.0
0.0
0.0
0.0
0.0
0.0
0.0
0.0
0.0
0.0
0.0
0.0
0.0
0.0
0.0
0.0
0.05137069470993447 
0.08115929438967344 
-0.009258378974601498 
-0.0161102470940954 
-0.04160258692849196 
0.02414662993270861 
-0.02178429956861566 
0.0364698312180296 
0.01325234575550308 
0.09580804907707831 
0.1306096754400659 
0.007467840433673736 
0.01453955558615435 
-0.05920271167297895 
0.02465981195229658 
0.02727163433719695 
0.07045305549429656 
0.00613293443260971 
0.007520529647877111 
0.02425032200492964 
-0.04297330267327834 
-0.00932241034644507 
-0.04382095792928472 
-0.02811810438241785 
-0.07047074239954926 
0.03321487237184392 
0.002729687927914665 
-0.01875398837801939 
0.02542138993111633 
-0.06612125909209797 
-0.06010815146042044 
-0.08357642715187368 
-0.0292048819672716 
-0.0361362383467208 
0.02060141665664149 
-0.0862755165322722 
0.0
0.0
0.0
0.0
0.0
0.0
0.0
0.0
0.0
0.0
0.0
0.0
0.0
0.0
0.0
0.0
0.0
0.0
0.0
0.0
0.0
0.0
0.0
0.0
0.0
0.0
0.0
0.0
0.06164184562833474 
0.1355190312794423 
0.002484278535213442 
0.02438243930115029 
-0.04881406399690198 
0.01093076600250473 
0.01087637536065402 
0.06541297619218252 
-0.03625153348132734 
0.05784768093697993 
0.1106529685844392 
-0.04200935984493043 
-0.0336019148137471 
-0.01778550297669886 
-0.014024830640962 
0.008807630023068018 
0.05314985703810742 
-0.01326093250105953 
0.001694940095932093 
0.03251083624799118 
-0.04645704258491496 
-0.007039566974866166 
-0.05672394463398268 
0.06171116809301774 
0.0111543764972634 
0.03776427446271952 
-0.06555203216062297 
0.03010655413958514 
0.01720021684952413 
-0.08430832264506219 
-0.05170852539584295 
-0.08131463588838313 
0.027256332059912 
-0.04689351192747981 
-0.001359982874841297 
-0.03471767372976057 
0.0
0.0
0.0
0.0
0.0
0.0
0.0
0.0
0.0
0.0
0.0
0.0
0.0
0.0
0.0
0.0
0.0
0.0
0.0
0.0
0.0
0.0
0.0
0.0
0.0
0.0
0.0
0.0
0.1085843196135474 
0.1214124364089518 
0.00881680887289466 
-0.03044669674036645 
-0.02913450585483043 
0.03774553987118244 
-0.01917986349946456 
0.03822756166699531 
0.08387920185332619 
0.09325220218051102 
0.06946409328381957 
-0.04256053328010659 
-0.0284642392395536 
-0.03376572875603789 
0.09684171306258974 
0.02589380491206556 
0.0942309844046067 
0.09432179878505496 
0.0567028638269002 
0.04311637580299683 
-0.04433878260151691 
-0.01539567053069181 
-0.02487746371182626 
0.05867394483950791 
-0.03538520400092459 
0.04738059729103299 
-0.01259952809663286 
-0.05666611343837211 
-0.01017744616820465 
-0.07168927304827469 
-0.0206362987170535 
-0.01861570248053481 
0.0669788596747122 
-0.05945679742325441 
0.01425805691564532 
-0.1020744175399615 
0.0
0.0
0.0
0.0
0.0
0.0
0.0
0.0
0.0
0.0
0.0
0.0
0.0
0.0
0.0
0.0
0.0
0.0
0.0
0.0
0.0
0.0
0.0
0.0
0.0
0.0
0.0
0.0
0.06317132650524214 
0.062565294956616 
-0.0724013183683338 
-0.06211034169931982 
-0.02763735249549335 
0.06417179244831835 
-0.003074618545569311 
0.07093492931218169 
0.1419476230923189 
0.004607519664763103 
0.02575338102577591 
-0.07760099816783433 
-0.02663378488437553 
0.02487040239836694 
0.04247780576126294 
-0.004872427879708438 
0.04591711049678119 
0.08441473889032031 
-0.04813744833755133 
0.04661336951014202 
-0.08321858758863862 
-0.07781908266610721 
-0.07884879361514238 
0.04949810581660336 
-0.05661682101097839 
0.04722268061809182 
0.05609141351955773 
-0.05429667025906389 
0.06522064041340507 
-0.1105042267921504 
-0.05465290973236079 
0.02012122805480375 
0.04136172420554882 
-0.1066548037893188 
0.01995711144360934 
0.04200568739593905 
0.0
0.0
0.0
0.0
0.0
0.0
0.0
0.0
0.0
0.0
0.0
0.0
0.0
0.0
0.0
0.0
0.0
0.0
0.0
0.0
0.0
0.0
0.0
0.0
0.0
0.0
0.0
0.0
-0.02476247581698798 
0.02843078710095544 
-0.0589059648811487 
-0.01455208412984855 
-0.04739674585588545 
-0.02376090695523666 
-0.05482063898014577 
6.35990964460439e-005 
0.00175739595478129 
0.009463552933735183 
0.07556422816776451 
-0.04697424248651171 
-0.05679948731105549 
-0.08486797271476432 
-0.03326231408618499 
-0.09800709256441836 
0.002443592508819928 
0.07293638355913591 
0.01998856620438215 
0.07251356981281038 
-0.03798798014098079 
-0.01695193636959206 
-0.04537999847235816 
-0.02607202413123707 
-0.1055506435236601 
0.02108343316723536 
0.05313698147395378 
0.04356356175503586 
0.09155904865754994 
-0.0314912990706934 
-0.06848396516111087 
-0.110104022082745 
-0.03031255604496255 
-0.09106965170847273 
0.03257730025745469 
0.05062922007955761 
0.0
0.0
0.0
0.0
0.0
0.0
0.0
0.0
0.0
0.0
0.0
0.0
0.0
0.0
0.0
0.0
0.0
0.0
0.0
0.0
0.0
0.0
0.0
0.0
0.0
0.0
0.0
0.0
-0.064841205881709 
0.02394403949602136 
-0.07647938494488314 
-0.04759400005988432 
-0.02548772034402635 
-0.0001623891089686437 
-0.05044177251797319 
0.004073340433531152 
-0.01119280232309289 
-0.003365778279928124 
-0.008385742582571614 
-0.09490299991977626 
0.01684034660466519 
-0.06669313239800154 
-0.02675908319864759 
-0.05505156014521218 
-0.04212757510759441 
0.01411111334116172 
0.003813361279709815 
0.1256900156866173 
-0.02547483675612587 
-0.03016499930218114 
-0.008247312556830033 
-0.003594482220847769 
-0.06273291965932572 
0.06044326458691305 
-0.02656011811723869 
0.0194790131915417 
0.07376182896407704 
-0.06150294284086563 
-0.005646538676845269 
-0.001215345192191761 
-0.03498937250720045 
-0.07671951973509915 
0.01445854103447464 
-0.0102489103245039 
0.0
0.0
0.0
0.0
0.0
0.0
0.0
0.0
0.0
0.0
0.0
0.0
0.0
0.0
0.0
0.0
0.0
0.0
0.0
0.0
0.0
0.0
0.0
0.0
0.0
0.0
0.0
0.0
-0.03330919883576494 
-0.01739343987050993 
-0.07478160141733312 
0.02262192564586673 
-0.04779677738869453 
-0.02620296640903664 
-0.05903745371841674 
-0.06328934068063295 
-0.05081625767054487 
-0.001708571828093212 
0.01099820379120068 
-0.07830075648727709 
-0.01635275729790572 
-0.05166102369188758 
-0.02450187962135735 
-0.04420967068537289 
-0.01288654393659061 
-0.02771393872893469 
-0.02921852382704263 
0.02226081162123552 
-0.05477986200994517 
0.008695936312168593 
-0.03755037388259195 
-0.02461730882782386 
-0.09071063652099655 
0.02489196750179245 
0.05021755334273879 
0.03122749351322147 
0.05568486194989541 
-0.02738312768478485 
0.01867519928002992 
-0.05179310837817193 
-0.03173932079910085 
-0.0611622282725624 
0.07307684670604125 
0.0997120749423093 
0.0
0.0
0.0
0.0
0.0
0.0
0.0
0.0
0.0
0.0
0.0
0.0
0.0
0.0
0.0
0.0
0.0
0.0
0.0
0.0
0.0
0.0
0.0
0.0
0.0
0.0
0.0
0.0
0.003137915252143319 
0.06615858733661013 
0.009234637878876397 
0.01284933418460876 
-0.04332766041372774 
0.03160692120543848 
0.02867897098073748 
0.004333947037483844 
-0.0131732660387311 
-0.05292125675376985 
-0.03317110423331545 
-0.007664764087627243 
-0.03482028180154693 
-0.1385118997843589 
-0.1132431388491362 
-0.02176366748362484 
-0.02193652717188982 
-0.04568365028435195 
0.08592408077564202 
0.1313165515551694 
0.1073682133152772 
0.1473734727789018 
0.07553462321889796 
0.06292148071106299 
0.02686640127594982 
0.04146181197236888 
0.06728703745673033 
0.07699618519374028 
0.1065167354540264 
0.08274126885324419 
0.06807604879002896 
-0.06341668254276194 
-0.05669683983009878 
0.0169601812311722 
0.0426543974313615 
0.02381855631862908 
0.0
0.0
0.0
0.0
0.0
0.0
0.0
0.0
0.0
0.0
0.0
0.0
0.0
0.0
0.0
0.0
0.0
0.0
0.0
0.0
0.0
0.0
0.0
0.0
0.0
0.0
0.0
0.0
-0.05241565774887877 
0.0155885894993699 
0.04211352128194731 
0.02189751752959336 
0.05572424111606759 
0.03139736886158904 
0.06947478261822604 
0.03178265297952471 
0.003240284637538815 
-0.08955303200894313 
-0.0821239562045188 
-0.04531412935124789 
-0.07504040232055617 
-0.0545693845558469 
-0.02750104608178187 
-0.0515585806923261 
-0.06188034205675346 
-0.04198104821565433 
0.1119247202124773 
0.170400419441848 
0.07211009457702064 
0.07167560990127607 
0.2102139845636202 
0.1197568181153555 
0.06311560542686089 
0.09760075328530141 
0.09927463664681602 
-0.0485580353950353 
-0.0269331851141865 
-0.04534333786474983 
-0.1135046457006903 
0.0238270692691018 
-0.007580583746127995 
-0.08924549428761051 
-0.07778409295737868 
-0.01201706859607817 
0.0
0.0
0.0
0.0
0.0
0.0
0.0
0.0
0.0
0.0
0.0
0.0
0.0
0.0
0.0
0.0
0.0
0.0
0.0
0.0
0.0
0.0
0.0
0.0
0.0
0.0
0.0
0.0
0.002907463471115922 
0.004911618362138524 
0.0266122108227971 
0.001254670372562687 
0.02011710240704986 
0.06955759234806665 
-0.01075039397830176 
0.01151798148103447 
0.03303486944135936 
-0.02969109191636451 
-0.08255290938331408 
-0.03556437795014243 
0.03157094997158694 
0.0118859230552685 
0.08329651544565922 
-0.009858718876849347 
-0.08206058554103571 
-0.0332763428712272 
0.003146856373874718 
-0.004108581776000785 
-0.000756338725245177 
-0.00100175319868372 
4.871240481802988e-005 
0.07470841087240537 
-0.01146613173308796 
0.03230948544958145 
0.01714101886372614 
-0.002518609105024799 
-0.06385189465140595 
0.01183301154146414 
0.05777586251605253 
-0.07328259228242517 
0.08046514474737919 
-0.02751716262133953 
-0.04774832372028628 
-0.06035529071826482 
0.0
0.0
0.0
0.0
0.0
0.0
0.0
0.0
0.0
0.0
0.0
0.0
0.0
0.0
0.0
0.0
0.0
0.0
0.0
0.0
0.0
0.0
0.0
0.0
0.0
0.0
0.0
0.0
0.06901942910350199 
-0.05946296027148618 
-0.02450129591173142 
-0.02086299896027665 
0.03154454117859982 
-0.01817958885337219 
-0.06540792052827203 
-0.07215762350316145 
0.07955344785982459 
0.1030467204639464 
-0.08067734071928316 
-0.04602866289590347 
0.01852005131478263 
0.1166923178374532 
0.02696626411959804 
-0.02500735006955681 
-0.03885308371712126 
0.1281847544072624 
0.1166025239542463 
-0.04334658557484588 
-0.06618928597837125 
-0.01814890796453247 
-0.01322533248845411 
-0.00376006478900454 
-0.01005682700356365 
-0.07884879554770834 
0.05154285040522042 
0.157407935424132 
-0.01245733467227853 
-0.02255102853785641 
0.03719975611662489 
0.06697423656093847 
0.04625789615424247 
-0.02295749521352711 
-0.06248216295682139 
0.1053770404796283 
0.0
0.0
0.0
0.0
0.0
0.0
0.0
0.0
0.0
0.0
0.0
0.0
0.0
0.0
0.0
0.0
0.0
0.0
0.0
0.0
0.0
0.0
0.0
0.0
0.0
0.0
0.0
0.0
-0.04695959702098937 
-0.05648544702042044 
0.07865816360157736 
0.09154507598042877 
0.09607895761951704 
0.05605952953741715 
0.03839273582211521 
-0.08986939633732569 
-0.0210746033642038 
-0.0420665373808122 
0.1394559415012262 
0.1625990188427481 
0.1728346993721777 
0.04827494681693487 
0.1025179619309231 
0.1593052108591996 
0.05533899622248495 
-0.10564067277799 
-0.03845260578516747 
-0.09134453877558099 
0.03112089005729936 
0.07174453753494728 
0.118118720366724 
0.1434973216738524 
0.1074582410788448 
-0.05177107451066298 
-0.08563445120600355 
-0.1045220892160097 
0.02759748174510744 
0.1064029150069046 
0.107401098888083 
0.06716640621850181 
0.2111600504282517 
0.2089590016180016 
0.2096357622831077 
-0.05556295143257529 
0.0
0.0
0.0
0.0
0.0
0.0
0.0
0.0
0.0
0.0
0.0
0.0
0.0
0.0
0.0
0.0
0.0
0.0
0.0
0.0
0.0
0.0
0.0
0.0
0.0
0.0
0.0
0.0
0.1105696162742062 
0.1023174404844413 
0.001246774919861621 
0.03384585584925727 
-0.003069675405881963 
-0.008410919126629408 
0.00390292971050697 
0.06257391981272166 
0.09704097909964818 
0.04141056716849375 
0.02409991932430885 
0.08858648625839208 
0.09160124549474526 
-0.004076775878276135 
0.00461982042045363 
0.04534461095648782 
0.1173043872757269 
0.1071557732383534 
0.1231849247195639 
0.1038518667516024 
0.02168854035260314 
0.00118929614211783 
-0.001473310769230977 
0.009287517596862152 
0.002378546296379473 
0.09017748467790421 
0.118010899237227 
0.1575134500004854 
0.1840508277883045 
0.09305148934945413 
0.0148318112522385 
-0.04650679589154463 
0.0674851060217158 
0.05977219363228425 
0.01491979297901515 
0.04771076536114851 
0.0
0.0
0.0
0.0
0.0
0.0
0.0
0.0
0.0
0.0
0.0
0.0
0.0
0.0
0.0
0.0
0.0
0.0
0.0
0.0
0.0
0.0
0.0
0.0
0.0
0.0
0.0
0.0
-0.1107291672698352 
0.03567250016218387 
0.1568947407581111 
0.1347433758493902 
0.03369935596527707 
0.09052582834548925 
0.1077727200894899 
0.07826726119597913 
-0.05558961188851684 
-0.09075921284034542 
0.004944567283463258 
-0.05847465146107297 
-0.0292666070021386 
-0.03201532768847318 
0.0270326619151892 
0.03740601213963063 
-0.006402734056884586 
-0.09880782686592429 
-0.02292604272431405 
0.0882033006518439 
0.1156979475480644 
0.07277609794586432 
0.04053880137321392 
0.1779700580996093 
0.1580044197306529 
0.05417794057427719 
-0.1132660804383799 
-0.09600476408637761 
-0.03191043714726968 
0.0106405632405547 
0.01780724648309401 
-0.040707289983736 
0.003060690946001256 
-0.05090007504901199 
-0.02680091438013797 
-0.1276475796796741 
0.0
0.0
0.0
0.0
0.0
0.0
0.0
0.0
0.0
0.0
0.0
0.0
0.0
0.0
0.0
0.0
0.0
0.0
0.0
0.0
0.0
0.0
0.0
0.0
0.0
0.0
0.0
0.0
-0.04923346599559027 
0.06377427574897888 
-0.06374629736074766 
-0.04098490340691149 
-0.05897478588052368 
0.01386101484977356 
0.005047326764585091 
-0.00993930260327903 
-0.08527886086686803 
-0.04402779445395145 
0.0174469713085196 
-0.03993969326558474 
-0.02950311904908841 
-0.124591848469687 
-0.04540745490664802 
-0.06029940912406643 
-0.03186705939288451 
-0.007159151790691181 
-0.08112036691528161 
0.01096103070301725 
-0.01145211549371352 
0.007949922530692597 
-0.07477294092459261 
-0.03253961770247171 
-0.0404845063243585 
0.01141006124548304 
-0.06344339336706037 
-0.03030011705732541 
-0.02445099410468554 
-0.06919266372789638 
-0.03689704227068062 
-0.1703628401727692 
-0.07909936700965677 
-0.07399119588226771 
-0.05133661329887841 
-0.08142124774739547 
0.0
0.0
0.0
0.0
0.0
0.0
0.0
0.0
0.0
0.0
0.0
0.0
0.0
0.0
0.0
0.0
0.0
0.0
0.0
0.0
0.0
0.0
0.0
0.0
0.0
0.0
0.0
0.0
0.002652844765986705 
-0.009010752233673557 
0.008597643053129206 
0.0337683427636203 
-0.009857965925089047 
-0.00897598956394512 
-0.04900985988144407 
-0.008641859256691311 
0.04982393555813514 
-0.06499920514773805 
-0.008486414752827668 
-0.01850441125760532 
-0.02973748699643026 
-0.08517798733343265 
0.01956972961652551 
-0.03028893117208246 
0.006084482471400739 
-0.07413314216201156 
0.00367795085929828 
-0.0123002542559592 
-0.04123725718927521 
0.01441701322905399 
-0.03811244512024581 
0.02549835062907773 
-0.007929204286837618 
-0.0385338003950317 
-0.01847647789438954 
-0.04950887150363748 
0.005181488623956924 
-0.03792645372909953 
-0.01731235919412151 
-0.1028338741246627 
-0.03218204065858327 
-0.05875990639119923 
-0.02630006005563742 
-0.07431990395154683 
0.0
0.0
0.0
0.0
0.0
0.0
0.0
0.0
0.0
0.0
0.0
0.0
0.0
0.0
0.0
0.0
0.0
0.0
0.0
0.0
0.0
0.0
0.0
0.0
0.0
0.0
0.0
0.0
-0.06319433017012223 
-0.01916507449911954 
0.005533785024721632 
0.04761515560863538 
-0.02877546608006323 
0.08212651391309443 
0.02267703285507505 
-0.001012230456661881 
-0.1191608925991773 
-0.07573994720194816 
-0.02370631942143232 
-0.0282454929990985 
0.04001185924582707 
0.04041317698250303 
0.04516179982652459 
0.01678740560268254 
-0.001669165290520177 
-0.0851302268622392 
-0.1046356251675503 
-0.02090623497187995 
-0.003136176146664073 
0.06139448367333582 
-0.04212324181779945 
0.0339678005368862 
0.0004842645717760163 
0.001615216093836874 
-0.04888304192486868 
-0.08924737974175211 
0.003278655757473987 
-0.01232108648358893 
0.06117832487605388 
0.03992506339578512 
0.05288147721273024 
-0.01470616981418973 
-0.04009677681177222 
-0.08496282384224607 
0.0
0.0
0.0
0.0
0.0
0.0
0.0
0.0
0.0
0.0
0.0
0.0
0.0
0.0
0.0
0.0
0.0
0.0
0.0
0.0
0.0
0.0
0.0
0.0
0.0
0.0
0.0
0.0
-0.004292683767966074 
0.02079537361910136 
-0.0002568677632869322 
0.06851937239174506 
0.0285228808920161 
0.07560929450720469 
0.02499713415705437 
0.01615933599179219 
-0.05858812493411933 
-0.09678314911782494 
0.005021789494468116 
-0.03393467465717866 
0.03266967414986227 
0.0195155270911814 
0.03480860434274972 
-0.05715001515380402 
-0.002829799697822402 
-0.1214544231654873 
-0.06159241001369741 
-0.01579889186778218 
0.007220401709478653 
0.1052124462140772 
0.04310946232655773 
0.07990074777895691 
-0.023626782331123 
-0.006766339213620087 
-0.03978444328770851 
-0.1252164323095268 
-0.02251088140435633 
-0.06751844451296028 
0.07416901859249633 
0.03821628463165534 
0.04287672769524059 
-0.06288006221809642 
-0.05121307921417555 
-0.1276658657852899 
0.0
0.0
0.0
0.0
0.0
0.0
0.0
0.0
0.0
0.0
0.0
0.0
0.0
0.0
0.0
0.0
0.0
0.0
0.0
0.0
0.0
0.0
0.0
0.0
0.0
0.0
0.0
0.0
-0.04882440400584361 
0.04708025872635319 
-0.02557154165068941 
-0.02124275949227326 
-0.1065559614883737 
-0.02175164745841561 
-0.04839656350554419 
0.01225678914591684 
-0.04427234314634051 
-0.0275732954492374 
0.1490923825347195 
-0.04549896181269107 
0.007141222545491901 
0.01651487386717736 
0.002396681891887624 
-0.09226517882770866 
0.04103290416457696 
0.003785711930818642 
-0.02530874982598205 
0.001973936310694932 
-0.08695149770434396 
-0.01031537599192461 
-0.110321477357588 
-0.02162882501441835 
0.005441196275674352 
0.05724429587087628 
-0.06292967904378602 
0.02184582735943961 
0.0509189979280552 
-0.08018906527673524 
0.01804426996733002 
-0.01629201986376814 
-0.01810804532258719 
-0.06258457877436846 
0.1152012261169357 
-0.02682510392701721 
0.0
0.0
0.0
0.0
0.0
0.0
0.0
0.0
0.0
0.0
0.0
0.0
0.0
0.0
0.0
0.0
0.0
0.0
0.0
0.0
0.0
0.0
0.0
0.0
0.0
0.0
0.0
0.0
-0.02039365616989068 
0.1108071648559125 
-0.0120957086032393 
0.02111063159914137 
0.02460459171164734 
0.006392464329669125 
-0.06585916535127954 
0.03510016038946503 
0.0078995140579655 
0.067609856005308 
0.1401771091675762 
0.01005289597230744 
-0.02620861376315326 
-0.07260507342643044 
-0.01030553846868207 
-0.03155760416369419 
0.06411880370553807 
0.02277879463415206 
-0.02492377555382095 
0.0330529258861637 
-0.08215953602568345 
-0.01635946117108971 
0.003523844748773183 
-0.01079928810404073 
-0.04197936238605995 
0.0959227027254556 
-0.008286432505702915 
0.01419846347118995 
0.05898417785173491 
-0.06044899798995328 
-0.04974524253887563 
-0.09387193760763632 
-0.07354011891406695 
0.005519139952669535 
0.1732451383981407 
0.01885474373685928 
0.0
0.0
0.0
0.0
0.0
0.0
0.0
0.0
0.0
0.0
0.0
0.0
0.0
0.0
0.0
0.0
0.0
0.0
0.0
0.0
0.0
0.0
0.0
0.0
0.0
0.0
0.0
0.0
0.03685645141372491 
0.1010716980300874 
-0.02852861899517563 
-0.01795889614823492 
-0.01333485012478199 
-0.03579486512928622 
-0.07292526119548132 
0.05078331568471429 
-0.02917872106601409 
0.05696339057547609 
0.06177461733367743 
-0.06672225991396005 
-0.00606399838499648 
-0.02229510849470933 
-0.04466470185908471 
-0.07072564300941248 
0.02982691769109293 
-0.01574498529162411 
-0.04148132544988174 
0.04169312909534395 
-0.05811355012883309 
-0.03122479295429668 
-0.0162230911986382 
-0.07088454376698448 
-0.02033138293193546 
0.1320150256190863 
0.01132589643223172 
-0.01427858797091041 
0.01350326174330651 
-0.08448946367904092 
-0.01116734325796585 
-0.02391689921566013 
-0.05463827721624025 
-0.08216846575066364 
0.08844253131255336 
0.07370668111868696 
0.0
0.0
0.0
0.0
0.0
0.0
0.0
0.0
0.0
0.0
0.0
0.0
0.0
0.0
0.0
0.0
0.0
0.0
0.0
0.0
0.0
0.0
0.0
0.0
0.0
0.0
0.0
0.0
0.02807359236421387 
0.01948441686649383 
-0.04058691852342262 
-0.01656849849439517 
-0.00939492235177899 
-0.02860857735599638 
-0.07227258986455236 
-0.008133475931912238 
-0.0467893730291655 
0.0204478557563538 
-0.009954118115947519 
-0.03551832734602502 
-0.01560984670022014 
-0.1010889022149568 
-0.01693739653617299 
-0.03072440613763443 
0.02269331395748909 
0.08042583775537937 
-0.01147068625259637 
-0.0427281260530521 
-0.09691793344486466 
-0.003950345708371503 
-0.005360654276958344 
-0.04212094898284871 
-0.05186073182376946 
0.03201814743967632 
0.01768131091587016 
0.1039438084323778 
0.01756940771475975 
-0.0265539177587781 
-0.02287069313449281 
-0.1171247499010916 
-0.02855080692009357 
-0.01844413372856391 
0.02772154457639306 
0.03559677047421826 
0.0
0.0
0.0
0.0
0.0
0.0
0.0
0.0
0.0
0.0
0.0
0.0
0.0
0.0
0.0
0.0
0.0
0.0
0.0
0.0
0.0
0.0
0.0
0.0
0.0
0.0
0.0
0.0
0.005779511229239373 
0.0137194015960458 
-0.0003593866418954171 
0.07903211590890476 
0.06165558271318116 
0.04731075349134002 
0.0127626084312253 
0.0089052110688581 
0.07454158355805839 
0.03357653036488065 
0.03816469213696562 
-0.01342049607433898 
0.02293824876596872 
-0.03354031024202359 
-0.009328068538264893 
0.01844159215043754 
0.04690888421873631 
0.04445169971850015 
0.06861958150054247 
0.03069844387633407 
0.03370308966041544 
0.04634742503378127 
0.05950351123663016 
0.07914741242370596 
0.02735424987629938 
0.04469838245209882 
0.03009879625643772 
0.04486109174580533 
0.0622070791852467 
0.03462445562717135 
-0.001061503639156883 
-0.02101279961054573 
0.02543519048043333 
0.01945116156835037 
0.07330255184436797 
0.02487006619484006 
0.0
0.0
0.0
0.0
0.0
0.0
0.0
0.0
0.0
0.0
0.0
0.0
0.0
0.0
0.0
0.0
0.0
0.0
0.0
0.0
0.0
0.0
0.0
0.0
0.0
0.0
0.0
0.0
0.03293425068243034 
0.05999243660599296 
-0.009535705047102376 
0.06096683853543068 
0.1952554999745353 
0.1172657100034256 
0.04265070056798875 
0.02829290112299565 
0.04942795572096602 
-0.09604180794502366 
-0.07858380976844547 
-0.04122648155539647 
-0.0681780001777373 
0.03961690112593249 
0.005078716587288676 
-0.02310723685970433 
-0.08672538421831351 
-0.06795273013292238 
0.04739406060743892 
0.09043625251079199 
0.05714218701508841 
0.1439815299701611 
0.2534934573528314 
0.08229376584225594 
0.02146749308165303 
0.0713890993398167 
0.05351581589474408 
-0.07550709622942919 
-0.09277594295936119 
-0.05348920381834378 
0.001618653521474772 
0.01064662023002026 
-0.06684032021132326 
-0.0343097582215582 
-0.08953426114787327 
-0.07922681471271109 
0.0
0.0
0.0
0.0
0.0
0.0
0.0
0.0
0.0
0.0
0.0
0.0
0.0
0.0
0.0
0.0
0.0
0.0
0.0
0.0
0.0
0.0
0.0
0.0
0.0
0.0
0.0
0.0
0.003921281790888436 
-0.02247398101708648 
0.01899949628363921 
0.02557281526417081 
0.007670710840905488 
0.07478328929943502 
0.03699184885957324 
0.00529219219566929 
0.0007858643231803209 
0.05024701052522067 
-0.03501384681669553 
0.005361563475444924 
0.03249231782313389 
-0.06601212999814354 
0.03430750381740304 
-0.02941500619617517 
-0.04049065463607886 
0.001687657205115856 
0.04065465871631995 
0.01056262626363123 
0.03105529907816169 
0.09029746632937122 
-0.008937628169146481 
0.02784588437509248 
0.02424285895422116 
-0.01300444186168551 
0.01090098721270896 
0.05627710263217151 
-0.03156019671445469 
-0.02071879115904286 
0.04271514678949034 
-0.03939346439528615 
0.0366796826249448 
-0.0258129417819913 
-0.07614201425132275 
0.0362604663226467 
0.0
0.0
0.0
0.0
0.0
0.0
0.0
0.0
0.0
0.0
0.0
0.0
0.0
0.0
0.0
0.0
0.0
0.0
0.0
0.0
0.0
0.0
0.0
0.0
0.0
0.0
0.0
0.0
0.04033179631593443 
-0.0418901449541982 
-0.04010805026812962 
-0.02721099343391111 
-0.003853013414479817 
0.01463676458772628 
0.009326439877019322 
-0.06455489743762426 
0.02598499046528444 
0.09519971626182661 
-0.02162796010446409 
-0.03082721695756911 
-0.02514802353363971 
0.01083471365345418 
0.0349702184153801 
-0.01064678776953638 
-0.07647463026467646 
0.03857347646352401 
-0.0204747022817637 
-0.06293906157609988 
-0.007392150094563932 
0.05300663065718008 
0.09582632926559846 
0.04331096259699317 
0.009150961253739246 
-0.07533210765316611 
-0.01429352725195949 
0.06951464511928759 
0.0179575425485749 
-0.01094786337286709 
-0.01266574737954031 
0.01368131661584929 
0.003237025851543291 
0.04190596062389437 
-0.01797142495674129 
0.04377255005285455 
0.0
0.0
0.0
0.0
0.0
0.0
0.0
0.0
0.0
0.0
0.0
0.0
0.0
0.0
0.0
0.0
0.0
0.0
0.0
0.0
0.0
0.0
0.0
0.0
0.0
0.0
0.0
0.0
-0.0122366780114945 
-0.09381913663733865 
-0.04582094215610542 
-0.01967182026973526 
0.07166416050487466 
0.1312570217276834 
0.1340173796823874 
0.01769460725933404 
-0.04223665509815489 
0.02526046761416566 
-0.02304171648369708 
0.01932317270268532 
0.05525285168722687 
0.0402042178077581 
0.1544006282894084 
0.2091947685033748 
0.2124577108548528 
0.08078792833855322 
-0.01910761711918904 
-0.09765682147269635 
-0.08359102224051603 
-0.06398906919928094 
-0.009656962454699799 
-0.02415700232544587 
0.04326075658046014 
-0.04477038251021243 
-0.056385983228003 
0.02445566887230981 
-0.03830730036816305 
-0.02302032538976694 
0.005287715329652443 
0.04246353367785997 
0.03879313276972679 
0.1225541239504737 
0.08116405431362306 
0.04762884956824002 
0.0
0.0
0.0
0.0
0.0
0.0
0.0
0.0
0.0
0.0
0.0
0.0
0.0
0.0
0.0
0.0
0.0
0.0
0.0
0.0
0.0
0.0
0.0
0.0
0.0
0.0
0.0
0.0
0.1670622403664837 
0.09817053675128382 
-0.03387303631117618 
-0.01981240228041583 
0.004744200464325546 
-0.0352183942445851 
-0.04347153931480399 
0.01773747206310955 
0.1249355776191108 
0.1950708158565557 
0.2139912333924547 
0.07424533343337186 
0.02484820605434541 
-0.01701041504350657 
0.0779247553196812 
0.1301562639856574 
-0.03566377042624525 
-0.0200136464067248 
0.09509538903152984 
0.0526144057837057 
-0.04818254131180564 
-0.0151958159573785 
0.06872223715694338 
-0.05998192813337623 
-0.05402406034040625 
-0.02844927458382155 
0.04171005117474786 
0.03456905435307783 
0.1469025977991161 
0.02208780582843575 
-0.005503226663413385 
0.04218261882006282 
0.04089355572348177 
0.03466566704099788 
-0.04865597960439873 
-0.04001938086188392 
0.0
0.0
0.0
0.0
0.0
0.0
0.0
0.0
0.0
0.0
0.0
0.0
0.0
0.0
0.0
0.0
0.0
0.0
0.0
0.0
0.0
0.0
0.0
0.0
0.0
0.0
0.0
0.0
0.001829410571853982 
0.06286279990206489 
0.04965221510247589 
0.01445256377248007 
-0.02333380976883295 
0.1800427705146042 
0.1921626631367165 
0.1045876357544624 
-0.09298005579098022 
-0.07865646030007209 
-0.02875828720029287 
-0.05162738790247824 
-0.07036984734027718 
-0.1096672203890901 
-0.001169194518866434 
0.006638859068756992 
0.1019487975592747 
-0.0318117140983443 
-0.07203766076924512 
0.07902993246304708 
-0.001714257206007202 
-0.03883042861779288 
0.001412982463676354 
0.1648311668077966 
0.2611487047578368 
0.1569969996666303 
-0.04510745043720953 
-0.1152513869364777 
-0.05430370049653384 
-0.1062893958727552 
-0.1150965389548758 
-0.1083638508060427 
-0.01483761104254253 
0.1078002757704516 
0.1467878447506793 
-0.002247435509079698 
0.0
0.0
0.0
0.0
0.0
0.0
0.0
0.0
0.0
0.0
0.0
0.0
0.0
0.0
0.0
0.0
0.0
0.0
0.0
0.0
0.0
0.0
0.0
0.0
0.0
0.0
0.0
0.0
0.0003537567514929553 
0.03100674251596543 
0.01047513998920403 
-0.01860456118131929 
-0.06758029786657939 
-0.03808860345478762 
-0.06956210227129406 
0.0446915011249934 
0.01261126525594007 
0.01582328284086909 
0.03234217450488284 
-0.04397788420362207 
-0.03501679269502499 
-0.1034265151171947 
-0.04660109182000436 
-0.09591700486152764 
-0.02528915626442378 
-0.03883362481570483 
-0.01707950212596959 
0.05256156495010343 
0.03060107843046975 
-0.02399840764657421 
-0.04633475681582114 
0.01313964880527681 
0.01093592092271012 
0.164624432347261 
0.09569515226844017 
-0.02340565555932868 
0.06154574422267675 
0.004233704250471516 
-0.01833951347227301 
-0.03119562499870639 
0.007553758125480725 
-0.09189672646640965 
0.08422148295631235 
0.0199806619038596 
0.0
0.0
0.0
0.0
0.0
0.0
0.0
0.0
0.0
0.0
0.0
0.0
0.0
0.0
0.0
0.0
0.0
0.0
0.0
0.0
0.0
0.0
0.0
0.0
0.0
0.0
0.0
0.0
-0.03240514204877959 
0.05126947092375104 
-0.05904984097464508 
-0.02942364432177669 
-0.05717315954559868 
-0.01639219916080294 
-0.07152096725565894 
0.006881505744599769 
0.0207148442354709 
-0.06868535700452993 
0.02539858994988732 
-0.0611967444211045 
-0.03921887889710581 
-0.0782252609292539 
-0.05958705323775609 
-0.07491515673658242 
0.02212082575084149 
0.0109014584735357 
-0.001705173522641593 
0.02894777127173495 
-0.001192196955215515 
0.01615980099702602 
-0.01979525379977925 
-0.01321148166012014 
-0.03744637633975141 
0.0919152764309427 
0.09044017323097763 
0.004621803108096023 
0.07849742262967642 
0.004920967392369957 
0.01552030367016897 
-0.05296666659752908 
-0.009145242675944054 
0.01045035600126168 
0.1529734975703706 
0.1055851234868082 
0.0
0.0
0.0
0.0
0.0
0.0
0.0
0.0
0.0
0.0
0.0
0.0
0.0
0.0
0.0
0.0
0.0
0.0
0.0
0.0
0.0
0.0
0.0
0.0
0.0
0.0
0.0
0.0
-0.05461024459703329 
0.01796833954623904 
-0.01176598094793073 
0.03164955724028107 
-0.0459486508738319 
-0.02466772948221269 
-0.03919418256653304 
0.0219957714379442 
0.03471023933850864 
-0.07440224566169978 
-0.01659364950356802 
-0.07262224328253428 
0.04228558514788188 
-0.07896992747279753 
-0.04895089261209938 
-0.05416621883475364 
0.02066826186257524 
0.04935263610438422 
-0.05384137911763334 
0.03059819404605489 
-0.0277078926299858 
0.002133600629337993 
-0.03058459738480767 
0.01979676710237332 
0.006524361613520165 
0.1605387836856178 
0.04715453582205512 
-0.02361977860908518 
0.05567368889739187 
-0.004418435930310182 
0.01683575167785097 
-0.02550244699365575 
-0.05557379056551579 
-0.01718010221924198 
0.1283580840460942 
0.06015938570530326 
0.0
0.0
0.0
0.0
0.0
0.0
0.0
0.0
0.0
0.0
0.0
0.0
0.0
0.0
0.0
0.0
0.0
0.0
0.0
0.0
0.0
0.0
0.0
0.0
0.0
0.0
0.0
0.0
0.02164797347524148 
0.01051587054971156 
-0.06892722284430972 
0.047212125758152 
-0.04892744469962862 
-0.03927601997620199 
-0.05717476897161535 
0.03917439897483824 
0.05295082902193193 
-0.06630761518065084 
-0.001928872247647743 
-0.08970625216133497 
0.06582017709474856 
-0.01535543746784172 
-0.02645061636273555 
-0.09529828142849919 
-0.02624856532729324 
-0.07622122632124817 
0.0955581934791892 
0.02883471669133641 
-0.02221689888840701 
0.02690495618511994 
-0.05307624676115024 
-0.05035841802930025 
-0.0008881391824865596 
0.1183506846579013 
0.1067745475038584 
0.07429304100808068 
0.07353754553976112 
-0.01761974000800406 
0.0855511866146516 
0.01033736726811226 
-0.01524909015619175 
-0.05491824405780318 
0.03903365449895747 
0.08324785455882403 
0.0
0.0
0.0
0.0
0.0
0.0
0.0
0.0
0.0
0.0
0.0
0.0
0.0
0.0
0.0
0.0
0.0
0.0
0.0
0.0
0.0
0.0
0.0
0.0
0.0
0.0
0.0
0.0
0.09493609172911889 
0.01510799665603636 
-0.09699655348430868 
0.03469976481557367 
-0.1080667764929925 
-0.08519585334589547 
-0.08190495353590765 
0.02393461238543374 
-0.05786891786604254 
0.06773313394533963 
-0.01910113284670274 
-0.1043027306807539 
0.02335527866372153 
-0.04237008803540093 
-0.07810975327250175 
-0.1275294358460001 
-0.006413748497870878 
-0.08360776868650835 
0.1147395918880804 
0.06509685820862296 
-0.03949119608515324 
0.06894393982335878 
0.01183289151811777 
-0.05729105379503582 
-0.06288062444388404 
0.05572491485958762 
0.0469926430164002 
0.1000125397183937 
0.03189375173908069 
0.01165907365596653 
0.03054488529248337 
-0.006894764299703609 
-0.03332379562254242 
-0.09082252241999111 
-0.002636305123220288 
0.00631066905199868 
0.0
0.0
0.0
0.0
0.0
0.0
0.0
0.0
0.0
0.0
0.0
0.0
0.0
0.0
0.0
0.0
0.0
0.0
0.0
0.0
0.0
0.0
0.0
0.0
0.0
0.0
0.0
0.0
0.05358652711336871 
0.01252300721078694 
-0.08012669553897843 
-0.02959434142585985 
-0.03842693329782917 
-0.02575318555321673 
-0.07181346021901852 
0.03110902689883417 
0.006426937428405791 
0.02655708355342364 
-0.01038483321736849 
-0.08784625008041454 
-0.03999933589182286 
-0.07962326080924846 
-0.06899431152897009 
-0.04645309827023528 
0.08342624046275489 
0.006472052918069486 
0.01911923571143415 
0.007069903819697178 
-0.01301786641080197 
-0.00417123027110005 
-0.03923300998013553 
-0.00393982478520489 
-0.06579963191908794 
0.02391577225642106 
-0.003026275996161549 
0.0149487574328536 
-0.04161951240291446 
-0.09672724129972302 
-0.03190711119269319 
-0.04239430731639878 
-0.04591319497981366 
-0.05758376094660328 
0.07158584976632698 
0.0412594857177291 
0.0
0.0
0.0
0.0
0.0
0.0
0.0
0.0
0.0
0.0
0.0
0.0
0.0
0.0
0.0
0.0
0.0
0.0
0.0
0.0
0.0
0.0
0.0
0.0
0.0
0.0
0.0
0.0
-0.004867152900169921 
0.009787559376975757 
-0.04057232506929522 
0.0164145125739085 
0.0004329922759015884 
-0.05467179208105519 
-0.01332762399616894 
0.09887437708281539 
0.005559868895248102 
0.04843244312745827 
0.005836831513150205 
-0.0581162250853389 
0.0093637773143399 
-0.0195431412289834 
-0.03946694246563524 
-0.06742024948995699 
0.04004833572164827 
0.03388973705101164 
-0.01842910743678717 
-0.0337425210551648 
-0.06347586884816391 
-0.0001876993302426421 
-0.01793913693708355 
-0.04387415107815782 
-0.05096449929135246 
0.0179172957609174 
-0.01064653657271416 
0.01361011393146035 
-0.04452170663265158 
-0.08065921502669082 
-0.04110517286298958 
-0.0804991506685388 
-0.007325440891693475 
-0.05780258866879295 
0.003128663999888848 
0.006465127751370576 
0.0
0.0
0.0
0.0
0.0
0.0
0.0
0.0
0.0
0.0
0.0
0.0
0.0
0.0
0.0
0.0
0.0
0.0
0.0
0.0
0.0
0.0
0.0
0.0
0.0
0.0
0.0
0.0
0.09845265291375571 
0.003595707219458361 
-0.09045089330693273 
0.003444521381688364 
-0.03329031958355642 
0.01533868131475519 
-0.0274204665245805 
-0.009927512068237011 
0.0002824909001756061 
0.114099401179484 
0.06176107354277096 
-0.05079618739466757 
-0.03194254013901207 
-0.03999578594942289 
0.03154960550246898 
0.01403758540349234 
0.05189760677703036 
0.02168866054270101 
-0.04658976665040208 
-0.07124801300151941 
-0.07769605988926584 
-0.02623745747581676 
-0.03607959898052568 
0.02249740549636234 
-0.03486134806632137 
-0.01931130884208206 
-0.04440694116993078 
-0.0483311587689066 
-0.04533743144854346 
-0.04558297213029808 
-0.05008947208457599 
-0.02599354336206557 
-0.01660455194065461 
-0.0653693052881737 
0.01895037690218708 
-0.007305462973914698 
0.0
0.0
0.0
0.0
0.0
0.0
0.0
0.0
0.0
0.0
0.0
0.0
0.0
0.0
0.0
0.0
0.0
0.0
0.0
0.0
0.0
0.0
0.0
0.0
0.0
0.0
0.0
0.0
0.1017604780442091 
0.0967258448080275 
0.08377367460975536 
0.07001324786727063 
0.1029706591064385 
0.1224162685564101 
0.1261252821307461 
0.1375477388743756 
0.09132697113306955 
0.01528501329699709 
0.0755614435756856 
0.06202883637568692 
-0.01283242950086126 
-0.003273628105594735 
0.0781415989276721 
0.08153899222156032 
0.0873352183453051 
0.0632493236187415 
-0.02601137397514929 
0.03533601660891596 
0.051743534914423 
0.02424244780740582 
0.02738899627075195 
-0.005800851475203999 
0.02579045166959256 
0.1019240860723037 
0.03058638798172204 
-0.05699804383201883 
0.01033192846882419 
-0.008925556194103358 
-0.09348216002744879 
-0.09344944974417306 
-0.04898826742931641 
-0.0147000454159084 
-0.01267457144627205 
-0.05797189884427313 
0.0
0.0
0.0
0.0
0.0
0.0
0.0
0.0
0.0
0.0
0.0
0.0
0.0
0.0
0.0
0.0
0.0
0.0
0.0
0.0
0.0
0.0
0.0
0.0
0.0
0.0
0.0
0.0
0.07836230148664469 
0.10736938166277 
0.06185374459565814 
0.1498510744058149 
0.2137636024303475 
0.02946062559527177 
0.04090356907399016 
0.1101512336345356 
0.1071286571918171 
-0.002825773353635858 
-0.07507708748778418 
-0.06696595482704579 
0.02718212014541647 
0.04848057084374087 
-0.1064024287245894 
-0.04652469709544067 
-0.03511617035962103 
-0.01668580505265847 
0.01527547079840132 
0.0250731005880563 
0.06365882078582921 
0.09388637300023482 
0.0826095910078381 
0.01313990246758047 
0.05166554017658718 
0.02487378005620272 
-0.04799795611595276 
-0.03749510207858193 
-0.07220124679248076 
-0.06130020124846571 
-0.01231797357824029 
-0.0468644838734498 
-0.1022441030294719 
-0.06402679210741372 
-0.09074062882560066 
-0.09748555399468363 
0.0
0.0
0.0
0.0
0.0
0.0
0.0
0.0
0.0
0.0
0.0
0.0
0.0
0.0
0.0
0.0
0.0
0.0
0.0
0.0
0.0
0.0
0.0
0.0
0.0
0.0
0.0
0.0
0.06419231180142693 
0.02700810505705231 
-0.0110590936974966 
0.05460051039219511 
0.002703086426351583 
0.003562559430306212 
0.02265993158425493 
0.008506963706415934 
0.03195378225548391 
-0.01289873533219532 
-0.02849541001710793 
-0.00527996530718148 
0.0469332688090849 
-0.02890661398148587 
0.02070002341204135 
-0.004427946712188156 
-0.09091920805000238 
-0.02311366123288552 
0.04398344775684664 
0.01285371714809839 
-0.01963481364545964 
0.06149180063161525 
-0.003540855200532159 
0.03398299384318571 
0.0403805226704218 
0.02258689947972954 
0.02325604917291746 
-0.002744132123397062 
-0.06979276911423026 
0.002409074862898143 
0.07924468075086044 
0.01551654702731161 
0.07088524463761034 
-0.02776110120380953 
-0.07467608555286218 
-0.02211994788049157 
0.0
0.0
0.0
0.0
0.0
0.0
0.0
0.0
0.0
0.0
0.0
0.0
0.0
0.0
0.0
0.0
0.0
0.0
0.0
0.0
0.0
0.0
0.0
0.0
0.0
0.0
0.0
0.0
0.02101261425402313 
-0.03832357863736036 
-0.01047444120539584 
0.02519466626375361 
-0.008121394347143325 
-0.009777820345081564 
-0.06058705701756471 
-0.05340041898676803 
0.05083137086994433 
0.0248113786650607 
0.001315150622661943 
0.01531216285106919 
0.02954334050026542 
-0.05110258588570166 
-0.0286549673292135 
0.0031160264705698 
0.01784216035472987 
0.08638736827183877 
0.01081723846615872 
-0.03340606247496172 
-0.04462491587690111 
0.006360584732071534 
0.04990300251724947 
0.05888510487098241 
-0.04406761352051025 
0.004581102878062019 
0.1094500414683174 
0.01089104701592852 
0.009915386761548913 
0.0414952140358022 
0.07553436088161165 
0.03176942901128212 
0.07843434727276838 
0.07086375215908089 
0.0358502025786822 
0.08662618438535445 
0.0
0.0
0.0
0.0
0.0
0.0
0.0
0.0
0.0
0.0
0.0
0.0
0.0
0.0
0.0
0.0
0.0
0.0
0.0
0.0
0.0
0.0
0.0
0.0
0.0
0.0
0.0
0.0
-0.01435616011315772 
-0.07160335766502689 
-0.05753797568175328 
0.02136317149180789 
0.0290882925587759 
-0.0360494502635716 
0.04546819658410645 
-0.005819093865717059 
0.02649913353898089 
0.03448439367013111 
-0.0307769657631071 
0.00467407019901738 
-0.01080752695621791 
-0.0005805734826290292 
-0.01388667280417735 
0.03864872406986922 
0.04588579308626926 
0.03501325421115101 
0.02030743935741666 
-0.0402092962884689 
-0.01969496414972009 
0.04288037868041705 
0.02457842332156064 
-0.008642136090018369 
0.03160764491186289 
-0.0339679022947771 
0.0412395546485732 
0.0967678335667098 
0.01025050166510535 
0.01455782386746175 
0.01516651763241166 
-0.03802477871872362 
-0.0288005437821137 
-0.05262621917697841 
-0.05005079194545081 
0.02846014699326265 
0.0
0.0
0.0
0.0
0.0
0.0
0.0
0.0
0.0
0.0
0.0
0.0
0.0
0.0
0.0
0.0
0.0
0.0
0.0
0.0
0.0
0.0
0.0
0.0
0.0
0.0
0.0
0.0
0.02910884384939653 
-0.009191609103620957 
-0.01677822053848693 
-0.01722611750773244 
0.09720683074745462 
-0.01285712576568402 
-0.05015505710191108 
-0.03511527869867535 
0.01601000528111904 
-0.002774271516824506 
0.01508608275623618 
-0.01308598964223123 
0.02626258489793479 
0.0415402543479698 
0.01624937612761972 
-0.01742843496118994 
-0.05904447883164148 
-0.02828338457423476 
0.002753162817852164 
-0.0262685099878251 
0.01973856507041977 
-0.02206892775029663 
0.05556783014306029 
0.003611766072576593 
-0.05752558815075735 
-0.0089082822367274 
-0.02240881664619451 
0.03448776419184582 
0.0388796511374703 
0.00419393954368765 
0.003005965768625689 
-0.0102658536360981 
0.008571234308032028 
0.005579140708825347 
0.03560148094778821 
0.005468143482852559 
0.0
0.0
0.0
0.0
0.0
0.0
0.0
0.0
0.0
0.0
0.0
0.0
0.0
0.0
0.0
0.0
0.0
0.0
0.0
0.0
0.0
0.0
0.0
0.0
0.0
0.0
0.0
0.0
0.0112651060568217 
0.0413648998371567 
0.01989883889525128 
-0.00612845342646876 
-0.005905043844064087 
-0.03433135369691918 
0.03195740012007599 
0.02162402660355374 
0.003530707744844471 
-0.0119922066206634 
-0.03568611374902785 
-0.03626032879448354 
0.006726802724756714 
0.02403493521463311 
-0.04217167309702757 
0.02040329502351557 
0.05457726395831717 
-0.007550650940440978 
-0.00657366112472441 
-0.02969061202602435 
-0.006520918090808825 
-0.03668894794042295 
-0.02548025909508538 
-0.05186000797530082 
0.007944749691217556 
0.008720482945359038 
-0.02334738876537014 
-0.0430793946094036 
-0.08158630975107442 
-0.0671442019778357 
-0.02233998923665544 
0.02078599311858807 
-0.05305848805925949 
-0.003629301672880536 
0.0231806553180457 
-0.0007120941001271236 
0.0
0.0
0.0
0.0
0.0
0.0
0.0
0.0
0.0
0.0
0.0
0.0
0.0
0.0
0.0
0.0
0.0
0.0
0.0
0.0
0.0
0.0
0.0
0.0
0.0
0.0
0.0
0.0
-0.01357153135629508 
-0.004365183600702676 
0.006370775536277404 
0.02608641804039482 
0.0385915985951546 
-0.03963503403907374 
-0.074565142775377 
0.1245228389218416 
0.0978066810648837 
-0.09030379507880407 
-0.00738265295439876 
-0.03119723669615624 
-0.002759371977008269 
0.008089764165429237 
0.001182223687299415 
-0.07509919525649474 
0.03791482783781063 
0.001741535129215322 
-0.02629902524903873 
-0.04387882932348699 
-0.01977880287010828 
0.01113088360651376 
0.02564671133361346 
-0.1026234959285219 
-0.03583864551538455 
0.08884047047214215 
0.09617949740168336 
-0.02915390579917419 
-0.03275373833096369 
-0.04254968088254248 
-0.009622460454773047 
-0.01835212141280098 
-0.08423068907019607 
-0.05554128599061781 
0.08147211242163571 
0.07573990606852928 
0.0
0.0
0.0
0.0
0.0
0.0
0.0
0.0
0.0
0.0
0.0
0.0
0.0
0.0
0.0
0.0
0.0
0.0
0.0
0.0
0.0
0.0
0.0
0.0
0.0
0.0
0.0
0.0
-0.02771588753618544 
0.006435959595569816 
0.05187329818378026 
0.05867310406000457 
0.03455700919712051 
0.02025896209267374 
-0.02133260792530051 
0.0343350578552609 
-0.02356192622123967 
-0.03056031958991848 
-0.001132015855547477 
0.01410712254217433 
0.01680291802098763 
-0.001741830233666908 
0.02434819305193382 
-0.01682587388869821 
0.03512853945065715 
-0.03035380064331947 
0.01662309395833178 
0.007469039569978245 
-0.0008361381690981917 
0.05183964287600178 
0.01710950240910251 
-0.03335924593512235 
-0.0378917847460515 
0.05451423668922532 
0.08788111629512278 
0.04106912751606526 
0.05462576087234222 
-0.04814606918070041 
-0.006426407300466877 
-0.005898661321192471 
0.005947150626619973 
-0.03591611057738335 
0.02780010549933794 
0.007617251370595211 
0.0
0.0
0.0
0.0
0.0
0.0
0.0
0.0
0.0
0.0
0.0
0.0
0.0
0.0
0.0
0.0
0.0
0.0
0.0
0.0
0.0
0.0
0.0
0.0
0.0
0.0
0.0
0.0
0.003507206136203543 
0.02787002265477347 
-0.003591491751091853 
0.008190297456081987 
0.06223941798026994 
0.0298989746404141 
-0.01230693029174392 
0.04069195277114985 
0.01039081827204492 
-0.07739800692273392 
0.03761277669667862 
0.01169742083221104 
-0.02505742953179077 
0.02462205861339891 
-0.01271574812664032 
-0.003849869355271967 
0.04345802341648501 
-0.02586892391688701 
0.04167486085545011 
0.06269694355824174 
-0.04449939441951624 
-0.01408027340933395 
0.08522746703486987 
0.01464875262626496 
-0.0009864166690872803 
0.02930964115705288 
0.03243333957561801 
0.005491813849447619 
0.02139984338773458 
-0.06686627587747804 
-0.04272320292320524 
-0.0411200344317087 
-0.01387830731471762 
0.0183868719037885 
0.01444806491701006 
-0.02038092715250198 
0.0
0.0
0.0
0.0
0.0
0.0
0.0
0.0
0.0
0.0
0.0
0.0
0.0
0.0
0.0
0.0
0.0
0.0
0.0
0.0
0.0
0.0
0.0
0.0
0.0
0.0
0.0
0.0
0.04751751073049874 
0.05077004616325764 
0.02921855577122636 
0.02771290637487748 
0.04668523068340619 
0.02715551509769534 
0.01442216830697535 
0.06307873580512813 
0.05312600210049373 
-0.0133851815700406 
-0.01587879106097093 
0.01040948235658068 
0.07983534129012494 
0.05971596415308862 
0.04422201738458101 
-0.0001766435063216236 
0.03422824142715387 
0.01618873562483543 
0.05764639914063009 
0.0420928374390975 
-0.0259635598167499 
-0.01079180251592148 
-0.01473687557316043 
0.03015454683794777 
0.006127686591267023 
-0.01615322242393214 
0.01983052398885789 
0.001851806293418761 
0.05000837592467439 
0.008643026236236731 
-0.01787431611512348 
-0.02814775808783832 
0.02616111592889023 
-0.02693837714423715 
-0.006275968695953948 
0.0002019242785995063 
0.0
0.0
0.0
0.0
0.0
0.0
0.0
0.0
0.0
0.0
0.0
0.0
0.0
0.0
0.0
0.0
0.0
0.0
0.0
0.0
0.0
0.0
0.0
0.0
0.0
0.0
0.0
0.0
0.02728894519133578 
0.01665911024362499 
0.01059718736809291 
0.05458537264870983 
0.09721548332668611 
0.04823910923532848 
-0.002836583812006972 
0.04316740120164805 
0.02928456072791765 
-0.02626362090862382 
-0.0300285832134278 
0.005053059972870671 
0.01722511756536137 
0.08699898186607041 
0.09658633419200559 
0.01040804763760079 
0.06407488434309284 
-0.05252790240171865 
-0.007271268391657022 
-0.02085831337973145 
-0.0448818374074413 
-0.0133448897528297 
0.03407315461450302 
-0.01375927788211226 
-0.04538286721758512 
-0.003271031530545071 
-0.009539019046563161 
0.01274151362739263 
-0.02098560463890713 
-0.04552158949051326 
-0.03160961828242592 
-0.01598903265244726 
-0.01876571659494871 
-0.05172567942767251 
0.001349299968767603 
-0.01979717779351373 
0.0
0.0
0.0
0.0
0.0
0.0
0.0
0.0
0.0
0.0
0.0
0.0
0.0
0.0
0.0
0.0
0.0
0.0
0.0
0.0
0.0
0.0
0.0
0.0
0.0
0.0
0.0
0.0
-0.06844671704573953 
-0.05744573337879159 
0.006664056269540935 
0.02857647365011376 
0.06399159664768568 
0.07917590111912885 
-0.02480492381534246 
0.02113210188186997 
0.0147094032973509 
-0.09554712800449886 
-0.05935102581144952 
-0.03582608672235679 
0.01655613749812091 
0.0303842870818667 
0.003541808468988225 
-0.01634132236400213 
0.08872417636460525 
0.008410263449974685 
-0.001270358994400453 
-0.02762286665201495 
-0.04311174745361083 
-0.04560656836392475 
-0.01280321645773359 
0.01384208784315458 
-0.04964863199516355 
-0.004521414685239607 
0.02627567267003276 
-0.04976124659643792 
0.01194701578437809 
-0.03166723180009545 
-0.005265350665367981 
-0.04804228579391719 
-0.06158002742823691 
-0.07902675197838233 
-0.02321197119518377 
-0.02896191202332059 
0.0
0.0
0.0
0.0
0.0
0.0
0.0
0.0
0.0
0.0
0.0
0.0
0.0
0.0
0.0
0.0
0.0
0.0
0.0
0.0
0.0
0.0
0.0
0.0
0.0
0.0
0.0
0.0
0.01744449165986803 
0.01517044157323917 
0.02259848043211439 
0.08585182342864015 
0.09092889371672776 
0.01543875129260279 
0.01453560900476153 
0.06980163514670568 
0.01777494371293347 
-0.0587821861316451 
-0.01174190437824788 
-0.02100576417735109 
0.04363629830034725 
0.03018306712021814 
0.05375138704644662 
0.005054506600006858 
0.02870987893139649 
-0.0309741802706359 
-0.02695580117302865 
0.01933330934006076 
-0.01251150283527305 
0.0453503466972448 
-0.01581139760888313 
-0.05821854742648804 
-0.03181054282500361 
0.04010548778219284 
-0.02606301887658572 
-0.05235910418733458 
-0.01492406082790283 
-0.03465908245953757 
-0.03474528973965161 
-0.06757861060759549 
-0.02466677673349883 
-0.09974007486527176 
-0.04641326630099329 
-0.08943112038397942 
0.0
0.0
0.0
0.0
0.0
0.0
0.0
0.0
0.0
0.0
0.0
0.0
0.0
0.0
0.0
0.0
0.0
0.0
0.0
0.0
0.0
0.0
0.0
0.0
0.0
0.0
0.0
0.0
-0.0364084928434048 
-0.01326217113258178 
0.006935199220355097 
0.0606908555096209 
0.04405575219977928 
0.05308335218164418 
-0.001366726134985501 
0.0421537672650176 
0.05301603002692733 
-0.04765073229894852 
0.0009874095012010239 
0.02408112084735431 
0.04915165751002382 
0.02692044167062584 
0.01965912105715686 
0.04849982131507819 
0.09620546954667306 
0.03286625518664873 
0.01506209166212088 
0.008164124103329638 
-0.01935146834736946 
-0.009978095355675993 
-0.05662272955167844 
0.01239272525847428 
-0.07775348392043338 
-0.005921868506158987 
0.01748004708149189 
-0.07842411557281213 
-0.04134825665244367 
-0.08504285676365452 
-0.07406097287343198 
-0.07552164945260566 
-0.02146733673919263 
-0.03169945136749135 
0.01906422458076456 
-0.04150569200619538 
0.0
0.0
0.0
0.0
0.0
0.0
0.0
0.0
0.0
0.0
0.0
0.0
0.0
0.0
0.0
0.0
0.0
0.0
0.0
0.0
0.0
0.0
0.0
0.0
0.0
0.0
0.0
0.0
0.01260123911595691 
0.07731997866885378 
0.0771663531661068 
0.09122696248961734 
0.08841181135592716 
0.07049046179136015 
0.07817032913517109 
0.06600903676597378 
0.0472376424135488 
0.01952929194154636 
0.0324983727593611 
0.04548739490787055 
0.02657464887612293 
0.01422252194786355 
-0.01499100068043493 
0.01744777484707279 
-0.005487591059683302 
0.001958855419977099 
-0.01554421088008651 
-0.02525533916627281 
-0.02265428175459851 
-0.04146919159397374 
-0.0510248709067271 
0.01886136373183331 
-0.002505953895491488 
-0.003819942224315506 
0.0007142742767707918 
-0.03098219423657059 
-0.05302097029552012 
-0.02415116619260733 
-0.05848710409661099 
-0.06309973361027349 
-0.04288081946666048 
-0.06686365658236235 
-0.08245406724954361 
-0.05532710041135021 
0.0
0.0
0.0
0.0
0.0
0.0
0.0
0.0
0.0
0.0
0.0
0.0
0.0
0.0
0.0
0.0
0.0
0.0
0.0
0.0
0.0
0.0
0.0
0.0
0.0
0.0
0.0
0.0
0.05612599161502212 
0.03869525557309964 
0.08685917296880504 
0.1311311633268458 
0.0444576473785321 
0.02039431779884753 
0.05693488847868352 
0.01767522492998346 
-0.0116359449331743 
0.01156559092332445 
-0.02821394805752145 
-0.01292585648965283 
0.004764467343327041 
-0.02422326566369185 
-0.04246288705803133 
-0.009889875273858071 
-0.07360010952505562 
-0.09486667270479608 
0.00849147709957581 
0.006994480772451275 
0.001412630364079366 
0.03881044232233437 
-0.005234128699543949 
0.004257074436016152 
0.0419941494516252 
0.003145525693316114 
-0.0254310339377378 
0.04545874400052289 
-0.003216948825199262 
-0.065610091521214 
-0.0488278663944942 
-0.04931592053816766 
-0.04755041909813232 
0.02145632366108972 
-0.02200838648329031 
-0.04803356066062785 
0.0
0.0
0.0
0.0
0.0
0.0
0.0
0.0
0.0
0.0
0.0
0.0
0.0
0.0
0.0
0.0
0.0
0.0
0.0
0.0
0.0
0.0
0.0
0.0
0.0
0.0
0.0
0.0
0.05534194656899923 
-0.004007527040485345 
-0.02384454152106873 
0.01657080410111763 
0.01908661315348656 
0.01877493163992925 
-0.0007975049951223027 
-0.0267624929082179 
-0.006583541419808025 
0.006877774945633487 
-0.09810282860148231 
-0.03113832595776653 
0.02063250578053788 
0.0004765859018046437 
0.04397219189523798 
-0.0302121651891639 
-0.06434120635577131 
0.005661101367095192 
0.06132340194802436 
0.01972117002841602 
-0.008078652056364202 
0.0646011354819271 
-0.002325126826782 
0.04025548816147824 
0.004133959747513289 
-0.01510821827638524 
-0.03331035134624168 
0.03701661868752166 
-0.04854543566107865 
-0.008491345149092944 
0.0373460446491751 
-0.02580521004874131 
0.06377297735610331 
-0.01297220831710076 
-0.08857865285208734 
0.02548262524319936 
0.0
0.0
0.0
0.0
0.0
0.0
0.0
0.0
0.0
0.0
0.0
0.0
0.0
0.0
0.0
0.0
0.0
0.0
0.0
0.0
0.0
0.0
0.0
0.0
0.0
0.0
0.0
0.0
0.005119360688507859 
-0.03501758156288135 
-0.07270078990582618 
-0.03952837343977875 
0.08890831943635683 
0.08478381808433899 
-0.04026564027145953 
-0.01654914375546464 
0.0547688994439207 
0.01258522452503552 
0.005467617954206964 
0.04605500760530717 
0.03171868005180981 
0.06889313570752587 
0.07305179101963581 
0.04168897819499871 
0.005283322695453014 
0.01221656364211195 
0.0681367841057918 
-0.05415400309314452 
-0.01608059779541699 
0.009723891899176735 
0.1334292818706897 
0.06135482493684813 
-0.06028047708616075 
-0.07271521753923632 
0.0544210879981074 
0.09560549386165868 
-0.0167551683678746 
0.05613006303045845 
0.08045073151455591 
0.08023091265333329 
0.02529845502373369 
-0.01927565678237106 
-0.03496421223194348 
0.09108680076893633 
0.0
0.0
0.0
0.0
0.0
0.0
0.0
0.0
0.0
0.0
0.0
0.0
0.0
0.0
0.0
0.0
0.0
0.0
0.0
0.0
0.0
0.0
0.0
0.0
0.0
0.0
0.0
0.0
0.008098040348368266 
-0.006297703625475629 
0.01034340712725699 
0.01497813081793615 
0.05025988819402465 
0.007916193105083139 
0.002747553887759126 
-0.01689636913694946 
0.01416254657447639 
0.03220838619404227 
-0.01027791813697719 
-0.002528269784747372 
0.04853083573718618 
0.06897620467960344 
0.03504888744769438 
-0.009366719195281714 
0.01805340951150083 
0.05423866115838318 
0.05851351611361224 
-0.009895676166992596 
0.01507457650661937 
0.01510075578182517 
0.03057529335155463 
-0.03576250289602862 
0.0007659338581282638 
-0.033774865532546 
0.0485752160432044 
0.04618139723174789 
0.02921499753023488 
0.04069841586196058 
0.00401957564610404 
0.04981375884934634 
0.04793903377540574 
0.08252619654050766 
-0.01355551767928895 
0.05603812843845211 
0.0
0.0
0.0
0.0
0.0
0.0
0.0
0.0
0.0
0.0
0.0
0.0
0.0
0.0
0.0
0.0
0.0
0.0
0.0
0.0
0.0
0.0
0.0
0.0
0.0
0.0
0.0
0.0
0.0007557151042876877 
-0.006981611949673823 
0.008378064305777644 
0.01679679994625114 
0.01578316793857309 
0.03273338829203462 
-0.01929777446942647 
0.01286109764584423 
0.005921141301720471 
-0.003603901837681979 
0.05474814373042018 
0.04032940331527445 
0.01805772318346391 
-0.02644474488974834 
0.01072949833948154 
0.01060101948867815 
0.03606656074161138 
-0.01920303084676842 
0.03817223926709867 
0.0237748649436283 
0.03457315832385337 
0.02497975068116492 
0.06912029696325456 
0.03468884942650048 
0.04145024806742297 
-0.0286261896164253 
0.04983259696776085 
0.06125793268086268 
0.00972629930813085 
0.03366959511302824 
0.09427926217181569 
0.06206542686789916 
-0.01239630369999131 
0.02281414033970502 
0.01851311892055098 
0.08584405738452447 
0.0
0.0
0.0
0.0
0.0
0.0
0.0
0.0
0.0
0.0
0.0
0.0
0.0
0.0
0.0
0.0
0.0
0.0
0.0
0.0
0.0
0.0
0.0
0.0
0.0
0.0
0.0
0.0
-0.02035270907232988 
-0.003291420353633488 
0.006794374061849002 
-0.01926829929089488 
-0.03281259167049123 
0.002738687722810774 
0.01206173560534537 
-0.006480316798219914 
-0.02814665271760761 
-0.00608417291063886 
-0.003082185977449498 
0.02626211622284387 
0.01552077905386728 
-0.02281670064775809 
-0.01336544604450043 
0.01075099001268844 
0.01358510481555023 
-0.007879039455641531 
0.02741583837638534 
-0.02678351576313263 
-0.01066556692008353 
0.02619432153480595 
-0.007046433272378515 
-0.04694896384897038 
-0.01233686991949464 
0.04274435643133288 
0.03244774601733094 
-0.04656900841348154 
0.01068808558069068 
-0.01862021025079301 
0.02034555053788293 
-0.007584737051247298 
-0.05556472944272066 
-0.04901585219345426 
0.04567191488060232 
-0.01014985890822021 
0.0
0.0
0.0
0.0
0.0
0.0
0.0
0.0
0.0
0.0
0.0
0.0
0.0
0.0
0.0
0.0
0.0
0.0
0.0
0.0
0.0
0.0
0.0
0.0
0.0
0.0
0.0
0.0
0.003640442837906328 
0.01423996097762213 
0.03947729064178195 
0.0514895058131532 
0.03562597439102468 
-0.01824852996634608 
-0.03136905022993444 
-0.0005067644413120407 
-0.01463711937744583 
-0.03294085263552009 
-0.002078680530407585 
-0.0160967760977026 
0.01182607440563342 
0.03880038666635047 
-0.0440427779562165 
-0.03243111146786165 
-0.03118406850873596 
-0.06546916956934146 
0.004360433798624389 
0.008033498745042163 
-0.0175440310487413 
0.01442560503750631 
0.06369050045947507 
-0.05084334342207057 
-0.04385330862995913 
0.07319938918321775 
-0.03031335188225913 
-0.001107538991344273 
0.01515918596078615 
-0.0589772453191404 
-0.04618507477959906 
0.01970807747042473 
-0.05674271883583387 
-0.0592378881007801 
-0.03313568326976193 
-0.03232911805656705 
0.0
0.0
0.0
0.0
0.0
0.0
0.0
0.0
0.0
0.0
0.0
0.0
0.0
0.0
0.0
0.0
0.0
0.0
0.0
0.0
0.0
0.0
0.0
0.0
0.0
0.0
0.0
0.0
0.003493628530554945 
0.02275667919757838 
0.02232463087240257 
0.06920291253839124 
0.09319058337818378 
0.03646618360976756 
-0.01674559090185582 
-0.02036530302624635 
0.002112408610103055 
0.02147990821040701 
0.04915575763119385 
-0.03458055654908005 
-0.01581099029956174 
-0.01187925771243382 
0.04288280322695299 
-0.03567111952811541 
0.03028273656858051 
0.02787020450378378 
0.02615554921584297 
0.005321144812452276 
-0.002979743639043286 
0.02135778587281695 
0.0622932607274759 
0.03079366953248358 
-0.06563964588921635 
-0.04934009946420247 
-0.02896231337896668 
0.0005060986647424521 
-0.008902187921048499 
-0.01768722871122504 
-0.02344806379296123 
-0.09507403506191763 
0.03817553145445835 
-0.1008102370671733 
-0.01761917149591907 
-0.005255339339714153 
0.0
0.0
0.0
0.0
0.0
0.0
0.0
0.0
0.0
0.0
0.0
0.0
0.0
0.0
0.0
0.0
0.0
0.0
0.0
0.0
0.0
0.0
0.0
0.0
0.0
0.0
0.0
0.0
0.01189343570028754 
0.05573995501358136 
0.00232964188287377 
0.006739055639333712 
0.08222297468736982 
0.04514560605940585 
-0.01764943279134101 
0.02979960872056144 
0.01707842191595533 
-0.02000777578055827 
0.02490983092528469 
-0.05945946683524803 
0.02025104802158377 
-0.005124974772271466 
-0.001964102181850385 
-0.01588585255634154 
-0.02571779307139433 
-0.06702435062125685 
0.008372879660708979 
0.0342072610592492 
0.009834409446982337 
0.003534098206695047 
0.05234948210822089 
0.04930931669104711 
-0.0776548587335839 
0.01516540778069853 
0.01794397389392913 
0.0001379137304828816 
0.03572830849154451 
-0.07447637021909503 
-0.01397299993022862 
0.02810697673390703 
-0.02989464427889928 
-0.04095312287248176 
-0.02351799758818737 
-0.06050625820442634 
0.0
0.0
0.0
0.0
0.0
0.0
0.0
0.0
0.0
0.0
0.0
0.0
0.0
0.0
0.0
0.0
0.0
0.0
0.0
0.0
0.0
0.0
0.0
0.0
0.0
0.0
0.0
0.0
0.04149152834420342 
0.07180932934587365 
-0.01764381354395752 
0.05077636752214906 
0.01895903613665676 
0.05137632124848557 
0.01992456488745736 
0.002826907806747545 
0.05329371301006394 
-0.01425410043280448 
0.06100690866865791 
-0.01116738455621014 
0.00769081662046875 
-0.0244853870032728 
0.004392596953633378 
-0.009763008918547195 
-0.002438809814400665 
0.02763296827015957 
-0.006856074301425371 
0.0374215137792192 
-0.05516423154294017 
0.02767445716925667 
0.03914456078087621 
0.005914022598323875 
-0.03080900657554423 
0.02183902654815634 
-0.02757232992542506 
0.02760898663201377 
0.06452197612210087 
-0.05521293766213999 
0.01238738188550946 
-0.04049285744479729 
0.005828525917088359 
-0.06552615115844054 
-0.01502553672457984 
0.003004240878119693 
0.0
0.0
0.0
0.0
0.0
0.0
0.0
0.0
0.0
0.0
0.0
0.0
0.0
0.0
0.0
0.0
0.0
0.0
0.0
0.0
0.0
0.0
0.0
0.0
0.0
0.0
0.0
0.0
0.01964224967959596 
0.04220310685861703 
-0.008185782326358445 
0.008283515913924204 
-0.00371477598420001 
-0.009102601907674002 
0.01773508203048746 
0.009746552586626659 
0.01682499110479489 
0.003952067731830372 
0.02364799322558311 
0.03012167924429762 
-0.02357959028272684 
-0.08397119778297012 
0.0156000390600676 
0.008916291340286821 
0.0268204213018589 
-0.03009518405362704 
-0.0008934733928045671 
0.04467096114772741 
-0.006419270807969165 
0.01416755454358663 
0.04765834862724483 
0.05306623495255947 
0.035572812484571 
-0.03415645894281025 
-0.03227546742988213 
-0.03416148936677239 
0.0112394614525396 
-0.02025659161721932 
-0.03281871363863158 
-0.02310474040081521 
0.05870694666871392 
0.0005497344928211714 
-0.01876934647362052 
-0.07053971781464484 
0.0
0.0
0.0
0.0
0.0
0.0
0.0
0.0
0.0
0.0
0.0
0.0
0.0
0.0
0.0
0.0
0.0
0.0
0.0
0.0
0.0
0.0
0.0
0.0
0.0
0.0
0.0
0.0
0.01071537542304361 
0.03389542311466282 
0.04242333085044227 
0.0114582431262349 
-0.01947129872289323 
0.06285886307796734 
-0.01750647456850786 
0.009001298486356162 
0.02766289672679324 
-0.01252201990936588 
0.0193784701503588 
0.01630063570919709 
0.05452090079687718 
-0.00409084391968801 
0.06495503894565431 
-0.02252764090866717 
0.02426166096074768 
-0.02067013833545288 
0.01646834796358922 
0.02355743354874064 
-0.04966921433684596 
-0.02546605432722572 
-0.0377934075312343 
0.03198897195198445 
-0.06278942011477676 
-0.03147076670981139 
-0.007500517432794723 
-0.0318594433576541 
-0.004317995423225675 
-0.06528736883047077 
-0.003676931219577257 
-0.02732276098029574 
-0.01838270572021207 
-0.09610543524892565 
-0.05616638659749374 
-0.0002180703971393806 
0.0
0.0
0.0
0.0
0.0
0.0
0.0
0.0
0.0
0.0
0.0
0.0
0.0
0.0
0.0
0.0
0.0
0.0
0.0
0.0
0.0
0.0
0.0
0.0
0.0
0.0
0.0
0.0
-0.007244789558404959 
0.02666889216425675 
0.01930133079084259 
0.03122390046118014 
-0.04631650380160865 
0.05861746330391071 
0.01128676580532673 
0.04625700172260346 
-0.0229105795449736 
-0.0458275667703292 
0.002566858844022831 
-0.01187018120969656 
-0.01224902223613283 
-0.01701945938556691 
0.05920556805481544 
0.01313535585601847 
0.02469685940034542 
-0.07605534783886085 
-0.01940609481427104 
-0.02675809473464819 
-0.06546022128004864 
-0.01438911779428527 
-0.01868521802507431 
0.05158908705233156 
-0.02615379052738602 
-0.02849428005557295 
-0.0005867969070864443 
-0.0008025400810139045 
-0.03258615861682823 
-0.06021430556136614 
-0.01724028900313028 
-0.02693659274273475 
0.01394827791354133 
-0.04087161800897557 
-0.07121884496968692 
-0.03753708255936637 
0.0
0.0
0.0
0.0
0.0
0.0
0.0
0.0
0.0
0.0
0.0
0.0
0.0
0.0
0.0
0.0
0.0
0.0
0.0
0.0
0.0
0.0
0.0
0.0
0.0
0.0
0.0
0.0
-0.008418539237926459 
0.01113266614974657 
0.01873289056094031 
0.03796754880396069 
0.01939783879532054 
0.05564194284480517 
-0.03361496170455922 
-0.009559590833008875 
-0.03166628292800359 
-0.0824960925430233 
-0.02356660079279814 
-0.03048802249819791 
-0.002756126154400779 
0.001179912638061904 
0.02074497847722705 
-0.05914635096526782 
-0.01502953090064698 
-0.04512010343895009 
0.02186357346865393 
0.01725163178740772 
-0.02995937872352747 
0.01056335841519091 
0.005529874688646443 
0.02218901504227861 
-0.01316299090914071 
-0.01980913931738421 
0.01323788504343725 
-0.01345150099054231 
9.408066019895678e-005 
-0.06733942732368604 
-0.03449971256957599 
-0.04317513272033549 
0.001293630940501084 
-0.06986364558829182 
-0.0500351109949186 
-0.02950517045547034 
0.0
0.0
0.0
0.0
0.0
0.0
0.0
0.0
0.0
0.0
0.0
0.0
0.0
0.0
0.0
0.0
0.0
0.0
0.0
0.0
0.0
0.0
0.0
0.0
0.0
0.0
0.0
0.0
0.03058361240345893 
0.02619905556386221 
0.06762928507562233 
0.006591106437599237 
0.02769649171341439 
0.1038721691078082 
0.03776403671208795 
0.02815448102722021 
0.02877521670620657 
-0.004883296046429731 
-0.00456708130992158 
0.04711170141910708 
-0.01357282652571716 
-0.02689542456296033 
0.02525998894897086 
0.02552118359210779 
-0.02561311115606021 
-0.05410721268570403 
0.01598202866623859 
-0.009165245557770554 
-0.01625505431794292 
-0.02867022837764689 
0.04650292173232859 
0.06287328254220181 
0.03867961128463654 
0.006808852632935971 
0.002477179805438788 
-0.03950661627806317 
-0.01240627474845715 
-0.04726654466703244 
-0.05734043696592216 
-0.0350997110897654 
-0.02542408665637728 
-0.01991280001181801 
-0.05493182402654031 
-0.08949292951465257 
0.0
0.0
0.0
0.0
0.0
0.0
0.0
0.0
0.0
0.0
0.0
0.0
0.0
0.0
0.0
0.0
0.0
0.0
0.0
0.0
0.0
0.0
0.0
0.0
0.0
0.0
0.0
0.0
0.05570381565914703 
0.04061419637925477 
0.02591263887333192 
0.02368933575262945 
0.02615013167307126 
-0.01339036022505601 
0.02656641770891354 
0.02613149083703373 
-0.03315691916831009 
0.03307995078560019 
-0.01819892583326579 
-0.03776509870295328 
-0.005347306195700559 
0.0433259653008882 
-0.01117855708129435 
0.016495476710554 
-0.01070208641443225 
-0.006522168840445016 
0.02977731511040877 
0.03972798553126543 
-0.001507660507651643 
-0.03725045108817312 
0.008280202880266343 
-0.001161360358380755 
0.05836071200808285 
0.0470949725981817 
-0.01416227195095279 
-0.0009932752015090278 
-0.0659392851409443 
-0.04964556794834699 
-0.01159763589569752 
0.04763923078568062 
-0.001510208681307987 
-0.004309549352854474 
0.004681324098673274 
0.01788156463117807 
0.0
0.0
0.0
0.0
0.0
0.0
0.0
0.0
0.0
0.0
0.0
0.0
0.0
0.0
0.0
0.0
0.0
0.0
0.0
0.0
0.0
0.0
0.0
0.0
0.0
0.0
0.0
0.0
0.0231229490212887 
-0.0003702543780965519 
-0.01829108287457761 
0.05223431179595001 
-0.03835289502651364 
0.000278404663526483 
0.01937158535405998 
-0.03816651468659559 
-0.01787676964890215 
0.0207506139432248 
-0.02871237600517615 
-0.0322466448187811 
0.005535814652440645 
-0.04786103709152052 
0.006406714969589612 
-0.01531875502084357 
-0.07863652759259643 
-0.0139362534596395 
0.07403119869188096 
-0.02682506247640786 
-0.04825720083649612 
0.02547665723799122 
-0.01483049452245519 
-0.0001248218670976479 
-0.02451240858665109 
0.0003701042198348162 
0.03601235111938513 
0.08252439799072081 
-0.01809833050353133 
-0.06492221018302335 
-0.02998573294764629 
-0.01569561615426705 
0.02939269073559526 
0.002614134501950325 
-0.04171902313558656 
0.03606223987621327 
0.0
0.0
0.0
0.0
0.0
0.0
0.0
0.0
0.0
0.0
0.0
0.0
0.0
0.0
0.0
0.0
0.0
0.0
0.0
0.0
0.0
0.0
0.0
0.0
0.0
0.0
0.0
0.0
-0.03442162804880986
