solver_type L2R_L2LOSS_SVC
nr_class 2
label -2 -1
nr_feature 13440
bias 100
w
0.0451007882325111 
-0.04126717571127951 
-0.02435353372198599 
0.01823988704398056 
0.07012927690635575 
-0.01939780848650873 
-0.01859138860849793 
-0.03026776307479936 
0.02687019807611064 
0.04284397981551535 
-0.0183665022025255 
-0.001631930427728144 
0.02119795119472568 
0.02526245768978068 
0.01026036493041189 
0.0006045777200566337 
-0.03064511519326545 
0.04647789491818005 
0.03008050644920267 
-0.003471501655873153 
0.0005226874970324314 
0.03981084536369965 
0.04950927515058819 
-0.01205280231727128 
-0.005064529522763958 
0.001716975309215545 
0.0050554101072629 
0.02228563626014209 
0.004312299142161216 
0.04193243177662596 
0.03605655785526308 
-0.01183506289150629 
0.001485694205280974 
0.0249788214163185 
0.009982404864969518 
0.0273700097526672 
0.0
0.0
0.0
0.0
0.0
0.0
0.0
0.0
0.0
0.0
0.0
0.0
0.0
0.0
0.0
0.0
0.0
0.0
0.0
0.0
0.0
0.0
0.0
0.0
0.0
0.0
0.0
0.0
-0.004629856950225589 
-0.007529624970491853 
0.01466735169664439 
0.02245162479740181 
0.05748394386348442 
0.01860306504976668 
0.009431138462317018 
-0.01467707496393919 
0.01383347398196842 
0.03658032154916083 
0.01244115195238262 
0.02486860440653172 
0.02145995957787972 
0.04228897216874938 
0.02047316130527076 
0.03053832168153392 
0.02311348028704277 
0.03301711732528967 
0.00481139850865202 
-0.003168609005537786 
0.01610749702177759 
0.03072267347449521 
0.04855214663518177 
0.02127452361278992 
0.02671264225889741 
0.01130780832750185 
0.002522373399304215 
0.02700575893665268 
0.005309526126130931 
-0.01018750416309775 
0.01697143105072285 
0.05064563128590841 
0.01144583923047955 
0.009146257126807743 
0.001608708176548808 
0.00735044798825685 
0.06386043136036081 
0.004714338559454465 
-0.006252361129544048 
0.001948227687417079 
0.02072475916246046 
0.01036351986950549 
0.01793546993783864 
0.01237645067988287 
0.04777270775962291 
0.04878105061139626 
0.008345983372461377 
0.009084120900149522 
-0.002825020457286434 
0.03887840870208704 
0.04688392089789441 
0.03081204594220886 
0.01693361035227749 
0.05360344190767841 
0.0164494679250036 
0.01638276890560166 
-0.008705077130284792 
-0.0006382966618144876 
0.004757333683257233 
0.0
0.0
0.0
0.0
0.0
-0.02664179545359133 
-0.002379507787003376 
0.003525938022000827 
0.003343052827387948 
-0.02442692600834442 
0.007418937456045473 
0.01869362738042013 
0.0061417450054676 
-0.01770583891979063 
-0.01525710904232618 
0.01795434672637165 
0.04310883625000836 
-0.005772588122607112 
0.01270283016582733 
0.01762707736553248 
0.02131015415709786 
-0.01480612303354422 
0.01238206741317487 
0.02747384417830422 
0.01362623034898681 
0.0009819495753530208 
0.007905458647660126 
0.00403141434054851 
0.01965629405198871 
-0.002551510737497875 
-0.02623178796915094 
-8.375396553659063e-005 
0.003729331353135582 
0.0182286308311494 
4.286274544632664e-005 
-0.0386950003199422 
-0.02907358131516631 
-0.008919655827624651 
0.01682085253296738 
0.0001878720265754865 
-0.04355055939500763 
0.0
0.0
0.0
0.0
0.0
0.0
0.0
0.0
0.0
0.0
0.0
0.0
0.0
0.0
0.0
0.0
0.0
0.0
0.0
0.0
0.0
0.0
0.0
0.0
0.0
0.0
0.0
0.0
-0.009216942274602251 
0.01329142532605472 
0.007408875938215194 
-0.0134174963119889 
0.01174057804651651 
0.02673905453410848 
0.01153161683655162 
-0.01900398647612285 
-0.04410608431613356 
0.002145070769586947 
0.008932354048834395 
-0.01593154871223373 
0.01013586490241814 
-0.003999366098784413 
0.03051544143353235 
-0.003579844858502895 
-0.02365080176624123 
0.02363733713773404 
-0.02348168439672052 
0.001684826992158583 
-0.001219015547021354 
-0.005944495318731941 
-0.01164641895977529 
-0.004510347961753035 
-0.02255429635990866 
-0.0200507795465071 
0.02771381046811513 
-0.02301515759855396 
-0.01074844853636391 
0.02293068498362681 
0.01335575447795016 
0.01244279225378049 
0.01975545098817185 
0.004004597259546367 
-0.01042134551954359 
0.00571352881024904 
-0.004730496501768039 
0.00442900824956477 
0.005853839568545645 
-0.0003712746568460541 
-0.004018867444259759 
0.02477149019576584 
-0.02296501244606023 
-0.05229170599186894 
0.02297395570498369 
0.002568006415552464 
-0.001406064004407283 
0.02386949569268331 
-0.01123200163099032 
-0.02949603558422928 
-0.02958041808329711 
-0.05518830968593049 
0.002060366327045819 
0.04663328771116863 
-0.01408890000129653 
-0.003251625852188867 
0.002614011938886273 
0.0354031186402922 
-0.01283905163528069 
0.0
0.0
0.0
0.0
0.0
-0.03809295067181057 
-0.07181565212105115 
0.001069794157202016 
-0.02624643924424184 
-0.03237665196438602 
-0.006875671610497041 
-0.002190080990531177 
0.02364937758036803 
0.01129952129657839 
0.01106997749361412 
-0.02186152759858302 
-0.003710148661624985 
0.05902691648883886 
0.02852290518172957 
0.004154898211938582 
0.01949059110178051 
-0.007871972309215809 
0.04024027486518773 
0.0249764579091303 
-0.005707889584973799 
0.04395799308956846 
0.02236841695747418 
-0.009784792057376633 
-0.0118564401669871 
0.02641898579054405 
0.02344146641927504 
0.005003380570532417 
-0.01376067883402441 
-0.02395828828477899 
-0.0008044062870094839 
0.005179395343826112 
-0.01541623138523188 
-0.01974164368363214 
0.009372162360009834 
0.005209536605628574 
-0.01355764470076645 
0.0
0.0
0.0
0.0
0.0
0.0
0.0
0.0
0.0
0.0
0.0
0.0
0.0
0.0
0.0
0.0
0.0
0.0
0.0
0.0
0.0
0.0
0.0
0.0
0.0
0.0
0.0
0.0
-0.01563451283799257 
0.003299691660598084 
-0.0109771096739177 
-0.002515295097355618 
0.005448715039949401 
-0.04028997670753903 
0.02014615699111897 
0.007604352956454897 
0.02407265810693527 
0.01403719869846427 
0.02590701369240343 
0.04799770588003679 
0.0346248317469021 
-0.01614696714677027 
-0.01231475066957278 
0.03872388714658253 
0.01533321321478907 
-0.01062985605401407 
-0.002490418869683536 
0.02249924249867009 
0.01415012293202692 
0.008145961331275048 
0.003626802534455383 
-0.02572124282291142 
-0.001870971802833163 
0.00867424835464335 
-0.009153796140394799 
0.01572841116836056 
-0.007132880056898964 
0.01543461232196282 
0.02705586813067738 
0.01990035106204385 
-0.01455940529288189 
0.0227144799184892 
0.005667773881277164 
0.009936481678337843 
-0.01488744949978115 
-0.04355150720022798 
-0.02937868407184989 
-0.01936151822951508 
-0.002511472739730065 
0.007111251363345573 
0.04254667724588963 
0.005305885625182883 
0.03494691077306476 
0.02312414320209885 
0.02244373293286342 
0.04635298701468522 
0.01295185752609473 
0.004207388041054059 
-0.01490884844223098 
0.01388383998444733 
0.03019574273361897 
0.008307813309514528 
0.004575577886646535 
-0.02406433033648905 
-0.01989519741049699 
0.001458018709604945 
-0.004408502274634608 
0.0
0.0
0.0
0.0
0.0
0.01709668292551527 
0.05161212036673918 
-0.01352921573815546 
-0.003881726206927996 
-0.03095011006309514 
-0.003339840394205021 
-0.005200524075843138 
-0.002228588644031706 
0.01418087565189485 
0.0180972721964477 
0.02775427682920839 
-0.004242589030338552 
-0.01145961152962815 
-0.03293302817597672 
-0.0288933236250394 
-0.007745536876906661 
0.0009312544226606387 
0.00286173592327786 
-0.008716440269460155 
-0.002005404279373649 
-0.01760482159269576 
-0.003752640244392548 
0.008597042394440728 
-0.007590278177257835 
-0.03468291684473135 
0.01685583748505268 
0.009075242497679275 
0.0112067893311213 
0.03947137297902884 
0.01131727947094223 
-0.004227647371086843 
0.004592624537566506 
-0.005018933464316029 
0.01725238141970601 
-0.006967330181999288 
-0.003427262261494613 
0.0
0.0
0.0
0.0
0.0
0.0
0.0
0.0
0.0
0.0
0.0
0.0
0.0
0.0
0.0
0.0
0.0
0.0
0.0
0.0
0.0
0.0
0.0
0.0
0.0
0.0
0.0
0.0
-0.01779279903001968 
0.001863116919036416 
0.006009377226058874 
0.02362732677519303 
-0.01699733978337744 
-0.0411893222251086 
0.008819228086847378 
-0.008494425034473879 
-0.003858267402152132 
-0.03184145135309929 
0.0006350718314736479 
0.01622653592827595 
0.02316066980442785 
-0.02522706785098358 
-0.07468563476501225 
-0.01717579940440086 
-0.0345496924711101 
-0.008841276448351877 
-0.01770832913859461 
-0.005584732235989883 
-0.001099928887950265 
0.03398739603359506 
0.01297588375255092 
-0.007571254482243485 
0.04675139975079193 
-0.01332097769892615 
-0.0009639943424929162 
0.02029408143722366 
0.03031577239624673 
0.04794249085767171 
-0.01891432452818531 
0.044292080864046 
-0.0008135090661473896 
0.03024266747464559 
0.009213290858117351 
0.01479520898463695 
0.03025552382150528 
0.007972752085778322 
-0.008347707828241168 
0.02949374033483412 
-0.0003877048795673021 
-0.03689618589651623 
0.006935744055871155 
-0.04417683980438611 
-0.02563602168219569 
-0.02519692138818346 
0.001177016956055416 
0.01961245729351755 
-0.028123808400978 
-0.01663122374896207 
-0.02534770319433382 
0.016753610742843 
-0.03372757471911024 
-0.02735763538959798 
-0.01124363424612359 
-0.001312860148935045 
-0.005971590431925562 
-0.01437120751822048 
0.03612113698245095 
0.0
0.0
0.0
0.0
0.0
0.02036347814445843 
0.008417104630107091 
-0.0292041946439793 
0.01397902671916916 
0.03012328443636253 
0.01928116195805131 
0.00246062212739528 
-0.006424436391515463 
0.002664839424943384 
-0.006096745800332006 
0.04434379651768433 
0.01827780551184641 
0.007642373450058672 
0.01141866490325378 
-0.01583605602052508 
-0.01509441925536 
-0.01053594430724924 
-0.03305896353434109 
-0.03063147700392262 
0.01404559403333392 
-0.01576727354594281 
-0.004694918331617448 
-0.003626717954913501 
-0.0002755047573435469 
-0.0002713742255481057 
0.009613216727543238 
-0.03908735087644163 
-0.05494948495757554 
0.0004468993670771021 
-0.01896554257988379 
-0.0229198612508891 
-0.0383246905219071 
-0.003869992065308858 
0.004797920142853487 
0.01244400745952806 
-0.03462863210596261 
0.0
0.0
0.0
0.0
0.0
0.0
0.0
0.0
0.0
0.0
0.0
0.0
0.0
0.0
0.0
0.0
0.0
0.0
0.0
0.0
0.0
0.0
0.0
0.0
0.0
0.0
0.0
0.0
-0.02381854160266983 
0.03550404776172034 
0.01971721152680836 
0.01046328139075774 
0.0110413985962506 
-0.01506394220012102 
0.01924118834546804 
0.02154739577103235 
-0.01805748684220259 
-0.02868697976605562 
-0.01960128592350318 
0.01443750197122946 
0.01368839055039411 
-0.02453686296105569 
-0.01005719093789522 
0.001740682877609079 
0.01849625097068653 
0.005635492131792427 
-0.005440568512386247 
0.01482949689234876 
0.03219537196767445 
-0.032895735097345 
-0.03058050002873486 
-0.02805620773607745 
-0.001007478320105333 
-0.03736744987775598 
-0.006425172763564305 
-0.0006674352379036971 
-0.01257958832239855 
-0.006261264317412643 
-0.04568458803429915 
-0.02644174828384985 
-0.03331721248401999 
-0.0296867235229318 
0.03500897533530539 
0.008163686834053906 
0.02234604709772938 
0.01145030714802885 
0.04635642990335971 
0.008217408082419582 
0.02893455969157612 
0.0113983041635791 
0.02965951366230801 
-0.03375186701496345 
-0.01209251323295565 
0.02719297558518616 
-0.01613721505797422 
0.002772808395466691 
-0.01105620453116365 
0.0367112606255872 
-0.02490562180905172 
0.0007839579078188828 
-0.01230905221545619 
0.01833822370271943 
0.02656047259992013 
0.01158204626420728 
0.008520722052678249 
-0.0360296075717642 
-0.003005055909982398 
0.0
0.0
0.0
0.0
0.0
-0.001430621002443637 
0.002405390716054257 
-0.002610467770118998 
0.006252739422280392 
-0.008312466566336538 
0.01188307089258091 
0.04807625924165399 
-0.01409160883133582 
-0.006618927649865411 
-0.01607194744181475 
0.01533929588057325 
0.005176206396245163 
0.02927351681719854 
0.01049825848967684 
-0.01348865161298853 
0.002151552628450956 
-0.01017838356945474 
0.01359210389532583 
-0.01886637076583002 
0.03313331364160244 
0.005957761426513552 
-0.0008508472141066336 
0.00397803771286261 
0.01893125666677291 
0.02793512921087295 
-0.01380900084950971 
-0.00961422035155745 
-0.0210705485257666 
0.02980227006429928 
0.01807825052303074 
0.007311142976105483 
-0.007981862694799032 
-0.0007012782683327257 
-0.005067973903316674 
0.0329199898431347 
0.004503466146143993 
0.0
0.0
0.0
0.0
0.0
0.0
0.0
0.0
0.0
0.0
0.0
0.0
0.0
0.0
0.0
0.0
0.0
0.0
0.0
0.0
0.0
0.0
0.0
0.0
0.0
0.0
0.0
0.0
-0.0006405762532213541 
0.0475866731483661 
0.03549381615938629 
0.009328310968685668 
-0.005272716120643432 
-0.009920871893715787 
-0.01976123348743008 
0.01947423925240943 
-0.008408628597416095 
-0.01045832722471642 
0.03950752472229644 
-0.01523099266657821 
-0.007666180732260773 
0.01462970402269679 
0.02487388287667238 
-0.04407496019333303 
0.006773561500133771 
0.005505926389238111 
-0.01114413927977367 
0.003808889828267223 
-0.007080206946795835 
-0.005045436802691893 
-0.01390065846698797 
0.002330162616925436 
-0.03986416835141986 
-0.003010144246093787 
-0.01412594705197708 
-0.0481966339990109 
-0.01816220685311311 
0.04926070143658415 
0.007901880800585345 
-0.01752766289927986 
0.008574565417509344 
0.05892437486126504 
0.007031414859292624 
0.009585085045862068 
-0.002219509933588521 
0.01567543777280123 
0.070396846904854 
0.002180032739460437 
0.01996719913036587 
0.02847184842285446 
0.02258960883200695 
0.02408074059638393 
0.0518118945460701 
0.02275536432425149 
0.04069177426424581 
0.04812562275006369 
-0.01679426643276911 
-0.0162724473984316 
0.003582489876439732 
0.02759207352024505 
-1.195340820869582e-005 
-0.001555223565231817 
-0.02950222213097345 
0.004134825396732451 
0.04320702852767674 
0.002035085122152604 
0.004870642134983282 
0.0
0.0
0.0
0.0
0.0
0.01302815157068239 
0.002066525096116859 
0.002028273162030273 
0.03330170561041883 
0.003044435037395582 
0.02890141496888309 
0.0344912454943269 
-0.02603735255792025 
0.003512681497908685 
-0.002673073001372296 
0.02726385263600492 
0.01749942821060669 
0.02416764499934338 
-0.004583468567053632 
0.02209304550979657 
0.04600600852411499 
-0.001198850439329615 
-0.009810917892898332 
-0.01456307637440872 
0.001514072266820017 
-0.02212226255546836 
0.004958625248144122 
-0.01149405802629329 
0.03076334811602775 
0.02052024260184882 
-0.02400594988919283 
0.002780629217320627 
-0.002294928275244662 
0.03206103939557244 
0.008234771473895631 
-0.007368778273780029 
-0.03775126562519197 
0.0008802893319069593 
0.06767995034221949 
0.03626871672108069 
0.006591494990069372 
0.0
0.0
0.0
0.0
0.0
0.0
0.0
0.0
0.0
0.0
0.0
0.0
0.0
0.0
0.0
0.0
0.0
0.0
0.0
0.0
0.0
0.0
0.0
0.0
0.0
0.0
0.0
0.0
0.002993181685688145 
0.04244057301651206 
-0.005859434176800064 
0.01235880528220275 
-0.03417630485456689 
0.02062439622612841 
0.03871485751399099 
0.0295398356928946 
0.0002847950643714547 
-0.007139023895401341 
0.008580342538229785 
-0.0422557660320696 
-0.001650881692016633 
-0.01666682933914388 
0.0131563810775619 
0.02366733203155091 
0.01568422681526988 
0.0114641254002857 
-0.01102883343124553 
-0.0008776088927606573 
-0.01251641888269216 
0.00778425567241011 
0.02684410918581082 
0.03291546000211034 
0.0506597406477175 
0.01438798812925895 
-0.01431109617615393 
0.01656195422197684 
0.04608114570682993 
-0.01034419820122888 
-0.00776229760933468 
0.006438745774476801 
0.008095504152882715 
0.01812824651848507 
0.001474504530933818 
0.02503158698955237 
0.04853437581866955 
0.03024152733390834 
0.008561787515535721 
0.01888996592168449 
0.03592069071346331 
0.0109700904440736 
-0.01222340538877833 
-0.01232278904601951 
0.002329941209788237 
-0.02518664319839853 
-0.02902998973554593 
-0.001857869458752873 
0.01418211253569611 
-0.02360095566888604 
-0.009368625436078706 
0.01613624779007129 
0.02402103063299583 
-0.009193961872861037 
-0.04161897870938511 
-0.02972596923460128 
0.006786614248870415 
-0.004713829645906419 
-0.03666969368890261 
0.0
0.0
0.0
0.0
0.0
0.00021462936188556 
-0.006920087680770402 
0.009857891412147676 
0.04123626490494477 
0.01092971447809206 
-0.01727199913189688 
-0.02289081102289145 
0.01563923259026251 
0.002534933589012741 
-0.02726112623007943 
0.01314738976478606 
0.07435525441743372 
0.06545228561504353 
0.00270037022141143 
-0.01448726553225852 
-0.007861454851119297 
0.009833530430947278 
-0.005686468079532544 
-0.02305699682865676 
0.04800031890790946 
0.06354400667095363 
-0.008078722059883322 
-0.04984839422408021 
0.00137978210269922 
-0.006822125315504057 
-0.02457997073506676 
-0.0130569511579779 
0.01420295272388705 
0.04283956095374936 
0.07342485329780886 
-0.01686875616753802 
-0.05368197289483206 
-0.003273405668110474 
-0.02176023952862434 
-0.0249858080416223 
-0.0116065184417817 
0.0
0.0
0.0
0.0
0.0
0.0
0.0
0.0
0.0
0.0
0.0
0.0
0.0
0.0
0.0
0.0
0.0
0.0
0.0
0.0
0.0
0.0
0.0
0.0
0.0
0.0
0.0
0.0
0.001445202463835394 
0.0320386565648037 
0.06871212823015641 
-0.02090182028884192 
-0.01084710729431722 
0.01829431958537928 
0.009106285364475287 
0.02697820457330567 
0.005972195560298377 
-0.01660761005627707 
0.0006288813827451129 
0.03721328356349962 
-0.02633260325047636 
0.009597131049399363 
0.02725283832313607 
-0.00204191139861389 
-0.004790429286970923 
-0.003673467212699849 
-0.03626569398808029 
0.02266452697866362 
0.02402091655618001 
-0.02151718387946978 
-0.04275994231870754 
0.01866884757736482 
0.01319697207250361 
-0.00791957025475753 
-0.002165007389986266 
0.001902208847683682 
0.02132091501451545 
0.003764516212899571 
-0.01261511447383559 
0.006524905670386586 
0.02914287701287444 
-0.01604990605134472 
-0.02198862019776362 
0.01325244936725943 
0.00990361441847676 
0.002061098918573274 
0.03042168068074361 
-0.0001074919988035018 
-0.004838605141536263 
0.02322579873561409 
0.02296014274887692 
0.03293446672256642 
0.01615040659313959 
-0.005972253503437513 
0.04472671202180822 
0.05468547837005697 
0.01183949909090861 
0.01670567579922401 
0.01924767940080338 
0.002297534332616993 
0.01753397052249775 
-0.01281503458241522 
-0.0001106679594263821 
0.0451134762688782 
-0.004375960452441216 
0.002666100983559648 
0.01165400211851741 
0.0
0.0
0.0
0.0
0.0
0.03011678671897988 
-0.02324102643809906 
-0.01851636168715444 
0.02588215576028462 
0.05392890535598133 
0.006609410464355926 
-0.003909225630619846 
0.01212584109128863 
-0.01751868210648731 
-0.01099213019876067 
-0.03562324086945946 
-0.02390279918380537 
0.01021170129254946 
0.04109962456801939 
0.0490323064272866 
0.07041555852673924 
0.01560802099979426 
0.01882020684962147 
0.04876229884924273 
0.01320059001113247 
0.008723775225943677 
0.00969411664319852 
0.01023366137701666 
0.04348938155269731 
0.04604025463352084 
-0.004342393133634257 
-0.02496471204952282 
0.02231562313831885 
-0.01808999630376225 
0.01048020774584561 
0.01040328683846101 
-0.01388559787429135 
0.0208823083403724 
0.005520822582019326 
0.004233931096565382 
0.00567230224936997 
0.0
0.0
0.0
0.0
0.0
0.0
0.0
0.0
0.0
0.0
0.0
0.0
0.0
0.0
0.0
0.0
0.0
0.0
0.0
0.0
0.0
0.0
0.0
0.0
0.0
0.0
0.0
0.0
-0.01638251136722399 
-0.01951452590268029 
-0.022458621862997 
0.009325084978124619 
0.04876930639460392 
-0.02181251716034997 
-0.01181255700603707 
-0.03216241551612156 
0.007243403430666437 
-0.01023872535137748 
-0.006947442628228215 
-0.002206933009350845 
0.03662982675786318 
0.01996120557236746 
0.05297400357744913 
0.04716911247339346 
0.021489758900971 
0.01182038320744778 
0.02150600988815239 
0.01708516960573442 
0.02414058953029555 
0.02635309860752236 
0.03707535967905835 
0.03377590158908415 
0.01771207594924298 
0.00281603532218232 
0.03141932024707748 
0.03943113452965797 
0.04668963442876536 
0.02162736228328994 
0.03591220081636144 
0.06073322654223174 
-0.0198574598348575 
-0.007490767101588999 
-0.02611187236814953 
-0.01745889112845456 
0.01497929441089107 
-0.01069564819761386 
-0.02490503832538847 
0.005134192208932825 
-0.005941054423777457 
-0.004768100645789934 
-0.003497169972550005 
-0.0481008650409667 
-0.0191230448680993 
-0.0005217389039718134 
-0.0189598622644498 
-0.03260065389011228 
-0.02615996036276648 
-0.01889441753011752 
0.008850763457480428 
0.02149136679056015 
-0.01109596518788779 
0.01770662125184553 
0.07627272085939731 
0.04406728527194852 
0.03329468196326681 
0.04112364186647072 
0.03614505716385799 
0.0
0.0
0.0
0.0
0.0
-0.006829144409227318 
0.02072633099373612 
-0.01460567326898375 
0.03799967231396755 
0.05852077687110913 
0.01530948142018722 
0.03175796349011566 
0.001580334085916444 
-0.02392831838478566 
0.01837714068995018 
-0.005138620827626719 
-0.04743419550796153 
-0.008888754322975959 
-0.03656130667764478 
-0.0377371127509783 
-0.01455177198268778 
-0.01432009440644397 
-0.007578464559234824 
0.01335596104158317 
0.04350381622061522 
-0.006044020517134693 
-0.03437532197949864 
-0.01828237818345305 
-0.02124788283414604 
-0.007259655183904306 
-0.003299316756878083 
-0.01823718144339634 
0.0213779792230434 
0.01384048134385007 
-0.02116576428894517 
0.03018881809156347 
0.02710218179050785 
-0.002186908621622923 
0.01224024766120199 
-0.02388614943300878 
-0.01857840432736853 
0.0
0.0
0.0
0.0
0.0
0.0
0.0
0.0
0.0
0.0
0.0
0.0
0.0
0.0
0.0
0.0
0.0
0.0
0.0
0.0
0.0
0.0
0.0
0.0
0.0
0.0
0.0
0.0
0.02909009611591942 
0.06648440029801869 
-0.02657850107617735 
-0.002886888495718942 
0.01816739092880043 
-0.01384295255765618 
-0.03867784833746269 
-0.03091333494179538 
-0.005712974880524669 
-0.02432517032217021 
0.02742148910946039 
-0.005326777179956779 
-0.03950811846398133 
-0.0149613106355374 
0.01417208553087231 
0.004125617129369578 
0.005624802468219629 
-0.02777729859884781 
-0.03072610653122279 
-0.02360029777342947 
-0.04333596585083988 
-0.02139866747135399 
-0.02108401502125765 
-0.01998724708845345 
-0.01758033418130447 
-0.01995971611428222 
-0.003001335145080448 
-0.01385390161691202 
0.04027868864216745 
-0.006589738269852338 
0.02088480927034308 
0.04726770847596486 
0.03751069423175772 
0.01639250943829015 
0.02319809031914702 
0.0169607582670187 
-0.006972191085512463 
0.01763053052749461 
0.01387418320137961 
0.03576971870660122 
0.03171452025047427 
-0.002221041305605287 
-0.01258189201890661 
-0.009872019127870564 
-0.001772036763812608 
0.01286070750772328 
-0.01558315799271029 
-0.03210476194156364 
-0.007169453801912036 
-0.01451762130463514 
-0.02579094637592068 
-0.02072916499257557 
-0.01161331284119358 
0.02158475497435403 
0.009587868403257068 
0.009982281829732898 
0.001186901721270724 
-0.02623673007787062 
-0.03392682588326271 
0.0
0.0
0.0
0.0
0.0
-0.02603771517980409 
-0.02987149418357013 
-0.003289102813828735 
-0.005336532794175717 
0.02356124635125383 
0.02800893433580264 
0.01865269295594087 
0.01965749338816708 
0.02210681997184272 
-0.01147189220843115 
-0.02045459858430833 
-0.009705632645990467 
0.00268606018080965 
0.02905192320716151 
0.04779313361494057 
0.02498259995638652 
-0.009067456507511442 
0.004292419841540572 
0.02018996481461617 
-0.01517956689368324 
0.007995489172443547 
0.002037384767613195 
0.02234853919107702 
0.004998772208544149 
0.0009211357445634774 
-0.02875951455510655 
-0.01371295292512185 
8.563977815282843e-005 
0.009674070161047045 
0.003084702168933951 
0.009650246434093001 
-0.01189180276803589 
-0.02672715664749331 
-0.02517040544166413 
-0.06913262365739613 
-0.0455300266636123 
0.0
0.0
0.0
0.0
0.0
0.0
0.0
0.0
0.0
0.0
0.0
0.0
0.0
0.0
0.0
0.0
0.0
0.0
0.0
0.0
0.0
0.0
0.0
0.0
0.0
0.0
0.0
0.0
-0.01303840982808774 
0.01590092510626765 
-0.004531298373868285 
0.01759337877994383 
0.03426813428187062 
0.02904901188253661 
0.02112633493084889 
0.01666240105766833 
0.04259615431753945 
0.0586272657967725 
0.01934844354085402 
0.02629431135827593 
0.01244438461261813 
0.009708722829250753 
0.01379111745766925 
0.01932744763510086 
-0.01383468419463569 
0.008385334610930566 
-0.001960124294052287 
0.0178959499925815 
0.01451697394186861 
0.01197281046083128 
0.01556162107649202 
0.01325150317404663 
0.006668316648466554 
-0.04147276565130287 
-0.03074062096941168 
0.01011968311541834 
0.02200156209489713 
0.007850159672742193 
0.02756640228852832 
0.001448245939526222 
0.01665278424837615 
-0.0005772743650481524 
-0.01926810056297794 
-0.03451402360117822 
-0.015425791225231 
-0.02273328769812904 
-0.005069500150179504 
0.03427160308122815 
0.02882513859709802 
0.00476606188661249 
0.0252981698480981 
-0.001587878966210584 
0.01906548526393831 
0.04286197961758929 
0.05063338733864288 
0.02381353161437928 
0.05405444794516349 
-0.02402972584944717 
-0.02389472498380026 
-0.004455430310447249 
-0.03572191957005994 
-0.01096885564096202 
0.006940520043231205 
-0.02070480684481326 
-0.009704904033728944 
0.02702067114466829 
-0.01065662300580983 
0.0
0.0
0.0
0.0
0.0
0.006514215753924526 
0.009732950695677116 
0.02575487245845358 
-0.03250218132293233 
0.01508148152152535 
0.01078827216415183 
0.009648666286502209 
0.03691361078107407 
-0.001681669451215737 
-0.03994616760419228 
-0.01173903806871577 
0.02584881214115292 
-0.01405680482061331 
-0.0009408990893909861 
-0.00975176346608965 
-0.03877791664701991 
-0.004639547115600669 
0.008486948411836269 
0.00539967780491775 
0.01007550909340283 
-0.007848660033742875 
-0.005622866711092381 
0.01320161951592038 
-0.02661305695786042 
0.00821911676499067 
0.05209562386472841 
-0.00298702794143429 
-0.04873476718012886 
-0.03572738439120035 
0.01850052728943321 
0.01744567026525903 
0.02996762253961947 
-0.0007673684961458045 
-0.02315387937887302 
0.01408630045493573 
0.01165216150383552 
0.0
0.0
0.0
0.0
0.0
0.0
0.0
0.0
0.0
0.0
0.0
0.0
0.0
0.0
0.0
0.0
0.0
0.0
0.0
0.0
0.0
0.0
0.0
0.0
0.0
0.0
0.0
0.0
-0.00495758878133644 
0.02408709759898093 
0.03738406030355544 
0.02921760549974254 
0.008768544029972606 
0.02281376143138024 
-0.02719461657306329 
0.01149440666211718 
-0.0005438593836349675 
-0.01161105525221325 
0.0322225434325874 
0.04213986992292759 
0.00670988521141903 
-0.008761220352000259 
0.002835965016794475 
-0.02504116666234537 
0.03898810450352036 
0.0132219587001425 
-0.01020388719236084 
0.02988747224727255 
0.01210611151357111 
-0.01299369495143128 
-0.01051410979092136 
0.02703351210862923 
-0.01353228127315387 
0.04615439237745198 
0.01970208117136359 
-0.0700293349307075 
0.00657440114574714 
0.06745029185068982 
0.02554180642161799 
0.0133949758632177 
0.003243046145943335 
-0.04018271833193274 
0.05354413562551148 
-0.01634350494130196 
-0.02415811504725071 
0.004380298481898758 
0.0166048108166952 
0.001974869306429996 
-0.03222497838221543 
-0.03293489799565647 
-0.06030735188259233 
-0.008740677478858977 
0.0238842326655044 
0.02832777124706343 
0.01885949883257509 
0.03777676292072442 
0.01853316125295536 
-0.002139986108712566 
0.001830032277292489 
-0.02961549888954213 
0.003981394711735678 
-0.01028206641958732 
-0.0009625018064448534 
0.0663052136121097 
0.09692540744848883 
0.04421513805269779 
-0.02069020688799294 
0.0
0.0
0.0
0.0
0.0
-0.02271200212438011 
-0.07576660627729319 
-0.02151094906967568 
0.1280975168173154 
0.1312818341027424 
0.1315559900537309 
0.1227433059217147 
0.01597923869347679 
0.009999450316936845 
0.03677317326781305 
-0.01564322805050696 
0.02752711232804841 
0.01620546901720428 
-0.001379407185070176 
-0.02950541975039003 
-0.01500249436982997 
-0.00588840113773579 
-0.02589121385006126 
-0.01338697381990225 
0.02752645351865517 
0.03106719391448188 
-0.02574494786376719 
-0.008897614295675543 
0.03439992398700742 
0.03998004305430004 
-0.006292827013998287 
-0.03189754323789842 
0.0236100184531782 
0.08720304565729396 
0.02452886165782245 
0.1192426065232694 
0.05831621153955768 
-0.009684464793001684 
0.0007634580426285012 
-0.01142156925625716 
-0.01004765522504924 
0.0
0.0
0.0
0.0
0.0
0.0
0.0
0.0
0.0
0.0
0.0
0.0
0.0
0.0
0.0
0.0
0.0
0.0
0.0
0.0
0.0
0.0
0.0
0.0
0.0
0.0
0.0
0.0
0.01361638694726911 
0.05320662159792469 
0.118338494311675 
0.03104162466081409 
0.0495579994429469 
0.1298410053598708 
0.09226726181508688 
0.01125997851873773 
0.0259077398881185 
0.07522895699883489 
0.1457690354074174 
0.1052466946327853 
-0.005320710490780603 
0.1031905766146042 
0.1372482579820873 
0.08248442233413064 
-0.01122848463930865 
-0.039340987969685 
0.005114912378786485 
0.04522534804309412 
0.0003037942586125486 
0.01501088132098529 
0.1061101631323963 
0.07123794534302989 
-0.00103965235739684 
-0.05472195944605063 
-0.05508653332096019 
-0.03023612873925624 
-0.006775727691132267 
-0.0395286941289802 
-0.04003832576788631 
0.09651162494821229 
0.1635559503216219 
0.0856068630478745 
-0.02212823991381839 
0.02028733227376519 
0.07888970060862029 
0.07488784235650906 
0.001191868473124236 
-0.04853296939905361 
0.05509018182936276 
0.03040099861631808 
-0.03446299057573559 
-0.07825923896821549 
-0.01860369397141523 
-0.007228439169412206 
-0.02373212799917914 
-0.07810994786144956 
0.07146783489439179 
0.07316177554428641 
-0.02814328929117632 
-0.01164239613486861 
-0.003352838302299585 
0.003223770415443927 
0.03652525904666826 
0.03706598667242293 
0.00769454176025486 
0.0331546912902136 
0.04636200278361428 
0.0
0.0
0.0
0.0
0.0
-0.03236260166064977 
0.01280830497127395 
0.01686572365764107 
0.01570287778487946 
0.02038590683842368 
0.05386946266876589 
0.03060261304988397 
0.0004114947546554888 
0.00546192403974172 
-0.04699524072093427 
-0.0607394129686085 
-0.03208868471145128 
0.005303745800627289 
0.01733407706638112 
0.02659334145853455 
-0.0170723534443331 
-0.003309333602580055 
0.006344124805863823 
-0.02951362615377651 
-0.008711347071733067 
-0.04260832061401441 
-0.01565642355177411 
-0.01932565723575146 
0.01866042722515642 
0.02159521804815772 
0.04551361466729246 
0.06261332557201269 
-0.009766213509669639 
-0.02087632024095154 
-0.01147834661645847 
0.002655535255166755 
0.005018093271326484 
0.02682579487801316 
0.02337447940989014 
0.1030405429398155 
0.09597908630171603 
0.0
0.0
0.0
0.0
0.0
0.0
0.0
0.0
0.0
0.0
0.0
0.0
0.0
0.0
0.0
0.0
0.0
0.0
0.0
0.0
0.0
0.0
0.0
0.0
0.0
0.0
0.0
0.0
0.01671366525389553 
-0.0007104878462079747 
-0.02990589367302714 
0.0169906791225317 
0.04045917087197904 
0.05325700212965364 
0.05105891392609736 
0.01065404938975774 
0.0262772103392667 
-0.0331186088533608 
-0.01743261558685682 
-0.04426267272172144 
-0.03814694938360658 
-0.05705014497866493 
-0.002272386769661712 
-0.004038776566240296 
0.02845075851803993 
0.02113834512005194 
-0.0482561095325089 
-0.03373481230541838 
-0.04921547628482131 
0.001497575913727934 
-0.01362483921899317 
0.01462664982879565 
-0.009943446358409195 
0.05634855811292333 
0.07461833095394178 
0.001076559681646929 
0.001189080403978832 
-0.02181666957521163 
0.009138031000357486 
0.01029232122287256 
0.03520413612230205 
-0.001011230315418837 
0.04207162036212046 
0.04712104778478016 
-0.03766457676123274 
-0.03848440767923284 
-0.02266170290432639 
-0.01299345041331021 
0.01658523473229276 
0.04767236502958509 
0.006474248160874565 
0.02073397935587747 
0.001541436313246655 
-0.04404568277981091 
-0.02181341148942529 
-0.0442636871184184 
0.03883626897004986 
0.003276995916625708 
0.02608590337222635 
-0.008417586393219916 
0.006674596459479015 
0.002357817295202351 
-0.03557706620276092 
-0.02477840655636281 
-0.03618016605251519 
0.02416557148604744 
-0.01424841355542873 
0.0
0.0
0.0
0.0
0.0
0.02660765271427308 
-0.01069396885529247 
0.05243698830118686 
0.05740950638829081 
-0.01256640139566936 
-0.02382136155353314 
-0.0298815599542563 
0.01503985408281519 
0.007734640562777817 
0.02181603178485272 
0.05426949140334435 
0.04339057898240691 
0.03842971042707803 
-0.02921545539154319 
-0.02848825584285273 
-0.0130877176092895 
0.05004069355195496 
0.01806135977239639 
0.03578071524028424 
0.08864642997835706 
0.002150169683377491 
0.04352129955157574 
-0.02668562895785169 
-0.02099978158586002 
-0.008117913020784464 
0.04341621724762548 
0.003636471061842334 
0.04196501513443793 
0.01285904322357725 
-0.03442750240642133 
0.01121456439680775 
-0.0427502312888437 
-0.02545797473174189 
0.0188401527962564 
0.06258138822319362 
-0.01036777061303227 
0.0
0.0
0.0
0.0
0.0
0.0
0.0
0.0
0.0
0.0
0.0
0.0
0.0
0.0
0.0
0.0
0.0
0.0
0.0
0.0
0.0
0.0
0.0
0.0
0.0
0.0
0.0
0.0
0.01480582229078364 
-0.01247665080218258 
0.03905466805603349 
0.0409261480983094 
-0.04239358779588116 
-0.04614252413159282 
-0.007095347692819103 
0.03543883655201603 
0.02291604203964236 
0.02961448173130277 
0.07749821148428315 
0.01720704854080236 
0.01603759861578076 
-0.0545631297595383 
-0.02593693300559331 
0.0188742549981291 
0.007557492527791731 
0.004845353664095161 
0.01165282630687575 
0.04470793743642157 
-0.003811447922539691 
0.04502407927529379 
-0.03413286590403049 
-0.04409266338827129 
-0.03949104913930175 
0.02689967752764882 
-0.02048503544165552 
0.01566191857508702 
0.04988449544864072 
0.005889955530970684 
0.02972960958221474 
-0.04433629568638089 
-0.02628373877659921 
0.004802230977010208 
0.006910333176998245 
-0.05641993274788311 
-0.0261731061485777 
0.04205596887831944 
0.02482720276712566 
0.0242272457486091 
-0.04175679940213346 
-0.01723076856582909 
-0.01512681226353012 
-0.01144998611507155 
-0.008788928576014788 
-0.001559318814318049 
0.02230482692204562 
0.03491558206114107 
0.04217007393290222 
-0.06090531819031145 
-0.04210539760320461 
-0.04287865568263072 
-0.02744076143022356 
-0.04321639843987592 
-0.007055092325012792 
0.04015594615822521 
0.0323398682846747 
0.03646159373063107 
-0.02010285388764357 
0.0
0.0
0.0
0.0
0.0
-0.004986248500781614 
0.000388332532505215 
-0.00997056687028405 
-0.03642950312551844 
0.01721377523954341 
0.02861390427576092 
0.01190731150968614 
0.05637401258194532 
-0.04523512888373846 
-0.04149033562816702 
-0.06827403078449854 
-0.01321043345877793 
-0.04762209771524671 
0.01294304667234684 
0.01115710093267257 
-0.01409302599050701 
0.02875818137375737 
-0.03196036499608729 
0.00354212917227044 
0.00831323281901436 
-0.006776648090986366 
-0.02047701076125975 
0.007997973563007532 
0.008182932956990933 
-0.002327702863039576 
0.006073547515079306 
-0.02604689309528454 
0.01767963481037412 
-0.02673424294784446 
-0.03463904161924913 
-0.03587067590185011 
-0.00876168352320412 
-0.01453304754631527 
-0.002471822396788796 
0.06624719006057697 
-0.0307139299446337 
0.0
0.0
0.0
0.0
0.0
0.0
0.0
0.0
0.0
0.0
0.0
0.0
0.0
0.0
0.0
0.0
0.0
0.0
0.0
0.0
0.0
0.0
0.0
0.0
0.0
0.0
0.0
0.0
-0.01413417529477798 
0.003378813170231709 
0.003466204510573115 
-0.03448024683779134 
0.04396745525651236 
0.004570778987239677 
0.03236346785276401 
0.01117171080214887 
-0.05047734061101608 
-0.02168640418304741 
-0.01879728128440462 
-0.02648674698357892 
-0.02767711545336632 
-0.003275736947051057 
0.01675462989267746 
-0.005086516632338095 
-0.002126446693962777 
-0.0286318857019437 
-0.003262274329715094 
-0.01836003177927515 
-0.03351535769529878 
-0.0462757167110085 
-0.02265458250185938 
-0.01320252070554222 
0.03046756281304326 
0.01761627503870024 
-0.02496950316976009 
-0.03140928001653259 
-0.02101123896068257 
-0.005167553224865485 
-0.03268515832544394 
0.004795239043960692 
0.0175380964304033 
0.03046260785120502 
0.0120037570495918 
-0.0340116357008136 
-0.01897915430359138 
-0.04071750836555982 
-0.01693704353500844 
-0.03235816820367229 
-0.02196063738508822 
0.04711866593766443 
0.04439603747643656 
0.04215810339791255 
0.0272383961511147 
0.00318759115206407 
-0.02418117448334754 
-0.02265707467667611 
-0.03350604963002665 
0.02907646842417114 
0.09777563775850109 
0.02695729137882415 
0.03876908164182892 
0.01934843382784227 
0.0007994539561507099 
0.001979894731267545 
0.03269386264396072 
0.02397444144794027 
0.01814547458200343 
0.0
0.0
0.0
0.0
0.0
-0.00621590825840942 
-0.02447208467472558 
-0.01660320425939084 
0.002260556409747621 
-0.009574790254142712 
-0.04777450541178734 
-0.04091902825481486 
0.01569365566583063 
0.003019597067989716 
-0.0406333881470227 
0.06451987687690459 
0.06265718002509882 
0.07834524627970234 
0.05566627193076885 
0.04517282327293647 
0.02500518733265799 
0.0274565934953029 
0.03013848223178604 
0.0670643204951778 
0.05735995263271809 
0.04906430151111949 
0.03517282988662323 
0.02610909700623466 
-0.02654745010485012 
-0.01030377053058128 
0.04825116428408903 
0.02484798133482396 
0.02518259745391821 
-0.01242316598890501 
0.005642631604049712 
0.02809598699560901 
0.02336601203408472 
0.04885361171708188 
0.01617996670475996 
0.0262780083106142 
0.02089679706691241 
0.0
0.0
0.0
0.0
0.0
0.0
0.0
0.0
0.0
0.0
0.0
0.0
0.0
0.0
0.0
0.0
0.0
0.0
0.0
0.0
0.0
0.0
0.0
0.0
0.0
0.0
0.0
0.0
-0.001806372292090934 
-0.02510393148656429 
-0.01983804659750595 
-0.0124855572712958 
-0.02928531197804406 
-0.003720807688978105 
-0.009827332417388231 
-0.03750862327086545 
-0.02379044389881403 
0.001729771742250413 
0.06405921752067263 
0.07722270652073469 
0.04308947777236626 
0.04940361141954808 
0.09286648789118072 
0.03887879619827089 
0.04275601942264524 
0.04179368046176639 
0.03549320509257042 
-0.01498493043385889 
-0.009143538524774035 
-0.01891715895241524 
-0.01143377700702895 
0.01294139403755439 
-0.004542406924163286 
-0.03311518112174499 
-0.009534737795268143 
-0.001235530763585062 
-0.01301704758579729 
0.007557820883335938 
0.008754311835981323 
0.003802258635958314 
0.008847036594876378 
0.03081358961517668 
-0.01522400914305586 
0.006118037292867089 
0.02100307870764168 
-0.02828368141726065 
-0.04765904614896523 
-0.02440440963863451 
0.02456379659990075 
0.006774660753488012 
0.02880867136558022 
-0.003478357572116424 
-0.01529933308730022 
-0.01961799840512933 
-0.02913106548876195 
-0.01414017285193815 
-0.007529318039605859 
0.01863691491807128 
0.01093848252825602 
0.04157104268759888 
0.007984424982590208 
0.04367854251442917 
0.01310228642084507 
-0.03371534692106486 
-0.03431898179605513 
0.01106194067578661 
0.03490351006118155 
0.0
0.0
0.0
0.0
0.0
-0.01719531046430757 
0.0426385265186691 
0.008133422877548641 
0.02315548705595492 
-0.01660515009971136 
0.05301659723464847 
-0.002407860568232445 
0.005484885069621542 
-0.004453297299848458 
0.006670474216365257 
0.003862155893574282 
-0.009214120244331376 
-0.02049382511949122 
0.06315373160433462 
0.0701013244987298 
-0.03194118918478279 
-0.003293761174692673 
0.02389296208565605 
0.07079441502304368 
0.02363278311472727 
-0.007908156543361989 
-0.01469419172668109 
0.08282460753302519 
0.09774202739162773 
-0.01674470415395389 
-0.0367458683207379 
0.0008311305037413239 
0.003052258571695287 
-0.003884442908190369 
0.003032816802001078 
-0.01399828432839565 
0.04069451135331847 
0.09385144750212726 
-0.01729088083690616 
-0.0111697105365704 
0.01299480055776365 
0.0
0.0
0.0
0.0
0.0
0.0
0.0
0.0
0.0
0.0
0.0
0.0
0.0
0.0
0.0
0.0
0.0
0.0
0.0
0.0
0.0
0.0
0.0
0.0
0.0
0.0
0.0
0.0
0.05531047047273973 
0.02128654025931277 
-0.01127931260481258 
-0.02666118935273707 
0.07230059152062145 
-0.01728374379639775 
-0.01604217470417365 
0.03818425000258171 
0.04870089809536007 
0.04117347551302921 
0.03095503251998148 
0.02087471298173959 
-0.03809978392792891 
-0.01122230125639009 
0.007667713461802575 
0.09008056526599954 
0.101613781842998 
0.09292845209904457 
-0.0002929446821303055 
0.0455948485568933 
0.09366142576774582 
0.04075232549195443 
-0.01912861994014168 
-0.01122414833923172 
-0.03229093526611309 
0.01901209600849698 
0.01587641458586644 
0.04946969714735162 
0.06166301862743103 
0.04936002068452484 
-0.020073272232021 
-0.01935286038103481 
-0.02664933907609642 
0.0386408038052375 
0.08862401512462505 
0.06174489536857999 
0.026042209482815 
0.1141172472558369 
0.1295025956877219 
0.1114310634718037 
0.04045062997227603 
0.07248985636132294 
0.06224593851484527 
0.01212825562952543 
0.01080533757962107 
-0.02029919501885294 
-0.001941129564017118 
0.0278004825049091 
0.03328118438367625 
0.064228148860969 
0.02928536187719286 
0.02645165970680137 
0.06910670808826311 
0.06168508634019729 
0.001838876422589589 
0.01746091843126624 
0.05495794029799803 
0.0746391516518506 
0.05302741821609841 
0.0
0.0
0.0
0.0
0.0
0.05662433679171588 
0.04909219912935557 
0.0408349646001996 
0.009292820197717813 
-0.009304931917366222 
0.001554577499577535 
0.01504980666488966 
0.04538392690154281 
0.08355076975690481 
0.06493406117824761 
0.08654538369688374 
0.08139026489463651 
0.02096622494046559 
-0.01002812357042626 
0.03196998457114646 
0.07008408356296303 
0.02916824350565939 
0.02351653022495568 
-0.03922589742874601 
0.02895634268717066 
0.1227401694688427 
0.08548716050684468 
0.02612036809417769 
0.04223218423911954 
0.09305823575820037 
0.04751470132136219 
-0.02986902818047714 
-0.07983251808966473 
-0.01484279754620534 
-0.0138788833311125 
-0.01049702355779374 
-0.005548211520093334 
0.04248459813132707 
0.05911036481584388 
-0.01494688389239014 
-0.09078309301565278 
0.0
0.0
0.0
0.0
0.0
0.0
0.0
0.0
0.0
0.0
0.0
0.0
0.0
0.0
0.0
0.0
0.0
0.0
0.0
0.0
0.0
0.0
0.0
0.0
0.0
0.0
0.0
0.0
0.01289976754435765 
0.05222642481988358 
0.09828657378532532 
0.04525037584937223 
0.02487240555530349 
0.08488190388716857 
0.1191149330289797 
0.04455020588042481 
-0.05494317583789537 
-0.06112661859920049 
-0.01266299014670808 
0.04860969456190215 
0.03603499325593262 
0.00439524397116617 
0.01697845106728061 
-0.01163689638006653 
-0.02472948803319474 
-0.09215995329825941 
-0.04108305564399866 
0.0120830650537484 
-0.04718177807953846 
-0.05167281507598161 
-0.02746943167318426 
0.01603340194838764 
0.01734645021914373 
0.008293965890289639 
-0.05921195573081575 
-0.01092688457686098 
0.01106993829602316 
-0.02363838648972595 
-0.02256954313500022 
-0.05296539918465992 
-0.03171725423730366 
0.002977346627967631 
0.01653009164740384 
-0.002936742250570779 
-0.02488113890964496 
0.02109908377956866 
0.003158925035915329 
0.02070581300293966 
-0.02713506566710411 
-0.03711004811169841 
-0.02689366119278836 
0.0007461587005116216 
-0.02504983732972861 
0.02269826643306326 
0.03265763285481298 
0.004609495434566908 
0.004336750241776268 
-0.0578079045785426 
-0.04001371174906789 
-0.01323294956260064 
-0.01168521405603531 
-0.02890569176021327 
-0.01135729557509716 
0.003764313750571915 
0.005733053502301268 
0.01526780137759929 
-0.002689292060270852 
0.0
0.0
0.0
0.0
0.0
-0.008495592656502769 
-0.01779396368751531 
-0.004719843750589882 
-0.000371609006235169 
-0.01671524768077894 
0.01310179110361958 
-0.00196660073483327 
0.000256080423336139 
-0.02808940590172328 
0.02867310119683802 
-0.01226614709040889 
0.01553556499741163 
-0.02290580946271643 
0.004763504395671575 
0.001333046860499001 
-0.01433660174838145 
-0.002325249163336191 
-0.01916263390372924 
0.002781945412984168 
0.001658024591605502 
-0.01541931932345282 
-0.02572333208747492 
-0.03151961028523113 
0.00133613608777633 
-0.004078382525148186 
0.008951579745566754 
-0.02809248982135768 
0.005013026059621743 
-0.03044732068160221 
-0.005237903038514379 
-0.03114357093395556 
-0.03100995535047406 
0.007666008020540671 
0.006000371926822688 
0.01871149292382771 
-0.02172034111147482 
0.0
0.0
0.0
0.0
0.0
0.0
0.0
0.0
0.0
0.0
0.0
0.0
0.0
0.0
0.0
0.0
0.0
0.0
0.0
0.0
0.0
0.0
0.0
0.0
0.0
0.0
0.0
0.0
0.04871056840471613 
-0.008768139716031105 
0.003454823265243494 
-0.0562660333120729 
-0.0494934082823214 
-0.008543008059157546 
0.003775148280827517 
0.02027075549606759 
0.04078226981940625 
0.04366393767946327 
0.001323267010981315 
0.01138372547194255 
-0.04292802917283978 
-0.06349247549599589 
-0.02834007927226991 
-0.003583230508459284 
0.05056710984634097 
-0.01664835389405658 
0.02073488662273292 
-0.0269844785997296 
-0.003871871421993095 
-0.03069534855799673 
-0.06029718103288566 
-0.003705688122673999 
-0.009591382001065622 
0.0537318303043947 
0.05187471835689921 
0.01524326309913951 
-0.006580717174850454 
-0.002433887958631345 
-0.04846168719762076 
-0.015785920690872 
0.02590781971036104 
0.005232927802618232 
0.02743765560460501 
0.04069551736151135 
0.04514343874843078 
0.01554443898498215 
0.009219631298186655 
-0.01868290553701172 
-0.06397910567687572 
0.01106558398731751 
-0.0146990069195292 
0.01357610478319674 
0.05099388160025636 
0.04502737242561986 
-0.02303228942053731 
-0.02715001857725458 
-0.07174730367012358 
-0.02777285586155007 
0.02325738805124744 
0.01412819669360967 
0.05420772080178708 
0.01582042798639682 
0.01996734523874957 
0.007791063546297231 
0.004960980909336987 
-0.01528678536194556 
-0.0772032727405379 
0.0
0.0
0.0
0.0
0.0
-0.003504104294502934 
-0.03167714033339032 
0.02729708103067136 
0.02407059800932851 
0.02389551073332328 
-0.0231206998475341 
-0.03969831284228158 
-0.07165831085029339 
-0.005942736379420398 
0.03567342860769189 
0.01021025017820772 
-0.003085445235705791 
-0.03521437420053678 
0.007557320342441988 
-0.030240542274098 
-0.009141374929328035 
-0.01162143768765901 
-0.006007187171162362 
0.04041713270320919 
-0.004862685401969654 
0.01185351723604849 
0.02303257844298303 
0.0118556267447104 
-0.03332701706738787 
-0.002115088516557577 
0.02435526988924532 
-0.008533327401074927 
0.002515479155055614 
-0.0327924529696594 
-0.003572744137016779 
-0.03440724575620908 
-0.0003176212798207427 
0.0003555169295675351 
0.01984115386513033 
-0.0283020418207945 
0.03173068007486825 
0.0
0.0
0.0
0.0
0.0
0.0
0.0
0.0
0.0
0.0
0.0
0.0
0.0
0.0
0.0
0.0
0.0
0.0
0.0
0.0
0.0
0.0
0.0
0.0
0.0
0.0
0.0
0.0
0.004311238635399616 
-0.03839685635809286 
0.0321628042875123 
0.02001056576507595 
0.01410110867279953 
-0.03235465162652118 
0.0187337014775638 
-0.02317932618331868 
0.0006502124869457613 
0.03700470956613807 
0.002888986190716794 
0.01153467192208288 
0.02267431332762943 
0.003963086310493124 
-0.01524528890526154 
0.02410608321072162 
0.03465152217758159 
0.03714206792428715 
0.07918751165112596 
-0.0006187096670261872 
-0.01976301578473542 
-0.05414516096409592 
-0.009248631390599451 
-0.02544561239335523 
0.03829619270595886 
0.03358847799604556 
0.005764702396695752 
0.01985148520051364 
-0.03070984177483387 
0.003157992133195498 
0.02119054373038159 
0.01383380106539934 
-0.01117091760885771 
0.04915395610820929 
0.001652696977761544 
0.02118067237492079 
0.03692666808367199 
-0.03153426978598439 
-0.02139166001563644 
-0.05402302329575794 
-0.009362290303923618 
0.001733791268548784 
0.08837732286934598 
0.04586235952464636 
0.02801617173135675 
0.04892197345293323 
-0.0308147113644256 
-0.007133411526394527 
0.003631430940684431 
-0.002534460821295696 
-0.04144421298505134 
0.02767869079862833 
-0.001759614173689971 
0.06141266875142092 
0.008474012523978869 
-0.05474164541508889 
-0.002369245532971948 
0.00672195878118973 
0.004633065179136984 
0.0
0.0
0.0
0.0
0.0
-0.0367995324361961 
0.004099025600315546 
0.01730205439315362 
-0.001965299813885834 
0.01793705108432973 
-0.04263802032957893 
-0.007899583472598948 
0.005416611389973735 
-0.007256191302935168 
-0.01482806322090944 
0.05541167261650781 
0.03737718048406759 
0.01391731941698752 
-0.00122833323757935 
-0.02960801841113557 
0.006144218081017059 
0.002999567380404076 
-0.01180696526370142 
-0.03736011958446485 
0.03553887928403365 
0.057284250745541 
0.05188452047741656 
0.0002720887959679893 
-0.01891895966950491 
-0.02275196168263977 
-0.02500790051283891 
0.0009713975862234049 
-0.03502155042434246 
-0.04956762436300536 
0.007154337136833559 
0.05270610061859855 
0.0008183190360322255 
0.01120429511378863 
-0.003946150888713314 
-0.04312824143808768 
-0.006881346131204308 
0.0
0.0
0.0
0.0
0.0
0.0
0.0
0.0
0.0
0.0
0.0
0.0
0.0
0.0
0.0
0.0
0.0
0.0
0.0
0.0
0.0
0.0
0.0
0.0
0.0
0.0
0.0
0.0
-0.02906992257095226 
-0.02551027898736134 
0.06846638603472453 
0.02609989347193084 
-0.02581293349486491 
-0.04450920457474706 
-0.009365567975944025 
-0.01694178049790761 
-0.007708374188902191 
-0.01697023606411042 
-0.000234517067110836 
0.01506181578994696 
0.07170619578089144 
0.002851565967394604 
-0.04103142095829235 
-0.01288673880344989 
-0.03772578583537838 
0.01757510982552017 
0.00954952407105087 
0.01374554769856477 
0.02842643349357681 
0.04243102521301817 
0.001937727066694321 
0.00406049898281519 
0.01666147951831383 
0.04211636420482038 
0.01419760978874766 
0.0008804579243364391 
0.002802936960765834 
0.07798697280766724 
0.02245112853458869 
0.007021592228336706 
-0.0123578761201227 
0.008658133884717569 
-0.01336964480240292 
0.002046991967217951 
0.0359717975024438 
0.0243537837016917 
0.04179244401755552 
0.04646460530082377 
0.005481310499592077 
-0.0217159833613046 
0.01536802075788084 
0.04382169327696178 
0.04029777201598181 
0.02291645116433541 
0.01847347534105708 
0.05127494921088985 
0.01753977289162531 
0.008967462491850127 
0.001443707542735634 
0.003574502298105511 
-0.01591314899101887 
0.002339808901909986 
0.03829465807366423 
0.0358566486241596 
0.04499211293068421 
0.02226883166282763 
0.03464529348862864 
0.0
0.0
0.0
0.0
0.0
0.004278296788856778 
0.03126989765312237 
0.09488149320307854 
0.0509235320364551 
0.04832425304003635 
0.01395664949512407 
0.01819913929949835 
-0.0453824396377478 
-0.03408962204995574 
-0.01728933098048191 
-0.01696678960095048 
0.002926120731889295 
0.008256336671547418 
-0.008173649156253845 
-0.02808146027207877 
-0.03642771791484201 
0.02808613081114725 
0.03452145279556084 
0.04047402515296214 
0.08042939723442781 
0.1231138763452309 
0.01292309719408417 
0.03760714609386096 
0.02487636146813492 
0.02975177957274582 
-0.02110302886956723 
-0.0231574112103904 
-0.003567290610329308 
0.01617405694339208 
-0.01797338187574123 
-0.04701316670598137 
-0.0277432342581196 
-0.04483895887635708 
-0.03653668306382338 
-0.02442700144690681 
-0.01677392856530425 
0.0
0.0
0.0
0.0
0.0
0.0
0.0
0.0
0.0
0.0
0.0
0.0
0.0
0.0
0.0
0.0
0.0
0.0
0.0
0.0
0.0
0.0
0.0
0.0
0.0
0.0
0.0
0.0
0.0006283396836763917 
0.004483187023336195 
0.01098899476610064 
0.03493354970427951 
0.009166464763039258 
0.002036190403552897 
5.219920565889698e-005 
0.01058325029388549 
-0.004982409835086078 
-0.0004125601536179909 
0.006272035171808166 
-0.002552773592239616 
0.01885342305810376 
-0.003633409307625307 
0.005041255251332161 
0.01221859850694217 
-0.006616575564401216 
0.01444874165519181 
0.01154136527838948 
0.03078937673320974 
-0.01132123668803948 
0.0004012230972461415 
-0.01124653042524305 
-0.02959149363765181 
-0.005593240827838921 
0.03652434551523649 
0.03639507751051715 
0.01830108221976801 
0.04186909591340483 
0.006594784194134817 
0.0194061771225179 
-0.02158941042975794 
-0.03494162901466591 
0.02311866997586242 
0.04860701610537035 
-0.006198994537932052 
-0.004426439093350244 
-0.002784022111659397 
0.008217008810977818 
0.01956554537106368 
0.02616277134248768 
-0.0221349099865524 
0.01792426447477593 
0.04292596947169769 
-0.03043929839085655 
-0.02419151908168556 
-0.01670172414975661 
0.03766887928528959 
0.05777235422797907 
0.02920770925920128 
-0.01699776722071626 
0.03642017744262398 
-0.003459011176946956 
-0.008337045451907518 
0.01139031152275062 
0.004016957274279441 
0.03211157975497722 
0.03079224027903318 
0.02551029198487007 
0.0
0.0
0.0
0.0
0.0
-0.009810161600863765 
0.01815532333182524 
0.01780126632608797 
0.002120850443285739 
0.003182415729536081 
-0.01418044858794509 
0.01488515164625316 
0.02289231374168402 
0.05702553523304799 
0.01833977952124693 
0.02414461817593849 
-0.0227706562025172 
-0.05523358494599472 
-0.03217177084042526 
-0.03481386595170324 
0.05455232167727051 
0.07944487138844159 
0.07228866762258711 
0.01977146825895855 
-0.005137530295626159 
0.0158060704522743 
-0.005974182363250864 
0.03596396853729801 
0.01804433935023083 
0.03411749213944175 
0.1128209183182812 
0.1369497184880103 
0.142778349681241 
0.1043531986877269 
-0.01547603007414285 
-0.04927139833842723 
-0.04535255294414266 
-0.04647695533272332 
0.01249119337762675 
0.01171991074659201 
0.0277560713434601 
0.0
0.0
0.0
0.0
0.0
0.0
0.0
0.0
0.0
0.0
0.0
0.0
0.0
0.0
0.0
0.0
0.0
0.0
0.0
0.0
0.0
0.0
0.0
0.0
0.0
0.0
0.0
0.0
-0.007509314376382642 
-0.01294903678013398 
0.0023417710928142 
0.004117554918523198 
0.01617878146253464 
-0.000444908045774642 
0.02496673146517768 
0.04809622009660448 
0.06103567930276862 
0.03334786335476753 
-0.0004322001128194951 
0.09017848023102559 
0.03937255586800556 
0.01112160514526749 
-0.001615291833167751 
-0.004967014603877122 
-0.0123752359427027 
-0.01060329369056525 
0.03665205300473202 
0.08977605919609405 
0.1095365922136625 
0.1131483644650454 
0.05548361467404863 
0.005325888741191216 
-0.002839725927339566 
0.04860240771020795 
0.1101934741111091 
0.03227000202157049 
0.02389419422544765 
0.03355159082965396 
0.03306224398638134 
-0.01305270816403482 
-0.01510295133937398 
0.01570578967135616 
-0.02154186547912318 
-0.02749532845599894 
-0.01295371427037741 
0.002590543418065591 
0.03116747613798246 
0.09997643957586953 
0.02502743481927083 
-0.02853551677651383 
0.0009358460142748123 
0.02101696682032115 
0.04205023150686857 
-0.009364649339468078 
-0.0105258462749597 
0.008592117354306855 
0.04422270887691486 
0.0487762162068147 
-0.01148227695989179 
-0.02297672948566151 
0.06982816512514359 
0.1158213549340551 
0.06700662499302024 
-0.05295288464195328 
-0.04023374060032237 
-0.005824219548842956 
0.003688214910729668 
0.0
0.0
0.0
0.0
0.0
-0.02843370141325034 
-0.04991100580966822 
-0.006397903995907569 
0.01814141968439891 
0.05407855933132968 
-0.01189405380902914 
-0.03205486759932857 
0.05783748249781587 
0.01362717103549394 
-0.04885521231437445 
-0.007453433940657651 
0.07113476831215074 
0.1541121390953763 
0.08477573699169745 
-0.02524870542625748 
-0.04209029490594436 
-0.002088618809781895 
-0.03181145958133389 
-0.06637249112004423 
-0.05473675086612925 
0.002806054041574689 
0.0774160589354022 
0.106121843543461 
0.02592148134045378 
0.009510548003021003 
0.02235460916658655 
0.02123447445781167 
-0.002338431454947564 
-0.04428192753523414 
-0.04533443556194455 
-0.05497925144038467 
0.00631458177331511 
0.02155479133740665 
0.03192818198208845 
0.02561704679966038 
-0.005933155854538619 
0.0
0.0
0.0
0.0
0.0
0.0
0.0
0.0
0.0
0.0
0.0
0.0
0.0
0.0
0.0
0.0
0.0
0.0
0.0
0.0
0.0
0.0
0.0
0.0
0.0
0.0
0.0
0.0
0.002620758871005865 
-0.05468634642820081 
-0.02921558895606201 
-0.0320603198773045 
-0.01059085954090622 
0.002039545363690291 
0.003703394287058157 
0.02872424224674353 
0.02532636693686979 
-0.01746964663227795 
-0.02956074259287162 
-0.01664238948791135 
-0.0231725774466565 
0.06828798974234102 
0.0772135499518193 
0.003943149600230718 
0.04590373588210329 
0.03891126683117346 
0.01750393497258422 
-0.0007018352189018956 
0.01279570363736021 
-0.03108149885801482 
0.03397482772176146 
0.03098676981168681 
-0.004140302331769825 
0.005990377785897101 
-0.02703492228804702 
-0.0259094126013126 
-0.05078225395935967 
-0.02303644392453619 
-0.02884688534055803 
0.01020716899116243 
0.0309081746609744 
-0.01744818768048357 
-0.008809565869658816 
-0.01648250987793702 
-0.02368129213119521 
-0.05817453437432377 
-0.04371438252058911 
-0.04474171418305548 
0.01035543428355564 
0.02304765059651654 
0.0159293784571957 
0.03373064500552955 
0.02892708083428723 
0.009983805086499343 
-0.0150869644647415 
-0.01349899857881504 
-0.0002711302751700415 
0.04583242763856525 
0.01956222581338603 
0.04094147137720162 
0.0546964635037147 
0.04366543780956488 
0.007217849661665922 
-0.03842895577409739 
-0.01585252370650786 
0.01818172830185228 
0.0948317042421786 
0.0
0.0
0.0
0.0
0.0
0.06457424234904753 
-0.02302920930165735 
-0.003943609803755787 
0.0006123001311124418 
0.017879143401774 
-0.02983307346488688 
-0.02316714136922897 
-0.01914163938373288 
0.01207804091121202 
0.008259977590185201 
-0.04249673006601876 
-0.006272491515253004 
-0.02307416561460877 
0.02625847883816098 
-0.01670791888892172 
-0.03973929595251017 
-0.00964055873534575 
0.03832440259559897 
0.005526843423827846 
-0.0122331082203116 
0.03371357601250175 
0.0217736275597423 
0.003514887217727879 
-0.0264329746469464 
-0.01094913915830711 
0.01006799437108561 
0.1043079525275686 
0.06153881751834984 
-0.01156748690767555 
0.03428084200555324 
0.02592953959947341 
0.008717216482921703 
0.01509414464295199 
-0.02796504046660205 
-0.008261924403134998 
0.08635080002024018 
0.0
0.0
0.0
0.0
0.0
0.0
0.0
0.0
0.0
0.0
0.0
0.0
0.0
0.0
0.0
0.0
0.0
0.0
0.0
0.0
0.0
0.0
0.0
0.0
0.0
0.0
0.0
0.0
0.06265842469137872 
-0.01002983738722953 
0.01670736287020976 
-0.02554525107468665 
0.02772718300349423 
-0.01366571100474124 
-0.03115394021230969 
-0.01680686286997288 
0.04937718703623675 
0.01166500135137711 
-0.02151126946764155 
0.00487283804861214 
-0.04162741292894178 
0.03306329521498624 
-0.01480598884790783 
-0.02273333679611417 
-0.05698954001910999 
0.001944311407310426 
-0.005011486906578412 
0.04711176639495383 
0.02135974359331697 
-0.0006260180171313983 
0.003707379390982128 
-0.01047170740399079 
-0.02437915594939916 
-0.001138858648257836 
0.07857642525884208 
0.07767281347964734 
0.07164366407887586 
0.03466316483647008 
-0.01272996900370755 
0.03593112696462535 
0.001058772402783391 
-0.003110745928025833 
-0.03274823610126778 
0.03178986369807994 
0.0710088190918495 
0.03650966596433951 
0.005258811399396072 
-0.05406986864787688 
0.01693379810874464 
-0.04600304631568926 
-0.04091290331884724 
-0.03992109902492941 
0.02860027474290923 
0.004864357453506244 
0.02764161873748947 
-0.01936144129704503 
-0.04987653134553031 
0.02949618524441388 
0.00197151139346833 
-0.04247929970839657 
-0.06143900660188025 
0.01653187281992992 
-0.01438359733011915 
0.06694769053497815 
0.02760663514312193 
-0.006953270612015835 
0.04548029252981064 
0.0
0.0
0.0
0.0
0.0
0.009079954700553996 
-0.03019695434052866 
-0.03120417103301758 
0.05135325801061674 
0.04764030273743349 
0.03056232166376293 
-0.0001913814254246483 
0.007812646504460929 
0.01578057698783994 
0.005298100317417796 
-0.0415516166886496 
-0.0469301726972507 
0.02730841533865438 
0.02975239049793316 
0.03424632721412026 
0.006939668093433656 
-0.03268077540449985 
0.001095971174236837 
0.005271629653667597 
-0.02231625615346285 
-0.0444697755572064 
0.02432930039168841 
-0.001123973270691021 
0.02156972594647123 
0.01174059757360725 
-0.02573008202324353 
-0.01541953764189667 
-0.05019394594902819 
-0.04109416121260769 
-0.03349138473219231 
0.04637956369221997 
0.0009927398266617344 
0.02124416017096027 
0.01126842693726603 
-0.00950316637582756 
-0.01181399915391953 
0.0
0.0
0.0
0.0
0.0
0.0
0.0
0.0
0.0
0.0
0.0
0.0
0.0
0.0
0.0
0.0
0.0
0.0
0.0
0.0
0.0
0.0
0.0
0.0
0.0
0.0
0.0
0.0
-0.007625843545888635 
-0.02791553719307484 
-0.05801152932071063 
0.02401492538422158 
0.03752188088541172 
0.04751850151294901 
-0.00323400531432326 
-0.04437330687937623 
-0.03576541878730436 
-0.03916645010791467 
-0.0366581607310866 
-0.05958265214070309 
0.03658651161012834 
0.03336239592924371 
-0.01504322049013678 
0.007030368143223611 
-0.01039539826086755 
0.008330056060096175 
0.001038649054516456 
-0.01974161850613977 
-0.002163770140098813 
0.06083608431430362 
0.01316930096260062 
0.01601332215292664 
-0.007214004495679392 
-0.0194752822914661 
-0.001076702908095633 
-0.02683504393686917 
-0.02950726689912396 
-0.02196455744388333 
0.03848841174392588 
0.01402111976794581 
0.02082282910889554 
-0.005704102920328621 
-0.01330060682391486 
-0.004824895964692958 
0.01189150368591804 
-0.01287969096741802 
-0.01073532991345651 
0.0352374638524379 
0.01890030582442227 
0.02021858134407596 
-0.01398373762171908 
-0.03329199720901382 
-0.02878031058368282 
-0.03845470418862428 
-0.01262400920617193 
-0.02596277382658572 
0.01567527575368919 
0.00933876228362664 
0.07350779442644839 
0.013880129797001 
-0.03341767502260601 
-0.006165249647880486 
-0.0362717879954142 
0.004071173561298399 
-0.001542465614740695 
0.02580150223837974 
-0.005820180360903273 
0.0
0.0
0.0
0.0
0.0
0.109881882284944 
0.03086846216708459 
-0.04045958245419448 
-0.01904350960164271 
-0.003972674914486152 
0.01826239428320699 
0.0322745922834878 
0.04727812447823878 
0.02821369193357852 
0.00622534937663181 
-0.02591969243043773 
-0.0324937304558094 
-0.008270268062181844 
-0.0115898122605072 
-0.009151557545205911 
-0.01972665287401614 
0.0264138937966423 
-0.007588717725409743 
0.01747057492600804 
-0.001621754796660941 
-0.01941318862248339 
-0.02557110936242377 
-0.01840530226450341 
-0.04842271860057208 
-0.03399281815160791 
0.03363925773623232 
0.0274370119011943 
0.06364393432454947 
0.02448413281157544 
0.006455973727252356 
0.01952909506633579 
0.04772781363566308 
0.04222863034881062 
0.06471615564985407 
0.06266052261054234 
0.0572136780351819 
0.0
0.0
0.0
0.0
0.0
0.0
0.0
0.0
0.0
0.0
0.0
0.0
0.0
0.0
0.0
0.0
0.0
0.0
0.0
0.0
0.0
0.0
0.0
0.0
0.0
0.0
0.0
0.0
0.03085717311605058 
0.03956546484867111 
0.04073677648328917 
0.007816846900513151 
-0.008646165095496306 
0.001198277724222558 
0.04402066073534733 
0.03927690521860434 
0.04765221431176751 
0.01739478592942891 
0.02580838354718145 
0.01507401313488373 
-0.01379045258303507 
0.00740855533983785 
-0.01062223188985824 
0.01242531942840467 
0.05010459279318078 
0.02975217374396367 
-0.01901446261740045 
0.02168285407564507 
0.02394635075959334 
-0.03024939348083043 
-0.03044060892293653 
-0.02449989537158486 
0.007457512362215996 
-0.009861526104169524 
-0.01850229547970239 
0.04244114057785812 
0.05185247348431054 
0.03877064388162407 
0.06335876870671216 
0.09687374172350005 
-0.01264275317651027 
0.03155434581113976 
0.05560505015565629 
0.05075554484454504 
0.005864358766855302 
-0.01981676763126756 
-0.0337216198813938 
-0.002136397852677458 
0.01717721373186162 
-0.04304041580341899 
-0.02890589078259718 
-0.002636078965105403 
0.00630598264110814 
0.006326590569304268 
0.03055171045203755 
0.04354416262208512 
0.04096448986777313 
0.04763748091370927 
-0.008696544607967717 
0.02386323056650417 
0.01361402323876618 
0.00317132591116983 
-0.01167220416814832 
-0.02321801457786941 
-0.04401240350501333 
-0.002118274918489238 
-0.03422869464921076 
0.0
0.0
0.0
0.0
0.0
-0.04650337615238505 
-0.02956030601365347 
-0.02301046613184154 
-0.03276855751113614 
-0.001269008829847703 
0.01690532600180799 
-0.01143546379417925 
0.01310298954190275 
0.01113950235378136 
0.005401092294132086 
-0.005147763005913818 
0.003786923167584078 
0.01056099667713022 
-0.008784260584722535 
0.02136829102744522 
0.03093997206322757 
0.05238409963302062 
0.009844754567620772 
0.01739984355515544 
-0.01425753348466661 
-0.03237399890441315 
-0.01575688096269733 
0.01204331072476056 
0.004293206281204727 
-0.03042072970223667 
0.01651766808548538 
0.004234089504171919 
0.00826119859082021 
0.01186369276314475 
0.0163984611338733 
0.01017895892822011 
-0.009000291377015581 
-0.02587032815980923 
0.02480270248301976 
0.07132101524793734 
0.03122318797908668 
0.0
0.0
0.0
0.0
0.0
0.0
0.0
0.0
0.0
0.0
0.0
0.0
0.0
0.0
0.0
0.0
0.0
0.0
0.0
0.0
0.0
0.0
0.0
0.0
0.0
0.0
0.0
0.0
0.03614333893999396 
-0.01718277197533369 
-0.03154206473074613 
-0.01651963374188601 
0.005026154129211967 
0.005708357401617376 
0.0007053063473733764 
-0.0005576745877063909 
-0.007047585225447665 
-0.01273306688492008 
-0.01357746355467182 
-0.01195118282568239 
0.02816184172103356 
0.0159594496040645 
0.02022121742392728 
0.01991363277872356 
0.009218908431284669 
-0.02992084696612668 
-0.03212552515753978 
0.01833828069128421 
0.0259400219811366 
0.04385751660477461 
0.03526281223040655 
0.01397382710059692 
0.001882466314979837 
0.006439880766448104 
0.06454784929281175 
0.01800338046508898 
-0.003859976663261553 
0.0206936670942877 
0.07319927510547673 
0.03297206508645772 
0.01929424168456943 
0.02763038025307038 
0.04675374330494002 
0.05197461381739685 
0.01141728290989602 
0.04467681842148947 
0.01089745530713045 
0.05287890223798444 
-0.005047803492694025 
-0.02250654190120272 
-0.01876710605443098 
0.006482149511856149 
0.03046633645103711 
-0.01311388258239324 
0.03226343652452485 
0.01129487780671488 
0.01668067137429633 
0.03497993259903388 
0.01866517705416713 
0.03570084682301876 
0.003213803079435401 
0.01294190516255168 
0.01140897460005977 
0.02923783481690434 
0.0181318719168243 
0.02797311932782448 
0.01360826345561138 
0.0
0.0
0.0
0.0
0.0
-0.02364831643085188 
-0.009456449481144547 
0.02106288617274326 
0.05451418899179256 
-0.01352149629499581 
0.02265609291034169 
-0.02690569818710134 
0.02802707146305102 
0.03395172821873564 
-0.002930560993431437 
0.01583460325553159 
0.01814729902182043 
0.01165874106075003 
-0.01661968489520815 
-0.01460862502563578 
-0.02014013077219649 
0.04292183069772137 
0.02501838591494489 
0.01636796701384022 
0.01159937724039182 
0.004688460178092436 
0.05439709051553402 
-0.009754244326711918 
-0.01564247840956572 
-0.01947410710471346 
0.009776668969486419 
0.02321841833890769 
0.04559113981723082 
0.02463492068410934 
0.001084679055856732 
0.02728997096205459 
0.01601926929837196 
0.03305513706188197 
-0.01864887951629593 
0.008362924852207951 
0.008906265644307618 
0.0
0.0
0.0
0.0
0.0
0.0
0.0
0.0
0.0
0.0
0.0
0.0
0.0
0.0
0.0
0.0
0.0
0.0
0.0
0.0
0.0
0.0
0.0
0.0
0.0
0.0
0.0
0.0
-0.005910638416150348 
0.01671238699992371 
-0.004923354676256332 
0.03506895511991036 
-0.01034819256575808 
-0.02740181463787968 
-0.01092417616728858 
-0.001163304336117815 
0.03542287393519532 
0.03113948847826967 
-6.293055856439798e-005 
-0.006693000636219849 
-0.004784432520066977 
-0.0004952586236979448 
0.009512567992456979 
0.01530905819099169 
-0.003910507569440913 
0.001396017467025411 
0.03181050606775261 
0.01269827159675732 
-0.02390848758308285 
-0.01643152233852701 
-0.02448268128211491 
0.04817700999694741 
0.01996668944091534 
0.01129775686851535 
-0.001261558985845786 
-0.009354477960148879 
-0.003942658434309453 
0.004441866580384197 
0.0009408588646797944 
-0.01667286005506661 
0.05359033254849346 
0.07654821830898932 
0.02969315456169193 
0.0007148960901454311 
-0.01584974838178682 
-0.01666233207619144 
-0.02095274630602144 
-0.02222059863349233 
-0.03272354862317588 
0.003169333171286373 
-0.006381163051549685 
-0.008732870793814454 
-0.01356593780815899 
-0.04671888708490223 
-0.0238484475773988 
0.01685732516238036 
0.006826562920726837 
-0.0514993751105375 
0.001252153320397698 
0.01866906499367943 
0.01916365138423642 
-0.005948719149534669 
-0.0124835205731199 
0.00229270026704002 
0.01022331610248792 
0.01680666359162487 
-0.0169312362297012 
0.0
0.0
0.0
0.0
0.0
-0.02954364953961666 
0.05770466092787004 
0.05961077792074861 
-0.03287652042567056 
0.00305636789823815 
-0.0003592291301042569 
0.00863493146186734 
0.009319393329006075 
0.007065196123824358 
-0.01498124521227153 
0.03422233945573473 
0.01393985302916058 
-0.007761112510204437 
-0.034402745273184 
-0.02048877480606974 
0.01137043403384943 
0.003069208655334758 
-0.0716442286014523 
-0.01846912626831994 
0.04381515698419383 
0.06115571932238206 
-0.001178920952190678 
-0.0003117265404629436 
-0.01894742775441977 
-0.01845671214620178 
0.0007373654989550819 
-0.05169793005700262 
-0.02238769061111871 
0.05491340165207245 
0.05474100085597446 
-0.007988163278993234 
0.0203413165695149 
0.03129289574627674 
0.02915317446490068 
0.02230323432530689 
0.006143080313766607 
0.0
0.0
0.0
0.0
0.0
0.0
0.0
0.0
0.0
0.0
0.0
0.0
0.0
0.0
0.0
0.0
0.0
0.0
0.0
0.0
0.0
0.0
0.0
0.0
0.0
0.0
0.0
0.0
0.001738904995633357 
0.02186758001225705 
-0.02791273747087756 
-0.0008807571667148582 
-0.003974982615690589 
0.01727731395491483 
0.01051949424567835 
0.01831643223124317 
0.004090305029715066 
-0.006909108409318398 
0.03612073781491396 
0.005494742575427591 
0.01894478358584563 
0.02042088768676657 
-0.01072527565745514 
0.0160085044049237 
0.0245434169266552 
-0.0364634578498645 
-0.03424771933717299 
0.01973355927093957 
0.05157198701218448 
0.03856000651625161 
0.01913032519365059 
-0.02872929911013859 
0.001063082198992914 
0.0233963479418635 
-0.00433913015650085 
-0.03277826752352819 
0.01328919947333955 
0.01677584951645207 
0.002443688273542773 
0.0221130528750665 
0.01904047267394168 
0.01149831103040853 
0.02899760814787039 
-0.003469869573610823 
-0.01101407170411929 
0.04428019874787838 
0.04780228040683093 
-0.01862268808688005 
0.02535018600468943 
0.01435699275017148 
-0.009860328234121911 
0.02482985079170855 
-0.006903537150974611 
0.005913748491842951 
0.05440351670234416 
0.03791439845443282 
0.03353297868195485 
0.0324069636751229 
-0.01637809023607238 
0.001458007648058926 
0.0375797577001167 
-0.005667616935482953 
-0.01511708963418885 
0.003918633420592466 
0.0117794764380216 
0.008482783829539025 
0.01482821557189401 
0.0
0.0
0.0
0.0
0.0
-0.03946167070619431 
-0.02925451027576178 
-0.02639162591974933 
-0.03960134725878658 
0.0009660292964380002 
-0.0100600526896601 
-0.007746747709971137 
0.02809029912287032 
0.02190073325346893 
0.02938628037240729 
0.007749708243300862 
0.03177920182978712 
0.02562605100159757 
0.0275555260684247 
0.05473881011500407 
0.04728916237187547 
0.0220424947965216 
-0.007641729039162915 
0.01597339436176233 
0.03223622777030893 
0.04932635552821514 
0.05945551779689603 
0.02190159751747686 
0.01919323547828992 
0.02034811820283499 
0.04209317296602996 
0.01387463351562117 
-0.02769698277370301 
-0.02205592822838332 
-0.02799097743827708 
-0.01340845454517296 
-0.003324872534427611 
-0.02081955444074336 
0.02800175473077327 
0.02524782459175548 
0.0158346827266291 
0.0
0.0
0.0
0.0
0.0
0.0
0.0
0.0
0.0
0.0
0.0
0.0
0.0
0.0
0.0
0.0
0.0
0.0
0.0
0.0
0.0
0.0
0.0
0.0
0.0
0.0
0.0
0.0
0.01006309170023321 
-0.01291922304964924 
0.004384601143486645 
0.02449862554997083 
-0.01812237591069417 
-0.02892777763545383 
0.0002186098762149645 
0.01877858253176764 
0.01057579962265983 
0.01556520966435877 
0.03297265418994434 
0.05615542199472337 
0.03862239484129851 
0.02676569062587668 
0.02769863738205511 
0.016320203018905 
-0.03705893065417257 
-0.02077370278875642 
0.02953393651156171 
0.02458093662780105 
0.04347260580910479 
0.04968297408839598 
0.02644811252376145 
0.04449411989853967 
-0.0335574698749548 
0.005508478885907593 
-0.01145835915269458 
-0.007544044238213398 
-0.003610891712338711 
0.006868489279878413 
0.002623493699573638 
-0.001555635126579831 
-0.006602859794859375 
0.008514378657818586 
-0.01503660304079087 
-0.03191540865624459 
-0.02012871047543226 
0.008594027216424422 
-0.01894803810834891 
0.009798011896453317 
-0.01397885527848526 
0.01338381037621391 
0.007212918302550774 
-0.03991426507301904 
-0.02503983513629083 
0.01569360549180121 
0.01271829971942282 
0.03675422060201054 
0.03049307378725392 
-0.02233223085732722 
0.0166990509873869 
0.01193796212778492 
-0.02239755843061461 
-0.0287272484256731 
-0.03168080765861608 
-0.02417759156304618 
0.01439713012331271 
-0.006385011815379078 
-0.03099765988687396 
0.0
0.0
0.0
0.0
0.0
0.03983467348719492 
0.01612990122257722 
0.001506330934529372 
-0.03070244559711068 
-0.02090266882370171 
-0.01276915365423689 
-0.02964316714157336 
0.01245870878030936 
-0.02357294076812636 
0.01079619962318537 
0.0440621302689021 
0.005010658596873062 
0.001142111566986658 
-0.01088479841362616 
-0.03001690676123041 
-0.02970566017223073 
-0.03295012851946964 
-0.03210472264515969 
-0.0082554142044421 
0.01859117313568913 
0.008084016269105099 
-0.001406410631001289 
0.006121855769209657 
0.009748572679309868 
0.04725312770283897 
0.008451837912957746 
0.01093823285913913 
0.03893660240399711 
0.002273675437802254 
-0.01154884801619239 
0.00246781191015784 
0.0130089802467598 
0.01369622863229307 
0.01363956858643092 
0.01026678581006156 
0.0108581431997025 
0.0
0.0
0.0
0.0
0.0
0.0
0.0
0.0
0.0
0.0
0.0
0.0
0.0
0.0
0.0
0.0
0.0
0.0
0.0
0.0
0.0
0.0
0.0
0.0
0.0
0.0
0.0
0.0
0.02863452352721434 
0.008659070482944597 
-0.006589432181744475 
0.004913139580186385 
-0.008545442182898787 
-0.008062035658370973 
-0.006578440469227178 
-0.0153145989808876 
0.005189942811925109 
0.02060857280555008 
-0.01371756796861932 
-0.009533689819405377 
0.0008313803193749561 
0.004712204425561615 
-0.01598207129447732 
-0.005447235128565009 
0.001853789156641199 
-0.02355869059293421 
-0.001516164492933015 
-0.04241735796855662 
-0.01048532295643033 
0.001589332594106552 
0.02823817899767373 
0.0226574879997128 
0.02917512749859041 
0.0004135158041511562 
0.00208502687381943 
0.03176202662841308 
0.01810575052848293 
-0.002692897583856295 
0.0117223544670962 
0.02111295854902374 
0.02030448937447606 
0.007861348903852653 
-0.006264132119121352 
0.03165519793044005 
0.05037954418389316 
0.03307900580900014 
0.03773837489389746 
0.01531029620606802 
0.01265142398645719 
-0.01872125749549083 
-0.02016019274973119 
0.00350060089007104 
-0.02207424754303726 
0.01471958081335342 
0.01455058090738317 
-0.003628263417391411 
-0.009982612438073269 
-0.0195046138089513 
-0.01820797508136912 
-0.02685785495932173 
-0.003112910968110829 
0.0267231214719438 
0.03820691078618922 
0.02501215161775956 
0.0264176271114276 
0.02911357697774878 
0.02357057836232313 
0.0
0.0
0.0
0.0
0.0
0.01657087961552747 
0.03242548328046285 
0.0162533025493896 
0.01875189143614619 
0.008897984228773201 
0.02823190334311222 
0.01981063396628894 
0.01661857508377769 
0.0266947440452445 
-0.004179890988032381 
0.00790501347268683 
-0.01475740668969796 
0.0001934165299296002 
-0.008456539192298464 
0.01942560473171026 
-6.728883453619671e-005 
-0.02546928700738638 
0.005961103415091831 
0.001265274062298776 
-0.006530224808710398 
-0.007856121071404158 
-0.006393792092528819 
-0.005723115329866122 
0.02122861225741174 
0.01394533998863668 
-0.02028834752744911 
0.002454426194237139 
-0.01208611962693497 
-0.02101149648300773 
-0.04415979205009707 
-0.05201940475519345 
-0.04892826539800144 
-0.002651058146386991 
0.01116858608597171 
0.007189189114379247 
0.04253835642859054 
0.0
0.0
0.0
0.0
0.0
0.0
0.0
0.0
0.0
0.0
0.0
0.0
0.0
0.0
0.0
0.0
0.0
0.0
0.0
0.0
0.0
0.0
0.0
0.0
0.0
0.0
0.0
0.0
0.0324443734761552 
0.03268732726012246 
0.006290890847704155 
0.03305138659701051 
0.008413546871344236 
0.0231224341901672 
-0.01803561983140225 
-0.01410570319109624 
-0.01047391702929091 
0.0054309309521253 
-0.01152464811883261 
-0.01791334992875521 
-0.002685915576785541 
-0.02062847889828087 
-0.04734363796931625 
0.02575171579261013 
0.005940229429432947 
0.006644399026461064 
0.01420502510612989 
-0.0004100222654847753 
-0.003190293778607392 
0.01499250177639271 
-0.001759813558296362 
0.003591110621388031 
0.01028215877317104 
-0.009742746604520621 
-0.01211116449408112 
-0.009319993497821007 
-0.01187806250299844 
0.01004819756833215 
0.01101884329805875 
0.01216002976010238 
-0.03350430365713995 
0.02613012685127946 
0.009975617737466639 
-0.01916425316913063 
0.02338244480718625 
-0.002655085093297879 
0.0006568409183812877 
-0.001667078685785375 
-0.002829850814728361 
-0.002896859183533019 
0.01402473852467747 
-0.02379933360710614 
-0.007984897747651638 
0.04005399929152077 
-0.001795751818639576 
0.01233704759724375 
-0.01029181817911743 
-0.02069309998819321 
0.0006584913551181317 
0.04769300880490376 
0.005873291233291225 
0.009005226453267335 
0.03284488585405387 
-0.01762247331462458 
0.03144651914741888 
0.007005956416071252 
0.02054478381169926 
0.0
0.0
0.0
0.0
0.0
-0.01438495585916448 
0.04288810877247558 
-0.007549437915486913 
-0.01447919098592557 
0.001025852141064934 
-0.03778333094780009 
0.02331908644917161 
-0.01172453338419225 
-0.01277398470716544 
0.01251401545440579 
0.01055505033843011 
-0.007572795208764498 
-0.01539875874188635 
-0.01314469998648284 
0.05974285682478521 
0.03699253908388232 
0.0003577798461433954 
0.01466103938649734 
0.03969089750489637 
0.01225649062757235 
-0.01605879585756347 
0.01691421458863799 
0.01705132744234057 
0.02974148002414747 
0.02933709568016421 
0.03602209102486729 
0.0008683749880442676 
0.02300032129519535 
0.04209936069636613 
-0.03968603356171517 
-0.008215766004551057 
0.00503766106171914 
0.02459276817836744 
0.01910922833346469 
-0.01527396171900533 
-0.01352339761165276 
0.0
0.0
0.0
0.0
0.0
0.0
0.0
0.0
0.0
0.0
0.0
0.0
0.0
0.0
0.0
0.0
0.0
0.0
0.0
0.0
0.0
0.0
0.0
0.0
0.0
0.0
0.0
0.0
0.05783329958916796 
0.04010702321802526 
-0.02970498128544113 
0.00800257046166475 
0.00575450269850552 
0.006320981210623216 
0.02910833682058338 
0.01957127829859812 
-0.01918536024024337 
0.05032183743156448 
0.0141551001217316 
-0.01354275048710998 
0.01107214227938341 
0.01741528053076374 
0.04107437258952103 
0.004044212770531248 
0.007795357801039212 
-0.009421424140820386 
0.03553849084596963 
0.007089506912740288 
-0.006667261351002161 
0.001628428528546503 
0.03893365837309951 
0.06037105601099575 
0.02425153710873546 
0.005589651593680433 
0.008361303954659304 
0.02770064126869606 
0.04522295626694668 
0.004995900378850366 
0.019538622425003 
0.004038342218279231 
0.02165310923944391 
0.001842117499120839 
0.009062626577470702 
-0.01623636827924008 
0.03696921954922978 
0.05419897802743153 
0.05469656614885144 
0.03599226221340667 
0.0242647147405766 
0.03717231483427644 
0.00653389902719899 
0.02398404178014935 
-0.01549030482740259 
0.02757407812981057 
0.0008200221025094891 
-0.0004807322680250089 
0.002778699057123579 
-0.004260139054313988 
0.004446707509523773 
0.01417352789707579 
-0.006473505331879946 
0.003250388618801036 
-0.006553762612247906 
0.0001688298460576539 
0.03567761169603625 
0.01433396529977905 
-0.008746010861742775 
0.0
0.0
0.0
0.0
0.0
-0.0004943469449154619 
-0.002050899425539251 
0.0175702503892221 
0.01517780762797217 
-0.009661268878275649 
0.04555636301396523 
0.02457483476006896 
0.008728364840323926 
0.001676852667146807 
0.03073425355665042 
0.008344769476584428 
0.02528353951054178 
-0.02162229440326559 
0.02312913583221226 
0.0655245148346757 
0.004957746768812219 
0.01759107785736687 
0.04720206017358401 
0.0410270095248463 
-0.00390886778192214 
0.02442166305142783 
0.007437634738614527 
0.05625078746869771 
-0.01989087564005183 
-0.005868600204926443 
-0.01526049896025491 
-0.0150504547672527 
-0.0150390911074753 
-0.01409698082519699 
0.01026006768145945 
-0.005090400811191266 
-0.002413108906284541 
-0.01737890180556036 
-0.02746079709103189 
0.01496536662034159 
0.01417932566131721 
0.0
0.0
0.0
0.0
0.0
0.0
0.0
0.0
0.0
0.0
0.0
0.0
0.0
0.0
0.0
0.0
0.0
0.0
0.0
0.0
0.0
0.0
0.0
0.0
0.0
0.0
0.0
0.0
0.01143343090672067 
-0.01254248717036192 
0.02370871226408513 
0.03772736771232335 
0.004478886599291514 
0.03354215390842368 
-0.0251358164156006 
-0.0006087400063883498 
0.02319349950610997 
-0.0002472788770705877 
-0.03479976789566205 
0.01092466931098973 
0.02403210095782243 
0.04255123342708384 
-0.01279536788457654 
-0.01513379142728059 
-0.0002727758112062043 
0.01268824358169902 
0.02914657413435206 
-0.02617117966216224 
0.004922004090943749 
0.03602503158744223 
0.002812588156795939 
-0.01465698903530326 
-0.008428415922462953 
0.02250697858120401 
0.01088357638585749 
0.02243065371658758 
-0.01832603265071058 
-0.001451476672357212 
0.006996639059923285 
0.009268602635337313 
-0.02113573513775642 
0.01337501227539623 
-0.001991812315490928 
-0.009947198871790941 
0.03791521102285137 
-0.02332867208729336 
-0.007799072338550427 
0.01029774748139846 
-0.0002837868784597135 
0.0214028034130171 
0.0169321845606318 
0.02345412490500483 
-0.006990066878874549 
0.03909123173710039 
-0.02804034519181418 
-0.02536819864322878 
0.02274513847807969 
-0.005391883279337029 
0.01867425150517225 
0.01030167487772395 
-0.009636978140665883 
-0.02723617564781076 
0.02922372491848229 
-0.03435195382327705 
-0.03558754166328165 
-0.0192141835768976 
0.003992453108060052 
0.0
0.0
0.0
0.0
0.0
-0.002044598270828442 
0.02830245860432635 
0.006616508183270645 
0.02397640591006008 
0.06711501698843067 
0.008186494421953489 
-0.008540311359979406 
0.001426192604850914 
0.01119783976171005 
0.02612089943730898 
0.03223707159849055 
-0.02039534068464128 
-0.01568920688918553 
0.008970891228247135 
0.03606096075875794 
-0.005681150202485467 
0.03079151231787013 
0.03485119032498873 
0.02898679327863914 
-0.01295178565586375 
-0.01836292967293874 
-0.00274285874169514 
0.0470325439391043 
-0.006103939407696362 
-0.04972726677552027 
-0.03964813413019491 
-0.01078162475529612 
0.02222713776434367 
-0.0314433620579641 
-0.01551013973610261 
-0.02649822079731534 
-0.01209028460338454 
0.01499284478018846 
-0.05250071535835488 
-0.04612840227509777 
-0.0164175384102171 
0.0
0.0
0.0
0.0
0.0
0.0
0.0
0.0
0.0
0.0
0.0
0.0
0.0
0.0
0.0
0.0
0.0
0.0
0.0
0.0
0.0
0.0
0.0
0.0
0.0
0.0
0.0
0.0
0.02038958226015358 
0.0475481783310753 
0.006150804269688602 
-0.005998586360575813 
0.0360593237552703 
0.03224828492961927 
0.00528574133781332 
0.02026240843987025 
0.026806799049459 
0.0004053066767317003 
0.02340622605275341 
-0.03745110082800358 
-0.0128299436910939 
0.00186513717206139 
-0.01340672198766532 
0.01473848104956873 
-0.01599809375091603 
0.001657516378470223 
0.02588535468947639 
0.01397444997988778 
-0.0002451688558472689 
-0.02611160836256402 
0.01201442732530851 
0.01748010186707908 
-0.02975974277256085 
-0.00355191707725956 
0.007017963347786506 
0.02094571556057891 
0.03584430497230148 
-0.05151313092265434 
-0.004689290297443711 
-0.0007729863613282216 
-0.03307760299539469 
-0.003800949416921386 
-0.007504774584790598 
-0.02839097676084197 
0.02981599907125001 
0.0285196475713716 
-0.01393475580784005 
0.0025719065620988 
0.02222169700409928 
0.01944870326711367 
0.02990233340505448 
-0.00536499745212037 
0.05147702956309283 
0.0213773260883608 
0.01944656830119883 
0.01595896921013578 
0.001251068448915051 
-0.001183187374622668 
0.0008472147937817383 
0.005534070250910775 
-0.02647771661469061 
0.02709501981534611 
0.01873449377207084 
0.03572706595680105 
-0.0335819240282067 
0.003278999604386868 
0.03422169419208566 
0.0
0.0
0.0
0.0
0.0
-0.008046621771322954 
0.00187027446665418 
0.01647229101321458 
-0.01169390835905827 
0.01287608543023283 
0.038589100298869 
-0.02677991124254452 
-0.01389224590015888 
-0.02957932484146477 
-0.009723294603230978 
-0.0253152018627258 
-0.01228924207625457 
0.006741842759071928 
0.02622835802763829 
0.02246675921663623 
0.02378727081268271 
0.01568028314351665 
-0.00321245517808 
-0.003109889249848076 
0.02148741868513333 
0.01131946124554903 
0.02899113719374447 
0.006508781397152796 
0.01027941913873901 
0.01256092361148604 
0.0008852239395885513 
-0.03513850665468365 
0.0230423072559037 
0.01741771170035161 
0.02812522929828322 
0.0128598976339352 
-0.000238855862198302 
0.02392386075258643 
-0.004735481115294282 
0.0220571853748051 
-0.003621353033840356 
0.0
0.0
0.0
0.0
0.0
0.0
0.0
0.0
0.0
0.0
0.0
0.0
0.0
0.0
0.0
0.0
0.0
0.0
0.0
0.0
0.0
0.0
0.0
0.0
0.0
0.0
0.0
0.0
0.01745213663749682 
0.01574180713566883 
-0.03066613830695104 
-0.01896801637168183 
-0.009604874888908408 
0.02110917378583656 
-0.01299472181984824 
0.004843853541168905 
-0.01361613363120028 
0.02212122286360641 
-0.01032545269650691 
-0.02198506591131935 
-0.03159001192084947 
0.02850284174522504 
0.01463264500343765 
0.01211619466439239 
-0.001004715425024056 
-0.04056042925872427 
0.03430104503563872 
-0.001706360530056498 
0.01674324045394108 
0.03229073590687116 
0.02407101930365782 
0.01806166545112947 
0.02604765216170829 
0.006198605004550209 
-0.002333923158287249 
0.01413175882061892 
-0.01646732090377964 
0.008123844689272705 
0.01673702118267674 
0.02145057302443598 
0.01239492218685373 
-0.03860275500840241 
-0.01178051798533236 
-0.02619782805176873 
0.0249666019844814 
-0.03745673608417266 
-0.004109982019952315 
0.00921467229127193 
0.0215305581423178 
-3.288186777747713e-005 
-0.02186952231001496 
-0.004075514815403943 
-0.0006144536115987894 
-0.0129395526845213 
-0.06551899198301868 
-0.01546780859449222 
0.04468400316319173 
-0.001395159622809194 
0.01450180890087816 
0.0128457182877226 
0.00505186128879951 
-0.020784000709622 
0.01737073369728622 
0.005645834544299803 
0.01288202921371428 
0.0008291858351771878 
-0.01630170728106014 
0.0
0.0
0.0
0.0
0.0
-0.009009802270831212 
-0.01197914722191284 
-0.005553569218667122 
0.001496225430456741 
0.0389626612779598 
0.006118696168052679 
0.02132904316676276 
-0.01919801440449706 
0.006153290400092627 
-0.01508464953681322 
-0.02447252749158325 
-0.005423820735659934 
-0.009924166712979519 
0.02603135526845374 
-0.01703175198879744 
-0.008767644537535872 
0.04088954023627241 
-0.0116350849279605 
-0.01316122721572057 
-0.02813335644070337 
-0.001776925253004902 
-0.00609352365473814 
0.02969691726933132 
-0.004651660974701241 
-0.02600659652221892 
-0.01314618470861202 
0.0389788826895926 
0.002784264614779951 
0.015491358166776 
0.001605026895825317 
0.003827690459571526 
0.0265496438753914 
-0.0269893205075115 
-0.008849313316003055 
0.01186163788495135 
-0.01340378015435111 
0.0
0.0
0.0
0.0
0.0
0.0
0.0
0.0
0.0
0.0
0.0
0.0
0.0
0.0
0.0
0.0
0.0
0.0
0.0
0.0
0.0
0.0
0.0
0.0
0.0
0.0
0.0
0.0
-0.01511396158379345 
0.0003712145147161714 
0.008019755330512992 
0.005640495198730733 
0.008713279536671607 
-0.02422521023660246 
-0.0216351602086962 
0.019332394302747 
-0.002638830172683356 
-0.005137222353847163 
-0.01114164402091374 
-0.009359464145360685 
-0.003784483812940729 
0.0233226414840259 
-0.01855659133561645 
-0.0284045646037859 
0.01301781488808591 
-0.01467913877069059 
-0.02351885634219113 
-0.00940064979323714 
-0.03091329600849299 
-0.0105855827321119 
0.001707328765546079 
-0.04033668523986392 
-0.04429367675914663 
-0.002298983796415671 
0.02328804062914362 
0.006253719282796478 
0.04038528850322949 
0.007107872444465325 
0.02906735209782319 
0.04167729535246471 
0.01387730372293898 
0.003231134033791445 
0.03742515958223624 
-0.0003933513983071774 
-0.02128466153848063 
0.01716322931990751 
-0.005302696617343063 
-0.003499790471608102 
-0.002759058284255618 
0.004138760396643931 
-0.01523214354223828 
-0.01643923441307443 
0.01206492637763209 
-0.01003682854971938 
0.008158949517908262 
-0.02559603883584496 
0.03122480620023129 
0.02898167809761559 
0.01273067327990357 
0.001429858364919716 
0.01804837988158027 
-0.01916916825281803 
-0.02449719844559069 
-0.03284279478981672 
-0.02517396223826503 
-0.004771421025653021 
-0.02382174360008273 
0.0
0.0
0.0
0.0
0.0
-0.0008318647074725243 
-0.00912964344819686 
-0.01681495095197315 
0.02320136270408129 
0.006452837559444659 
-0.01116612531302208 
-0.0007464363709620898 
-0.0001079353075546598 
-0.02110184103133102 
0.008891311292563573 
0.02686586454902826 
-0.0188062667418585 
0.02751897064014956 
-0.004265427968259107 
-0.01059116426912529 
-0.009245566290502506 
0.03529763522690103 
0.009614693242440717 
-0.007504495303361826 
0.00379573133030747 
-0.01249326687416039 
0.01156045626767605 
0.00440095657413258 
-0.02852862071114972 
-0.01010602839794015 
0.002932696725203556 
-0.002661155203729595 
0.04386681714169095 
0.0339000407108413 
-0.0006716321954428232 
0.007137561474079353 
-0.04440046151669972 
-0.02944002337989961 
-0.02252285839275964 
0.03493421530346249 
-0.004442831680687469 
0.0
0.0
0.0
0.0
0.0
0.0
0.0
0.0
0.0
0.0
0.0
0.0
0.0
0.0
0.0
0.0
0.0
0.0
0.0
0.0
0.0
0.0
0.0
0.0
0.0
0.0
0.0
0.0
0.008068120015297891 
0.009031005208973609 
0.005359443639839846 
0.03181691376109425 
-9.032930012902537e-005 
0.00733248245048887 
0.009472432390906204 
-0.00737615387975438 
0.009001706458768521 
0.003926562018018877 
0.006221685383096223 
-0.01478769117099145 
0.01826484503400218 
-0.005072401246431583 
-0.005577481444812182 
0.008117884341853877 
-0.02788821917365773 
0.01445929840532655 
-0.004870711690647624 
-0.002403912078022919 
-0.01580535794436731 
0.05487690638238097 
-0.02144337969581744 
-0.01883554667541672 
-0.008194198777153104 
0.007720811311344861 
-0.008922437426504627 
-0.01185974039944522 
0.009835413646341802 
0.02401255574619917 
0.0644624300050867 
-0.01374819166717447 
-0.044408600008609 
-0.0006053899077037273 
0.00548214240695287 
0.00613324929689853 
-0.001762682903007336 
-0.001143831504305987 
0.03103243091772303 
-0.00617104729798737 
0.008830388116551806 
-0.03616877419909543 
-0.02105133751937171 
-0.002258617468817907 
-0.01322290882117988 
-0.006626963106470936 
-0.0008752942805619763 
-0.02362363822760191 
0.01740594652327476 
-0.002245237240041258 
0.01962690013542205 
-0.008689470148465 
-0.01302065588689423 
-0.02473523135516364 
0.02798596180056237 
0.02100604408562658 
-0.02348305975182939 
0.04805762473295041 
0.01318576458021058 
0.0
0.0
0.0
0.0
0.0
-0.005798174591494897 
0.02159951095833738 
0.002665061159419609 
-0.002184006189127066 
-0.01554158283582121 
-0.02167294711934835 
-0.01421341406898209 
0.01209369381445111 
-0.01657237414702564 
0.007601914695639801 
-0.004739041799834542 
0.04357453943576437 
-0.03091971176380261 
0.010307580803592 
0.03151939372485076 
-0.004488138973775468 
0.005321411361005709 
-0.02020457055399879 
-0.02755120388775661 
-0.000416448116635766 
0.01022513571031486 
-0.004804498441419144 
0.04392105527422142 
0.02577591843473148 
0.01701972415073382 
0.02141258990392666 
0.009974292591289883 
0.005334449762842398 
0.01625365193458351 
0.02189349395166228 
-0.001555832764559747 
0.01269865331172853 
0.01215789519966157 
-0.006661868623774538 
-0.002829857895718324 
0.008219598894829983 
0.0
0.0
0.0
0.0
0.0
0.0
0.0
0.0
0.0
0.0
0.0
0.0
0.0
0.0
0.0
0.0
0.0
0.0
0.0
0.0
0.0
0.0
0.0
0.0
0.0
0.0
0.0
0.0
0.005542654668774139 
-0.01351345231372627 
0.02298596228212783 
-0.01196983844659673 
0.001460745625348075 
-0.02420824698660363 
-0.007221932356663349 
0.003577463471471287 
-0.0118665189486881 
-0.01099024854369247 
-0.01203862775237417 
0.007356253022931155 
0.04121338071437914 
-7.43462867483138e-005 
0.04370409971034578 
-0.0274120148231678 
-0.007227907037139008 
-0.01475884455084878 
0.01432318140380294 
0.0354054019077397 
-0.02783079548166178 
0.03184594459028808 
0.004712904438759115 
0.01389024138740767 
0.01826798822356533 
0.01032920270118874 
0.009339043357509156 
-0.003807226161552415 
-0.006800088577953663 
-0.01185883017307116 
0.01008908555861587 
-0.003466313318117041 
-0.001967678381038784 
-0.003303780454428588 
0.04262526467016501 
0.006336628542795288 
0.02810762726234735 
0.01827940202658006 
0.0002878119376831655 
0.01971449641194277 
-0.0110182184868359 
0.005156638466343754 
0.006386748311947026 
0.03057570622170354 
0.008693038392767787 
0.01750163385006476 
0.007759973631312892 
0.01434210496457547 
-0.01657626874537145 
0.004159563074579208 
0.01932528573286434 
0.042333342709757 
0.01441514548103617 
0.02054519175918052 
0.0008031517887186622 
0.01778498103236036 
0.004974680710063628 
-0.003862385561711978 
0.002883355795754037 
0.0
0.0
0.0
0.0
0.0
-4.216569941425291e-005 
-0.01359458625066695 
0.03471235197942955 
-0.007974397965409706 
0.001960001804958447 
-0.0213029161521263 
-0.02157328099975826 
0.01639778440116544 
-0.0005127929964715071 
-0.01374374664283713 
-0.02218636679925579 
-0.007020312485356181 
0.03880968780981675 
0.01673124796212409 
0.008086715268954069 
-0.0441375069165327 
0.001805394787588036 
0.02781126063873964 
0.002265733152085195 
0.03491838952280436 
-0.02505877128074292 
0.02343262319821982 
0.0099243397260287 
0.02309896938387895 
-0.005284202336214147 
0.00358408383850191 
0.01183081681490243 
0.009249027806384039 
0.000693295290271063 
-0.0205621078756545 
0.002877130243855474 
-0.002373358676129696 
-0.01570259161209586 
-0.01556905094439892 
0.03522151397743977 
0.01801208958459691 
0.0
0.0
0.0
0.0
0.0
0.0
0.0
0.0
0.0
0.0
0.0
0.0
0.0
0.0
0.0
0.0
0.0
0.0
0.0
0.0
0.0
0.0
0.0
0.0
0.0
0.0
0.0
0.0
0.03277452919311909 
0.01516656950914475 
0.02373160893629838 
0.01811053777889316 
0.006472284865598728 
-0.008102178048277474 
-0.004732963612309586 
0.01408850780632166 
0.00654341696217558 
0.02892657444430699 
-0.001061407343923972 
-0.002548849383410532 
-0.0154805575578106 
0.0003874264487142476 
0.008521475517048235 
0.02616663226400491 
-0.002853415512638982 
0.01206695451734215 
0.007608886911516067 
0.01829113385079693 
0.01500098143167735 
0.002852983225803434 
-0.00275524686204721 
0.002876835591567621 
-0.01365750558773943 
0.01485232754719983 
0.005570211463605421 
0.003125985773870985 
-0.01089495159785847 
-0.03186405763860045 
-0.01328508230207202 
-0.008527695486808673 
-0.01525798207761543 
0.00163975914880158 
0.01260229851259979 
0.07231616180402739 
0.03916331059014642 
-0.02641032030544571 
-0.03462839850473255 
-0.01860585947643032 
0.01204953956002343 
0.02431959507548418 
0.01681500330076763 
-0.006896641577417267 
0.02487133423852822 
0.01246367320567181 
-0.004913638408263824 
-0.003892029288860149 
0.03103585721563325 
0.005877610981774677 
0.03047473367171957 
0.04017580877252421 
-0.02179804621280168 
0.003135646388285938 
-0.009409409724667452 
-0.001330294910869173 
-0.01862930867064793 
0.03120189032489871 
-0.001401366221641771 
0.0
0.0
0.0
0.0
0.0
0.01888498593841061 
0.005851350251974316 
0.01872214316600906 
-0.00859420807685668 
0.000518949092321101 
0.0206205392353518 
-0.002155977092360414 
-0.008308158681280708 
0.01048485413769228 
0.05591659203199586 
-0.01581840848837349 
-0.003559078218913746 
0.01340144939500286 
0.01044528330112332 
0.01099725858443043 
0.003739621512795781 
-0.005137530175369665 
-0.009990056969520602 
-0.0137877752245296 
0.02732993462605286 
0.01309273314610757 
0.007755977504124786 
0.003844125101995067 
0.00419431894387642 
-0.01589016981781074 
-0.01649713395226303 
0.01035603554505071 
-0.0483269561462767 
-0.005114373934821765 
-0.03212466771941464 
-0.02284423661683306 
-0.006554275635160913 
-0.002263235081585198 
0.01742431986055933 
0.01913442682016275 
0.07247527794580344 
0.0
0.0
0.0
0.0
0.0
0.0
0.0
0.0
0.0
0.0
0.0
0.0
0.0
0.0
0.0
0.0
0.0
0.0
0.0
0.0
0.0
0.0
0.0
0.0
0.0
0.0
0.0
0.0
0.05290133215975722 
-0.0106474856420593 
-0.02287687533233949 
-0.03453917685050514 
-0.004229591716398135 
0.002156489562935597 
0.01403091950959438 
-0.002206357019893649 
0.02553911473779465 
-0.005559861483454431 
-0.02343929191232015 
0.009457813419158828 
0.01654650303376678 
0.01228211786032424 
0.03658509088031593 
0.04474360572062631 
-0.009644902706313484 
-0.001239302039159327 
-0.01031078676318616 
0.00837877686780226 
-0.01781867161782415 
0.01756565671737964 
0.005715743453599397 
1.678170809178195e-005 
-0.01126686335880835 
0.01230254163011957 
0.005112546575626583 
0.01389796116353889 
0.0546427652085424 
-0.008516071100207339 
0.0009286624014313144 
-0.005338785593571451 
0.0668471120457266 
-0.004428554198907599 
-0.009633269982505913 
-0.004455708057735364 
-0.001187020290583449 
0.01557261049930204 
0.0165009414663707 
0.01037385135457856 
-0.01048857830580838 
-0.0290606928171982 
0.03077487520338601 
-0.004791787525500946 
0.005130879468919112 
0.009920102175985508 
-0.0013195291735116 
-0.02078845381357834 
-0.007811096302145397 
0.02373504994904474 
-0.01002625279202326 
0.02021176641743052 
-0.01654278912192001 
-0.01321503588363198 
-0.008599603814216168 
0.03041231805065423 
0.01550997617877339 
-0.02417930089219364 
0.05384516695133464 
0.0
0.0
0.0
0.0
0.0
0.01671916463526565 
0.01896349171838708 
-0.002548335667005386 
0.003603414876747646 
0.04195142009504741 
0.01102778047962879 
0.01725387909386448 
0.01457778197077054 
0.02470264640021013 
0.005171091382179021 
-0.02434688526936328 
0.01541276872818115 
-0.01764421934754094 
