solver_type L2R_L2LOSS_SVC
nr_class 2
label -2 -1
nr_feature 13440
bias 100
w
0.04522088971249058 
-0.04110731212219038 
-0.02431535532606026 
0.01818261984492192 
0.07024562744392163 
-0.01934447219025854 
-0.01857982566308809 
-0.03037714153155897 
0.02688324816237807 
0.04292485532708818 
-0.01828936064404962 
-0.001738883318676717 
0.02107999122891481 
0.02541127853593971 
0.01037187122965052 
0.0007636586592995344 
-0.03028886620136486 
0.04672645362509467 
0.03002937859146085 
-0.003315192463119373 
0.0004833094643576566 
0.03954358059253693 
0.04956530871157853 
-0.01209952422411745 
-0.005159365759431093 
0.001446257236691821 
0.004806751561319859 
0.02221924845529591 
0.00426105617683966 
0.04201195009283179 
0.03586035007705363 
-0.01180389329182223 
0.001495039944212971 
0.02482196737165699 
0.009942406322299402 
0.02726220786353864 
0.0
0.0
0.0
0.0
0.0
0.0
0.0
0.0
0.0
0.0
0.0
0.0
0.0
0.0
0.0
0.0
0.0
0.0
0.0
0.0
0.0
0.0
0.0
0.0
0.0
0.0
0.0
0.0
0.04934948970104063 
0.007811738291630102 
-0.01768443339493608 
0.008338053772811197 
0.05906383598538281 
0.007023007204585572 
0.009667262025922911 
-0.002306031297839311 
0.01571034288563779 
0.07044011165036636 
0.002088798998857356 
0.02015002420859072 
0.02849275792156975 
0.02270895829947489 
0.02402215007062743 
0.05175186550339641 
0.02266831365681163 
0.04077050134172904 
0.04820108825758694 
-0.01683420974530422 
-0.01638450909041651 
0.003451087290853814 
0.02773696616730597 
-5.405593239896295e-005 
-0.001425098051310537 
-0.02945007276632679 
0.00433961252826293 
0.04317284649060961 
0.002054442296721748 
0.00514612960561078 
0.01324743327799872 
0.002167801489216725 
0.001935215138668726 
0.03335180537634675 
0.0030322204525956 
0.02899474081365037 
0.0
0.0
0.0
0.0
0.0
0.0
0.0
0.0
0.0
0.0
0.0
0.0
0.0
0.0
0.0
0.0
0.0
0.0
0.0
0.0
0.0
0.0
0.0
0.0
0.0
0.0
0.0
0.0
0.01178945616633401 
-0.004981896016933273 
0.02408720082298537 
0.03719622917733491 
0.02937515577585794 
0.008734390480286257 
0.02297805149615217 
-0.02717703314489352 
0.01168798738385826 
-0.0006611376539020472 
-0.01164467635832057 
0.03236685325001727 
0.04213659185212815 
0.00689314046921177 
-0.008740072119998747 
0.002871428426802812 
-0.02504347266850069 
0.03910070316940304 
0.01332706681250763 
-0.01015381384327538 
0.02994828188944687 
0.01203079056842511 
-0.0127253571369163 
-0.01053046635802206 
0.02713028603676471 
-0.0135163228740263 
0.04624724171274482 
0.01951708722824069 
-0.07013117835842221 
0.006602561894549872 
0.06731491366907785 
0.02576192697211734 
0.01334622709601564 
0.003423201972197314 
-0.04014073854007777 
0.05355823292369621 
0.0
0.0
0.0
0.0
0.0
0.0
0.0
0.0
0.0
0.0
0.0
0.0
0.0
0.0
0.0
0.0
0.0
0.0
0.0
0.0
0.0
0.0
0.0
0.0
0.0
0.0
0.0
0.0
0.05312244495270763 
-0.002317501035901717 
0.005575694021271835 
-0.00423116049893168 
0.00686525398157019 
0.003701975821476752 
-0.009240333113339685 
-0.02042075561483768 
0.06326077975415856 
0.0701312335343801 
-0.03198560925356143 
-0.003437164893227126 
0.0238588315838577 
0.0708544709326402 
0.02345948889751982 
-0.00790421804458321 
-0.01470013801808535 
0.08281281141388652 
0.09789915622301652 
-0.01657680958041979 
-0.03656000809254832 
0.000916966006527683 
0.003194020230891068 
-0.003928299371272437 
0.003078867272524335 
-0.01393468482216414 
0.04102550253591802 
0.09400186751478178 
-0.01723854349194745 
-0.01121424239022108 
0.01304012088790478 
0.05545264515036747 
0.02107412996966152 
-0.01126747780121063 
-0.02680980370268733 
0.07239722721936305 
0.0
0.0
0.0
0.0
0.0
0.0
0.0
0.0
0.0
0.0
0.0
0.0
0.0
0.0
0.0
0.0
0.0
0.0
0.0
0.0
0.0
0.0
0.0
0.0
0.0
0.0
0.0
0.0
0.04875257899969444 
-0.006157008074578507 
-0.004297605947571457 
-0.002747593373361419 
0.008293301740906863 
0.01955008222520194 
0.02631315089794989 
-0.02223821389575749 
0.01808471975793871 
0.04301934938985711 
-0.03059485531716415 
-0.02423619517587392 
-0.01663829634290902 
0.03765817941467985 
0.0578031802814233 
0.02943631634442676 
-0.01708630416308263 
0.03645117292951429 
-0.003579256064325316 
-0.008445803770299928 
0.01141553660787168 
0.003998345718668642 
0.03201809694386086 
0.03065708492846409 
0.02561292838020008 
-0.009853818816906472 
0.01809289512686987 
0.01764994566295663 
0.001946466263973374 
0.003157164367109414 
-0.01424057338584976 
0.01467684767814597 
0.02275598232207322 
0.05711208459492306 
0.01835859503348698 
0.02408925839446386 
0.0
0.0
0.0
0.0
0.0
0.0
0.0
0.0
0.0
0.0
0.0
0.0
0.0
0.0
0.0
0.0
0.0
0.0
0.0
0.0
0.0
0.0
0.0
0.0
0.0
0.0
0.0
0.0
0.004925123263207338 
0.005585358766930833 
0.0007663970756365948 
-0.0006394444260603616 
-0.00718707656519426 
-0.01290224148843787 
-0.01357115587253843 
-0.0119547992665755 
0.02814943238687715 
0.01605203935548039 
0.02014457634227121 
0.01992922676612481 
0.009045410919130992 
-0.03023978117504513 
-0.03226483534445871 
0.01883327798235733 
0.02601778985735409 
0.04396008339509663 
0.03525425843067529 
0.01393018818971493 
0.001888154478867142 
0.006341785575732202 
0.06446466841452128 
0.01782085052941034 
-0.004069343010676051 
0.02068857232805687 
0.07319727015779257 
0.03305955374960408 
0.0192979302427214 
0.02767205460980597 
0.0466791826138005 
0.05165979234149344 
0.01130723674409138 
0.0448799595294706 
0.01095962426017845 
0.05292373112599336 
0.0
0.0
0.0
0.0
0.0
0.0
0.0
0.0
0.0
0.0
0.0
0.0
0.0
0.0
0.0
0.0
0.0
0.0
0.0
0.0
0.0
0.0
0.0
0.0
0.0
0.0
0.0
0.0
0.01066979753378233 
-0.007542693878600062 
-0.01545918777307583 
-0.01324943563248673 
0.0597518795476962 
0.03701968070123866 
0.0003831103720362319 
0.014776624502656 
0.03980395480120799 
0.0123186382925135 
-0.01602847624193915 
0.01700077843152282 
0.01706448926881801 
0.02948118407511227 
0.02936938883169261 
0.03608840728195659 
0.0009939151664567238 
0.0229844927213166 
0.04203029875831919 
-0.03973336445458487 
-0.008233239738943916 
0.00500384428285851 
0.02486813926108665 
0.01937279355355262 
-0.01522512470241921 
-0.01346704297292068 
0.05791267078001357 
0.04018497522506226 
-0.02968110349394238 
0.007987804468618151 
0.005589184521159889 
0.006020008731995166 
0.02931615997348261 
0.01959100732232797 
-0.01923371629545305 
0.05051310666047124 
0.0
0.0
0.0
0.0
0.0
0.0
0.0
0.0
0.0
0.0
0.0
0.0
0.0
0.0
0.0
0.0
0.0
0.0
0.0
0.0
0.0
0.0
0.0
0.0
0.0
0.0
0.0
0.0
-0.004619679311447625 
-0.007626624807777752 
0.01460713537046654 
0.02241514927140288 
0.05751430154473682 
0.01878163729542725 
0.009599398930891494 
-0.01445135823796116 
0.01390686803794212 
0.03659280449750967 
0.01249861183371188 
0.02494275596185602 
0.021581854125412 
0.04240238754838662 
0.02064334480640381 
0.03070584092080865 
0.0232390997422262 
0.03298000408589011 
0.004756819414339554 
-0.00320245565150618 
0.01637846347469612 
0.03078451613696942 
0.04860435926122918 
0.02134163250692762 
0.02647316849486181 
0.01118079769966495 
0.002448769400808014 
0.02691024545706314 
0.005346100665580133 
-0.01000067730572941 
0.01712360351706472 
0.05077720711864495 
0.01151560506604279 
0.00917318624199483 
0.001526388235785846 
0.007309376066295603 
0.0
0.0
0.0
0.0
0.0
0.0
0.0
0.0
0.0
0.0
0.0
0.0
0.0
0.0
0.0
0.0
0.0
0.0
0.0
0.0
0.0
0.0
0.0
0.0
0.0
0.0
0.0
0.0
0.03447730549466332 
-0.02599133550382865 
0.003765940962106431 
-0.002507061239390279 
0.02715694764791077 
0.01726041557431546 
0.02393305067730405 
-0.004776323240271146 
0.02200036155343738 
0.04592472585488134 
-0.001198110053294564 
-0.009659654180696671 
-0.01457378938554054 
0.001519476268216423 
-0.02223903408528332 
0.004913466655448379 
-0.01156671506183015 
0.03069883372766438 
0.02043495436428748 
-0.02402371968108866 
0.002938751923460571 
-0.002269643340516442 
0.03190638799955422 
0.008094520583005634 
-0.007387940670136053 
-0.03780572515055426 
0.0008488239619213577 
0.06752545343737078 
0.0360511233141371 
0.006625968311030148 
0.002965663045492631 
0.04240255479264203 
-0.005822539942185769 
0.01242191907349721 
-0.03415577858984496 
0.02062514737803402 
0.0
0.0
0.0
0.0
0.0
0.0
0.0
0.0
0.0
0.0
0.0
0.0
0.0
0.0
0.0
0.0
0.0
0.0
0.0
0.0
0.0
0.0
0.0
0.0
0.0
0.0
0.0
0.0
-0.01643667060980577 
-0.02417603736986245 
0.004444259386812244 
0.01650753835704285 
0.001986030310028873 
-0.03224914491022529 
-0.03289268620917153 
-0.06025499095217993 
-0.008635534223567182 
0.02379370147204014 
0.02823992304227428 
0.01902498806624195 
0.03781848755498351 
0.01864557089696846 
-0.002038797273868221 
0.001838218873367109 
-0.02967988602611169 
0.004018226242679354 
-0.01056268492269369 
-0.001066974006190649 
0.06639098826959812 
0.09676918243388573 
0.04423057161064994 
-0.02043389576290451 
-0.0224201718966793 
-0.07582826958427937 
-0.02158425105131443 
0.1279419907451359 
0.1312561591324536 
0.1316828304064949 
0.1226369742281026 
0.01607612295743631 
0.01019573602003287 
0.03702659892486325 
-0.01575637396689868 
0.02739859503094812 
0.0
0.0
0.0
0.0
0.0
0.0
0.0
0.0
0.0
0.0
0.0
0.0
0.0
0.0
0.0
0.0
0.0
0.0
0.0
0.0
0.0
0.0
0.0
0.0
0.0
0.0
0.0
0.0
-0.01735105980337899 
-0.0160179463299438 
0.03820859660774803 
0.04868807572289779 
0.04119703565822005 
0.0311845444298988 
0.02107483584027932 
-0.03819558558451679 
-0.01134463396309637 
0.007707680529619234 
0.09022059920992 
0.1017165023371612 
0.09290680421955476 
-0.0003640277368860058 
0.04557627092378923 
0.09375142028059282 
0.04069489363035201 
-0.01912718612229858 
-0.01127376993360943 
-0.0321759773289943 
0.01910533469547592 
0.01604831409288866 
0.04966046309661959 
0.06169869136749717 
0.04938092656991212 
-0.02023539429600071 
-0.01958151787771099 
-0.02665593038762677 
0.03867156821236389 
0.08870781692674556 
0.06190582172909895 
0.02615604588325463 
0.1139860668386238 
0.1294185776942089 
0.1113661785433001 
0.0403556374923538 
0.0
0.0
0.0
0.0
0.0
0.0
0.0
0.0
0.0
0.0
0.0
0.0
0.0
0.0
0.0
0.0
0.0
0.0
0.0
0.0
0.0
0.0
0.0
0.0
0.0
0.0
0.0
0.0
-0.02267460930245411 
-0.05525897853065535 
-0.03210792195707805 
-0.03469054005822764 
0.0547132070208665 
0.07957481100915764 
0.07255718528880634 
0.01978093352725894 
-0.005161725017065852 
0.01583734568671868 
-0.006098631165839047 
0.03601905000162465 
0.0181578353012842 
0.03430463426452108 
0.112887638417413 
0.1368756950514921 
0.1427439236968259 
0.104252164319429 
-0.01554391257912196 
-0.04927795865969806 
-0.04526695070534246 
-0.04643934516052131 
0.01245837997158461 
0.01172971155105445 
0.02792591352995831 
-0.007461518090459622 
-0.01307180614434726 
0.002151328668162081 
0.004064676201407393 
0.01626302808674169 
-0.0003990460819231965 
0.02499057498583707 
0.04813777091749353 
0.06124790254750554 
0.0334642207157921 
-0.0005796601293563247 
0.0
0.0
0.0
0.0
0.0
0.0
0.0
0.0
0.0
0.0
0.0
0.0
0.0
0.0
0.0
0.0
0.0
0.0
0.0
0.0
0.0
0.0
0.0
0.0
0.0
0.0
0.0
0.0
-0.004856051592696449 
-0.0225150822491786 
-0.01876879008477858 
0.006409274156442211 
0.03036323446898721 
-0.01328185442880834 
0.03238185906858031 
0.01131048832058361 
0.01676435601718198 
0.03498168600597046 
0.01873277392056262 
0.03578504848266912 
0.00322133515075962 
0.01293276552455695 
0.01121533018619364 
0.02919088725530752 
0.0181686219841453 
0.02781187498079062 
0.01373874771542781 
-0.0236186174599938 
-0.009464163096306837 
0.02101081399764674 
0.05445453699038384 
-0.01363148614480931 
0.02281786080568403 
-0.02687774620443977 
0.02809218546526939 
0.03398159533412432 
-0.002952718598427236 
0.01590136092705659 
0.01816389933428777 
0.01165975725678932 
-0.01667440888753321 
-0.01468115978036402 
-0.02009275518282262 
0.04283718452558451 
0.0
0.0
0.0
0.0
0.0
0.0
0.0
0.0
0.0
0.0
0.0
0.0
0.0
0.0
0.0
0.0
0.0
0.0
0.0
0.0
0.0
0.0
0.0
0.0
0.0
0.0
0.0
0.0
0.01422171048792354 
-0.01350123100174307 
0.01113102408860971 
0.01741219968228877 
0.0410805584673507 
0.004151856856413403 
0.007823278123370978 
-0.0094056724512181 
0.03555730860021061 
0.007105830023583636 
-0.006670912646743047 
0.00165918872482698 
0.03885398987726189 
0.06036841685495654 
0.02470770103251905 
0.005817692279920132 
0.008287526987094488 
0.02759317740732322 
0.04520495435657251 
0.004943880007655589 
0.01954018012483547 
0.003959711029781893 
0.02155846061395021 
0.001805359935516311 
0.008841328153661628 
-0.01635783642879536 
0.03691626616882972 
0.05415265668351164 
0.05478041306058844 
0.03612843732455481 
0.024245227930612 
0.03720630711226263 
0.006839677185574175 
0.02383509383979391 
-0.0156937686498713 
0.02745998717878758 
0.0
0.0
0.0
0.0
0.0
0.0
0.0
0.0
0.0
0.0
0.0
0.0
0.0
0.0
0.0
0.0
0.0
0.0
0.0
0.0
0.0
0.0
0.0
0.0
0.0
0.0
0.0
0.0
0.06377359446074141 
0.004730368204035106 
-0.006321199101184202 
0.001909332958745563 
0.02073173631312573 
0.01032389184267495 
0.01811062046908532 
0.01277544786467518 
0.04790193150306744 
0.04888676599158015 
0.008507160995797996 
0.009046403398960724 
-0.003002104477642974 
0.03885283498224206 
0.04686815753485631 
0.03076845998956477 
0.01714783753881466 
0.05370511905334884 
0.01646203868066741 
0.01639298109123973 
-0.008810321792378433 
-0.0007251257847808789 
0.004790877246673202 
-0.02673597860748274 
-0.002335081664921098 
0.003738243248343145 
0.003630647502237734 
-0.0243192671391885 
0.007377259530388553 
0.01833773561287473 
0.005879038045722297 
-0.01743639099089213 
-0.01519264464600988 
0.01791728401577502 
0.04319086618614677 
-0.005685996485005533 
0.0
0.0
0.0
0.0
0.0
0.0
0.0
0.0
0.0
0.0
0.0
0.0
0.0
0.0
0.0
0.0
0.0
0.0
0.0
0.0
0.0
0.0
0.0
0.0
0.0
0.0
0.0
0.0
0.03879607576691112 
0.02956145467395121 
0.0003624777946301608 
-0.007158171867437526 
0.008656178820004648 
-0.04229513465176846 
-0.001700915261440601 
-0.01659059831353214 
0.01341591782344658 
0.02381297420116044 
0.01548451649962909 
0.01135843123364841 
-0.01110440544778286 
-0.0005769879190446139 
-0.01253403676978374 
0.007779706760523182 
0.02695916245602922 
0.03325714199421434 
0.05078208472503609 
0.01438329635852784 
-0.01406898746663473 
0.01661255165557149 
0.04615486334827445 
-0.01030710512425327 
-0.007769331749712009 
0.006454402080630237 
0.008306671372127037 
0.0182332242895869 
0.001318116510059294 
0.02502827260460116 
0.04844311338916164 
0.03032091084182644 
0.008474170081497834 
0.01901392304570611 
0.0360077338157144 
0.01116716863755832 
0.0
0.0
0.0
0.0
0.0
0.0
0.0
0.0
0.0
0.0
0.0
0.0
0.0
0.0
0.0
0.0
0.0
0.0
0.0
0.0
0.0
0.0
0.0
0.0
0.0
0.0
0.0
0.0
0.01619792777194602 
-0.001420129877751613 
-0.02933958411816915 
-0.01501262570611798 
-0.005854124516887755 
-0.02593042210154577 
-0.01333049086826521 
0.02753392448138967 
0.03123319277430146 
-0.02565823664422804 
-0.008815497513174909 
0.03452580797789696 
0.03990422842546338 
-0.00635287492498062 
-0.03211797435712847 
0.02371041066322867 
0.08720401736063498 
0.02466848431995721 
0.1192813545039793 
0.0582216342595583 
-0.00958844308882832 
0.0006838874480387485 
-0.01146141418277911 
-0.01018762869622998 
0.01375978244339869 
0.05328621204087042 
0.1184884056637877 
0.03121976786961214 
0.04960904287324205 
0.1300242648669769 
0.09216261717898157 
0.01116535543762886 
0.02574335574260962 
0.07528759426882531 
0.1458026472107263 
0.1053896350928166 
0.0
0.0
0.0
0.0
0.0
0.0
0.0
0.0
0.0
0.0
0.0
0.0
0.0
0.0
0.0
0.0
0.0
0.0
0.0
0.0
0.0
0.0
0.0
0.0
0.0
0.0
0.0
0.0
0.07263719969324255 
0.06237560829729479 
0.01226690978701165 
0.01077422320942983 
-0.02044414801755166 
-0.002152540123350357 
0.02779681890520726 
0.03336945986389243 
0.06448399261708325 
0.02937247133228187 
0.02648702600621575 
0.06930016942605405 
0.06161235219734269 
0.001888348247037216 
0.01751084949564295 
0.05490898255645092 
0.07458546678032713 
0.05312043148158312 
0.05666901322521097 
0.04908018240817334 
0.04083409791682814 
0.009247266387547755 
-0.00944786896105749 
0.001391950377270188 
0.01496996014733867 
0.04541815900640107 
0.08374761756228316 
0.0648632454613059 
0.0865207043576768 
0.08141441236696234 
0.02092098415354233 
-0.01004909932910806 
0.03206639246789835 
0.07001078424708232 
0.02933440220990786 
0.0237895067458556 
0.0
0.0
0.0
0.0
0.0
0.0
0.0
0.0
0.0
0.0
0.0
0.0
0.0
0.0
0.0
0.0
0.0
0.0
0.0
0.0
0.0
0.0
0.0
0.0
0.0
0.0
0.0
0.0
0.09021240109207936 
0.03931998653768006 
0.01104380927110957 
-0.00167645798694509 
-0.00494185746267329 
-0.01238735610577205 
-0.01077030403826022 
0.03654743119026785 
0.08975953004827288 
0.109583231304838 
0.1131669917061473 
0.05539503256293384 
0.005262118085521583 
-0.002929553597054534 
0.04860775125353022 
0.1101774347561969 
0.03247297612621923 
0.02410364723733604 
0.03347785232572697 
0.03311663124368745 
-0.01312572857233657 
-0.01513194366193487 
0.01578017785654416 
-0.02154949053626248 
-0.02739382807373499 
-0.01282733801979876 
0.002302544347247726 
0.03121173569103714 
0.1001984694678548 
0.02493565504128131 
-0.02859910999466135 
0.0009153283430909094 
0.02090625872593234 
0.04180310976173888 
-0.009157219256798898 
-0.01038985708955415 
0.0
0.0
0.0
0.0
0.0
0.0
0.0
0.0
0.0
0.0
0.0
0.0
0.0
0.0
0.0
0.0
0.0
0.0
0.0
0.0
0.0
0.0
0.0
0.0
0.0
0.0
0.0
0.0
0.0249385691070819 
0.01639848480895903 
0.01153139274107319 
0.004637280540731759 
0.05442283487149674 
-0.009866509668086001 
-0.01557752968970319 
-0.01924973348892882 
0.009545334604402779 
0.02319451838590072 
0.04570893437294839 
0.02458342135986703 
0.001038284238862607 
0.02731852236721226 
0.01597797062294042 
0.03290897426845706 
-0.01837786085196652 
0.008282077413205418 
0.008884985236972376 
-0.005891008604526616 
0.01672661967551556 
-0.004953534651792851 
0.03497588296961679 
-0.01030275892423468 
-0.02737067770022695 
-0.01074930592373981 
-0.001258392491212522 
0.03547582161651366 
0.03120757577639744 
-2.953009752453154e-005 
-0.006628047187072607 
-0.004807906172195517 
-0.0004661953904893814 
0.009476486265625245 
0.01561338200618281 
-0.003782745661841448 
0.0
0.0
0.0
0.0
0.0
0.0
0.0
0.0
0.0
0.0
0.0
0.0
0.0
0.0
0.0
0.0
0.0
0.0
0.0
0.0
0.0
0.0
0.0
0.0
0.0
0.0
0.0
0.0
0.000802640175245154 
-0.0004733505299509194 
0.002732208845941352 
-0.004334065973600938 
0.004363064258136272 
0.01449695993416061 
-0.006394161939161433 
0.003141039401281799 
-0.006680893682153349 
0.0002516891757507962 
0.03568460819602467 
0.01429747359392975 
-0.008607923546311201 
-0.0004623990741785213 
-0.001751554943251736 
0.01741514646136029 
0.01508868940213936 
-0.009613232341938019 
0.04552061366713128 
0.02459303400329382 
0.008654689220059367 
0.001563540181243856 
0.03070454923660336 
0.008624310337348021 
0.02513558933907959 
-0.02184432110814505 
0.02306504071576826 
0.0655098396440639 
0.005031193840177797 
0.01753374214571847 
0.04732906573151479 
0.04110959861156045 
-0.003593143294163434 
0.02440450371544939 
0.007339757867178963 
0.05627812385582334 
0.0
0.0
0.0
0.0
0.0
0.0
0.0
0.0
0.0
0.0
0.0
0.0
0.0
0.0
0.0
0.0
0.0
0.0
0.0
0.0
0.0
0.0
0.0
0.0
0.0
0.0
0.0
0.0
0.01283873506743764 
0.01801389042327883 
0.0212542435460901 
-0.014867809926129 
0.0123923029374958 
0.02758244405875329 
0.01359612563316233 
0.0008485280336444056 
0.007669870455260196 
0.004240780475474967 
0.02008263497145095 
-0.00254797997742965 
-0.02619376244920689 
-7.38989420754934e-005 
0.003797023695779179 
0.01825109375997972 
-0.0001214116340786192 
-0.0388972372567432 
-0.0289566740409779 
-0.00883403103232887 
0.01669723123142831 
0.0001226024304887272 
-0.04346529882967744 
-0.009111396706598092 
0.01323644992442407 
0.007276394007459766 
-0.01359130360439354 
0.01185371859104118 
0.02698209030721378 
0.01154533401926339 
-0.01903410909581197 
-0.04415588797590522 
0.00210021258307697 
0.008795630893685744 
-0.01609912436680984 
0.00985229978743446 
0.0
0.0
0.0
0.0
0.0
0.0
0.0
0.0
0.0
0.0
0.0
0.0
0.0
0.0
0.0
0.0
0.0
0.0
0.0
0.0
0.0
0.0
0.0
0.0
0.0
0.0
0.0
0.0
-0.01219888931048651 
-0.01246405711798146 
0.002398984498279166 
-0.02505989618255619 
-0.02890252580089068 
-0.001839487083526299 
0.01411944373115091 
-0.02360259231281748 
-0.009209706749350398 
0.01634442517078365 
0.02404204972324821 
-0.008985361655985041 
-0.04148769291816035 
-0.02979875307673126 
0.006729405554365895 
-0.004917516277799338 
-0.03670414720213357 
0.0004005245584131079 
-0.006973056798309982 
0.009723176609774687 
0.04132838768681679 
0.01101620969130361 
-0.01702186691288491 
-0.02278274384153201 
0.01569104159772148 
0.002583427627908707 
-0.02711053670693781 
0.01315965949169433 
0.07436530573108212 
0.06556572829085032 
0.002767914607058586 
-0.01442742245438746 
-0.007629167024495244 
0.009927825895542501 
-0.005614212703043566 
-0.02294360122501933 
0.0
0.0
0.0
0.0
0.0
0.0
0.0
0.0
0.0
0.0
0.0
0.0
0.0
0.0
0.0
0.0
0.0
0.0
0.0
0.0
0.0
0.0
0.0
0.0
0.0
0.0
0.0
0.0
-0.005474684893934819 
0.1031408673811072 
0.1372938258072841 
0.08238218367421937 
-0.01105251730576309 
-0.0392930301786012 
0.005118991709953387 
0.04515874597093388 
0.0001886531125315923 
0.01496744953977442 
0.1061363122227313 
0.07123227764557455 
-0.001196084320386544 
-0.05457492134335325 
-0.05494730875387065 
-0.03008592082900927 
-0.006504407345242684 
-0.03947212789386428 
-0.04016809453270778 
0.09638547248967405 
0.1636739396321781 
0.0855673190169445 
-0.02197255620970983 
0.02029928490789508 
0.07893565498556297 
0.07476036505341095 
0.001042259073464044 
-0.04868336746406202 
0.05494336654649622 
0.03028709991597941 
-0.034571632462785 
-0.07804596383794402 
-0.01855901807692091 
-0.007109185407422747 
-0.02366187852594426 
-0.07815521582530721 
0.0
0.0
0.0
0.0
0.0
0.0
0.0
0.0
0.0
0.0
0.0
0.0
0.0
0.0
0.0
0.0
0.0
0.0
0.0
0.0
0.0
0.0
0.0
0.0
0.0
0.0
0.0
0.0
-0.03932699018050032 
0.02886085462939646 
0.1229194871977747 
0.08545122220005939 
0.02633171344520368 
0.04225397542347438 
0.09301122091005601 
0.0473258458195807 
-0.0299791361639412 
-0.07989371425842352 
-0.01493020380426295 
-0.01367735630016839 
-0.01057019025721944 
-0.005453754181074454 
0.0424149603144124 
0.05911157588274021 
-0.01503624815602816 
-0.09087801869906564 
0.01278520110727865 
0.05216651746918794 
0.09837580085806891 
0.04520460162911067 
0.02499262651571944 
0.08489666092356894 
0.1190414703899744 
0.04461917521443845 
-0.05472137204559119 
-0.06108309950513313 
-0.01260091314752763 
0.04878192324981116 
0.03589925873059953 
0.004301691848791885 
0.01681205600504928 
-0.0117162247114072 
-0.02467469062190151 
-0.09209283228118179 
0.0
0.0
0.0
0.0
0.0
0.0
0.0
0.0
0.0
0.0
0.0
0.0
0.0
0.0
0.0
0.0
0.0
0.0
0.0
0.0
0.0
0.0
0.0
0.0
0.0
0.0
0.0
0.0
0.008477785043568605 
0.04419126302651057 
0.04874931673053654 
-0.01152972552765022 
-0.02288215270880631 
0.06993960762454954 
0.1158092481868185 
0.06700624066065805 
-0.05288754474581751 
-0.04030118704898264 
-0.005837094604049178 
0.003657503569271838 
-0.02853138173912059 
-0.04987907901684128 
-0.006314662628330849 
0.0181185104187778 
0.0541758874962043 
-0.01176416041518119 
-0.03236879064447499 
0.0577416523449036 
0.01354756372166175 
-0.04887362299794289 
-0.007412176321032803 
0.07118085296517127 
0.1540418797582565 
0.0847712395374144 
-0.02529156646380306 
-0.04237839777904986 
-0.002109578319337749 
-0.03191869233250947 
-0.06637668409563795 
-0.05471139484741728 
0.002905472968448472 
0.07746746756617014 
0.1061391131462251 
0.02590071301964313 
0.0
0.0
0.0
0.0
0.0
0.0
0.0
0.0
0.0
0.0
0.0
0.0
0.0
0.0
0.0
0.0
0.0
0.0
0.0
0.0
0.0
0.0
0.0
0.0
0.0
0.0
0.0
0.0
0.001189924347141806 
0.03176559149590529 
0.01269105961115833 
-0.02391337597979394 
-0.01647063783471136 
-0.02461081874624537 
0.0482306760589992 
0.02020271857007201 
0.01107343776775075 
-0.001309244118503924 
-0.009341983120081844 
-0.003964684938070004 
0.00448705266507318 
0.0009319110417914283 
-0.01673720337112316 
0.05386007886837516 
0.07676823155360149 
0.02959157233942707 
0.0007450624653043474 
-0.01583269542657565 
-0.01665742321110456 
-0.02092166797401739 
-0.02228307537335797 
-0.03279620302525391 
0.00327225972352842 
-0.006209149104228636 
-0.008755359412738837 
-0.01356510649404817 
-0.04682802917190834 
-0.02387872252562826 
0.01685525196723244 
0.006838904999900833 
-0.05169696359213045 
0.00127562710583567 
0.01864667248141681 
0.01915340757236142 
0.0
0.0
0.0
0.0
0.0
0.0
0.0
0.0
0.0
0.0
0.0
0.0
0.0
0.0
0.0
0.0
0.0
0.0
0.0
0.0
0.0
0.0
0.0
0.0
0.0
0.0
0.0
0.0
-0.01988971723183479 
-0.005940272577759771 
-0.01532175630598345 
-0.0148460020405176 
-0.01504325863279776 
-0.01401673799160049 
0.01029730671712652 
-0.005127425147829423 
-0.002408775918846693 
-0.0173819001112601 
-0.02751398242496142 
0.01502759401214263 
0.01426931227043805 
0.01143966725902355 
-0.01263569612423382 
0.02381748892193932 
0.03773760984397348 
0.004422825083962609 
0.03338290859122449 
-0.02516043270822622 
-0.0005681999593516818 
0.02329242305523389 
-0.0002792770518959582 
-0.03467596534747467 
0.01098459447497716 
0.02393649634870156 
0.04252419122543883 
-0.01286940326657771 
-0.01480746296866979 
-7.2995573269212e-005 
0.01267691063940457 
0.02901886066675866 
-0.02624301900078895 
0.005047528390115711 
0.03618092977729825 
0.002772183991687487 
0.0
0.0
0.0
0.0
0.0
0.0
0.0
0.0
0.0
0.0
0.0
0.0
0.0
0.0
0.0
0.0
0.0
0.0
0.0
0.0
0.0
0.0
0.0
0.0
0.0
0.0
0.0
0.0
-0.00384169614583508 
0.03077782111168098 
-0.003590629037015715 
-0.02362501445737858 
0.02363504877932669 
-0.02344378098395664 
0.001796732098714747 
-0.001068893864692931 
-0.005944188751802054 
-0.01172488119202676 
-0.004616098732750199 
-0.02267018221854348 
-0.02007732094748553 
0.02756058665264913 
-0.02298414353877407 
-0.01066748696740432 
0.02311706940797082 
0.01354809957117597 
0.01246288210951222 
0.01972539837085943 
0.003924896487104951 
-0.01048773978496342 
0.005643895310231985 
-0.004828235073372309 
0.004342629091381732 
0.005839084801283295 
-0.0005706210841624605 
-0.004169461218818053 
0.0245516160062116 
-0.02328166521232512 
-0.05244539415243128 
0.0227390517629024 
0.002572339908022578 
-0.001402016686538262 
0.0239329459974688 
-0.01115663852449585 
0.0
0.0
0.0
0.0
0.0
0.0
0.0
0.0
0.0
0.0
0.0
0.0
0.0
0.0
0.0
0.0
0.0
0.0
0.0
0.0
0.0
0.0
0.0
0.0
0.0
0.0
0.0
0.0
0.04809083592353559 
0.06341552123618481 
-0.008046777340882124 
-0.04986320495197754 
0.001314503601147366 
-0.006902044065380227 
-0.0246845928842635 
-0.01303779686674573 
0.01433967560800155 
0.04273641348699149 
0.07318840565899432 
-0.01706054309651372 
-0.05373279817164893 
-0.003324663410687686 
-0.02162984512426957 
-0.02489514962018098 
-0.0115731146133327 
0.001490737351058968 
0.03214384127944565 
0.06876227225211863 
-0.02079465323070359 
-0.01081255174990435 
0.01822891293500191 
0.009056431200194741 
0.02688514439366669 
0.005946118387619262 
-0.01654044373722482 
0.0004669913555605692 
0.03713395434774244 
-0.0260291774835323 
0.009836699620034863 
0.02727270087757891 
-0.002145547745201205 
-0.004876351585079798 
-0.003706776528818912 
-0.03631870784922407 
0.0
0.0
0.0
0.0
0.0
0.0
0.0
0.0
0.0
0.0
0.0
0.0
0.0
0.0
0.0
0.0
0.0
0.0
0.0
0.0
0.0
0.0
0.0
0.0
0.0
0.0
0.0
0.0
0.07178273958405974 
0.0733921671994372 
-0.02817863583044191 
-0.01181197656193918 
-0.00341565151129599 
0.003138426498544763 
0.03655056943884165 
0.03717485575546538 
0.007834558723138653 
0.03311214238723503 
0.04656349538605954 
-0.03225784007391551 
0.01281620102365589 
0.01689831053860992 
0.01561602989925638 
0.02031392486451348 
0.053823385010475 
0.03043756269159666 
0.0005788981519388504 
0.00556334499043781 
-0.04716246242363346 
-0.0609271596293299 
-0.03205601481706549 
0.005264826303284135 
0.01744272153157351 
0.02665661279415562 
-0.01708672686762614 
-0.003334272208791486 
0.006286677135211963 
-0.02966518492451572 
-0.008807866040737284 
-0.0425414697257097 
-0.0156568774687592 
-0.01942216789995582 
0.018497696716745 
0.02139687374667987 
0.0
0.0
0.0
0.0
0.0
0.0
0.0
0.0
0.0
0.0
0.0
0.0
0.0
0.0
0.0
0.0
0.0
0.0
0.0
0.0
0.0
0.0
0.0
0.0
0.0
0.0
0.0
0.0
-0.04111317288356284 
0.01206341704139527 
-0.04696051576886492 
-0.05161812152496712 
-0.02736336431721219 
0.01598264740662973 
0.01734526045276635 
0.008263275567781515 
-0.05933640215088546 
-0.01105465250571574 
0.01076409290162679 
-0.02357032707671052 
-0.02254352540023508 
-0.05274047902651767 
-0.03165946619659715 
0.002897353985326462 
0.01650653133299298 
-0.002921790669715368 
-0.02488403576125833 
0.02118417966412374 
0.003360289125151864 
0.02057574290252281 
-0.02721295195397848 
-0.03730444401288793 
-0.02699696521789914 
0.0006745770137490911 
-0.02515237266949189 
0.02257465284327411 
0.03240078616433981 
0.004613059924277949 
0.0041892870271822 
-0.05775342775966774 
-0.0400178826271168 
-0.01329800334942678 
-0.01180377395155636 
-0.02901474247739407 
0.0
0.0
0.0
0.0
0.0
0.0
0.0
0.0
0.0
0.0
0.0
0.0
0.0
0.0
0.0
0.0
0.0
0.0
0.0
0.0
0.0
0.0
0.0
0.0
0.0
0.0
0.0
0.0
0.009492862769764502 
0.02244801774371288 
0.02130232944459325 
-0.002399829227338759 
-0.04436864162028788 
-0.04548373399752394 
-0.05508880009981207 
0.006349916377009109 
0.02162975312519277 
0.03188931322989748 
0.0257418396774885 
-0.005785693582923325 
0.002553035385795243 
-0.05476101392098965 
-0.02936339074223027 
-0.03216672579916086 
-0.0107608801056936 
0.001949437999938623 
0.003755766689090179 
0.02895975290550329 
0.02540576742604825 
-0.01741170186552056 
-0.02961668151338708 
-0.01671372520446493 
-0.02327706184068315 
0.06837556888528425 
0.07733056296454989 
0.003916526001343909 
0.04607777092027041 
0.03905320759428646 
0.01753037806918364 
-0.0006791534939296713 
0.01259486275337609 
-0.03128254266741466 
0.03401111328866092 
0.03092051628110112 
0.0
0.0
0.0
0.0
0.0
0.0
0.0
0.0
0.0
0.0
0.0
0.0
0.0
0.0
0.0
0.0
0.0
0.0
0.0
0.0
0.0
0.0
0.0
0.0
0.0
0.0
0.0
0.0
-0.005697946544705781 
-0.01234956184595051 
0.002216304892517467 
0.01023939510476287 
0.01675682976427718 
-0.01702539245553511 
-0.02947218341528884 
0.058021885912351 
0.05960414282560479 
-0.03295598718841146 
0.003073213612139039 
-0.0004993084481912616 
0.008629401045187887 
0.009477854654228483 
0.007167169456395465 
-0.01496197787799179 
0.0343758294462516 
0.01375978930352647 
-0.007650456739154447 
-0.03451168627339413 
-0.02056387326314286 
0.01135049788881577 
0.002987098387295415 
-0.07176889569529993 
-0.018494979617316 
0.04385105974325376 
0.06123290800593594 
-0.0011145020334975 
-0.0003336561041907139 
-0.01909494119726557 
-0.01844795000063546 
0.0008447761828028318 
-0.05161551258811665 
-0.02245512554868481 
0.05493760446059962 
0.05481330941298809 
0.0
0.0
0.0
0.0
0.0
0.0
0.0
0.0
0.0
0.0
0.0
0.0
0.0
0.0
0.0
0.0
0.0
0.0
0.0
0.0
0.0
0.0
0.0
0.0
0.0
0.0
0.0
0.0
-0.01471354810033866 
-0.008449536945134581 
0.02272363709209208 
0.01088231833673902 
0.02225088781070903 
-0.01847073498889919 
-0.001469397606728221 
0.006986005951036939 
0.009186992315018735 
-0.02110226371862862 
0.01356002085393686 
-0.001914866152998295 
-0.009977041445340239 
0.03785134120043713 
-0.02336521559518787 
-0.007972361996080708 
0.01008013711864158 
-0.0003635854566189614 
0.02123440572068688 
0.01711360358066495 
0.0237042433007859 
-0.007055395392849062 
0.03883182897795594 
-0.02813303645506601 
-0.02520441587028817 
0.02295325198410765 
-0.005312022255383459 
0.0187620326265209 
0.01023202091612923 
-0.009734153544157071 
-0.02732381430144382 
0.02907887112452645 
-0.03437272744956006 
-0.03562569311099588 
-0.01908226145655996 
0.004112040876261142 
0.0
0.0
0.0
0.0
0.0
0.0
0.0
0.0
0.0
0.0
0.0
0.0
0.0
0.0
0.0
0.0
0.0
0.0
0.0
0.0
0.0
0.0
0.0
0.0
0.0
0.0
0.0
0.0
-0.02950220558577998 
-0.02966882653289622 
-0.05530446796717627 
0.002036751835667105 
0.0465637563926838 
-0.01410705587862789 
-0.003244324005591455 
0.002745705131757404 
0.03567578811873111 
-0.01279960995992702 
-0.03807486556732286 
-0.07172698816790722 
0.00104889002289471 
-0.02636706018063532 
-0.03238110326376209 
-0.006945180486391874 
-0.002288524010478208 
0.02359382822354737 
0.01143539159898687 
0.01101047837923464 
-0.02206336363379917 
-0.003667211573472645 
0.05898796172457138 
0.0285039636319709 
0.004104706101819555 
0.01947374564130597 
-0.007716782905956405 
0.04038724390739025 
0.02512169806953452 
-0.005748421642764353 
0.04412822006345131 
0.02252324723992622 
-0.009824876088147583 
-0.01188748844892405 
0.02626166835925273 
0.02334709019197611 
0.0
0.0
0.0
0.0
0.0
0.0
0.0
0.0
0.0
0.0
0.0
0.0
0.0
0.0
0.0
0.0
0.0
0.0
0.0
0.0
0.0
0.0
0.0
0.0
0.0
0.0
0.0
0.0
0.02259771884513881 
0.02402933389188807 
-0.02160620453643536 
-0.04276531056809592 
0.01871605206793417 
0.01330469419609851 
-0.00798695408068143 
-0.002215211733544605 
0.001837672753823291 
0.02139256166068724 
0.003853715076108459 
-0.01265758098244302 
0.006619851649281686 
0.02918226720114899 
-0.01583219927595198 
-0.02202865052222345 
0.01320988752134767 
0.009884175884940472 
0.001818209348201709 
0.03034973442259942 
-0.0001024354681357037 
-0.0048324140961011 
0.02322099555182356 
0.02302002157889365 
0.03289941361149012 
0.01618605252403953 
-0.00602856949440057 
0.04469999825175315 
0.05462212389547667 
0.01183535024563485 
0.01667982694171206 
0.01919313505377941 
0.002496729460219953 
0.01766768339759921 
-0.0128768304354797 
-0.0001350397372482086 
0.0
0.0
0.0
0.0
0.0
0.0
0.0
0.0
0.0
0.0
0.0
0.0
0.0
0.0
0.0
0.0
0.0
0.0
0.0
0.0
0.0
0.0
0.0
0.0
0.0
0.0
0.0
0.0
0.04540591733983427 
0.06270137439991677 
-0.009808233728632621 
-0.02090891631298326 
-0.01150930264804668 
0.002663380095662758 
0.005013474577053305 
0.02691351056185314 
0.02344892014067775 
0.1030558947847631 
0.0958949927141044 
0.01659616970718137 
-0.0006902152661259903 
-0.02997523133310091 
0.01706879596216361 
0.04079682652738717 
0.05346967528326389 
0.05118592236032681 
0.01073733444400197 
0.02644041769144419 
-0.03324240214843665 
-0.01750214417657805 
-0.04429948599125416 
-0.03814440524596268 
-0.05728351416284528 
-0.002410816623591543 
-0.004069415970784578 
0.0286796051127688 
0.02128710643009812 
-0.04824264536866429 
-0.03379663001911229 
-0.04931414459683362 
0.001447649739608364 
-0.01374999900225108 
0.01458714385965849 
-0.009983349242574522 
0.0
0.0
0.0
0.0
0.0
0.0
0.0
0.0
0.0
0.0
0.0
0.0
0.0
0.0
0.0
0.0
0.0
0.0
0.0
0.0
0.0
0.0
0.0
0.0
0.0
0.0
0.0
0.0
-0.01133113990275161 
0.003585148493333374 
0.005751923703352061 
0.01534909324687944 
-0.002643603253058203 
-0.008406144311707959 
-0.0179560174466195 
-0.004587548314379886 
-0.0001630852192232858 
-0.01660787678194186 
0.01326834281109372 
-0.001917275487330198 
0.0003647622138638329 
-0.02804682428944029 
0.02867645634645815 
-0.01242324678901386 
0.01555859668250671 
-0.0229776713551714 
0.004769248586854733 
0.00110775913034797 
-0.01444081677653383 
-0.002428060282133202 
-0.01913566835679365 
0.002880491212999325 
0.001709861858399249 
-0.01524826998626348 
-0.02567169246163202 
-0.03135557086555681 
0.001398265706628098 
-0.004208577092713009 
0.009104201253767071 
-0.02792812985379197 
0.004986092359959744 
-0.03041722291930317 
-0.005095424448425318 
-0.03117601192010745 
0.0
0.0
0.0
0.0
0.0
0.0
0.0
0.0
0.0
0.0
0.0
0.0
0.0
0.0
0.0
0.0
0.0
0.0
0.0
0.0
0.0
0.0
0.0
0.0
0.0
0.0
0.0
0.0
-0.004195101742456995 
0.005979202098916905 
-0.02705743240810555 
-0.02599625359418508 
-0.05079905864152227 
-0.02310212006436261 
-0.02877612044296319 
0.01024501122420723 
0.03094223623882497 
-0.01752596125921864 
-0.008836617678726476 
-0.01646337978260173 
-0.0236233229345827 
-0.058066882993997 
-0.04378472292617327 
-0.04469135739355943 
0.0104096744574521 
0.02293499175246542 
0.0159014013791483 
0.03376875979206849 
0.02882945247692499 
0.009814528843367787 
-0.01519035021734133 
-0.01361565342686744 
-3.609623203246588e-005 
0.04621290211792178 
0.01964900224661637 
0.04103669213912209 
0.05491472232934316 
0.04364196094831775 
0.007170479163634915 
-0.03839680939944633 
-0.01589785484067438 
0.01835321900193806 
0.09475414669002394 
0.06454403214991518 
0.0
0.0
0.0
0.0
0.0
0.0
0.0
0.0
0.0
0.0
0.0
0.0
0.0
0.0
0.0
0.0
0.0
0.0
0.0
0.0
0.0
0.0
0.0
0.0
0.0
0.0
0.0
0.0
-0.008176762143424393 
0.02018490326170411 
0.03109220049018531 
0.02914843933234957 
0.02234765697232164 
0.006307110083336905 
0.002023891728867488 
0.02207371342399671 
-0.02803596656573171 
-0.0007591041838929896 
-0.003981314006065191 
0.01710347529964084 
0.01050842386886525 
0.01842113685786629 
0.004210149111965225 
-0.006759122969898979 
0.03607446569341614 
0.005463417165506601 
0.01894684136934935 
0.02052432666011413 
-0.01068319214700168 
0.0162127311921688 
0.02456954939628577 
-0.03645910939457431 
-0.03434552479692595 
0.01976225607741483 
0.05162850494227396 
0.03843795842627917 
0.01920546322062929 
-0.02869081847754739 
0.001167553739287997 
0.02347785445301979 
-0.004390024570384597 
-0.0327906806672835 
0.01332438157130066 
0.01685143596831044 
0.0
0.0
0.0
0.0
0.0
0.0
0.0
0.0
0.0
0.0
0.0
0.0
0.0
0.0
0.0
0.0
0.0
0.0
0.0
0.0
0.0
0.0
0.0
0.0
0.0
0.0
0.0
0.0
-0.001973780049807561 
0.02852617186675411 
0.00669340617808087 
0.02399472434055701 
0.0670679178188931 
0.008042668484179566 
-0.008730041747873079 
0.001231083222439327 
0.01113088312316712 
0.02603799527685638 
0.03229338119890913 
-0.02039345193944272 
-0.01570534279520278 
0.008862369410721153 
0.03588409711813288 
-0.005589989070139192 
0.0307929593509854 
0.03492178027074502 
0.02910086149229073 
-0.01302093514651458 
-0.01848988753148824 
-0.002810998413670799 
0.04708779827514466 
-0.006128091472375714 
-0.04970711072843435 
-0.0395155335394972 
-0.01077238416695724 
0.02218294746653216 
-0.03143373489533093 
-0.01546335247898355 
-0.02645409403164206 
-0.01205546106935733 
0.01495468413318988 
-0.05233596818634984 
-0.04608218850312398 
-0.0164441640561573 
0.0
0.0
0.0
0.0
0.0
0.0
0.0
0.0
0.0
0.0
0.0
0.0
0.0
0.0
0.0
0.0
0.0
0.0
0.0
0.0
0.0
0.0
0.0
0.0
0.0
0.0
0.0
0.0
0.004957326097531815 
-0.01366621223182322 
-0.02361627290028491 
-0.0008149945371305148 
0.005034460523055248 
-0.01540042431963371 
-0.01983826887030369 
0.009133676581605891 
0.005080906389172856 
-0.01353337073360555 
-0.01559013359760472 
0.003487642972787175 
-0.01093522281310395 
-0.002454783399056801 
0.005600570178316658 
-0.04024367481170518 
0.02002839896283575 
0.007521406820827956 
0.02387971750639642 
0.01422293847971234 
0.02612702508150119 
0.04824463949816053 
0.03458596068163471 
-0.01625941808665489 
-0.01252740992887948 
0.03833386955743334 
0.01511210177257351 
-0.01070271292954302 
-0.002284281028891482 
0.02268773487223805 
0.01406380835568998 
0.008083458810559857 
0.003571517179870001 
-0.02591276931969876 
-0.0020350849221054 
0.00860324136562691 
0.0
0.0
0.0
0.0
0.0
0.0
0.0
0.0
0.0
0.0
0.0
0.0
0.0
0.0
0.0
0.0
0.0
0.0
0.0
0.0
0.0
0.0
0.0
0.0
0.0
0.0
0.0
0.0
0.04515546752649447 
-0.004310362673464096 
0.002430623884695192 
0.01158692966984634 
0.03009284950650398 
-0.02312295789566557 
-0.01858093481678577 
0.0257439122272358 
0.053916833023802 
0.006648154760620129 
-0.003868931639024649 
0.01202296589365325 
-0.01768640103626835 
-0.01106102148489488 
-0.03562153440533512 
-0.02399931716248172 
0.0101673309418509 
0.04110107224263086 
0.04912034653104191 
0.07020570796475525 
0.01539731471597635 
0.01862860874831809 
0.04863682242579197 
0.01348036712973784 
0.009031712911410335 
0.009766590256490538 
0.01029298389402914 
0.04356602353635566 
0.04595795933259132 
-0.004415248579529332 
-0.02506471301049293 
0.02221194392458451 
-0.01810404237982351 
0.01066968813511757 
0.0104670165887928 
-0.01397959740369079 
0.0
0.0
0.0
0.0
0.0
0.0
0.0
0.0
0.0
0.0
0.0
0.0
0.0
0.0
0.0
0.0
0.0
0.0
0.0
0.0
0.0
0.0
0.0
0.0
0.0
0.0
0.0
0.0
0.05631047050249367 
0.07429077670042855 
0.0009534621805686353 
0.001215118916941299 
-0.02182555366947865 
0.009120354290844825 
0.01049101141653129 
0.03532575635938013 
-0.001066170876129191 
0.04214140493108681 
0.04701539273622808 
-0.03756617441345637 
-0.03850478711879626 
-0.02272818842945544 
-0.01303309022566649 
0.01658229789476692 
0.04778409499465114 
0.006563651355911391 
0.02062743663450565 
0.001475556381993692 
-0.04400160632215057 
-0.02181575605763998 
-0.04435390636688794 
0.03881580491019786 
0.003179743931474088 
0.0261675174409412 
-0.008615783639852236 
0.00679015512342675 
0.002248135263886809 
-0.03555135175222027 
-0.02480742284953002 
-0.03622703855766061 
0.02418493911147817 
-0.01435956459901731 
0.02680701784953494 
-0.01038325489151573 
0.0
0.0
0.0
0.0
0.0
0.0
0.0
0.0
0.0
0.0
0.0
0.0
0.0
0.0
0.0
0.0
0.0
0.0
0.0
0.0
0.0
0.0
0.0
0.0
0.0
0.0
0.0
0.0
-0.03117624531969925 
0.007815181711156439 
0.006030995621688955 
0.01864995527781263 
-0.02179183254908853 
0.04863397262862333 
-0.008889163086934547 
0.003415650163648179 
-0.05657658706511318 
-0.04940044435267516 
-0.008516586523382995 
0.003729521956689019 
0.02037019965385396 
0.0408303503395059 
0.04360852943508469 
0.001267366669684856 
0.0114878523114146 
-0.04276033230530797 
-0.06351601099119514 
-0.02832298346572637 
-0.003715976221981158 
0.05061147972001543 
-0.01655909553886849 
0.02064332465316508 
-0.02705286830744573 
-0.003894020273229774 
-0.03083037101049617 
-0.06017362379850274 
-0.003736377423290187 
-0.009629270409857338 
0.053775957070613 
0.05191951656298658 
0.01519805727209821 
-0.006563366441956102 
-0.002371197786873776 
-0.04839012394163503 
0.0
0.0
0.0
0.0
0.0
0.0
0.0
0.0
0.0
0.0
0.0
0.0
0.0
0.0
0.0
0.0
0.0
0.0
0.0
0.0
0.0
0.0
0.0
0.0
0.0
0.0
0.0
0.0
-0.02302869414261462 
-0.00403489459071926 
0.0005851209560140437 
0.01790460128254715 
-0.02973455647126492 
-0.02322663204423111 
-0.0191413353605166 
0.01207691061276247 
0.008192540438088911 
-0.04236867719119344 
-0.006300527397338661 
-0.02307024542226656 
0.02624842627173213 
-0.01661668665010492 
-0.03977007825314523 
-0.009589438541930808 
0.03847826666712496 
0.005686068913684758 
-0.01222905803839792 
0.03371407996418343 
0.02172928100324175 
0.003445571671928523 
-0.02620882449479669 
-0.01093510648227585 
0.01003684443971476 
0.1039574278782759 
0.06139850381807824 
-0.01153206093646945 
0.034257734997454 
0.02598141420149751 
0.008683567204821637 
0.0153558294183632 
-0.02790854458280544 
-0.008308293999952986 
0.0861775513678867 
0.06263146034993648 
0.0
0.0
0.0
0.0
0.0
0.0
0.0
0.0
0.0
0.0
0.0
0.0
0.0
0.0
0.0
0.0
0.0
0.0
0.0
0.0
0.0
0.0
0.0
0.0
0.0
0.0
0.0
0.0
0.002594573492363853 
0.02189673237932455 
0.01888371844643259 
0.01140992755064565 
0.02925468355629666 
-0.003387346254594228 
-0.01099790151051663 
0.04402214157477916 
0.04779300067365166 
-0.01847905925426083 
0.02521952795987675 
0.01428822083470572 
-0.009964672695705255 
0.02497148131865566 
-0.006927825847852165 
0.005861118598150797 
0.05425296859791467 
0.0380449045313625 
0.03326019750944298 
0.03228107951251057 
-0.01635153976967135 
0.00143011289312497 
0.0377674964331897 
-0.005749047003065314 
-0.01486023669678004 
0.00390736284783727 
0.01168867809764616 
0.008378061224536425 
0.01471088368919341 
-0.03936225187033328 
-0.02924812520762872 
-0.02619678594782287 
-0.03967902186209001 
0.001043730656000997 
-0.01013044874413912 
-0.007672006844030238 
0.0
0.0
0.0
0.0
0.0
0.0
0.0
0.0
0.0
0.0
0.0
0.0
0.0
0.0
0.0
0.0
0.0
0.0
0.0
0.0
0.0
0.0
0.0
0.0
0.0
0.0
0.0
0.0
0.02012840104734569 
0.04752614840251951 
0.00609034662178 
-0.006116030698342669 
0.03591511085604725 
0.03216191746455394 
0.005547094003011873 
0.02020482573705035 
0.02677804277335813 
0.0004405199104225982 
0.02344695188504108 
-0.03735581271832693 
-0.01273702877814186 
0.001807041029920332 
-0.01342013614515495 
0.01485431275638208 
-0.01596703137751084 
0.001809971447852238 
0.02570762363984055 
0.01401356350175654 
-0.0001890497705680242 
-0.02615289921701864 
0.01191368456676338 
0.01749002928211726 
-0.02958617635630544 
-0.003587498995359793 
0.00711097029553292 
0.02079460468350701 
0.03597001027155578 
-0.0514436162126672 
-0.00462334493160399 
-0.0009107904037456815 
-0.03317032706130647 
-0.003567526619292071 
-0.007402884864924019 
-0.0284616880532433 
0.0
0.0
0.0
0.0
0.0
0.0
0.0
0.0
0.0
0.0
0.0
0.0
0.0
0.0
0.0
0.0
0.0
0.0
0.0
0.0
0.0
0.0
0.0
0.0
0.0
0.0
0.0
0.0
-0.009126786619048753 
0.01565950549009301 
-0.007183509573256394 
0.01544375955973969 
0.0271092743178575 
0.01992544116221682 
-0.01449695867372426 
0.0227999718184749 
0.005821499465767751 
0.009988643333239249 
-0.01503569835315252 
-0.04369358737877348 
-0.02939547936850793 
-0.01924273603902904 
-0.002680699039885312 
0.006949566523517032 
0.04256185121185289 
0.005538038591678117 
0.03494743862017245 
0.0232880476175556 
0.02253531122446282 
0.04623426655283733 
0.01286582524197654 
0.00411962281278136 
-0.0149998497771847 
0.01398431814039185 
0.03041708702590816 
0.008327755158457286 
0.004433952013206066 
-0.02417705107481551 
-0.02010366303685643 
0.001130687797295605 
-0.004583466983514906 
0.01705633491557925 
0.05166224629490478 
-0.01336265733623592 
0.0
0.0
0.0
0.0
0.0
0.0
0.0
0.0
0.0
0.0
0.0
0.0
0.0
0.0
0.0
0.0
0.0
0.0
0.0
0.0
0.0
0.0
0.0
0.0
0.0
0.0
0.0
0.0
0.02079619500843931 
0.005393415025133929 
0.004199299158646282 
0.00556601293626135 
-0.01635928851014453 
-0.01945610861749151 
-0.02257327000894251 
0.009311407327932364 
0.04874601667986182 
-0.02193917458873671 
-0.01189707755071922 
-0.03208787215470857 
0.007076124362600474 
-0.01041059659641275 
-0.007074992563898272 
-0.002267757406211516 
0.03654901276365788 
0.01979422204887717 
0.05304776129172099 
0.0471473836632309 
0.02143226686450864 
0.01173446705043132 
0.02150683239417358 
0.01711319388428361 
0.02408295985096904 
0.02635201599522363 
0.03702549321757115 
0.03373708917587859 
0.01816118847410133 
0.003265648080009604 
0.03129482251338314 
0.03942115076756009 
0.04652017836348193 
0.02153490133966602 
0.03593182509853565 
0.06058475664089216 
0.0
0.0
0.0
0.0
0.0
0.0
0.0
0.0
0.0
0.0
0.0
0.0
0.0
0.0
0.0
0.0
0.0
0.0
0.0
0.0
0.0
0.0
0.0
0.0
0.0
0.0
0.0
0.0
0.05270320177888332 
0.0573321068022119 
-0.01263851208502793 
-0.0239346236536813 
-0.02991241719994576 
0.0150394473537517 
0.007654764495441918 
0.02180948922499791 
0.05430225583632199 
0.0434419280173094 
0.03848327704146783 
-0.02900680963753053 
-0.0286047301014423 
-0.0131735689882908 
0.05009592063914617 
0.0180974100407581 
0.03577117299753058 
0.08847853914001332 
0.002551447469854913 
0.04356451199752819 
-0.02673612926770302 
-0.02109727479201559 
-0.008068247818309789 
0.04349714050991591 
0.003543790974370434 
0.04188451908758412 
0.012975257192529 
-0.034043554529212 
0.01151988707387243 
-0.04263946802342952 
-0.02546356620852398 
0.01869153522508282 
0.06280857234095912 
-0.01023599614116977 
0.01474990390135227 
-0.0126507267821976 
0.0
0.0
0.0
0.0
0.0
0.0
0.0
0.0
0.0
0.0
0.0
0.0
0.0
0.0
0.0
0.0
0.0
0.0
0.0
0.0
0.0
0.0
0.0
0.0
0.0
0.0
0.0
0.0
-0.01533764497350996 
0.02593056498825759 
0.00515064032516334 
0.02757437197197584 
0.04083808005784694 
0.04515959853164603 
0.01546161497431448 
0.009055463907123586 
-0.01869922218705396 
-0.06370652813858718 
0.01114108761249664 
-0.01479509188275713 
0.01360635867096816 
0.05089965639778082 
0.04515295483979429 
-0.02300981953238456 
-0.02709187474293022 
-0.07181442870256792 
-0.02776329497763408 
0.02324693921672471 
0.01408809593491667 
0.05425466752880329 
0.01597917269259474 
0.0200220116953337 
0.00768315818168184 
0.004935084270103625 
-0.01531968034480205 
-0.07715503434874621 
-0.003512821567121461 
-0.03169801633359634 
0.02741065525917509 
0.02399413766200506 
0.02385892484298251 
-0.02340904474622223 
-0.0396835640161552 
-0.07166257799608611 
0.0
0.0
0.0
0.0
0.0
0.0
0.0
0.0
0.0
0.0
0.0
0.0
0.0
0.0
0.0
0.0
0.0
0.0
0.0
0.0
0.0
0.0
0.0
0.0
0.0
0.0
0.0
0.0
-0.009983143379993082 
0.01667637585964086 
-0.02552461267884342 
0.02773557119025734 
-0.01346229517713252 
-0.03106971361572427 
-0.01682264876351567 
0.04956042444584724 
0.01178904290105465 
-0.02139143591468447 
0.004907081881425425 
-0.04155608166219173 
0.03303701556872313 
-0.01508388370930423 
-0.0227696058955805 
-0.05709103185625687 
0.002210762662851399 
-0.004862340345434278 
0.046900107718469 
0.02124270723847789 
-0.000679599755144448 
0.003609509389150363 
-0.01018486009214087 
-0.02427966693917335 
-0.001201025024099156 
0.07844278072149592 
0.07743859892128753 
0.0714841587595496 
0.03460933605947512 
-0.01276060959944712 
0.03571531022464389 
0.0009592685829246134 
-0.002995288231805711 
-0.03266184208141745 
0.0318596482190627 
0.07095821248895973 
0.0
0.0
0.0
0.0
0.0
0.0
0.0
0.0
0.0
0.0
0.0
0.0
0.0
0.0
0.0
0.0
0.0
0.0
0.0
0.0
0.0
0.0
0.0
0.0
0.0
0.0
0.0
0.0
0.0281101725279445 
0.02194087197143924 
0.0293607123007157 
0.007663616284634472 
0.03193187563085071 
0.02557015191216959 
0.02753329846029454 
0.0545848971004603 
0.04729359923464102 
0.0216550051448209 
-0.007588855369048778 
0.01604283317797051 
0.03217955740759964 
0.04945229809880514 
0.05960854292714784 
0.0220062861077699 
0.01918933591741213 
0.02026604385527192 
0.04217127330226699 
0.01399455920737822 
-0.02743764958598502 
-0.02203964001497238 
-0.02799466101749136 
-0.01358591890841035 
-0.003299725346751126 
-0.02089736326270933 
0.02815538780781004 
0.0252089758519247 
0.01593723235109928 
0.01024469070602318 
-0.01291124646081162 
0.004258172140293132 
0.02442546726050275 
-0.0178447960409517 
-0.02874345839883634 
0.0004463139217290563 
0.0
0.0
0.0
0.0
0.0
0.0
0.0
0.0
0.0
0.0
0.0
0.0
0.0
0.0
0.0
0.0
0.0
0.0
0.0
0.0
0.0
0.0
0.0
0.0
0.0
0.0
0.0
0.0
0.02979772257913382 
0.02853314054018933 
-0.01386394071463566 
0.002611122015914791 
0.02199340298058166 
0.01920760617264634 
0.02985901386635564 
-0.005416923893275365 
0.05148922117851228 
0.02144182247215953 
0.01946041434667944 
0.01603580771063935 
0.001209714185850666 
-0.001233917837044236 
0.00088908244283854 
0.00565290404347856 
-0.02644965508573972 
0.02715515998629843 
0.01862137376737497 
0.03565955752468737 
-0.0336302909983394 
0.003427107553373135 
0.03422773147019211 
-0.008213837548225926 
0.001882932564100453 
0.01628378356729201 
-0.01193782083210663 
0.01288546925642624 
0.03861199406536027 
-0.0267218194080109 
-0.01392267740373541 
-0.02935506440618723 
-0.009391238364134493 
-0.02512651082774476 
-0.01244217467988854 
0.006661509553163899 
0.0
0.0
0.0
0.0
0.0
0.0
0.0
0.0
0.0
0.0
0.0
0.0
0.0
0.0
0.0
0.0
0.0
0.0
0.0
0.0
0.0
0.0
0.0
0.0
0.0
0.0
0.0
0.0
-0.003750215014807949 
-0.03097526760937808 
-0.00338773180114793 
-0.005105797985950808 
-0.001889464899410092 
0.01435253792635238 
0.01811708417863321 
0.02767400647452943 
-0.004087912759210702 
-0.0115175890319625 
-0.03306854780165787 
-0.02897410812290183 
-0.007493783695147954 
0.001073240536763889 
0.003012400325099038 
-0.008701568402916759 
-0.002068978143228509 
-0.01756303645815992 
-0.003778384475215501 
0.008597610553556285 
-0.007607075745706734 
-0.03470111806225094 
0.0168322226173417 
0.009225195711657039 
0.01124990451465267 
0.03938624612240631 
0.01135890313612123 
-0.004318995605294515 
0.004565864379642568 
-0.005028013698124193 
0.01731911384650386 
-0.007265782135894147 
-0.003339647817649471 
-0.017743167447048 
0.001859572412388644 
0.006002266091716434 
0.0
0.0
0.0
0.0
0.0
0.0
0.0
0.0
0.0
0.0
0.0
0.0
0.0
0.0
0.0
0.0
0.0
0.0
0.0
0.0
0.0
0.0
0.0
0.0
0.0
0.0
0.0
0.0
-0.0198799577640492 
-0.007415593682797605 
-0.02600375031448986 
-0.01765158655456522 
0.01478866578318422 
-0.01063613474167781 
-0.02487505685888575 
0.005108006334311533 
-0.005952213116198111 
-0.004708033069748074 
-0.003289738503358651 
-0.0479704435412502 
-0.01938628802819786 
-0.0008862311276436549 
-0.01893099250061458 
-0.03251735451846444 
-0.02616501437146453 
-0.01877166397923632 
0.008956485593812374 
0.02167111905061279 
-0.01094801963324267 
0.01749958744601774 
0.07619670575024978 
0.04412470118686206 
0.03327685655705834 
0.04122530248578683 
0.03623889781200222 
-0.006720779054742948 
0.02092590044135986 
-0.01445986440990597 
0.03807683094269926 
0.05828421708553778 
0.01538939024616961 
0.03178427049040856 
0.001546925974452401 
-0.02373221797129448 
0.0
0.0
0.0
0.0
0.0
0.0
0.0
0.0
0.0
0.0
0.0
0.0
0.0
0.0
0.0
0.0
0.0
0.0
0.0
0.0
0.0
0.0
0.0
0.0
0.0
0.0
0.0
0.0
0.0389947001443522 
0.041080335322544 
-0.0421198216355908 
-0.04610993647022513 
-0.007012174546905248 
0.03561647983985719 
0.02291985078227276 
0.02961882295166156 
0.07756800043772967 
0.01714044287187062 
0.01596467413735703 
-0.0544478882529161 
-0.02566811146881135 
0.01865005562599077 
0.00760408500857578 
0.004855795059076643 
0.01163916712919524 
0.04498422177778511 
-0.003933360814921139 
0.04511390010955579 
-0.03401879051673697 
-0.04396233320227814 
-0.03954293871188845 
0.02717191207833632 
-0.0203984997586763 
0.0156226442340935 
0.04981349291684366 
0.005687123657614225 
0.02963813391200872 
-0.04443996019917636 
-0.02617331817802255 
0.004633191457520511 
0.007022070280623812 
-0.05638120386849163 
-0.02614318453865991 
0.04205762483231387 
0.0
0.0
0.0
0.0
0.0
0.0
0.0
0.0
0.0
0.0
0.0
0.0
0.0
0.0
0.0
0.0
0.0
0.0
0.0
0.0
0.0
0.0
0.0
0.0
0.0
0.0
0.0
0.0
-0.005960233842893996 
0.03572006888769437 
0.01022443652475696 
-0.002885333795481108 
-0.03526837524286908 
0.007779075926376475 
-0.03017692467411213 
-0.009050528666612668 
-0.01161644967148412 
-0.006029089493608269 
0.04038073135822313 
-0.004815943581658651 
0.01197088415123334 
0.02305291942261015 
0.01202908409409073 
-0.0332473990950072 
-0.00207658621852556 
0.02443629140261333 
-0.008462322574531578 
0.002531230538072423 
-0.03270794800366508 
-0.003288294399263593 
-0.03443272255160774 
-0.000199508893479256 
0.0001880291609872334 
0.01987393445565474 
-0.02824612325424191 
0.03167497461243349 
0.00431246000574389 
-0.03825931574604233 
0.03229915120160185 
0.02005211948354635 
0.01423112328673305 
-0.03222675683808662 
0.01894436514305645 
-0.02318501997678215 
0.0
0.0
0.0
0.0
0.0
0.0
0.0
0.0
0.0
0.0
0.0
0.0
0.0
0.0
0.0
0.0
0.0
0.0
0.0
0.0
0.0
0.0
0.0
0.0
0.0
0.0
0.0
0.0
0.03655153935748103 
0.005249043518202911 
-0.05399555783148822 
0.01704806197827035 
-0.04614647829319797 
-0.04083915915157961 
-0.03993077076512431 
0.02897195005278131 
0.004949800092974188 
0.02749608296178757 
-0.0192512301197206 
-0.04967945424290173 
0.02958330717630753 
0.001823751171542732 
-0.04246536257776561 
-0.06132247689654514 
0.01698998670346969 
-0.01437556960918954 
0.0670251241865294 
0.02760718258725521 
-0.006956297357889107 
0.04539546787247582 
0.009034527257507736 
-0.02998776694473061 
-0.03105613907735452 
0.05170344538649277 
0.04772049038348344 
0.03066763318564205 
-0.0001315362602351756 
0.007863983254897143 
0.01580348883824084 
0.005166189867140849 
-0.04142235764600973 
-0.04688542608746403 
0.0274540673670833 
0.02976923451997069 
0.0
0.0
0.0
0.0
0.0
0.0
0.0
0.0
0.0
0.0
0.0
0.0
0.0
0.0
0.0
0.0
0.0
0.0
0.0
0.0
0.0
0.0
0.0
0.0
0.0
0.0
0.0
0.0
0.01859770086429744 
0.01063040866919886 
0.01569223619412285 
0.03293323265250508 
0.05618662345715917 
0.03881573681511239 
0.02687159651286447 
0.02770998853367506 
0.01625207871270181 
-0.03694827867503622 
-0.02080480418463179 
0.02950199388174784 
0.02457101340919095 
0.04351740971565375 
0.04981197757702361 
0.02641569644827583 
0.04436416233293683 
-0.03354321399906862 
0.005497720542770058 
-0.01147857945662397 
-0.007451372239710681 
-0.00355992584503372 
0.006851603606657805 
0.002693663486642646 
-0.001345775115903116 
-0.006406689813159684 
0.008794571148623529 
-0.01499239616818729 
-0.03180332075982186 
-0.01993977316201585 
0.008747704184858806 
-0.01886301026361679 
0.009891483054499077 
-0.01403879436007109 
0.01339100288452278 
0.007345916796958355 
0.0
0.0
0.0
0.0
0.0
0.0
0.0
0.0
0.0
0.0
0.0
0.0
0.0
0.0
0.0
0.0
0.0
0.0
0.0
0.0
0.0
0.0
0.0
0.0
0.0
0.0
0.0
0.0
0.02626523063060507 
0.02238645781739537 
0.02380832788583841 
0.0156463987085565 
-0.003227613221348122 
-0.002993906642201458 
0.02151746898756154 
0.0112443215859084 
0.0291008232866708 
0.006397387584346759 
0.01021148363731519 
0.01271341071193739 
0.001019936866748597 
-0.03528636232966701 
0.02303763557361517 
0.01730323786120111 
0.02807880163072528 
0.01279370510709078 
-0.0001909573195840548 
0.02372606270166541 
-0.004745602653006164 
0.02194557048960267 
-0.003400385288839053 
0.01778571728007473 
0.01585262284457726 
-0.03085305127017378 
-0.01888847808010341 
-0.009642406141684387 
0.02085612969095841 
-0.01283634167635462 
0.004884865885583437 
-0.0137219837754064 
0.02221863219082436 
-0.01036733120398185 
-0.02207116053456628 
-0.03156857661545158 
0.0
0.0
0.0
0.0
0.0
0.0
0.0
0.0
0.0
0.0
0.0
0.0
0.0
0.0
0.0
0.0
0.0
0.0
0.0
0.0
0.0
0.0
0.0
0.0
0.0
0.0
0.0
0.0
0.02355095850073473 
-0.01715394808153815 
-0.04116825890664826 
0.009378910350170768 
-0.00813423232103303 
-0.00390540844693281 
-0.03191345199631356 
0.0005798793833607493 
0.01617768704654596 
0.02317553872611563 
-0.02526726671074996 
-0.07464270056106594 
-0.01708977583408407 
-0.03442648492927962 
-0.008900351113705476 
-0.01778223096268393 
-0.00558005087547482 
-0.001036942021732809 
0.03395279143834653 
0.01293442107105991 
-0.007519531112925162 
0.04716791025993997 
-0.01339111920365463 
-0.001139345122528766 
0.02035384283445494 
0.03033662718395859 
0.04789312299300354 
-0.01888624710405792 
0.04424151380785078 
-0.0008383886398619595 
0.03033766339480136 
0.009261657609334331 
0.01469860663834684 
0.03021551730216199 
0.007872388239888395 
-0.008446972012879722 
0.0
0.0
0.0
0.0
0.0
0.0
0.0
0.0
0.0
0.0
0.0
0.0
0.0
0.0
0.0
0.0
0.0
0.0
0.0
0.0
0.0
0.0
0.0
0.0
0.0
0.0
0.0
0.0
0.0183835329813797 
-0.00504202790636953 
-0.04746562436537908 
-0.009048807491374624 
-0.03675336877723157 
-0.03782830194115566 
-0.01437832856596923 
-0.01425059837405064 
-0.007474313283132086 
0.01339032106542991 
0.04354515663792408 
-0.006112832132540244 
-0.03449510658036989 
-0.01840071445689449 
-0.02133759311807932 
-0.007263856103416998 
-0.00328753541545988 
-0.01813736565164352 
0.02135110097827902 
0.01395250973674547 
-0.02116605336439117 
0.03043589650193568 
0.0272039558508751 
-0.002209054975633041 
0.01225721105271187 
-0.02393566506945924 
-0.01845127459959361 
0.02891278539663571 
0.06643606949362721 
-0.0263975361717822 
-0.002619705757827407 
0.01820081595928826 
-0.01390180331719327 
-0.03868649732895811 
-0.03072365494557335 
-0.005654063817502338 
0.0
0.0
0.0
0.0
0.0
0.0
0.0
0.0
0.0
0.0
0.0
0.0
0.0
0.0
0.0
0.0
0.0
0.0
0.0
0.0
0.0
0.0
0.0
0.0
0.0
0.0
0.0
0.0
0.02487292921249227 
0.02429357968542104 
-0.04178275203698718 
-0.01692456992435736 
-0.01521140029976599 
-0.01153646720585682 
-0.008836347277169051 
-0.001602420237897056 
0.02255059619280965 
0.03489313585912385 
0.04225115749991167 
-0.06068853814158304 
-0.04187495766089652 
-0.04287135855983976 
-0.02749103052103129 
-0.04317959917966325 
-0.007000247636700415 
0.04028662164336721 
0.03234030644770664 
0.03654955158724121 
-0.02013956569986591 
-0.004847563529937475 
0.0002788885989010543 
-0.01005643736966897 
-0.03636667256707245 
0.0173173995696477 
0.02870517873256123 
0.01189825044893253 
0.05650863287887251 
-0.04505638354484492 
-0.04144199526079603 
-0.06828313706404197 
-0.01336915881920928 
-0.04759685688128418 
0.01294856426533708 
0.01131994222532386 
0.0
0.0
0.0
0.0
0.0
0.0
0.0
0.0
0.0
0.0
0.0
0.0
0.0
0.0
0.0
0.0
0.0
0.0
0.0
0.0
0.0
0.0
0.0
0.0
0.0
0.0
0.0
0.0
0.0007492386580752666 
0.03706345198075732 
0.002925826109405828 
0.0116322959741663 
0.02264834891187654 
0.003837266608938323 
-0.01519746474411995 
0.02421332500680084 
0.03481309478262213 
0.03720366268907122 
0.0793696952819072 
-0.0005665990122764267 
-0.01975488047796624 
-0.05426147938372354 
-0.009467860771397208 
-0.02545163815218311 
0.03836226638036196 
0.03372080915255639 
0.005768295306305454 
0.01988739349112798 
-0.03062634078470944 
0.003213271568999749 
0.0211394827093613 
0.01366849412397641 
-0.01121616321373897 
0.04920847397557639 
0.001593838551057831 
0.02116923067614242 
0.03697709179467429 
-0.03152414838949948 
-0.02138447532199522 
-0.05406545273103602 
-0.00955734002725247 
0.001660476013948097 
0.08834281359675882 
0.04572308384899141 
0.0
0.0
0.0
0.0
0.0
0.0
0.0
0.0
0.0
0.0
0.0
0.0
0.0
0.0
0.0
0.0
0.0
0.0
0.0
0.0
0.0
0.0
0.0
0.0
0.0
0.0
0.0
0.0
0.03425468820417518 
0.007172157864830857 
-0.03253780361602549 
0.001118457430765196 
0.005095015112666581 
-0.0223432589046515 
-0.04436329164231732 
0.02455516112254127 
-0.001087014953399255 
0.02159556809480077 
0.0117888559310933 
-0.0257738550322909 
-0.01537989185634568 
-0.05013155702855499 
-0.04113762621430499 
-0.03349131439366972 
0.04634520095929647 
0.0009107916790499083 
0.02127780628740522 
0.01136986800906837 
-0.009435838479745858 
-0.01174549782922158 
-0.007762715546109224 
-0.02789563732796545 
-0.0579631605432011 
0.02402484052248644 
0.03748136430795325 
0.04734425141099552 
-0.003322260017174961 
-0.04442003330477431 
-0.03574075727570546 
-0.0389509754378442 
-0.03658327353141586 
-0.05952344538409325 
0.03649260631644793 
0.0332612335354168 
0.0
0.0
0.0
0.0
0.0
0.0
0.0
0.0
0.0
0.0
0.0
0.0
0.0
0.0
0.0
0.0
0.0
0.0
0.0
0.0
0.0
0.0
0.0
0.0
0.0
0.0
0.0
0.0
-0.0397902554942397 
-0.02516086753073349 
0.01563409959172916 
0.01278574502781032 
0.03688195464516339 
0.03045083368913507 
-0.02247144867127383 
0.01660307177985269 
0.01186459442703018 
-0.02231874214874155 
-0.02885341605285422 
-0.03179476294874468 
-0.0241486848059103 
0.01450111091628765 
-0.006452187237567485 
-0.0310691640254622 
0.03983263988750845 
0.01629095391458103 
0.001697241930394414 
-0.03055055664205384 
-0.02085213386642414 
-0.01263150962287922 
-0.02957401649933837 
0.0124288483655301 
-0.02367957524374163 
0.01075150494955124 
0.04405274602727555 
0.005127772834032755 
0.001184679217173856 
-0.01080827717534451 
-0.02974287660508928 
-0.0296320826348217 
-0.03298586365260475 
-0.03212538817945795 
-0.008322599558107135 
0.01859259975484477 
0.0
0.0
0.0
0.0
0.0
0.0
0.0
0.0
0.0
0.0
0.0
0.0
0.0
0.0
0.0
0.0
0.0
0.0
0.0
0.0
0.0
0.0
0.0
0.0
0.0
0.0
0.0
0.0
0.02844321040199812 
0.01464946546300652 
0.01213636102082597 
-0.0008708305784771457 
-0.04066044172698801 
0.03425608584570241 
-0.001750849421513849 
0.0167838404339485 
0.0323297856463222 
0.02400485137177079 
0.01802261462779339 
0.02619317146247177 
0.006429028342965154 
-0.002431295933146041 
0.01415342105262758 
-0.01648000778958193 
0.008037846330987645 
0.0167183121836252 
0.02142909674537133 
0.01230328026783676 
-0.03862221297664687 
-0.01171656069592269 
-0.02631475207758943 
0.02498863132094384 
-0.03748408686118813 
-0.003952051634359552 
0.009456793991546354 
0.02155251695127286 
-7.455865809261968e-005 
-0.0217527662994796 
-0.003782119333468395 
-0.0006668174699045584 
-0.01287129384366073 
-0.06554688351359253 
-0.01532779559489495 
0.0448713611752968 
0.0
0.0
0.0
0.0
0.0
0.0
0.0
0.0
0.0
0.0
0.0
0.0
0.0
0.0
0.0
0.0
0.0
0.0
0.0
0.0
0.0
0.0
0.0
0.0
0.0
0.0
0.0
0.0
0.02937295777004444 
-0.0003589788633474444 
-0.03690408153558827 
0.006796211654993077 
-0.04423601461798406 
-0.02558053717393548 
-0.02524437619135572 
0.001194013010130829 
0.01967604234564049 
-0.02823312273141065 
-0.01661602305731795 
-0.02542939693088449 
0.01672132125837348 
-0.03367324825322052 
-0.02722777138594058 
-0.01092442203757275 
-0.00115329972561669 
-0.006028602793261952 
-0.01443542452637849 
0.03619827302478732 
0.02029561626945279 
0.008358452585006546 
-0.02917727047126324 
0.01393851390669203 
0.0299491881389055 
0.01917724942537927 
0.002427983847166765 
-0.006393218389700008 
0.003047159993846073 
-0.006277699582552909 
0.04425744714529553 
0.01838419362011636 
0.007608908678183456 
0.01123544959444947 
-0.015860062462165 
-0.01520285296980425 
0.0
0.0
0.0
0.0
0.0
0.0
0.0
0.0
0.0
0.0
0.0
0.0
0.0
0.0
0.0
0.0
0.0
0.0
0.0
0.0
0.0
0.0
0.0
0.0
0.0
0.0
0.0
0.0
-0.02432189551454891 
0.02748895024683257 
-0.005402583779076589 
-0.03965918148080728 
-0.0150551813121271 
0.01406269840517222 
0.004012722306248739 
0.005568223384267723 
-0.02775355974993369 
-0.030609319670756 
-0.02343466225465859 
-0.04353704541084434 
-0.02155122179036287 
-0.02116080929808919 
-0.0201533968601363 
-0.01768281989024801 
-0.0199871147492085 
-0.003050742385790475 
-0.01407357439763017 
0.0402864589988749 
-0.006476775158059472 
0.02107207014489318 
0.04728677832972648 
0.03764081743648201 
0.01652902115500741 
0.02333556289705455 
0.01698356080583434 
-0.006982919297746076 
0.01772666190012854 
0.01390434410128873 
0.03576913224083553 
0.03170318116437071 
-0.00218710440660667 
-0.01252563905075381 
-0.0100153358041721 
-0.001961646573442847 
0.0
0.0
0.0
0.0
0.0
0.0
0.0
0.0
0.0
0.0
0.0
0.0
0.0
0.0
0.0
0.0
0.0
0.0
0.0
0.0
0.0
0.0
0.0
0.0
0.0
0.0
0.0
0.0
-0.01412235014782363 
0.02881939705924151 
-0.03171176699910821 
0.003829210576408921 
0.008469535858024872 
-0.006667847350795651 
-0.02043517880376932 
0.007967130298712322 
0.008196561265852755 
-0.002162205719429154 
0.005979411482682719 
-0.02596519421691614 
0.01771620160787446 
-0.02675559830783633 
-0.03457385819472046 
-0.0358315101493612 
-0.008779533150845769 
-0.01451881240214614 
-0.002569790042494389 
0.06633517330806664 
-0.03051652428308769 
-0.01412089156658771 
0.003467172621330845 
0.003450350389112785 
-0.03445155463893444 
0.04401096788407437 
0.004785101936888173 
0.03227816804515846 
0.01111414297600087 
-0.0505700256164664 
-0.0218193477167364 
-0.01884523183105462 
-0.02659609122387025 
-0.02776646049499485 
-0.003299240824452639 
0.01684764782664927 
0.0
0.0
0.0
0.0
0.0
0.0
0.0
0.0
0.0
0.0
0.0
0.0
0.0
0.0
0.0
0.0
0.0
0.0
0.0
0.0
0.0
0.0
0.0
0.0
0.0
0.0
0.0
0.0
0.02792216132098019 
0.04895200397358659 
-0.03093122386665442 
-0.007245657716425606 
0.003586272403187845 
-0.002584952666075631 
-0.04144174620247348 
0.02777616800685513 
-0.001517789497086674 
0.06137465034903225 
0.00845000889271399 
-0.05491834708614331 
-0.002608958546092909 
0.006566860778372205 
0.004438430804355477 
-0.03691204163134735 
0.004124958180213104 
0.01761005216725895 
-0.00192068051135239 
0.01791809257638683 
-0.04271766611496745 
-0.00790229310595161 
0.005368354980184196 
-0.007281845603025989 
-0.01480101872039 
0.05540463100079388 
0.03738626975705529 
0.01390782624745313 
-0.001308615158919044 
-0.02975870525564262 
0.006107317400962257 
0.002994269559305851 
-0.01180900730484807 
-0.03739519345481897 
0.03546666478882334 
0.05719405792097864 
0.0
0.0
0.0
0.0
0.0
0.0
0.0
0.0
0.0
0.0
0.0
0.0
0.0
0.0
0.0
0.0
0.0
0.0
0.0
0.0
0.0
0.0
0.0
0.0
0.0
0.0
0.0
0.0
-0.01490298683264625 
0.006943921061839761 
-0.01045981832626815 
0.008327454501960374 
0.0008998308267904548 
-0.01980380135779298 
-0.002138724913709775 
0.06078982200465163 
0.01327609862864186 
0.01601953149547481 
-0.007275066005170309 
-0.01948757545874521 
-0.001081542265308237 
-0.02672909777503062 
-0.02955597804672488 
-0.02201751045032585 
0.03847935671384042 
0.0140190508084283 
0.02068709074844891 
-0.005820598245753162 
-0.01330900075507797 
-0.00493352130949831 
0.01181804913939038 
-0.01283803966523291 
-0.01069712490753098 
0.03521704995744251 
0.01885777314072047 
0.02006862621074855 
-0.0139487494342709 
-0.0328684219710401 
-0.02882858173910092 
-0.03843934780475747 
-0.01258082698821046 
-0.02596131690123792 
0.01567687242879571 
0.009281639864424131 
0.0
0.0
0.0
0.0
0.0
0.0
0.0
0.0
0.0
0.0
0.0
0.0
0.0
0.0
0.0
0.0
0.0
0.0
0.0
0.0
0.0
0.0
0.0
0.0
0.0
0.0
0.0
0.0
0.008031279234401187 
-0.001503756866192063 
0.006055397718470201 
0.009620900026007356 
0.04714557190942302 
0.008410251255596165 
0.01093262292744704 
0.03897796592461558 
0.00248943215156872 
-0.01158823877516718 
0.002555273886590682 
0.0132280797108246 
0.01357618701767232 
0.01358742080329159 
0.01019283953930112 
0.01081356827970059 
0.02861166370308278 
0.008922888419851983 
-0.006687654446407171 
0.004854840858049735 
-0.00843658449165664 
-0.00798870413581191 
-0.006842984658803253 
-0.01542162330349312 
0.005192038936636422 
0.0206228320552203 
-0.01373476068881908 
-0.009505025854430175 
0.0009790144750301531 
0.004867683174770289 
-0.01602993731436591 
-0.005559061888167813 
0.001577484578275054 
-0.02363421148605991 
-0.001489413368476451 
-0.0423004197186171 
0.0
0.0
0.0
0.0
0.0
0.0
0.0
0.0
0.0
0.0
0.0
0.0
0.0
0.0
0.0
0.0
0.0
0.0
0.0
0.0
0.0
0.0
0.0
0.0
0.0
0.0
0.0
0.0
-0.001510558958930258 
0.01439272044425029 
0.01315373748485586 
0.005320125163077598 
-0.02107321816363135 
0.01737798129578089 
0.005572353559681951 
0.01279719706256717 
0.0007378798945545851 
-0.01646354651150823 
-0.009078557026951029 
-0.01184702741931084 
-0.005378483413966374 
0.001434880399893331 
0.03878473074936264 
0.005976391603517752 
0.0212297248339179 
-0.01940041924902398 
0.006266381126133433 
-0.01514099185120554 
-0.024293088116519 
-0.005152966723246208 
-0.01000945727552208 
0.02608955516167423 
-0.01704456390131824 
-0.008611782551772747 
0.04108608703639784 
-0.01168857442907447 
-0.01321941838637619 
-0.02807873848363205 
-0.001754583865562608 
-0.006209568770825432 
0.02957946320040431 
-0.004683064974877541 
-0.02577994749593054 
-0.01309819236095377 
0.0
0.0
0.0
0.0
0.0
0.0
0.0
0.0
0.0
0.0
0.0
0.0
0.0
0.0
0.0
0.0
0.0
0.0
0.0
0.0
0.0
0.0
0.0
0.0
0.0
0.0
0.0
0.0
-0.01057066992834648 
-0.03309550111254735 
-0.03077589010072886 
0.014047185100066 
-0.0157501495330582 
-0.004718723718744703 
-0.003362676589778809 
-0.0001955481105288034 
-0.0003753336838785784 
0.009522593541725834 
-0.03899274424226022 
-0.05482883387677171 
0.0007388562404912134 
-0.01891455631344034 
-0.02309267390987367 
-0.03808030585744821 
-0.003870465425699328 
0.004742116603518636 
0.01239326286309039 
-0.03457161753341474 
-0.02403441784479286 
0.0353417372258059 
0.01975330624640807 
0.01039595437491212 
0.01101881829328964 
-0.01510584042182456 
0.01912238530093004 
0.02135467309685908 
-0.01785011857174594 
-0.02874903776375699 
-0.01971294950693038 
0.01427388960019248 
0.0135504511657582 
-0.02431307131230273 
-0.01000976753519637 
0.001648409526038135 
0.0
0.0
0.0
0.0
0.0
0.0
0.0
0.0
0.0
0.0
0.0
0.0
0.0
0.0
0.0
0.0
0.0
0.0
0.0
0.0
0.0
0.0
0.0
0.0
0.0
0.0
0.0
0.0
0.01302506757200543 
-0.01543854508333852 
-0.0322948430483948 
-0.007183226218389025 
-0.01434898029680551 
-0.0257525587609641 
-0.02080948908642725 
-0.0115606522504888 
0.02155891214966998 
0.009534443466040831 
0.009989943019759083 
0.0009718204895849165 
-0.02641957892588306 
-0.03397829161819815 
-0.0260616425556171 
-0.02975297761586071 
-0.003171167111601298 
-0.005356779079298722 
0.02374186046079715 
0.02792492118417795 
0.01852538746987403 
0.0197452574505524 
0.02226413321626212 
-0.01125928927548906 
-0.02017881812524956 
-0.009622569082410085 
0.002737839029235458 
0.02890400469580453 
0.04771699841433604 
0.02476235811030036 
-0.009136859285540054 
0.004227089697684781 
0.02020484912626956 
-0.0150617509851426 
0.007958742295811396 
0.002177266620737176 
0.0
0.0
0.0
0.0
0.0
0.0
0.0
0.0
0.0
0.0
0.0
0.0
0.0
0.0
0.0
0.0
0.0
0.0
0.0
0.0
0.0
0.0
0.0
0.0
0.0
0.0
0.0
0.0
-0.004954018242956947 
-0.002317923188072625 
-0.02873082141521759 
-0.003245487620610851 
-0.01844218917574202 
-0.03345226842075956 
-0.04601115121047029 
-0.02249052095201138 
-0.0130977019915599 
0.03039179993010446 
0.01755314969513634 
-0.02508738975179369 
-0.03135862285538847 
-0.02119072248183559 
-0.005169994802834454 
-0.03249841332670538 
0.004755748433696066 
0.01761917489303742 
0.03046354146297883 
0.01188448524716952 
-0.03406658461173549 
-0.01895912618337039 
-0.04082164541595722 
-0.01701038849495657 
-0.03230641696756141 
-0.02188123802493104 
0.0471444111167485 
0.04436730709825958 
0.04210673930348484 
0.02715320573538206 
0.003327048115744846 
-0.02436496568778204 
-0.02260500440430973 
-0.03343163882296683 
0.02892206512916266 
0.0976596084932217 
0.0
0.0
0.0
0.0
0.0
0.0
0.0
0.0
0.0
0.0
0.0
0.0
0.0
0.0
0.0
0.0
0.0
0.0
0.0
0.0
0.0
0.0
0.0
0.0
0.0
0.0
0.0
0.0
0.0519684468847307 
0.0001990453055989181 
-0.01898146008129015 
-0.022782344628816 
-0.0252062614537616 
0.0008207476928216714 
-0.03511729599433044 
-0.04949693766580032 
0.007426217634892536 
0.05284452220563216 
0.0006722959954174859 
0.01107029183142067 
-0.003862052336308331 
-0.04337581021462646 
-0.006844337859905028 
-0.02885044467400576 
-0.02547836041117148 
0.06844691973295088 
0.02604181248011269 
-0.02592201478379424 
-0.04454916895039061 
-0.009379291889810361 
-0.01702629337399517 
-0.007689940639496556 
-0.01697555331247783 
-0.0002186786528274589 
0.0151622247706823 
0.07164225465936981 
0.002681468353376362 
-0.04093121300372807 
-0.01286162853859929 
-0.03791550636607933 
0.01743822476660922 
0.009666016810411215 
0.01372564012773946 
0.0285391221948247 
0.0
0.0
0.0
0.0
0.0
0.0
0.0
0.0
0.0
0.0
0.0
0.0
0.0
0.0
0.0
0.0
0.0
0.0
0.0
0.0
0.0
0.0
0.0
0.0
0.0
0.0
0.0
0.0
0.0734171207515405 
0.01390241727081126 
-0.03318721132926203 
-0.006198144295766578 
-0.03630262314631193 
0.004077352847485385 
-0.001539493517781738 
0.02576430975309464 
-0.00577429048341879 
0.1097514626563804 
0.03078424474990698 
-0.04015486413305273 
-0.01896338170286755 
-0.004150271241635231 
0.01807778395511348 
0.03215634909086667 
0.04701022590369256 
0.02827640641284411 
0.006177822891243175 
-0.02577752448117832 
-0.0322003125577542 
-0.008367081821475459 
-0.01153674251933205 
-0.009100406926310051 
-0.01969037739347412 
0.02639114256700057 
-0.007676965921195872 
0.01744560208677928 
-0.001533632810635859 
-0.01944151582135791 
-0.02570359436847541 
-0.01837495026619127 
-0.04849680514866992 
-0.03401553648567596 
0.03355513669953375 
0.02737030376106629 
0.0
0.0
0.0
0.0
0.0
0.0
0.0
0.0
0.0
0.0
0.0
0.0
0.0
0.0
0.0
0.0
0.0
0.0
0.0
0.0
0.0
0.0
0.0
0.0
0.0
0.0
0.0
0.0
-0.01024598225983158 
0.001748472565860934 
0.02837817387129886 
0.02248981358426846 
0.02919988243498232 
0.0005036149462777568 
0.002131968135303694 
0.03177291758690497 
0.01834109170195953 
-0.002410697978267044 
0.0118784129670075 
0.02096612095819213 
0.01992553086471055 
0.007777077369634363 
-0.006297910455036181 
0.03175895590818403 
0.0504849528151563 
0.03317875620172241 
0.03786554326046324 
0.01542168639350785 
0.01265902448087446 
-0.01878268697471891 
-0.02012086325991097 
0.003529413124143827 
-0.021973919386725 
0.01486314511158021 
0.01472341318618148 
-0.003322891139097036 
-0.009854845751477572 
-0.01961244136391407 
-0.01837209120502522 
-0.02683820635581823 
-0.003235176995972594 
0.02678490637979449 
0.03832562872729192 
0.02510277436504198 
0.0
0.0
0.0
0.0
0.0
0.0
0.0
0.0
0.0
0.0
0.0
0.0
0.0
0.0
0.0
0.0
0.0
0.0
0.0
0.0
0.0
0.0
0.0
0.0
0.0
0.0
0.0
0.0
0.03893285099653961 
0.002746559163826946 
0.01547335056091757 
0.001582644576314146 
0.003882527865863917 
0.02658167555988328 
-0.02698469747668882 
-0.008863739487374562 
0.01165150267994175 
-0.01326323754773277 
-0.01516385741851526 
0.0003138681947632895 
0.007919491084876145 
0.005778286739636441 
0.008614192316878573 
-0.02439427938989978 
-0.02169378327197856 
0.01924824520939785 
-0.002568603804232402 
-0.005054038526968897 
-0.01102908727028834 
-0.009461513891634599 
-0.003722094213019405 
0.02337054689508967 
-0.01854945457579991 
-0.02824087337016423 
0.01307664028812788 
-0.01454570629936742 
-0.02359231930781237 
-0.009355070798581985 
-0.03110954291020668 
-0.01021105235321093 
0.00196700374446065 
-0.04053433671009156 
-0.04437187384457621 
-0.002283117552970357 
0.0
0.0
0.0
0.0
0.0
0.0
0.0
0.0
0.0
0.0
0.0
0.0
0.0
0.0
0.0
0.0
0.0
0.0
0.0
0.0
0.0
0.0
0.0
0.0
0.0
0.0
0.0
0.0
0.01833483222344095 
0.005590833976114238 
-0.005210764811857958 
0.0152165335475408 
0.03203608447049461 
-0.0331396693283719 
-0.0305979657455643 
-0.02818455911060245 
-0.001030696951421055 
-0.03751612980131523 
-0.006693885173250622 
-0.0005363225524047484 
-0.01239638450725648 
-0.006310853370434427 
-0.04586659383199734 
-0.02661177478100458 
-0.03346185979876664 
-0.02977784532892747 
0.03476522824441948 
0.008298776410861793 
0.02228221349922434 
0.01153795289996231 
0.04618498426540084 
0.007977073071824459 
0.02917130353857339 
0.01150162561031753 
0.0295518834270231 
-0.03396392869909698 
-0.01219772289829299 
0.02701501911452377 
-0.01615147852211219 
0.002795618421277484 
-0.01127922602961456 
0.03657587536153031 
-0.02496129753266804 
0.0006764562358733304 
0.0
0.0
0.0
0.0
0.0
0.0
0.0
0.0
0.0
0.0
0.0
0.0
0.0
0.0
0.0
0.0
0.0
0.0
0.0
0.0
0.0
0.0
0.0
0.0
0.0
0.0
0.0
0.0
0.02238545965367961 
0.005478615583805533 
0.0009223828213171195 
-0.02867916712503623 
-0.01375057018959317 
-0.0001057706133008618 
0.009778641000339133 
0.003160671997663972 
0.009645500163796566 
-0.01192665232775539 
-0.02667197514034323 
-0.02530680006576949 
-0.06909546672393324 
-0.04549563352757547 
-0.01322726128815771 
0.01610037790329623 
-0.004461968334057528 
0.01759692215245665 
0.03411116439047583 
0.02907424840412656 
0.02098184375092839 
0.01671385731038382 
0.04246450378914565 
0.05850813175895234 
0.01947775353415537 
0.02610046999436912 
0.01227709238992347 
0.009832009241281182 
0.01378712491891434 
0.01914508706495358 
-0.01383695679197804 
0.008318385035021445 
-0.002294549303045254 
0.01800481108010898 
0.01443160181259155 
0.01193314120934508 
0.0
0.0
0.0
0.0
0.0
0.0
0.0
0.0
0.0
0.0
0.0
0.0
0.0
0.0
0.0
0.0
0.0
0.0
0.0
0.0
0.0
0.0
0.0
0.0
0.0
0.0
0.0
0.0
0.02690156003657714 
0.03883812834819563 
0.01920887561611875 
0.000908685832537421 
0.001897042708749849 
0.03266085273612187 
0.02416454422951097 
0.01790645660960991 
-0.006400067418712711 
-0.02441681800498568 
-0.0166359010673241 
0.002203363942898739 
-0.009505705280349233 
-0.04790618917930174 
-0.04122364908591438 
0.01548853763027961 
0.002860405425222359 
-0.04072699682709278 
0.06446726363083075 
0.06256355419642236 
0.07819947776012576 
0.05581201770262283 
0.04505860392435773 
0.02523525907925115 
0.02769275277299306 
0.0297970920214345 
0.06678226659817661 
0.0574078093202748 
0.04889767575376324 
0.0350686997721394 
0.02613921376898609 
-0.02683984140086532 
-0.0104921851567503 
0.04820565159502725 
0.02462528188498559 
0.02500179314623305 
0.0
0.0
0.0
0.0
0.0
0.0
0.0
0.0
0.0
0.0
0.0
0.0
0.0
0.0
0.0
0.0
0.0
0.0
0.0
0.0
0.0
0.0
0.0
0.0
0.0
0.0
0.0
0.0
0.04246988637882267 
0.001762530786464828 
0.003912377284400867 
0.01676632089017867 
0.04207740343657904 
0.01417949816169484 
0.001037074544523197 
0.002638859877907553 
0.07777856650110344 
0.02246127522564655 
0.006939444849319369 
-0.01252059835400236 
0.008642285058694821 
-0.01352884287133951 
0.001906973614452603 
0.03609148375875466 
0.02423312069393132 
0.04160043985660291 
0.04641562170754023 
0.005378363370687687 
-0.02174679976606561 
0.01547998752362179 
0.04379250947605885 
0.04024253257038963 
0.023059266293315 
0.01828055393840841 
0.05122510588358582 
0.01758256438419934 
0.008961221451447477 
0.001395316562158383 
0.003669013111647918 
-0.01617632789505109 
0.002224557631810352 
0.03833585186601582 
0.03572054541641477 
0.04485905183237862 
0.0
0.0
0.0
0.0
0.0
0.0
0.0
0.0
0.0
0.0
0.0
0.0
0.0
0.0
0.0
0.0
0.0
0.0
0.0
0.0
0.0
0.0
0.0
0.0
0.0
0.0
0.0
0.0
0.06358714257842106 
0.02431397136188282 
0.006423886665558804 
0.01967200366356783 
0.04767668314648618 
0.04223221061936996 
0.06467772932357804 
0.06249905780577116 
0.05729990361715456 
0.03091078183940049 
0.03944587520956955 
0.04068672754718166 
0.007798710709666719 
-0.008963752875771988 
0.001235441648513114 
0.04406334583161283 
0.03923123792236775 
0.04776013964413371 
0.01730161736690692 
0.02577987709438979 
0.01504430105156687 
-0.01377029996983217 
0.007336969314915997 
-0.01073639713615964 
0.01226077093511279 
0.05004141861174434 
0.02970339993861273 
-0.01895506374989503 
0.02152168625813308 
0.02392210170554686 
-0.03034256961695336 
-0.03042828088231322 
-0.02436796786108164 
0.007336810604981601 
-0.009929388771020379 
-0.01854204074678444 
0.0
0.0
0.0
0.0
0.0
0.0
0.0
0.0
0.0
0.0
0.0
0.0
0.0
0.0
0.0
0.0
0.0
0.0
0.0
0.0
0.0
0.0
0.0
0.0
0.0
0.0
0.0
0.0
0.02645355463190001 
0.0291301128152267 
0.02354261346883804 
0.01646658397131237 
0.03244324841904914 
0.01621102625177621 
0.01874614405466277 
0.008946884575815488 
0.02825871070576591 
0.01994221164621241 
0.01666444227335264 
0.02675908364167643 
-0.004262772440883501 
0.007924680080466507 
-0.01448826204939775 
0.0001060010544207382 
-0.008585712407298524 
0.01946007075368817 
2.29256965612234e-005 
-0.02547623558761947 
0.00586876403098346 
0.00128941554753706 
-0.006420840151608548 
-0.007836450420875303 
-0.006285911224519883 
-0.00572294338941186 
0.02121742525423815 
0.01397690435797113 
-0.02028522119221914 
0.002411622999561236 
-0.01207469268851153 
-0.02092199680595412 
-0.04381751213984986 
-0.05184888046928299 
-0.04912453746725787 
-0.00266789684027119 
0.0
0.0
0.0
0.0
0.0
0.0
0.0
0.0
0.0
0.0
0.0
0.0
0.0
0.0
0.0
0.0
0.0
0.0
0.0
0.0
0.0
0.0
0.0
0.0
0.0
0.0
0.0
0.0
0.02347483583909858 
0.006161618949742644 
0.04030596223490425 
0.007108910298169788 
0.0291484271955705 
0.04165768459799465 
0.01378834311589207 
0.003169302562632577 
0.03743860022068679 
-0.0004705027949468042 
-0.02135807905739713 
0.01706109428489318 
-0.005317823967249352 
-0.003526939691596829 
-0.002623172409842434 
0.004220609053396043 
-0.01542484849497991 
-0.01656612276838258 
0.01219987685834363 
-0.01013170499230479 
0.008202018231931315 
-0.02574945101341749 
0.03131902648672864 
0.02916960665847353 
0.01252246354924104 
0.001339665018251697 
0.01807007065072901 
-0.01925259593362868 
-0.02457202063795651 
-0.03286666984698804 
-0.02538518278897829 
-0.005089199257848225 
-0.02369568694793966 
-0.0007983142650160878 
-0.009246774521186076 
-0.01695925536700149 
0.0
0.0
0.0
0.0
0.0
0.0
0.0
0.0
0.0
0.0
0.0
0.0
0.0
0.0
0.0
0.0
0.0
0.0
0.0
0.0
0.0
0.0
0.0
0.0
0.0
0.0
0.0
0.0
-0.01229888729977572 
0.01819575352006234 
0.02678625845954151 
0.01181659699767626 
0.008619995432697238 
-0.03611693492749809 
-0.00303948485236062 
-0.001396065611388043 
0.002344527469990542 
-0.002626693901103892 
0.006230992089340218 
-0.008330311342801161 
0.0119003897468653 
0.04802871479732705 
-0.0141218054966172 
-0.006433023292138011 
-0.01561105269217699 
0.01537819802387826 
0.00518226632424415 
0.02929363457723228 
0.01046237315385207 
-0.01366807794761522 
0.002059973599531867 
-0.0102456661883401 
0.01351842193198632 
-0.01890120864693863 
0.03324523606269237 
0.005975745024027303 
-0.0008958623545296872 
0.00393229195721085 
0.01884108437998034 
0.02792620502227986 
-0.01371120769983494 
-0.009600512590208558 
-0.02113562562819854 
0.02983721220122429 
0.0
0.0
0.0
0.0
0.0
0.0
0.0
0.0
0.0
0.0
0.0
0.0
0.0
0.0
0.0
0.0
0.0
0.0
0.0
0.0
0.0
0.0
0.0
0.0
0.0
0.0
0.0
0.0
0.01554910971696407 
0.01330914667768274 
0.006570530302961255 
-0.04157319051132886 
-0.03074531261904248 
0.01007171650819212 
0.02211632090240596 
0.007914446833947045 
0.02769210418643393 
0.001465459015298729 
0.01665086177534416 
-0.0006634608681361249 
-0.01921021437762085 
-0.03440536194192281 
-0.0153726504277021 
-0.02275362248608534 
-0.005093109480304865 
0.03434978657456837 
0.02900022806362008 
0.004742047717278632 
0.02519029709144406 
-0.001675504151581155 
0.01903498733010587 
0.04288729653814318 
0.05096981475236149 
0.02386016742679573 
0.05413515162891674 
-0.0239620173847448 
-0.02385955401987893 
-0.00450027340787862 
-0.03568316966474947 
-0.01096289739800533 
0.007114435437830874 
-0.02062501761566619 
-0.009594173078332212 
0.02704007316137287 
0.0
0.0
0.0
0.0
0.0
0.0
0.0
0.0
0.0
0.0
0.0
0.0
0.0
0.0
0.0
0.0
0.0
0.0
0.0
0.0
0.0
0.0
0.0
0.0
0.0
0.0
0.0
0.0
-0.01230657071758212 
0.005617631686784565 
0.02807484501076896 
0.02334036107337573 
0.04871489389298157 
0.01625500398970951 
0.0264154531595709 
0.02098095977456327 
-0.001770416748957753 
-0.02513292053403026 
-0.0197696890623761 
-0.01239639735372998 
-0.02922348548652229 
-0.003759469679715456 
-0.009562409178440234 
-0.03721453656744315 
-0.02365972434577725 
0.001642824437855393 
0.06409402186914878 
0.07713480605455467 
0.04296623816243331 
0.04927797902574368 
0.09283753219264676 
0.03897038168322272 
0.04275023860179527 
0.04176097319029037 
0.03547878930800735 
-0.01500970540293675 
-0.009094838001365738 
-0.01892346347296667 
-0.01142706604485764 
0.01312753818372686 
-0.004249581464090437 
-0.03291970621740917 
-0.009540119308749926 
-0.001274668899773618 
0.0
0.0
0.0
0.0
0.0
0.0
0.0
0.0
0.0
0.0
0.0
0.0
0.0
0.0
0.0
0.0
0.0
0.0
0.0
0.0
0.0
0.0
0.0
0.0
0.0
0.0
0.0
0.0
0.02230729388491427 
0.0345964867820602 
0.004091346512769864 
0.03113536631195881 
0.09474561539284233 
0.05080905675452659 
0.04826576315255129 
0.01396175004864198 
0.01820636809475724 
-0.04540681112958699 
-0.03408765144765569 
-0.01734117453186983 
-0.01698201079539464 
0.00300497262888074 
0.008172869167931949 
-0.008258578027331908 
-0.02813149484124084 
-0.03643459526252931 
0.02814188105369609 
0.03454683827230273 
0.04046597317530049 
0.08046125117520858 
0.122898986582959 
0.0132944781052339 
0.03777334772116111 
0.02475505881003921 
0.02973313761890862 
-0.02114466104421717 
-0.02313652067171291 
-0.003516365389650276 
0.01617780549279746 
-0.01800983371134094 
-0.04716597802614116 
-0.02789674549773513 
-0.04499351674108256 
-0.03661837115061887 
0.0
0.0
0.0
0.0
0.0
0.0
0.0
0.0
0.0
0.0
0.0
0.0
0.0
0.0
0.0
0.0
0.0
0.0
0.0
0.0
0.0
0.0
0.0
0.0
0.0
0.0
0.0
0.0
0.04252855538907752 
0.05183637000863175 
0.03875914365890453 
0.06326498064104985 
0.09673722777634052 
-0.01233857561944843 
0.03149657846670203 
0.0554311389972971 
0.05076361837505383 
0.005836656217303973 
-0.01981172754613126 
-0.03367769507251768 
-0.002219652183738143 
0.01711251679975134 
-0.04306223527841859 
-0.02898624516223177 
-0.002796088745094762 
0.006253513222650967 
0.006293015761418745 
0.03039103149296889 
0.04347640406079884 
0.04085767345467797 
0.04784809372132173 
-0.008390829758022718 
0.02379479042135574 
0.01343282658777219 
0.003021187936646476 
-0.01173719232937807 
-0.02322455768999975 
-0.04397938716324486 
-0.00211063981683797 
-0.03439949631259772 
-0.0464033886022628 
-0.02976458309891378 
-0.02321783522262224 
-0.03286275485578042 
0.0
0.0
0.0
0.0
0.0
0.0
0.0
0.0
0.0
0.0
0.0
0.0
0.0
0.0
0.0
0.0
0.0
0.0
0.0
0.0
0.0
0.0
0.0
0.0
0.0
0.0
0.0
0.0
0.01116520191671421 
0.007237344443276359 
0.0425583812826657 
0.03234626629937507 
0.03261156209426682 
0.006529575029050302 
0.03297763698011612 
0.008290796486597616 
0.0230850052860252 
-0.01807128222694231 
-0.01409561856937704 
-0.01047804999860099 
0.005511933943511562 
-0.01153106470208196 
-0.01774963777525134 
-0.002853463620207829 
-0.02071329885845101 
-0.04735346567037121 
0.02572104314179977 
0.00593720558191045 
0.006577946489726009 
0.01407060031232653 
-0.0005112362651211068 
-0.003054603431212955 
0.01506667946707427 
-0.001951975057724476 
0.003575691949504143 
0.01025843357342431 
-0.009765195534589509 
-0.01213799327786131 
-0.009344237327921143 
-0.01199519498300529 
0.01029975725178353 
0.01108510112162889 
0.01210707670822202 
-0.03345307939576406 
0.0
0.0
0.0
0.0
0.0
0.0
0.0
0.0
0.0
0.0
0.0
0.0
0.0
0.0
0.0
0.0
0.0
0.0
0.0
0.0
0.0
0.0
0.0
0.0
0.0
0.0
0.0
0.0
0.02316585012607572 
0.006459748964181481 
-0.01116651330620968 
-0.0006758707527252113 
-1.345427827927529e-005 
-0.02102079049100577 
0.009044274847498993 
0.02679653584371432 
-0.01886206030692823 
0.02743314967682271 
-0.004317749671530306 
-0.01057512950025026 
-0.009173400056497891 
0.03545657246090151 
0.009582259864299095 
-0.007461756880679822 
0.003970534467438496 
-0.0124911425931313 
0.01156608054682297 
0.004444983521948596 
-0.02852752611108975 
-0.01015683043372788 
0.002745889221470462 
-0.00284462226201287 
0.043814702720943 
0.03388019170112074 
-0.0007742656356726405 
0.007070319621973095 
-0.04447459477275392 
-0.02954234286496543 
-0.02256861060338303 
0.03497156342829437 
-0.004855402933254471 
0.007957121153875592 
0.009241721733526033 
0.005315348991387883 
0.0
0.0
0.0
0.0
0.0
0.0
0.0
0.0
0.0
0.0
0.0
0.0
0.0
0.0
0.0
0.0
0.0
0.0
0.0
0.0
0.0
0.0
0.0
0.0
0.0
0.0
0.0
0.0
0.0181751044040147 
0.007394850235443047 
-0.007930836695418279 
-0.0006764427984926493 
-0.005102101442567396 
0.03295565894629449 
0.004623950934023173 
-0.0004101765005786493 
0.04763421822522504 
0.03546499888499873 
0.009289404819731726 
-0.005272716398504007 
-0.009902088476376922 
-0.01982461766251698 
0.01926053948545705 
-0.00836173195280359 
-0.01042156699994449 
0.03938597091819338 
-0.01530063501411137 
-0.007747706937454221 
0.01454123395987696 
0.02488187809953762 
-0.04399184158019261 
0.006821058838613219 
0.005611738976658985 
-0.01119596090441649 
0.003694455705564086 
-0.007206152106740326 
-0.005320699057148529 
-0.01410525294879456 
0.002251047923562242 
-0.03993351525764493 
-0.003262923948659063 
-0.01401036681939272 
-0.04804626925916334 
-0.01837298644414247 
0.0
0.0
0.0
0.0
0.0
0.0
0.0
0.0
0.0
0.0
0.0
0.0
0.0
0.0
0.0
0.0
0.0
0.0
0.0
0.0
0.0
0.0
0.0
0.0
0.0
0.0
0.0
0.0
-0.01071098472295207 
0.006496663429454391 
0.00964269237947267 
0.02591431620188725 
-0.03247794696102736 
0.01521216219819481 
0.01088046083935239 
0.009637801036590933 
0.03683217880544141 
-0.001761738134049565 
-0.04006790704010621 
-0.01188818398027306 
0.0259223614595371 
-0.01409874877773749 
-0.001026151320066241 
-0.009677218204278793 
-0.03869966012739434 
-0.004731687484308031 
0.008598536326478008 
0.005447019772763875 
0.01006955618359651 
-0.007755075568340326 
-0.005760179236809307 
0.01330695106734618 
-0.02658121980655915 
0.008426438669513285 
0.05206051713916596 
-0.002775836874840703 
-0.04877589647174876 
-0.03584677219708072 
0.01854081890925764 
0.01741832837241489 
0.02982144774277344 
-0.0008951811021571442 
-0.02308842611454557 
0.01420451393569931 
0.0
0.0
0.0
0.0
0.0
0.0
0.0
0.0
0.0
0.0
0.0
0.0
0.0
0.0
0.0
0.0
0.0
0.0
0.0
0.0
0.0
0.0
0.0
0.0
0.0
0.0
0.0
0.0
-0.01290020440251937 
0.007567748862316058 
0.008766795669645359 
0.003812523408934066 
0.008701599419511227 
0.03076720502060493 
-0.01521994841675703 
0.006218030054406064 
0.02083601247721778 
-0.02805907903798401 
-0.04775275195051344 
-0.02449467169078893 
0.02454374167301106 
0.006676138988168095 
0.02857403866802971 
-0.00358024190474578 
-0.01517358161550136 
-0.01946640926068137 
-0.0292098787180509 
-0.01415191360318802 
-0.007527791668123196 
0.0186936953628162 
0.01107490340409204 
0.04159376769629841 
0.007950690137483802 
0.043550699319088 
0.01297158292936628 
-0.0337889245920279 
-0.03437321980846438 
0.01097560406811175 
0.03490318936585982 
-0.01714812639431912 
0.04263090519680347 
0.008248173163891766 
0.02317729210174744 
-0.01661244508467099 
0.0
0.0
0.0
0.0
0.0
0.0
0.0
0.0
0.0
0.0
0.0
0.0
0.0
0.0
0.0
0.0
0.0
0.0
0.0
0.0
0.0
0.0
0.0
0.0
0.0
0.0
0.0
0.0
-0.02452961487114182 
-0.01678129414477045 
0.0005898056551371907 
0.004451235470193662 
0.01125190445022655 
0.03495558430410031 
0.009038494848912955 
0.001895450228984573 
2.693341977306075e-005 
0.01046408486572133 
-0.004991912356283105 
-0.0004249936594548401 
0.006207256567984569 
-0.002475813454668452 
0.01889329834515325 
-0.003622547766895323 
0.005013417588936435 
0.01221443686869217 
-0.00672051170352144 
0.01442065996626974 
0.01155979798465712 
0.03070045675669452 
-0.01104321692392293 
0.0003964530827753715 
-0.01140351483628324 
-0.02976340470798466 
-0.005802666163134131 
0.03654136067571921 
0.03646786194539861 
0.01833118660126787 
0.04175906910024775 
0.006703955905309144 
0.01940775937534616 
-0.02161792108908299 
-0.03492907896614378 
0.02307821558948687 
0.0
0.0
0.0
0.0
0.0
0.0
0.0
0.0
0.0
0.0
0.0
0.0
0.0
0.0
0.0
0.0
0.0
0.0
0.0
0.0
0.0
0.0
0.0
0.0
0.0
0.0
0.0
0.0
-0.001298033033465325 
0.01684821762378155 
-0.01141781592848718 
0.01305895119742283 
0.01120207901849186 
0.00541178854331596 
-0.005176855017366696 
0.003730091082921765 
0.01052219818891458 
-0.008759152785905352 
0.02136606274130625 
0.03094583677507894 
0.05236191280034686 
0.009813774069599757 
0.01730892107345836 
-0.01420817341108224 
-0.03233576297205098 
-0.0157270423113101 
0.01210159624305692 
0.004320506061129578 
-0.03036022500148218 
0.01655494411398419 
0.004176236709748071 
0.008228165251971873 
0.01175256989281969 
0.0164087366686212 
0.01023945105559365 
-0.008951285972122769 
-0.02595980750561656 
0.02472755288491972 
0.0713565816509882 
0.03113523804404307 
0.03603446948910206 
-0.01726709950626655 
-0.03159263153535038 
-0.0164925004854611 
0.0
0.0
0.0
0.0
0.0
0.0
0.0
0.0
0.0
0.0
0.0
0.0
0.0
0.0
0.0
0.0
0.0
0.0
0.0
0.0
0.0
0.0
0.0
0.0
0.0
0.0
0.0
0.0
0.02609001745852597 
0.009951346766353409 
-0.01924086567780261 
0.02346059038430226 
-0.002689355541661841 
0.0006120376792553738 
-0.00180332307640257 
-0.002890329530291139 
-0.002978756997688149 
0.01392237726697875 
-0.02387099456067716 
-0.008109290413587636 
0.04012428293528167 
-0.001794541303192176 
0.01222878065564556 
-0.01043433375624867 
-0.02088109170478014 
0.0004682619912579856 
0.04760968252678401 
0.005753055514528004 
0.00885732696292672 
0.0328146149537639 
-0.01766254448565064 
0.03167781105293461 
0.007389152904573347 
0.02069503594014456 
-0.01445877986089972 
0.04286179538063633 
-0.007587148842492804 
-0.01466518789376411 
0.001010268164262723 
-0.03782952592444267 
0.02332506108408223 
-0.01180219263343416 
-0.01289304976230525 
0.01235787475001388 
0.0
0.0
0.0
0.0
0.0
0.0
0.0
0.0
0.0
0.0
0.0
0.0
0.0
0.0
0.0
0.0
0.0
0.0
0.0
0.0
0.0
0.0
0.0
0.0
0.0
0.0
0.0
0.0
0.0317486155047273 
-0.0001660253608036389 
0.007274309286348641 
0.009578783990052775 
-0.007213545563646722 
0.008841506851747633 
0.003902173600316022 
0.006414618753783334 
-0.0147954755196204 
0.01835202972003232 
-0.00501786465436103 
-0.00560866291390969 
0.008259291942613815 
-0.02788310011940445 
0.01445963289192472 
-0.00493628992795024 
-0.002358974664549803 
-0.01576583892815331 
0.05474438529052793 
-0.02165868926495192 
-0.01898044395991647 
-0.008262165044894049 
0.007749838696373188 
-0.009195388030762326 
-0.01185945528239856 
0.01014163406163935 
